19.3,652.766915318,65.1936371811,-46.5977273881,-84.9974855781,502.25981744,250.368985627,208.558763471,552.617387287,-196.484668367,-150.984526239
20.32,634.587457145,49.5661753015,-77.7916420169,-136.474451007,480.196732192,250.368985627,208.621478662,527.576005075,-238.143852928,-157.204885054
21.34,609.525205137,22.7414795501,-108.563233618,-196.740554131,425.521144245,250.368985627,208.621478442,527.554819949,-265.97055767,-179.428792282
22.36,572.997844767,-21.1301538388,-147.615510353,-349.865754714,269.19848013,250.368985627,208.621478442,527.554819949,-319.278377793,-268.011925538
23.38,566.720953665,-25.6064275717,-158.819940319,-362.000595928,265.820227515,250.368985627,208.621478442,517.605193764,-327.35251732,-268.502368695
24.4,565.434896255,-27.5290567554,-168.400353791,-370.556216362,262.152919872,250.368985627,208.621478442,510.395011699,-331.586406836,-268.502368695
25.42,639.692210818,54.1398473507,-126.947263562,-334.89625093,291.821061794,256.030782657,219.701962319,510.736913757,-331.586406646,-257.50170067
26.44,710.928004103,125.036510285,-114.739881644,-307.951205568,328.281326989,268.651011235,263.316738211,510.736913757,-331.586406646,-250.930112253
27.46,767.418020046,252.326746203,-77.8357235727,-273.685895347,356.513805908,283.649245905,311.711349344,510.736913757,-331.586406646,-250.930112148
28.48,820.30505632,445.718939974,-10.731191654,-232.834709502,387.839541029,283.658366871,353.335956243,510.741562595,-331.586406646,-250.930112148
29.5,820.519407539,466.510038027,-2.03902499334,-243.508780775,387.910374487,283.658366871,361.780792573,499.858825429,-346.204008148,-250.930112148
30.52,800.582562558,450.65788504,-29.1057906553,-286.278579201,369.154099426,283.658366871,361.780792129,489.799958932,-376.57735746,-260.758391498
31.54,777.46958148,436.2352332,-66.3684620812,-348.379211407,354.793926402,283.658366871,361.780792129,489.43648295,-377.414322765,-260.758393895
32.54,774.414014013,433.98641867,-80.2697407517,-362.616962009,350.036903815,283.658366871,361.780792129,483.528385221,-378.963852477,-260.758393895
33.54,743.489866351,406.484767363,-115.383765318,-408.21854334,330.064355623,283.658366871,361.780792129,471.723616104,-407.338102603,-263.333395502
34.54,740.414985717,404.8178588,-122.157646818,-412.362422046,328.390256222,283.658366871,361.780792129,469.806046883,-407.822110934,-263.2526827
35.54,730.820194845,397.801257276,-139.776346755,-424.788150521,327.117964421,283.658366871,361.780792129,459.50800665,-415.838420529,-263.252682701
36.54,719.053431937,390.212714725,-160.165324966,-450.188165117,319.23562915,283.658366871,361.780792129,443.66823375,-439.553954699,-263.252682701
37.54,700.467242188,373.431397565,-187.670046376,-475.235250975,313.354466744,283.658366871,361.780792129,441.205274405,-440.280186818,-263.252682701
38.54,704.91202014,388.378701853,-171.818649494,-472.071679013,318.121178783,283.658366871,363.226041697,445.063369746,-440.280221482,-263.252682701
39.54,700.702981222,386.843916973,-175.078988026,-477.988562087,313.568310657,283.658366871,363.282347192,442.256207127,-440.537007985,-263.252682701
40.54,702.664176743,391.963905436,-163.382392108,-474.987949438,314.920890879,283.658366871,363.599051861,446.27731803,-440.537029514,-263.252682701
41.54,703.345098842,397.631910638,-155.492670228,-470.939220434,319.923075128,283.658366871,366.953263666,448.601189641,-440.537029514,-263.252682701
42.54,716.080895471,426.772640488,-134.453196851,-460.721419758,335.968932329,283.901940373,396.308808934,456.684965563,-440.537029514,-263.252682701
43.54,723.844960128,446.770236419,-108.303076803,-450.570799042,348.350071294,283.901941305,401.460473741,461.026783058,-440.537029514,-263.252682701
44.54,719.149324595,443.521268011,-118.95216686,-457.12606057,348.371551758,283.901941305,401.47212351,460.127204017,-440.669514914,-263.252682701
45.54,701.639424323,429.744271733,-142.141016402,-477.377479634,336.774948373,283.901941305,401.472303969,444.852104793,-451.285043499,-263.252682701
46.54,693.074895198,422.687549686,-151.962428637,-487.001567272,335.906933006,283.901941305,401.472303969,443.085848134,-457.807335292,-263.252682701
47.54,689.274102225,419.679334811,-158.496350041,-490.591000297,334.688940851,283.901941305,401.472303969,440.445090894,-457.836395039,-263.252682701
48.54,676.395584034,411.406639618,-176.123576496,-505.913534734,331.461861639,283.901941305,401.472303969,420.887056788,-477.381303526,-263.252682701
49.54,670.033444895,405.349883735,-190.495919373,-517.692284843,326.774285751,283.901941305,401.472303969,410.72024368,-483.550911248,-263.252682701
50.54,663.63870341,405.931252254,-193.036726558,-523.538773948,326.019965775,283.901941305,401.511841403,411.516179129,-483.550911258,-263.252682701
51.54,662.973204049,409.003034542,-188.982780338,-524.554094899,325.250460967,283.901941305,401.842942425,412.006853435,-483.625709322,-263.252682701
52.54,664.570630908,417.005004615,-169.457179049,-523.690343054,324.390538557,283.901941305,402.644856509,417.361939734,-483.696865665,-263.252682701
53.54,677.17799404,452.496191239,-115.03629272,-500.649544466,346.390034893,283.901941305,418.78109971,427.278327493,-483.696865664,-263.252682701
54.54,680.220868978,476.711042525,-88.2830222144,-488.170422436,364.730977998,283.901941305,440.097320636,440.485200218,-483.696865664,-263.252682701
55.54,684.378999934,484.492299156,-82.4660637218,-487.294149356,367.217872524,283.901941305,446.115612193,445.914100264,-483.696865664,-263.252682701
56.54,683.696446653,483.822088403,-83.5463497143,-488.000391674,366.906377311,283.901941305,446.11561216,445.844376465,-483.696865664,-263.252682701
57.54,682.972046321,483.870512437,-86.9658082616,-490.464767245,365.220215337,283.901941305,446.11561216,443.129664613,-484.087584838,-263.252682701
58.54,661.18510505,465.432105103,-110.587493054,-513.303090471,354.745303495,283.901941305,446.11561216,433.421254928,-495.432775645,-263.252682701
59.54,656.185325747,461.399348363,-120.462788114,-518.491462895,352.587598971,283.901941305,446.11561216,429.270003267,-495.735683327,-263.252682701
60.54,650.120276433,457.219259801,-131.410196182,-524.490404232,351.911238826,283.901941305,446.11561216,420.544247004,-499.33423669,-263.252682701
61.54,644.258339769,453.371311643,-145.536907706,-539.831692688,347.091724685,283.901941305,446.11561216,402.115066372,-514.916271099,-263.252682701
62.54,634.458538264,445.112504207,-158.977929883,-550.832451023,341.907460488,283.901941305,446.11561216,400.001880456,-515.025282932,-263.252682701
63.54,634.035129438,448.523550004,-154.928276829,-549.684342261,343.522932357,283.901941305,446.11561216,400.309826867,-515.027982253,-263.252682701
64.56,631.831344152,448.708008881,-151.987883944,-549.841151716,342.581007673,283.901941305,446.431136784,400.666124745,-515.343522864,-263.252682701
65.58,639.642655986,476.860392014,-106.792933946,-540.323285396,348.698140761,283.901941305,452.583021392,407.660925581,-515.34352162,-263.252682701
66.6,642.258464113,488.437007641,-89.9583890209,-532.14363098,359.202624602,283.901941305,456.207137307,411.896200551,-515.34352162,-263.252682701
67.62,650.429567497,504.09401608,-74.1218311968,-526.524513478,368.844360991,283.901941305,469.156824688,422.222823513,-515.34352162,-263.252682701
68.64,651.712509679,506.313477722,-69.0174963281,-524.199435073,371.86795184,283.901941305,469.168173859,422.834066636,-515.34352162,-263.252682701
69.66,651.062631168,506.874386479,-68.5621138439,-524.061051804,372.264595531,283.901941305,469.168173859,423.456797135,-515.34352162,-263.252682701
70.68,637.71326379,496.634326436,-82.0802827235,-537.776948882,364.614826122,283.901941305,469.331958975,416.163665224,-520.004150761,-263.252682701
71.7,634.091727598,491.939983323,-93.1508477004,-543.401968364,362.674635576,283.901941305,469.331958975,412.089695465,-521.583817785,-263.252682701
72.72,624.988329991,484.261238705,-111.639867105,-555.156823631,359.886593774,283.901941305,469.331958975,403.200642654,-522.800986771,-263.252682701
73.74,616.619812416,478.706746999,-126.339777402,-568.455686202,355.917335877,283.901941305,469.331958975,386.868184786,-536.010723288,-263.252682701
74.76,607.09163636,470.502139701,-139.577189153,-577.199045644,352.206463061,283.901941305,469.331958975,383.086728391,-536.074052222,-263.252682701
75.78,603.072880402,469.994488649,-140.516826637,-580.970878231,351.623738132,283.901941305,469.331958975,383.997181522,-536.075670294,-263.252682701
76.8,600.361827743,467.803453534,-143.414468537,-582.059572344,350.127319177,283.901941305,469.34972337,381.312100225,-536.362706449,-263.252682701
77.82,605.716221483,490.212645771,-103.853937048,-575.640720044,351.751170524,283.901941305,473.594547953,389.605357662,-536.362676315,-263.252682701
78.84,610.059787207,502.183466908,-84.8889258669,-567.560886517,361.146364991,283.901941305,476.62091185,393.196832979,-536.362676315,-263.252682701
79.86,612.60469977,508.515217759,-76.939650928,-563.593811373,368.307913359,283.901941305,480.633713927,399.461462768,-536.362676315,-263.252682701
80.88,612.657540032,509.523076768,-73.1708080481,-561.880351301,371.181556836,283.901941305,480.586413673,399.876122874,-536.418509422,-263.252682701
81.9,612.549293893,511.044464925,-71.9535133749,-561.706083525,372.844697517,283.901941305,480.604768069,400.339475211,-536.418509412,-263.252682701
82.92,606.751286032,508.666639211,-74.6045969696,-566.341255829,368.980276111,283.901941305,480.721843059,396.227381653,-538.404662402,-263.252682701
83.94,595.938024505,498.085994802,-88.0694690856,-576.823706946,365.731872308,283.901941305,480.721843054,391.893306931,-543.209834762,-263.252682701
84.96,591.590602416,493.783297539,-97.3812291246,-581.357604968,363.414751157,283.901941305,480.721843054,388.779659204,-543.439964622,-263.252682701
85.98,583.135991522,488.117323755,-108.093782513,-588.30472875,361.284846053,283.901941305,480.721843054,375.75957942,-548.893520468,-263.252682701
87.0,578.573489368,484.330299367,-116.361396527,-595.301606656,357.878731338,283.901941305,480.721843054,369.089401622,-551.53031704,-263.252682701
88.02,571.289776092,483.610245244,-119.785958801,-600.854770775,356.56747732,283.901941305,480.731340091,369.733225811,-551.537063412,-263.252682701
89.04,571.006830454,485.244364885,-117.590163484,-600.866577179,356.451006621,283.901941305,480.789729913,369.708115786,-551.551659924,-263.252682701
90.06,574.934331677,501.802363484,-83.9262317266,-594.149005622,359.122084734,283.901941305,484.47976605,380.045788943,-551.551667289,-263.252682701
91.08,578.859518768,514.308204334,-62.6326434851,-585.949319937,367.991098373,283.901941305,486.27209325,384.308353284,-551.551667289,-263.252682701
92.1,580.323481576,519.84089863,-54.3414219045,-582.240785459,373.979533132,283.901941305,490.024485484,389.167497313,-551.551667289,-263.252682701
93.12,581.007111447,521.203268323,-51.7641326977,-581.66989147,375.431835917,283.901941305,491.057000281,389.892529303,-551.659441383,-263.252682701
94.14,583.320592149,527.649056367,-41.2797712626,-577.972039844,381.839910028,283.901941305,491.057000281,390.435715659,-551.659441289,-263.252682701
95.16,582.59809185,528.072169391,-40.8040512858,-578.786073993,380.916335925,283.901941305,491.057000281,389.872589122,-551.820678307,-263.252682701
96.18,569.06099011,515.013514713,-56.9874821866,-592.675786244,373.827123073,283.901941305,491.057000281,384.026421829,-556.093032634,-263.252682701
97.2,566.657709776,512.721571005,-63.0787826796,-595.961906493,372.113907164,283.901941305,491.057000281,381.998574392,-556.259132973,-263.252682701
98.22,562.814432962,509.883028156,-69.3045971014,-598.918515975,371.424685168,283.901941305,491.057000281,376.597930322,-557.485602862,-263.252682701
99.24,559.95970773,508.54478372,-72.959409425,-602.592672727,369.667425702,283.901941305,491.160232968,372.460372324,-560.567603085,-263.252682701
100.26,549.11254425,501.373182357,-85.0474160671,-613.868413706,364.342346883,283.901941305,491.160225886,371.506524297,-560.605419776,-263.252682701
101.28,548.140323519,502.536530969,-83.3965983609,-613.500585113,364.685858224,283.901941305,491.160225886,370.67414072,-560.624974092,-263.252682701
102.3,551.891546848,515.749806477,-54.5547490926,-605.837091812,370.046000762,283.901941305,495.104387301,382.873067194,-560.612265067,-263.252682701
103.32,555.20067838,527.054007518,-35.2664916024,-601.028050606,374.713960564,283.901941305,496.187987136,386.078005809,-560.612265067,-263.252682701
104.34,555.480682006,530.633420502,-28.0472021977,-598.163988823,378.824317369,283.901941305,497.484202916,389.646344294,-560.612265067,-263.252682701
105.36,555.704436235,531.61184027,-26.8609469305,-598.329234784,380.285046171,283.901941305,499.183310618,391.643906254,-560.766646093,-263.252682701
106.38,557.045785831,534.198475935,-20.8415338703,-596.131059859,383.9129257,283.901941305,499.183310622,392.537295527,-560.766644541,-263.252682701
107.4,557.26037723,535.216930217,-18.9468690927,-595.566235311,383.935964882,283.901941305,499.183310622,392.357971427,-560.766644541,-263.252682701
108.42,541.835072148,520.611479908,-37.3911723453,-610.87329542,375.174235555,283.901941305,499.183310622,383.960393979,-566.358277843,-263.252682701
109.44,538.600463507,517.884859338,-45.2024043394,-614.130822871,373.58399683,283.901941305,499.183310622,381.145178949,-566.643944487,-263.252682701
110.46,535.259063461,515.237334405,-51.6005532017,-617.103387069,372.757990748,283.901941305,499.183310622,376.411833534,-567.439126811,-263.252682701
111.48,531.663649577,513.383781877,-58.2492992926,-623.221030565,370.479126782,283.901941305,499.183310622,366.238291572,-573.185220323,-263.252682701
112.5,522.191475824,505.363645915,-71.0720483789,-632.7632732,365.070821431,283.901941305,499.183310622,364.547295321,-573.185229905,-263.252682701
113.52,521.991387777,509.392952171,-65.2979835391,-630.886510632,366.842494507,283.901941305,499.183310622,365.213119233,-573.185229905,-263.252682701
114.54,523.15025853,512.833984421,-55.1714936815,-626.490529013,371.155482526,283.901941305,500.619455623,371.419531212,-573.176959461,-263.252682701
115.56,526.145041746,524.943914464,-32.6703278404,-620.081465665,374.912392719,283.901941305,502.893986551,376.73335936,-573.176959461,-263.252682701
116.58,527.880377032,534.042873685,-18.4888891214,-613.624541323,382.713209745,283.901941305,505.365674426,381.688906305,-573.176959461,-263.252682701
117.6,530.923295488,542.165608478,-11.1503575563,-610.254681166,388.783528461,283.901941305,510.589700356,387.258747964,-573.176959461,-263.252682701
118.62,532.939782451,545.844680387,-2.73196768336,-606.873551978,393.44357285,283.901941305,510.589630814,388.901035633,-573.176959461,-263.252682701
119.64,533.243297445,547.239795913,0.269236652555,-605.896771135,393.856463371,283.901941305,510.652788699,389.880516975,-573.176959461,-263.252682701
120.66,521.745171333,538.744010893,-10.5717455873,-614.925086525,387.837527004,283.901941305,510.686085051,384.125911768,-577.161830204,-263.252682701
121.68,517.964056949,532.841855876,-19.4350301284,-621.001842027,385.986978804,283.901941305,510.686085051,381.809307075,-579.223443449,-263.242210964
122.7,514.364398373,529.892829455,-27.7960648079,-624.367212933,385.035055889,283.901941305,510.686085051,377.603781103,-579.345755658,-263.242210974
123.72,509.062941327,527.038624154,-35.8928125025,-629.98109677,382.539563687,283.901941305,510.686085051,369.169551846,-582.855292153,-263.242210974
124.74,502.141214955,521.882966647,-45.3517377604,-636.06192133,379.292359992,283.901941305,510.676226278,366.611096704,-582.863519573,-263.242210974
125.76,500.505426391,528.716637543,-38.2691695061,-635.884434563,381.123679557,283.901941305,510.879370103,368.161604772,-582.863519573,-263.242210974
126.78,500.926841457,529.253089685,-36.7389566914,-635.263477581,381.862339141,283.901941305,510.918156468,369.044709196,-582.862223045,-263.242210974
127.8,504.039099209,542.900586805,-10.9854322652,-629.684535969,383.964056933,283.901941305,513.796632931,376.971411833,-582.862222731,-263.242210974
128.8,505.992044896,547.73091588,-2.30196843558,-625.694967205,388.541978824,283.901941305,514.041702137,379.468967362,-582.862222731,-263.242210974
129.8,505.473681312,547.817076197,-1.67331271426,-625.180782916,389.639539962,283.901941305,514.148130137,379.940176367,-583.034517639,-263.242210974
130.8,505.172540939,547.982943855,0.311941673393,-624.698637801,391.475020921,283.901941305,514.14750742,379.652153554,-583.310768568,-263.242210974
131.8,504.850930306,549.285673369,1.38776868884,-624.608454224,393.675722803,283.901941305,514.14750742,379.752715044,-583.310768565,-263.242210974
132.8,503.158649283,548.847536099,0.563743066702,-626.178392555,391.827018594,283.901941305,514.133076314,378.17606013,-583.634725768,-263.242210974
133.8,491.804069645,538.727872951,-13.3644821569,-635.828242521,387.545696488,283.901941305,514.133033543,373.500369714,-587.09914327,-263.242210974
134.8,487.661834643,534.832984264,-22.6189383112,-639.982236587,385.426749872,283.901941305,514.133033543,369.981160318,-587.361915952,-263.242210974
135.8,483.8403936,532.283181795,-27.9218888381,-642.637044555,384.569654793,283.901941305,514.133033543,364.534136064,-588.448005295,-263.242210974
136.8,482.473368386,531.368168139,-30.3004715362,-644.697911921,383.233227949,283.901941305,514.133033543,362.247964281,-589.031276543,-263.242210974
137.8,475.944806539,531.38411874,-34.6669887135,-648.67941036,382.263115824,283.901941305,514.188604394,361.769887066,-589.031276557,-263.242210974
138.8,475.761666119,534.296876938,-31.0923907849,-648.096737855,383.050850767,283.901941305,514.257730727,362.031551299,-589.031276557,-263.242210974
139.8,477.855471773,539.084391381,-16.2594786674,-643.540840094,385.722457046,283.901941305,515.132242959,368.694635156,-589.031107341,-263.242210974
140.8,480.27233269,544.802941796,-7.35201522608,-639.862107239,389.455647493,283.901941305,515.532100878,371.461968995,-589.031107341,-263.242210974
141.8,480.423819962,546.287487861,-3.93987830898,-638.153540743,391.962305266,283.901941305,515.791652639,373.209479306,-589.031107341,-263.242210974
142.8,481.293227457,548.639142378,-1.6787787613,-637.560416793,394.108365204,283.901941305,517.160004433,375.604862596,-589.137063331,-263.242210974
143.8,484.834825942,555.528812232,11.0908826129,-632.10296609,401.294469673,283.901941305,517.160004472,377.452141448,-589.13693789,-263.242210974
144.8,484.177568413,556.64948463,12.1660168897,-632.367515139,401.414227434,283.901941305,517.160208221,378.571778333,-589.13693789,-263.242210974
145.8,471.335147557,545.608578535,-3.07307772015,-644.46918532,394.703104157,283.901941305,517.15953427,371.697799472,-593.423861828,-263.242210974
146.8,470.116145621,544.111281605,-7.17698772612,-646.285083721,393.789635652,283.901941305,517.15953427,370.16774292,-593.825080129,-263.242210974
147.8,468.391219991,542.720527093,-11.0313108197,-647.601687906,393.533995763,283.901941305,517.15953427,367.668403995,-593.87275928,-263.242210974
148.8,463.264047855,540.011568698,-20.0674232181,-654.39274432,390.919208063,283.901941305,517.15476258,353.111938074,-599.852401617,-263.242210974
149.8,455.423692988,533.608757501,-29.5279387373,-660.495785301,387.18885825,283.901941305,517.154447665,350.670631282,-599.85245861,-263.242210974
150.8,453.705864226,537.15355783,-25.9259905848,-661.597683645,387.35330878,283.901941305,517.154447665,351.745109861,-599.85245861,-263.242210974
151.8,454.075595648,537.498368094,-24.3056978257,-660.380405211,388.785531069,283.901941305,517.331408325,352.927935145,-599.859532357,-263.242210974
152.8,458.375578029,553.441282781,4.35074661135,-653.428396169,392.060615182,283.901941305,522.49389281,363.642552916,-599.859532184,-263.242210974
153.8,459.843130052,557.761257676,12.2925475628,-649.808293306,396.276623344,283.901941305,522.554860882,366.045698,-599.859532184,-263.242210974
154.8,459.642414645,558.95241299,14.1940302487,-648.798244212,399.052945293,283.901941305,523.271361925,366.708478833,-600.402181324,-263.242210974
155.8,459.685838644,559.419052216,15.4543117177,-648.24812587,400.279162525,283.901941305,523.268715105,365.952498621,-600.730254077,-263.242210974
156.8,458.648003761,559.545589298,14.5780736152,-649.412085789,400.516888116,283.901941305,523.268715105,366.086276734,-600.730254077,-263.242210974
157.8,456.68370507,559.299996469,14.4024497986,-650.968537541,398.492686894,283.901941305,523.287461835,364.576061912,-601.088404657,-263.242210974
158.8,446.850694753,550.708935122,1.70104892069,-659.046565817,394.510192689,283.901941305,523.287461834,359.801452638,-604.237616149,-263.242210974
159.8,445.366666557,550.213046692,-1.0927696028,-659.918144552,394.052035917,283.901941305,523.287461834,358.594407521,-604.237618789,-263.242210974
160.8,440.637277333,547.677216608,-8.88423279617,-663.555066388,393.200038455,283.901941305,523.287461834,349.270416095,-607.202781481,-263.242210974
161.8,438.930505607,546.631651323,-12.4944162427,-666.480407153,391.361306071,283.901941305,523.321873338,345.749892539,-609.02227947,-263.242210974
162.8,432.370774085,544.416010688,-18.7428392534,-670.501180922,389.712435489,283.901941305,523.321873242,345.038851823,-609.041033701,-263.242210974
163.8,432.430660889,546.637266998,-15.2637819595,-669.726729905,390.475004759,283.901941305,523.329202376,345.649376088,-609.041033473,-263.242210974
164.8,436.914289936,560.898152308,13.7862254437,-663.241685133,394.492953336,283.901941305,528.920189543,356.838787731,-609.041033473,-263.242210974
165.8,439.689531966,569.48452965,28.4707652418,-659.784592398,397.610972031,283.901941305,530.655281723,360.47596339,-609.041033473,-263.242210974
166.8,439.77346909,570.533460021,30.527770637,-658.675332862,399.265367173,283.901941305,531.132254731,361.811120944,-609.041033473,-263.242210974
167.8,440.676653107,572.380431109,32.2308524599,-658.07135618,400.616549995,283.901941305,532.603215626,363.700704728,-609.164630863,-263.242210974
168.8,441.448382112,573.769198621,35.5473189394,-656.537210873,402.833005768,283.901941305,532.603215631,364.432483766,-609.164625778,-263.242210974
169.8,440.406365744,573.351386383,34.1180260758,-657.282249721,403.090642041,283.901941305,532.603215631,364.549875097,-609.164625778,-263.242210974
170.8,424.339745446,559.226281901,16.685737495,-669.715787185,394.692914722,283.901941305,532.603215631,355.082263189,-613.715800806,-263.242210974
171.8,423.168653503,558.24506631,12.8183758873,-671.612165062,393.792150164,283.901941305,532.603215631,353.436324303,-614.236352165,-263.242210974
172.8,421.279479366,556.666217177,8.77344981927,-673.087730868,393.611614493,283.901941305,532.603215631,350.933980307,-614.33217917,-263.242210974
173.8,417.973754382,554.904367642,4.57638036824,-675.825527206,392.278163694,283.901941305,532.61703555,345.195567199,-616.345473426,-263.242210974
174.8,413.831326994,551.146964603,-2.8956712272,-679.442242722,390.302425485,283.901941305,532.624813028,343.719255377,-616.34544117,-263.242210974
175.8,413.899057698,552.855918981,-0.134435862571,-678.849001212,391.119829313,283.901941305,532.624813028,344.190748159,-616.34544117,-263.242210974
176.8,414.295421711,553.148781195,0.851811997411,-677.719317047,392.599998065,283.901941305,532.728380195,344.81254176,-616.376255144,-263.242210974
177.8,419.112708006,573.34659097,38.3514180911,-669.820501388,395.519163231,283.901941305,538.624554127,354.996008915,-616.37625514,-263.242210974
178.8,420.445746264,576.602400183,44.3351922563,-666.846325971,399.43138525,283.901941305,538.838520565,356.605801158,-616.37625514,-263.242210974
179.8,420.963270271,578.30397097,47.6792044794,-665.219371566,402.552103535,283.901941305,539.905059722,359.425934355,-616.439927595,-263.242210974
180.8,420.925025214,578.665850106,49.0454644691,-664.730804594,403.65943778,283.901941305,539.89667769,359.438374117,-616.695085306,-263.242210974
181.8,420.429366181,578.893440374,48.8680503342,-665.123408247,403.580450593,283.901941305,539.89667769,359.345582732,-616.695085306,-263.242210974
182.8,417.745350794,577.308670001,45.5676958252,-668.040778014,400.635263525,283.901941305,539.89667769,356.561262683,-617.32579544,-263.242210974
183.8,408.908545147,568.372434667,34.1774350495,-675.754307107,397.238666871,283.901941305,539.89667769,351.801589905,-618.93241673,-263.242210974
184.8,407.717736316,568.551107754,32.9966237625,-676.11630072,397.381345201,283.901941305,539.89667769,350.819374536,-618.932411475,-263.242210974
185.8,403.77446531,566.021881761,26.3664460802,-678.681498593,396.852383069,283.901941305,539.907631341,344.028167692,-620.599420027,-263.242210974
186.8,402.257616192,565.104131174,23.7646724029,-680.519549094,395.699988993,283.901941305,539.920924436,341.492403524,-621.363885307,-263.242210974
187.8,395.851299244,561.541712191,15.5736837011,-685.324791625,393.874340763,283.901941305,539.9209234,340.551368242,-621.363885308,-263.242210974
188.8,395.613476794,561.951332769,16.3683001857,-685.186666624,394.057945423,283.901941305,539.92641584,340.61285355,-621.363885308,-263.242210974
189.8,399.082187909,572.405591125,38.9548580998,-678.083176664,399.116222771,283.901941305,543.658531836,351.020945135,-621.363885308,-263.242210974
190.8,400.089492019,576.844807179,46.0824991141,-676.343659841,400.738912637,283.901941305,544.158156596,352.700975552,-621.363885308,-263.242210974
191.8,400.22129391,577.864932651,48.7349201022,-675.281857217,402.330079188,283.901941305,544.386987402,354.371403749,-621.363885308,-263.242210974
192.8,399.877455971,578.081369476,49.0259344433,-675.229650416,403.109002877,283.901941305,544.696678911,354.664879707,-621.560025332,-263.242210974
193.8,400.234388907,579.284745828,52.2997897024,-674.167662555,404.50759895,283.901941305,544.696678921,355.482047021,-621.559623186,-263.242210974
194.8,400.370901165,579.888543589,53.9718689558,-673.638667391,404.92040664,283.901941305,544.696678921,356.331445299,-621.559623186,-263.242210974
195.8,389.954297285,571.25223461,42.6394271311,-681.097616821,399.406017068,283.901941305,544.696678921,350.489450173,-623.899037776,-263.242210974
196.8,388.747818401,571.690662373,41.0553902615,-682.425115738,399.470869846,283.901941305,544.696678921,349.244855387,-624.267454406,-263.242210974
197.8,387.1380879,570.429740028,38.1286396783,-683.602137943,399.417532832,283.901941305,544.696678921,347.401293039,-624.339897763,-263.242210974
198.8,382.199998392,567.718995637,29.8591697119,-688.638395917,397.421823002,283.901941305,544.697855799,336.170849722,-628.660099156,-263.242210974
199.8,378.041762616,564.125403108,22.3595775207,-692.022728092,395.269851586,283.901941305,544.697778076,334.523664706,-628.6601133,-263.242210974
200.8,377.310051725,564.99945828,23.5100224599,-692.091190131,395.31247735,283.901941305,544.697778076,334.874152242,-628.6601133,-263.242210974
201.8,379.694808686,567.170306521,27.2463578288,-689.819396962,398.278416525,283.901941305,545.050892195,337.210964253,-628.6601133,-263.242210974
202.8,384.330174591,585.653901998,60.7599028771,-682.355947939,401.562199214,283.901941305,551.23568254,345.364931544,-628.6601133,-263.242210974
203.8,385.195040028,588.141060082,65.5678644398,-680.07553585,404.141675045,283.901941305,551.32484318,347.151383971,-628.6601133,-263.242210974
204.8,385.121882281,588.630220963,67.4591233513,-679.394794413,405.4434748,283.901941305,551.675924253,348.856097709,-628.802715499,-263.242210974
205.8,385.178018351,589.125638344,69.1160454957,-678.660474438,406.700454979,283.901941305,551.675308701,348.627858871,-628.893656109,-263.242210974
206.8,383.865716135,588.196225717,66.0289271224,-680.108649415,407.002102207,283.901941305,551.675308701,348.15553823,-628.893656108,-263.242210974
207.8,381.013669488,586.351602336,62.9094577301,-682.613618526,404.470847299,283.901941305,551.675308701,344.605625439,-629.47054139,-263.242210974
208.8,370.588033253,576.508530662,49.2573621379,-690.339127376,400.660594699,283.901941305,551.675308701,338.411446981,-632.709896647,-263.242210974
209.8,367.611683275,573.15836695,39.3654414337,-693.592975284,399.251338536,283.901941305,551.675308701,334.822680371,-632.70990001,-263.242210974
210.8,364.047539614,570.702926261,34.4156684071,-695.195269948,398.669222507,283.901941305,551.675308701,329.833495123,-633.568469537,-263.242210974
211.8,362.693409081,569.996469186,31.3022783235,-698.482547062,397.048156782,283.901941305,551.678278638,324.73205401,-635.523662869,-263.242210974
212.8,358.975199145,567.595419774,24.8460604913,-701.591157697,395.575109155,283.901941305,551.678278627,323.941633928,-635.523662908,-263.242210974
213.8,359.106770705,568.801920024,27.2054301483,-701.175935087,395.998411118,283.901941305,551.678278627,324.430807632,-635.523662908,-263.242210974
214.8,362.997426177,581.720786861,52.4676836678,-693.259303435,400.874323152,283.901941305,556.768964999,335.357853292,-635.523662908,-263.242210974
215.8,365.870853399,591.543025356,67.0831991212,-689.5313266,404.411624438,283.901941305,558.280382445,338.699906791,-635.523662908,-263.242210974
216.8,366.28103172,593.900037877,71.6958549767,-687.448904456,406.976316697,283.901941305,558.865752169,340.868527572,-635.523662908,-263.242210974
217.8,366.703939772,594.967289329,73.6905118762,-687.030431221,408.225319673,283.901941305,559.307006978,342.55314336,-635.705465525,-263.242210974
218.8,367.236196292,595.856089636,76.1290303594,-685.825625752,409.980790273,283.901941305,559.307006982,343.163797259,-635.705460747,-263.242210974
219.8,366.654489032,595.868342427,76.3305139887,-685.89695006,410.328384415,283.901941305,559.307006982,343.699816357,-635.705460747,-263.242210974
220.8,355.925729718,587.029012496,64.2126564917,-692.557215125,405.311074752,283.901941305,559.297440407,337.913335604,-638.066013343,-263.242210974
221.8,354.154756934,584.614236614,57.8310426206,-694.769205397,404.324202397,283.901941305,559.297440407,335.780627803,-638.373504992,-263.242210974
222.8,352.571748523,582.963553367,53.9386575479,-696.261907476,403.953424833,283.901941305,559.297440407,333.715194003,-638.456664586,-263.242210974
223.8,349.559179449,581.066755644,49.4745036317,-698.326774796,403.351771325,283.901941305,559.289808338,327.882418746,-639.616354505,-263.242210974
224.8,343.595556863,575.720891302,41.960678964,-702.163948303,401.47425858,283.901941305,559.289937528,326.711125034,-639.61635035,-263.242210974
225.8,342.369245875,577.817775618,42.657463285,-702.475088597,401.785500532,283.901941305,559.289937528,327.083908808,-639.61635035,-263.242210974
226.8,345.673419431,580.817877287,47.1903692291,-699.530732368,405.485966778,283.901941305,559.918684386,329.914691811,-639.61635035,-263.242210974
227.8,349.79185429,603.081624065,83.3879593645,-691.463757193,409.416085844,283.901941305,568.45180264,339.489493518,-639.61635035,-263.242210974
228.8,350.576381726,605.701162151,88.2893920921,-689.080861899,411.905985326,283.901941305,568.496443603,341.014781669,-639.61635035,-263.242210974
229.8,350.729336617,606.535926247,90.0615177627,-688.145186331,413.390983744,283.901941305,568.716360483,342.789393012,-639.694590675,-263.242210974
230.8,351.287667965,607.806031349,93.8074971984,-686.380434437,415.67115168,283.901941305,568.706455855,343.377089029,-639.762677165,-263.242210974
231.8,351.073418861,607.939779247,93.6906988303,-686.664335406,416.274719455,283.901941305,568.706455855,343.354371922,-639.762677165,-263.242210974
232.8,347.647753571,606.180550492,89.7755209016,-689.592778199,413.303298286,283.901941305,568.706455855,339.98880602,-640.782770782,-263.242210974
233.8,336.796434043,595.274194692,75.090567773,-697.601104403,408.840683121,283.901941305,568.706455855,333.767550344,-644.0856456,-263.242210974
234.8,335.487351986,593.95873489,70.2288789764,-699.112661908,408.074171776,283.901941305,568.706455855,332.124035243,-644.085634057,-263.242210974
235.8,332.345872986,591.795821484,65.8743320878,-700.598333961,407.671619186,283.901941305,568.706455855,328.085065195,-644.76055831,-263.242210974
236.8,331.290192382,590.870119064,63.6316488507,-701.739781841,406.860668726,283.901941305,568.711359996,326.704989571,-644.986722879,-263.242210974
237.8,325.596850451,586.244163762,54.7346803822,-706.497202012,403.977388465,283.901941305,568.711359974,325.791907518,-644.986722879,-263.242210974
238.8,325.609158794,586.66977111,55.6299297511,-706.229553331,404.209840593,283.901941305,568.714307794,325.823155655,-644.986722879,-263.242210974
239.8,328.337050294,595.753677872,74.5909339224,-700.507424259,407.982593341,283.901941305,570.091676079,333.50831188,-644.986722879,-263.242210974
240.8,331.81713779,607.913383504,93.5289001014,-697.077339675,411.215271186,283.901941305,571.51935023,337.579340116,-644.986722879,-263.242210974
241.8,331.914246872,608.648498932,95.1075621492,-696.465549219,412.194693915,283.901941305,571.704343841,338.52309468,-644.986722879,-263.242210974
242.8,331.928999504,608.855830179,95.729754261,-696.286849334,412.594274227,283.901941305,571.879499057,339.246653875,-645.089302006,-263.242210974
243.8,332.700842452,610.001143082,99.0168142036,-694.976993496,414.246518034,283.901941305,571.879499057,339.969597898,-645.089300457,-263.242210974
244.8,332.500900871,610.063395693,99.3473664569,-694.747239936,414.581085807,283.901941305,571.879499057,340.369717476,-645.089300457,-263.242210974
245.8,322.855031964,601.499226591,89.5998405702,-701.411578405,409.153191992,283.901941305,571.879499057,334.918347597,-646.611083351,-263.242210974
246.8,320.968053771,598.556983458,81.6176488599,-704.595309513,407.89117201,283.901941305,571.879499057,331.999223548,-646.876062378,-263.242210974
247.8,319.623010101,597.477638309,78.4122862967,-705.340462319,407.871544285,283.901941305,571.879499057,330.325102162,-646.902111373,-263.242210974
248.8,316.855592473,595.680657928,74.696741408,-707.363309423,407.064794358,283.901941305,571.87733226,326.108896515,-647.960481128,-263.242210974
249.8,311.356344732,590.844492152,65.5892566989,-711.116837984,404.956260802,283.901941305,571.877413413,324.201716411,-647.96047968,-263.242210974
250.8,310.780432998,592.535106733,67.4827644901,-710.808299148,405.796338366,283.901941305,571.877413413,324.362434328,-647.96047968,-263.242210974
251.8,315.034125776,597.055424907,74.6900093153,-706.34832041,411.208695908,283.901941305,573.579245295,329.547783364,-647.96047968,-263.242210974
252.8,319.860104275,614.516075863,104.948615666,-699.160725716,415.456105546,283.901941305,579.523876036,337.86825456,-647.96047968,-263.242210974
253.8,320.501286888,616.110724345,107.69065428,-697.76960056,417.219043179,283.901941305,579.523879197,338.5856908,-647.96047968,-263.242210974
254.8,321.072562623,617.733588141,111.070067555,-696.156001994,419.42425851,283.901941305,580.219718404,341.034250265,-647.977111444,-263.242210974
255.8,321.921802806,619.203476176,115.949027502,-693.926920506,421.837631829,283.901941305,580.21736638,342.07506233,-648.008826282,-263.242210974
256.82,321.296591172,619.379805187,115.348738835,-694.719245865,422.80411756,283.901941305,580.21736638,342.01647052,-648.008826282,-263.242210974
257.84,317.372460741,617.655727346,112.123090026,-697.860397185,419.805332808,283.901941305,580.21736638,339.035588003,-648.625319616,-263.242210974
258.86,307.599252242,607.839191908,98.6441868135,-705.043392017,416.112317715,283.901941305,580.21736638,334.533271568,-652.010890586,-263.242210974
259.88,305.474800901,605.777324238,92.8492805189,-706.890037122,415.144929904,283.901941305,580.21736638,332.565628294,-652.010888869,-263.242210974
260.9,302.336338713,603.744412563,87.7006717532,-708.623128177,414.576105342,283.901941305,580.21736638,327.084600242,-652.828458114,-263.242210974
261.92,301.071654778,602.4722548,85.7298874348,-709.366329814,414.156937959,283.901941305,580.220742915,326.432985692,-652.865286319,-263.242210974
262.94,297.847775413,600.506382241,80.1216280634,-711.917370438,412.681228727,283.901941305,580.220742915,325.845180237,-652.865286319,-263.242210974
263.96,298.951844644,601.526946547,80.780832322,-711.397426363,413.460828512,283.901941305,580.302460715,326.470717957,-652.865286319,-263.242210974
264.98,304.802657248,616.299915554,109.808759305,-701.597157923,420.534188712,283.901941305,586.23324739,337.755427292,-652.865286319,-263.242210974
266.0,305.603149542,618.226790672,113.232454199,-699.590261429,423.01029481,283.901941305,586.271356572,338.844861776,-652.865286319,-263.242210974
267.02,305.737680781,618.759041608,113.76601354,-699.189340261,424.16485243,283.901941305,586.560794485,339.397086955,-652.865286319,-263.242210974
268.04,305.531268431,618.969012982,114.652594774,-698.708975168,424.882440008,283.901941305,586.558867673,339.583985002,-652.954553924,-263.242210974
269.06,306.267565254,620.688942842,119.358127961,-697.251326417,427.30640982,283.901941305,586.558867673,340.305803348,-652.954553922,-263.242210974
270.08,306.283878226,621.350895982,119.525254271,-697.280623893,426.863483509,283.901941305,586.558867673,339.918890307,-652.987017777,-263.242210974
271.1,296.656465009,610.400332765,104.918766874,-706.313833806,421.648925046,283.901941305,586.558867673,333.861050406,-655.07265237,-263.242210974
272.12,294.966463819,608.410569562,99.3136538517,-708.058668624,420.624909451,283.901941305,586.558867673,332.240492028,-655.072138223,-263.242210974
273.14,292.691285308,606.72989601,94.9959205202,-709.184395354,420.401180772,283.901941305,586.558867673,329.614246769,-655.299107135,-263.242210974
274.16,291.63532421,605.735970141,92.4910986912,-710.358025424,419.500470434,283.901941305,586.546863371,326.667478675,-655.766577792,-263.242210974
275.18,287.001858345,602.07750135,84.4756018998,-714.176019786,417.169180069,283.901941305,586.546855776,325.287356034,-655.766577794,-263.242210974
276.2,287.020479368,602.294957891,84.8385846487,-714.088862011,417.255421231,283.901941305,586.55346557,325.332687551,-655.766577794,-263.242210974
277.22,291.823564775,613.885256505,109.018171724,-704.670131097,423.989526024,283.901941305,591.468414904,335.275010494,-655.766577794,-263.242210974
278.24,295.640571609,626.646525833,127.22207889,-701.16573572,426.278564655,283.901941305,594.364786425,338.021104254,-655.766577794,-263.242210974
279.26,295.707444933,627.378471623,128.71202436,-700.30318276,427.464107531,283.901941305,594.42131742,339.017085316,-655.766577794,-263.242210974
280.28,296.318064418,628.980478575,131.575288433,-699.335311216,428.668378699,283.901941305,595.687437266,341.445494705,-655.808675516,-263.242210974
281.3,297.29731331,630.943848653,137.121684015,-697.117404754,431.067419618,283.901941305,595.687437291,342.809290778,-655.808673157,-263.242210974
282.32,296.51257994,630.253009545,135.588453834,-698.031805881,430.777443345,283.901941305,595.687437291,342.128457144,-655.828100394,-263.242210974
283.34,287.339288244,622.166548461,124.265127619,-704.670520341,426.568003783,283.901941305,595.687437291,336.692743496,-657.275550364,-263.242210974
284.36,285.726947495,620.316341618,117.589579534,-707.453676624,425.270691962,283.901941305,595.687437291,334.890744995,-657.534297749,-263.242210974
285.38,283.922539214,618.651872776,113.629135961,-708.894172043,425.056579481,283.901941305,595.687437291,332.980357376,-657.794771493,-263.242210974
286.4,282.754470206,618.060638601,112.215714103,-709.501267909,424.686393401,283.901941305,595.695796058,331.278785365,-658.114950766,-263.242210974
287.42,276.765100832,613.045506086,102.181695522,-714.660425925,421.862615693,283.901941305,595.695556565,329.277131802,-658.114951008,-263.242210974
288.44,277.002370297,613.665887934,103.245180461,-714.273978159,422.080606732,283.901941305,595.695556565,329.514611461,-658.114951008,-263.242210974
289.46,280.921029293,617.689207394,111.492844671,-709.792700053,428.373321401,283.901941305,596.869106651,334.819598465,-658.114951008,-263.242210974
290.48,284.290577546,632.742611953,135.632108817,-703.360493044,430.79100924,283.901941305,601.151510674,340.93208329,-658.114951008,-263.242210974
291.5,284.6680937,634.555866816,138.176808815,-701.780723881,432.574435311,283.901941305,601.254457712,341.714117564,-658.114951008,-263.242210974
292.52,284.488990008,634.658838142,138.610254349,-701.560134465,433.575429435,283.901941305,601.724184476,342.295462416,-658.231190312,-263.242210974
293.54,286.503304766,637.646143697,146.236917771,-698.127795682,436.947836949,283.901941305,601.724183611,343.612244445,-658.236498466,-263.242210974
294.56,285.833088448,636.92890868,145.834475441,-698.716969114,437.102085707,283.901941305,601.724183611,343.31223929,-658.236498466,-263.242210974
295.58,279.785689565,632.447334204,139.828357898,-702.937531291,433.190717339,283.901941305,601.724183611,340.013757894,-659.472184217,-263.242210974
296.6,275.702205487,625.830417884,127.446537743,-708.368707285,431.727672191,283.901941305,601.724183611,336.533085308,-660.985358458,-263.242210974
297.62,272.351043837,622.617791406,118.923623565,-711.417578448,430.223422624,283.901941305,601.724183611,333.878469674,-661.084675494,-263.242210974
298.64,270.225059564,621.27187583,116.044818724,-712.504720143,429.873223693,283.901941305,601.745761568,330.920243049,-661.574649412,-263.242210974
299.66,266.58603311,617.63654999,108.933417292,-715.202575384,428.365580234,283.901941305,601.737827067,328.800255855,-661.574689448,-263.242210974
300.68,265.343988999,616.864524902,106.377971204,-716.882687831,427.852056011,283.901941305,601.737827067,328.700683811,-661.574689448,-263.242210974
301.7,269.086196036,620.307907617,110.648803641,-714.001690867,431.415044649,283.901941305,602.362119741,331.841481022,-661.574689448,-263.242210974
302.72,273.453437738,637.378535885,136.798263482,-705.296381356,437.09191369,283.901941305,609.936126111,341.405202078,-661.574689448,-263.242210974
303.74,274.640827689,640.459604054,143.951143625,-702.376706069,440.306849551,283.901941305,610.054279418,343.419889908,-661.574689448,-263.242210974
304.76,274.214127921,640.478330778,144.723459407,-702.008364879,440.938565186,283.901941305,610.07904079,343.59901001,-661.751404841,-263.242210974
305.78,275.038861227,642.076713829,149.476139758,-699.902246282,443.296821392,283.901941305,610.078222953,344.514045709,-661.89413979,-263.242210974
306.8,274.964915204,642.605990589,150.328887214,-699.904448265,444.086271848,283.901941305,610.078222953,344.758838914,-661.89413979,-263.242210974
307.82,273.185911175,641.324563832,148.565758323,-701.474263326,442.495512285,283.901941305,610.078222953,343.23517221,-662.146485706,-263.242210974
308.84,264.580473378,633.176451617,134.625066318,-708.54288655,438.872218036,283.901941305,610.078222953,338.35312613,-664.216852185,-263.242210974
309.86,262.567877073,631.281039749,129.656532646,-710.442307247,437.900423443,283.901941305,610.078222953,336.677238352,-664.216849498,-263.242210974
310.88,260.022784284,629.516147156,125.701727467,-711.884751449,437.457442026,283.901941305,610.078222953,333.030233726,-664.727821802,-263.242210974
311.9,259.376740761,629.131752674,125.656282245,-711.922783516,437.593506965,283.901941305,610.303708628,333.974739979,-664.773263529,-263.242210974
312.92,254.78342995,625.416807596,118.797710544,-715.71775096,435.14323806,283.901941305,610.303708366,333.338761719,-664.773263529,-263.242210974
313.94,255.34629523,625.446214241,117.917183483,-715.62890768,435.814699647,283.901941305,610.42705482,333.218671421,-664.773263529,-263.242210974
314.96,261.228247425,641.851969193,146.990249173,-706.45546098,443.181177333,283.901941305,617.377957658,342.295221677,-664.773263529,-263.242210974
315.98,261.83866213,643.305723553,149.538869241,-705.587324506,444.512227947,283.901941305,617.44234337,343.194809013,-664.773263529,-263.242210974
317.0,261.99285249,644.066204657,151.183763429,-704.704617916,445.780479083,283.901941305,617.965028912,344.387699618,-664.773263529,-263.242210974
318.02,262.420937187,644.759834162,152.665615991,-704.164469386,446.406929845,283.901941305,618.135867908,345.230158831,-664.812373414,-263.242210974
319.04,263.111582147,645.93662276,155.228326866,-702.744813082,448.533130032,283.901941305,618.135867908,345.662083198,-664.812373413,-263.242210974
320.06,262.700900841,646.103303442,154.54569862,-703.39775578,447.713688643,283.901941305,618.135867908,344.763908138,-664.881485872,-263.242210974
321.08,252.737367657,635.600242679,140.273990525,-711.334158371,442.573732065,283.901941305,618.135867908,338.986087185,-667.117807796,-263.242210974
322.1,250.787063587,633.350249805,134.170856033,-713.272707712,441.293832693,283.901941305,618.135867908,337.322739139,-667.117581121,-263.242210974
323.12,248.606273902,631.588613521,130.165149379,-714.398854703,441.224517664,283.901941305,618.135867908,334.832183322,-667.312870968,-263.242210974
324.14,247.300083776,630.474656525,127.303632418,-715.626567421,440.388310955,283.901941305,618.136500883,332.310564533,-667.794172786,-263.242210974
325.16,240.544568787,625.515033484,117.356567114,-720.026359745,437.863977914,283.901941305,618.136498636,330.686439737,-667.794172791,-263.242210974
326.18,239.9519222,624.017058891,114.769980973,-720.9472397,437.223923589,283.901941305,618.136498636,329.90370182,-667.794172791,-263.242210974
327.2,243.801166121,632.218589652,131.360440895,-714.311782992,443.261719108,283.901941305,620.194916059,336.891884295,-667.794172791,-263.242210974
328.22,246.628119142,642.345704252,148.540559484,-710.653610287,446.158509923,283.901941305,621.832873973,340.811999088,-667.794172791,-263.242210974
329.24,246.661393304,642.653551108,149.654049694,-710.08850969,446.905834806,283.901941305,621.86580001,341.515362943,-667.794172791,-263.242210974
330.26,247.550929485,644.020432699,151.981633435,-709.262856443,447.864440627,283.901941305,622.155731769,343.395626582,-667.800808451,-263.242210974
331.28,248.530168711,645.591618094,156.344206427,-707.523657292,449.745587706,283.901941305,622.155731781,344.601163564,-667.800808369,-263.242210974
332.3,247.828878618,645.159820525,155.048399236,-707.959996658,449.714616082,283.901941305,622.155731781,344.519577444,-667.800808369,-263.242210974
333.32,240.770919809,639.118171805,146.124381919,-712.854886099,446.05067218,283.901941305,622.155731781,340.420466625,-668.311550307,-263.242210974
334.34,238.621928487,635.740525024,136.253576222,-716.081365628,444.226527718,283.901941305,622.155731781,338.016022308,-668.534602714,-263.242210974
335.36,237.310298664,634.816577785,134.024645607,-716.851146312,444.129125264,283.901941305,622.155731781,336.650028041,-668.58805261,-263.242210974
336.38,236.347459575,634.042265687,132.365937135,-717.6476705,443.563040218,283.901941305,622.120565231,334.882316184,-668.745832363,-263.242210974
337.4,230.386481921,629.056520398,121.28935083,-722.329186053,440.699309958,283.901941305,622.120564286,332.995197845,-668.745832894,-263.242210974
338.42,230.26835126,628.09040023,119.351240465,-723.273189827,440.169910698,283.901941305,622.120564286,332.707850146,-668.745832894,-263.242210974
339.44,234.151014376,632.392513338,126.749526335,-719.043672916,445.806317309,283.901941305,623.638984285,336.846056952,-668.745832894,-263.242210974
340.46,237.515780193,646.838143395,148.318654786,-713.811777008,447.825821388,283.901941305,627.463020569,341.14700424,-668.745832894,-263.242210974
341.48,237.857642651,647.977750238,150.238031588,-712.921179744,449.087776345,283.901941305,627.500569823,341.412684257,-668.745832894,-263.242210974
342.5,237.911962324,648.285057016,151.50145988,-712.476964296,450.082264541,283.901941305,627.80780716,342.568751023,-668.767356336,-263.242210974
343.52,238.996650954,649.938817991,155.765992282,-710.731770229,452.198354811,283.901941305,627.807805399,343.343709184,-668.767841971,-263.242210974
344.54,238.635259416,649.985174621,155.709250355,-710.711307666,452.245207243,283.901941305,627.81628511,343.493892832,-668.767841971,-263.242210974
345.56,235.189043942,647.043907681,151.81367332,-713.186448492,449.549537428,283.901941305,627.818305153,341.138616613,-669.193265931,-263.242210974
346.58,231.154793724,640.984917449,140.876627229,-718.30325134,446.986176283,283.901941305,627.818305153,337.418242392,-670.394436462,-263.242210974
347.6,228.080735316,637.815085549,133.128821025,-720.942186484,445.49551683,283.901941305,627.818305153,334.617997265,-670.394436471,-263.242210974
348.62,226.291004604,636.603991328,130.537161487,-721.855517747,445.121694361,283.901941305,627.787676057,332.389026518,-670.565306744,-263.242210974
349.64,223.610237585,634.260482508,125.554022604,-723.558221859,444.19912793,283.901941305,627.841259785,331.226460857,-670.564785198,-263.242210974
350.66,222.0166999,632.732631539,121.964825407,-725.621336624,442.905424777,283.901941305,627.841259785,330.969760821,-670.564785198,-263.242210974
351.68,224.024644291,634.794093899,123.985182938,-723.917327744,445.085459058,283.901941305,628.156209091,332.498880693,-670.564785198,-263.242210974
352.7,227.960754189,652.523786209,153.563221681,-715.323575537,450.222705368,283.901941305,634.014539236,341.404304244,-670.564785198,-263.242210974
353.72,229.521810103,655.589581164,160.792223696,-712.112519445,453.806066671,283.901941305,634.106741135,343.506969482,-670.564785198,-263.242210974
354.74,229.735144165,656.215183854,162.376040675,-711.466481101,454.736821544,283.901941305,634.301329929,344.606671197,-670.573787902,-263.242210974
355.76,230.43058465,657.461207285,165.92832618,-710.013378117,456.307166866,283.901941305,634.2969554,345.690672239,-670.59224656,-263.242210974
356.78,229.970155362,657.044883136,165.080478274,-710.33097228,456.617613825,283.901941305,634.2969554,345.600235036,-670.59224656,-263.242210974
357.8,228.623295209,655.990952929,162.756855309,-712.175221897,454.728747867,283.901941305,634.2969554,344.160795735,-670.744390252,-263.242210974
358.82,219.920715134,647.695389364,149.844220469,-717.958553282,450.905935857,283.901941305,634.2969554,338.416349773,-671.922235974,-263.242210974
359.84,216.896987319,643.925164775,141.26967441,-721.475486815,448.871276566,283.901941305,634.2969554,336.017558624,-671.922236098,-263.242210974
360.86,214.83055721,642.388179092,137.631905001,-722.536294437,448.447401475,283.901941305,634.293907709,332.767536725,-672.360274121,-263.242210974
361.88,213.416808429,640.923091663,134.486219402,-723.63204121,447.782902695,283.901941305,634.292767619,331.388803597,-672.379114098,-263.242210974
362.9,209.944081133,637.818098496,127.167510867,-726.550341216,446.025059881,283.901941305,634.292767539,330.576995963,-672.379114098,-263.242210974
363.92,211.156317118,639.089579085,128.278380493,-726.051801022,446.905112478,283.901941305,634.429431788,331.48525009,-672.379114098,-263.242210974
364.94,217.822011319,659.065456894,159.90498646,-714.954091519,454.186550304,283.901941305,641.641898305,341.369150029,-672.379114098,-263.242210974
365.96,219.05211276,662.992852216,168.336912912,-712.19734045,456.875106371,283.901941305,641.816841663,343.28450881,-672.379114098,-263.242210974
366.98,219.33704595,663.83075952,170.619289719,-710.84713968,458.767419883,283.901941305,642.171644059,345.181582884,-672.379114098,-263.242210974
368.0,220.181192818,665.301477071,173.125971322,-710.006443193,459.997959926,283.901941305,642.634621213,346.944789916,-672.41251516,-263.242210974
369.02,220.680853068,666.149834926,175.212707438,-709.131036587,461.72451969,283.901941305,642.634621737,347.3525933,-672.412515157,-263.242210974
370.04,220.651193296,666.293082149,175.090780082,-709.400517738,461.364017122,283.901941305,642.634621737,347.060885128,-672.427183916,-263.242210974
371.06,210.985260707,656.15310025,158.816204884,-718.405509183,455.065360618,283.901941305,642.634621737,341.27826406,-674.651587707,-263.242210974
372.08,208.951275552,653.273256888,151.073974222,-721.374436842,453.485331009,283.901941305,642.634621737,339.330776755,-674.680406526,-263.242210974
373.1,207.606738909,651.954334809,148.524038223,-722.103267071,453.421175872,283.901941305,642.621746637,337.735127535,-674.780280676,-263.242210974
374.12,206.383156203,650.617924417,144.869865489,-723.87619163,451.948361774,283.901941305,642.591653059,334.766226217,-675.148174298,-263.242210974
375.14,202.51538679,647.108097313,136.780052174,-727.054843657,450.023314535,283.901941305,642.591652489,333.392701275,-675.148178252,-263.242210974
376.16,202.656305599,646.141487943,134.847212454,-728.146036496,449.349253573,283.901941305,642.604548252,333.285624925,-675.148178252,-263.242210974
377.18,206.889482855,654.197854496,150.301928094,-721.07935978,455.655751843,283.901941305,645.093746231,340.590800338,-675.148178252,-263.242210974
378.2,209.718060204,664.687729385,168.195631088,-717.183053159,458.542468793,283.901941305,646.798779565,344.705714372,-675.148178252,-263.242210974
379.22,209.816608704,665.50416203,170.045481409,-716.323631363,459.562426675,283.901941305,646.843775397,345.730613167,-675.148178252,-263.242210974
380.24,210.822194693,667.382793447,173.310401145,-715.396302237,460.689298803,283.901941305,647.33351407,348.388338512,-675.167350741,-263.242210974
381.26,211.844832242,669.144642917,177.692668456,-713.556467695,462.651650333,283.901941305,647.336290178,349.275382532,-675.167350709,-263.242210974
382.28,211.120031652,668.410853914,176.012510104,-714.475525919,462.091507918,283.901941305,647.336290178,348.454405172,-675.189381188,-263.242210974
383.3,203.262989598,661.737439742,167.06954339,-719.549092424,457.988724687,283.901941305,647.336290178,343.749103789,-676.12097514,-263.242210974
384.32,200.848639001,657.370867075,155.408660131,-723.724823414,455.797184047,283.901941305,647.336290178,340.809874644,-676.494958986,-263.242210974
385.34,199.288864108,656.056980858,152.964287696,-724.51279811,455.526712106,283.901941305,647.336290178,339.397802528,-676.548733797,-263.242210974
386.36,197.326294499,655.234199233,150.752495122,-725.324988267,454.975701637,283.901941305,647.398050846,337.081008569,-677.242960614,-263.242210974
387.38,192.205355788,651.202318038,141.422386037,-728.783298424,452.746558828,283.901941305,647.395223719,335.233029018,-677.24296208,-263.242210974
388.4,191.676957613,649.513126514,138.069152678,-730.036385547,452.172130625,283.901941305,647.395223719,334.477565545,-677.24296208,-263.242210974
389.42,196.326588459,655.288340825,147.303587095,-725.054861169,458.447959495,283.901941305,648.681771041,339.610453826,-677.24296208,-263.242210974
390.44,199.526899709,669.012993381,171.483072506,-718.577704691,460.99715691,283.901941305,652.067449733,346.659427539,-677.24296208,-263.242210974
391.46,199.832252119,670.539611118,174.683597749,-717.305265671,462.417709898,283.901941305,652.097180908,347.701281054,-677.24296208,-263.242210974
392.48,199.929620365,670.985353196,175.972847909,-716.776708006,463.266423392,283.901941305,652.270486854,348.838680157,-677.26640828,-263.242210974
393.5,202.081844643,674.203464747,183.686339952,-713.888527462,466.384302023,283.901941305,652.303531719,350.844347764,-677.263926973,-263.242210974
394.52,201.281438001,673.622473754,181.887887734,-714.433786666,466.447616519,283.901941305,652.303531719,350.625465764,-677.263926973,-263.242210974
395.54,195.76125759,669.331602373,176.74720049,-718.332847908,462.544484314,283.901941305,652.303531719,347.885029293,-677.917149844,-263.242210974
396.56,191.361144645,663.8311597,165.120056811,-723.340993256,460.692290355,283.901941305,652.303531719,344.288028466,-678.864756747,-263.242210974
397.58,189.599454909,662.037724969,160.507627765,-724.802397419,459.870052114,283.901941305,652.303531719,342.727616294,-678.864756768,-263.242210974
398.6,187.572336947,660.578243604,157.798721627,-725.83687732,459.28971331,283.901941305,652.303531719,340.325796379,-679.151696838,-263.242210974
399.62,184.18205456,657.11197832,150.459786862,-728.550984827,457.52645706,283.901941305,652.303531719,337.9917029,-679.153314232,-263.242210974
400.64,182.459403733,656.438991671,147.941227089,-729.700845003,456.91014386,283.901941305,652.303531719,337.82403237,-679.153314232,-263.242210974
401.66,185.218349482,658.657088087,149.717124494,-727.965465205,459.292806953,283.901941305,652.648723691,339.250906762,-679.153314232,-263.242210974
402.68,190.70793285,679.255391973,185.608131652,-717.589536401,465.396662645,283.901941305,661.41546788,348.865288597,-679.153314232,-263.242210974
403.7,191.964207813,681.80058733,191.792064041,-715.010891514,467.912436933,283.901941305,661.415741274,350.50978913,-679.153314232,-263.242210974
404.72,192.179691024,682.266288584,193.166748724,-714.442020423,468.933771011,283.901941305,661.524172799,351.693616659,-679.160758846,-263.242210974
405.74,192.74163998,683.324079934,196.459269727,-712.989253869,470.543406242,283.901941305,661.522030388,352.549445009,-679.179353307,-263.242210974
406.76,192.302160237,683.01420654,195.967479836,-713.277714767,471.011752056,283.901941305,661.522030388,352.496737983,-679.179353307,-263.242210974
407.78,190.629790229,682.418512795,193.042794066,-715.833815366,468.315579855,283.901941305,661.570162379,349.679158014,-679.552846196,-263.242210974
408.8,183.638968675,673.917754493,178.728602912,-722.572411589,464.361013267,283.901941305,661.570162378,344.255180997,-680.726128509,-263.242210974
409.82,180.83338415,671.604093745,172.899207364,-724.564970943,463.180286434,283.901941305,661.570162378,342.509671538,-680.771653415,-263.242210974
410.84,179.253026413,670.398239549,170.181720311,-725.311984398,462.948258331,283.901941305,661.553953918,340.303102385,-680.969396149,-263.242210974
411.86,177.70028579,668.457884362,166.131914052,-727.062381616,461.898778311,283.901941305,661.5605087,338.139324497,-681.037678042,-263.242210974
412.88,173.851111308,664.740149818,157.436769135,-731.201442096,459.758107795,283.901941305,661.560508699,337.167316225,-681.03769685,-263.242210974
413.9,174.475163066,665.144138788,157.478654824,-731.173031047,460.225918357,283.901941305,661.578193265,337.393591776,-681.03769685,-263.242210974
414.92,180.839366617,685.290067602,190.109404126,-720.774179692,466.352214706,283.901941305,668.288456289,347.00003743,-681.03769685,-263.242210974
415.94,182.654807681,690.633277021,200.046406955,-718.206941348,468.735400189,283.901941305,668.671230429,349.378044656,-681.03769685,-263.242210974
416.96,182.8214669,690.995550928,200.960761923,-717.739183068,469.506378568,283.901941305,668.729999905,350.162165841,-681.03769685,-263.242210974
417.98,183.368512272,691.822095617,202.835870754,-717.077859316,470.176380577,283.901941305,668.778392809,351.218882004,-681.087059736,-263.242210974
419.0,183.749429107,692.329472988,204.657227435,-716.232305342,471.391183957,283.901941305,668.778392809,351.541033772,-681.087059734,-263.242210974
420.02,182.971010561,691.836638882,202.461486395,-717.477706975,470.543230015,283.901941305,668.778392809,350.430634288,-681.130172989,-263.242210974
421.04,174.634634919,683.809644729,190.010595775,-723.794168924,466.110945409,283.901941305,668.778392809,345.067854636,-682.086527309,-263.242210974
422.06,171.327408972,679.688308124,179.619258584,-727.409515231,463.832279388,283.901941305,668.778392809,342.353743123,-682.17787052,-263.242210974
423.08,169.851678761,678.624088206,176.856158378,-727.881145283,463.714658165,283.901941305,668.778392809,340.725669135,-682.202618186,-263.242210974
424.1,168.951511335,678.246654371,175.734117009,-728.24767185,463.283320047,283.901941305,668.78706478,339.469376765,-682.509391871,-263.242210974
425.12,164.179763331,674.515173675,167.10623039,-731.276691841,461.301988525,283.901941305,668.787058778,338.186142491,-682.509391875,-263.242210974
426.14,164.446849527,673.145300771,164.263244278,-732.702394844,460.564668779,283.901941305,668.787058778,338.133906179,-682.509391875,-263.242210974
427.16,170.093620173,685.6722329,181.138168704,-722.664836928,469.68604502,283.901941305,673.400906065,346.428805082,-682.509391875,-263.242210974
428.18,172.331188081,695.04443328,195.751686144,-719.076650078,472.027214857,283.901941305,675.032080222,349.700354831,-682.509391875,-263.242210974
429.2,172.522714246,695.727602275,197.250417127,-718.468278202,472.866844252,283.901941305,675.112409289,350.807426104,-682.509391875,-263.242210974
430.22,172.782231687,696.043777341,198.307080714,-718.123929143,473.265941264,283.901941305,675.14263337,351.669163724,-682.56123097,-263.242210974
431.24,174.149841105,698.298596066,203.63145012,-715.826695277,475.793248119,283.901941305,675.142634164,352.86154777,-682.5612208,-263.242210974
432.26,173.628821112,697.834434872,202.444523752,-716.294557928,475.683914915,283.901941305,675.142634164,352.689038047,-682.5612208,-263.242210974
433.28,163.824414266,690.02289165,191.13381082,-722.164351969,470.462916116,283.901941305,675.142634164,347.258243965,-684.407377442,-263.242210974
434.3,161.447181484,684.842981602,178.373081363,-727.330267622,468.263054758,283.901941305,675.142634164,344.446681335,-685.050416067,-263.242210974
435.32,160.160244223,683.625235984,176.033672805,-728.244979305,468.081669221,283.901941305,675.142634164,343.196467453,-685.05475288,-263.242210974
436.34,158.635748282,682.84912873,174.155515297,-728.773605094,467.509477678,283.901941305,675.15621474,341.429876376,-685.402150772,-263.242210974
437.36,154.473809371,678.880206394,165.896934578,-732.030329839,465.457221966,283.901941305,675.154503156,339.511827756,-685.402155,-263.242210974
438.38,153.990328338,677.152128645,161.683480418,-734.044662263,464.484722159,283.901941305,675.154503156,338.780220592,-685.402155,-263.242210974
439.4,156.892703723,680.217059635,167.168129332,-730.913759067,468.294159903,283.901941305,675.58593082,341.955407122,-685.402155,-263.242210974
440.42,161.57009937,695.873133796,193.241307742,-722.993503492,471.784681124,283.901941305,680.015503995,349.24512727,-685.402155,-263.242210974
441.44,162.505078521,699.074653418,198.536170665,-720.746569036,474.225899275,283.901941305,680.378295594,351.444912778,-685.402155,-263.242210974
442.46,163.145852179,700.099743601,199.95720365,-719.926151748,475.515871321,283.901941305,680.701285347,352.804400241,-685.409756143,-263.242210974
443.48,164.81101733,702.410933881,205.035488855,-717.58446701,477.852772632,283.901941305,680.701314921,354.451726424,-685.409729068,-263.242210974
444.5,164.751297151,702.583405095,205.488631678,-717.471720149,478.211516241,283.901941305,680.701314921,354.591314859,-685.409729068,-263.242210974
445.52,160.156201595,699.312693305,200.897567676,-720.972577705,474.299380761,283.901941305,680.701314921,351.718401379,-685.881655353,-263.242210974
446.54,155.583250088,692.697276186,188.328525272,-726.082714315,471.846523066,283.901941305,680.701314921,347.43878475,-686.899902741,-263.242210974
447.56,152.926422961,689.812676412,181.417161687,-728.885236392,470.617931211,283.901941305,680.701314921,345.53689758,-686.962486544,-263.242210974
448.58,151.1315689,688.557453147,178.628441547,-729.566748705,470.301972722,283.901941305,680.746190243,343.117017833,-687.284485408,-263.242210974
449.6,147.993121393,685.532619608,171.481929556,-731.92519073,468.791369563,283.901941305,680.763260364,340.516664776,-687.284329795,-263.242210974
450.62,146.432095759,682.978407854,165.183181089,-735.174763617,466.914740061,283.901941305,680.763260364,339.977643419,-687.284329795,-263.242210974
451.64,148.145526379,684.324904095,166.468032546,-734.294268009,468.427308343,283.901941305,680.841370492,340.915122255,-687.284329795,-263.242210974
452.66,152.977133465,698.508059609,191.619438553,-726.460908285,473.57877108,283.901941305,684.827595871,349.932093496,-687.284329795,-263.242210974
453.68,156.352760564,706.943973718,204.909170652,-720.179300684,479.210978467,283.901941305,686.13473736,352.579742251,-687.284329795,-263.242210974
454.7,156.309716707,707.14357034,206.112407038,-719.674874286,480.054924272,283.901941305,686.242012985,353.461897152,-687.335229455,-263.242210974
455.72,157.184127956,708.495041617,210.54588129,-717.842450536,481.846066599,283.901941305,686.241536126,354.850800729,-687.34813169,-263.242210974
456.74,157.479762439,709.605364538,212.257598802,-717.069169642,483.437971884,283.901941305,686.241536126,354.883639127,-687.34813169,-263.242210974
457.76,156.399797435,709.031930651,210.144879127,-718.730171248,481.765557354,283.901941305,686.241536126,353.142696507,-687.574671032,-263.242210974
458.78,149.369335239,701.467774209,196.695096516,-724.738714674,478.234741985,283.901941305,686.241536126,348.998166252,-688.511646154,-263.242210974
459.8,145.80479564,696.349731313,184.109178434,-729.896076686,475.451085517,283.901941305,686.241536126,346.056219133,-688.89802445,-263.242210974
460.82,143.997803694,695.063212597,181.281845624,-730.421914123,475.347411007,283.901941305,686.197933782,343.887938845,-689.021553921,-263.242210974
461.84,142.866154359,693.680619586,178.461120731,-731.577307451,474.526191616,283.901941305,686.212509701,342.252826477,-689.047576246,-263.242210974
462.86,138.903305407,689.531923012,169.535167237,-735.521483291,471.751054744,283.901941305,686.212509668,341.222733361,-689.047576248,-263.242210974
463.88,140.097109999,690.133864203,169.115101701,-735.768195709,472.191338717,283.901941305,686.352433589,341.819354199,-689.047576248,-263.242210974
464.9,145.337216014,704.260559732,191.161668998,-727.077304255,478.206610754,283.901941305,691.115362645,349.530873578,-689.047576248,-263.242210974
465.92,149.46390072,714.671916983,207.544091956,-720.431438558,484.060725627,283.901941305,692.975679327,352.881172364,-689.047576248,-263.242210974
466.94,149.849560885,716.208119993,210.796193151,-719.087832732,485.625845116,283.901941305,693.458236243,355.364472328,-689.047576248,-263.242210974
467.96,150.862902421,717.656578546,213.704452776,-718.229341628,486.688974357,283.901941305,693.765732386,357.154696478,-689.055018447,-263.242210974
468.98,151.352060245,718.212180352,216.331124288,-717.299511615,488.440122551,283.901941305,693.765732387,357.454069834,-689.055018444,-263.242210974
470.0,150.756237982,717.760568052,214.690178928,-718.485459985,487.615628639,283.901941305,693.765732387,356.338127313,-689.067234213,-263.242210974
471.02,142.407742204,708.9958269,200.892598399,-724.942138821,482.974352368,283.901941305,693.765732387,351.010829189,-690.263826604,-263.242210974
472.04,139.616057697,705.478570048,190.544923336,-729.397213514,480.395491956,283.901941305,693.765732387,348.953681915,-690.369365829,-263.242210974
473.06,138.88362716,704.993327274,189.489855348,-729.644617972,480.361712631,283.901941305,693.765732387,348.168674275,-690.392723574,-263.242210974
474.08,137.525947303,703.700488041,186.206438295,-731.197114258,479.051518119,283.901941305,693.757913671,345.399838724,-690.737496907,-263.242210974
475.1,132.787616057,699.783171968,176.969289378,-734.674530317,476.994304769,283.901941305,693.757911947,343.855047256,-690.73759337,-263.242210974
476.12,133.146766006,699.137009353,175.35315339,-735.531868424,476.628080205,283.901941305,693.764811117,343.77099365,-690.73759337,-263.242210974
477.14,139.082631096,707.637722109,191.159331708,-727.981610145,484.610958558,283.901941305,697.097097536,350.504816971,-690.73759337,-263.242210974
478.16,144.340276442,723.596457008,214.413464666,-720.683541421,489.662513044,283.901941305,701.196285697,355.012608061,-690.73759337,-263.242210974
479.18,144.627066297,725.713313184,217.770217645,-719.267946504,491.142913108,283.901941305,701.395055102,356.346231608,-690.73759337,-263.242210974
480.2,145.091926744,726.314139972,218.981182055,-718.831127404,491.758597745,283.901941305,701.452843118,357.348995591,-690.761306037,-263.242210974
481.22,146.194397483,728.043235605,223.499235449,-716.876156784,493.869486332,283.901941305,701.452843136,358.403804699,-690.761305907,-263.242210974
482.24,145.694183623,727.678553144,222.746583739,-717.058504598,493.9902561,283.901941305,701.452843136,358.476499886,-690.761305907,-263.242210974
483.26,138.052492793,721.650606853,213.743243126,-721.690082994,489.755782239,283.901941305,701.452843136,354.425846537,-691.378247984,-263.242210974
484.28,135.865044886,716.870579473,201.235284776,-726.272667911,487.914427473,283.901941305,701.452843136,351.368871338,-691.585840465,-263.242210974
485.3,134.855672889,716.335283215,199.287098554,-727.031556429,487.783268857,283.901941305,701.452843136,350.264419508,-691.585840465,-263.242210974
486.32,133.667984089,715.414602475,197.221599788,-727.699639011,487.179349333,283.901941305,701.419947291,348.341779979,-691.862506022,-263.242210974
487.34,129.444374274,711.368560449,188.882968822,-730.740293099,484.934554226,283.901941305,701.419945318,346.364052421,-691.862559521,-263.242210974
488.36,128.653311593,709.843217266,185.273624458,-732.574680155,483.927205406,283.901941305,701.419945318,345.912741618,-691.862559521,-263.242210974
489.38,132.805164553,713.973922429,191.208324032,-729.210404279,489.013518941,283.901941305,701.974056259,348.829329572,-691.862559521,-263.242210974
490.4,138.665345664,729.710172629,217.247411148,-721.364106625,492.093133597,283.901941305,707.467543507,355.966237801,-691.862559521,-263.242210974
491.42,139.400882482,733.609091027,222.720346734,-719.267572557,495.348873324,283.901941305,708.209198087,357.014547353,-691.862559521,-263.242210974
492.44,139.489063344,733.849110596,223.600697772,-718.800325654,496.062929491,283.901941305,708.31674791,357.785910122,-691.87470401,-263.242210974
493.46,140.845657175,735.794435447,228.421142864,-716.663635817,498.281044081,283.901941305,708.316749694,359.281677157,-691.868348098,-263.242210974
494.48,139.961737179,734.854350839,226.773471783,-717.399431578,498.469347717,283.901941305,708.316749694,359.052795539,-691.868348098,-263.242210974
495.5,136.43425086,732.002751201,223.280524115,-720.307412988,495.355658914,283.901941305,708.316749694,356.692610486,-692.498825815,-263.242210974
496.52,131.971063535,724.236051444,208.959897826,-725.883301187,492.984368801,283.901941305,708.316749694,351.72142512,-693.206461339,-263.242210974
497.54,128.897559756,720.608381522,200.03654116,-729.303077492,491.213458626,283.901941305,708.316749694,349.485310114,-693.271497496,-263.242210974
498.56,127.26105926,719.39331134,197.604229183,-730.050602359,490.828896871,283.901941305,708.300205737,347.441219616,-693.412239963,-263.242210974
499.58,124.715465258,716.514203556,192.042677891,-732.216521561,489.675259791,283.901941305,708.317712898,345.506456426,-693.412153414,-263.242210974
500.6,123.00723601,714.234722947,186.940676976,-734.763999168,488.051889197,283.901941305,708.317712898,345.10681034,-693.412153414,-263.242210974
501.62,124.54743547,715.376678885,186.959293466,-734.145242345,489.529650494,283.901941305,708.463866502,345.611181262,-693.412153414,-263.242210974
502.64,128.95428716,729.096978471,212.664597935,-725.675416258,494.585971402,283.901941305,711.73763241,354.106262764,-693.412153414,-263.242210974
503.66,133.048848617,739.748352242,226.118900846,-718.844201768,500.769985455,283.901941305,713.936293659,356.376057116,-693.412153414,-263.242210974
504.68,133.316162747,740.258927059,227.45977499,-718.239402587,501.691655962,283.901941305,714.180172181,357.530334075,-693.425313558,-263.242210974
505.7,133.988276068,741.33662994,230.514103618,-716.749194916,503.163126457,283.901941305,714.177820339,358.512389638,-693.452328604,-263.242210974
506.72,133.636893192,741.332783686,230.61697562,-716.6011482,504.359696821,283.901941305,714.177820339,358.476066583,-693.452328604,-263.242210974
507.74,132.678929748,740.969602164,229.672421948,-717.557880828,503.237106143,283.901941305,714.177820339,357.537580987,-693.56651254,-263.242210974
508.76,124.629913797,731.873348061,213.009037703,-724.772979267,498.533016417,283.901941305,714.177820339,352.336663999,-694.808642479,-263.242210974
509.78,120.594244118,727.447313599,202.450981651,-729.233872133,495.513477711,283.901941305,714.177820339,350.211320429,-695.029730513,-263.242210974
510.8,118.887876956,726.218656159,200.079043593,-729.694535705,495.166620221,283.901941305,714.177820339,348.10506681,-695.160580331,-263.242210974
511.82,117.714817839,724.970757783,197.922339387,-730.812364216,494.415366436,283.901941305,714.189878641,346.807364103,-695.341151056,-263.242210974
512.84,114.445905936,721.56554321,189.84678931,-734.416688197,491.664577871,283.901941305,714.18987864,345.908113978,-695.341151056,-263.242210974
513.86,114.497354769,720.667234048,187.075337816,-735.38413494,491.354633908,283.901941305,714.212300202,345.466054959,-695.341151056,-263.242210974
514.88,120.398843372,732.450067829,208.974317887,-726.515175491,498.470608268,283.901941305,718.337834112,353.201094849,-695.341151056,-263.242210974
515.9,124.910803109,743.776074995,224.4104953,-720.328832154,504.25645028,283.901941305,719.542051875,356.093005167,-695.341151056,-263.242210974
516.92,125.018092193,744.040047196,225.300735773,-719.91460607,505.081669324,283.901941305,719.592897247,356.821973033,-695.341151056,-263.242210974
517.94,125.713599386,745.124299123,227.373304344,-719.177019859,505.771097652,283.901941305,719.6593678,358.054959833,-695.351234932,-263.242210974
518.96,126.403030379,745.912448809,229.869859376,-717.831859357,507.561641281,283.901941305,719.6593678,358.472522213,-695.351234931,-263.242210974
519.98,125.416017643,745.062284626,227.648303803,-718.806504143,507.167713866,283.901941305,719.6593678,357.795119864,-695.35758878,-263.242210974
521.0,116.307624804,734.705138399,211.938635453,-726.616806115,502.004701698,283.901941305,719.6593678,351.607600538,-697.144019268,-263.242210974
522.02,113.140177958,730.847356059,200.377892375,-730.849360977,499.079593188,283.901941305,719.6593678,349.263563952,-697.312279762,-263.242210974
523.04,112.543525734,730.799904769,200.076626686,-730.833666719,499.175585467,283.901941305,719.6593678,348.608765876,-697.352266165,-263.242210974
524.06,111.47606948,730.012901379,198.035658256,-731.493810915,498.423884782,283.901941305,719.679155782,346.865782939,-697.644023623,-263.242210974
525.08,106.542570608,725.768790298,188.957395277,-735.138480986,495.339710094,283.901941305,719.679154726,345.293566376,-697.644023631,-263.242210974
526.1,106.423616632,724.162807653,185.365824842,-736.750869859,494.217529609,283.901941305,719.689745993,344.906140354,-697.644023631,-263.242210974
527.12,111.896597573,733.414342161,200.815656496,-728.730251861,501.663487603,283.901941305,722.348068865,351.689372731,-697.644023631,-263.242210974
528.14,120.603883536,759.043495379,236.092040473,-718.844880511,508.097237724,283.901941305,729.201590574,357.138325943,-697.644023631,-263.242210974
529.16,120.971965725,762.807833572,240.371056476,-717.253752978,510.002525524,283.901941305,729.895355086,358.172508071,-697.644065522,-263.242210974
530.18,121.377846221,763.351802641,241.297721136,-716.914571397,510.335803223,283.901941305,729.952171655,359.049465182,-697.656245979,-263.242210974
531.2,122.790722069,765.171290505,245.4978692,-715.005122771,512.430877458,283.901941305,729.952466401,360.00174897,-697.656245937,-263.242210974
532.22,121.896976439,764.1574928,243.870379946,-715.665858543,512.33133218,283.901941305,729.952466401,359.815127195,-697.656245937,-263.242210974
533.24,114.624788057,758.630206747,235.445274953,-721.041339144,507.352651423,283.901941305,729.952466401,355.511223498,-698.335805435,-263.242210974
534.26,110.850080742,751.451853058,218.805136578,-728.143359569,503.136112165,283.901941305,729.952466401,351.310556816,-699.3998818,-263.242210974
535.28,108.354638536,749.352437034,214.481132981,-730.574960606,502.380768826,283.901941305,729.952466401,349.839764677,-699.464256946,-263.242210974
536.3,107.455468494,748.671858274,212.963803691,-731.186499611,501.836496634,283.901941305,729.950836338,348.349881904,-699.564723784,-263.242210974
537.32,102.542364673,744.135204667,204.518748437,-734.680983866,498.539641507,283.901941305,729.950821525,346.070018713,-699.576699969,-263.242210974
538.34,101.424388342,742.920027527,200.893108591,-736.936303114,496.936431281,283.901941305,729.950821525,345.551137778,-699.576699969,-263.242210974
539.36,107.213496806,749.456996914,209.321370644,-731.709612413,503.394433876,283.901941305,731.667388036,350.244748444,-699.576699969,-263.242210974
540.38,112.47367054,768.113177441,236.349960527,-723.176987198,506.621631419,283.901941305,737.591765992,357.237489745,-699.576699969,-263.242210974
541.4,113.766205349,771.323983408,239.506142667,-721.453557364,508.912986211,283.901941305,737.723659493,356.998573867,-699.634825551,-263.242210974
542.42,113.489455284,771.456249798,240.441557452,-721.104736672,509.569950974,283.901941305,737.855383331,357.574748491,-699.686845938,-263.242210974
543.44,115.560573172,774.80562359,248.750116646,-717.120971669,514.344347007,283.901941305,737.855384506,359.949117012,-699.683470261,-263.242210974
544.46,115.915568718,775.269961757,249.335396205,-716.64413175,515.265763845,283.901941305,737.855384506,359.903507049,-699.683470261,-263.242210974
545.48,111.351719119,771.812775147,245.022270181,-720.373549471,510.998350061,283.901941305,737.855384506,357.152286328,-700.185372583,-263.242210974
546.5,104.56598141,762.205683446,227.857744909,-730.044397659,507.173447898,283.901941305,737.855384506,351.822041771,-702.668248076,-263.242210974
547.52,101.493061961,758.992129145,221.136727462,-732.700370575,504.83459737,283.901941305,737.855384506,349.928492441,-702.711320079,-263.242210974
548.54,99.343459086,757.315273789,217.759438572,-733.62277283,504.303750756,283.901941305,737.853356687,347.617911609,-703.000870498,-263.242210974
549.56,95.8379369888,754.069598346,211.213094045,-735.839320188,502.294655119,283.901941305,737.863048524,345.25904008,-702.997142063,-263.242210974
550.58,92.807121107,750.691856936,204.010793538,-740.210938456,498.670696334,283.901941305,737.863048524,345.00113798,-702.997142063,-263.242210974
551.6,96.9370114265,755.009271176,208.090404592,-737.635545422,502.094355177,283.901941305,738.545467776,347.445068535,-702.997142063,-263.242210974
552.62,104.989315977,780.45545115,246.076213748,-724.099042931,510.376984004,283.901941305,747.430389658,357.468963655,-702.997142063,-263.242210974
553.64,106.896197628,783.7246684,252.483093552,-721.06211297,513.313290305,283.901941305,747.563694417,358.774773627,-702.997142063,-263.242210974
554.66,107.111398482,784.229988707,253.956789733,-720.454726135,514.171301504,283.901941305,747.854918236,359.851412391,-703.000091957,-263.242210974
555.68,108.354566807,786.139239381,259.71468111,-717.580165836,517.694951933,283.901941305,747.850240698,361.720674902,-703.01004162,-263.242210974
556.7,109.477564695,788.25571344,264.820928484,-715.018318445,521.662133902,283.901941305,747.850240698,362.095194921,-703.01004162,-263.242210974
557.72,108.574427152,787.885972427,263.337858238,-716.419670318,519.832461254,283.901941305,747.850240698,360.817233945,-703.212885912,-263.242210974
558.74,99.9584746864,775.62937458,244.961727285,-729.133747884,512.986148419,283.901941305,747.850240698,354.636262136,-705.461128758,-263.242210974
559.76,96.9357225775,772.455212297,237.717589936,-732.314984472,510.550118178,283.901941305,747.850240698,352.494923046,-705.461534315,-263.242210974
560.78,95.1919616979,771.219146366,235.437100652,-732.863421061,510.206141483,283.901941305,747.850240698,350.336882458,-705.673773803,-263.242210974
561.8,93.856295734,769.36757496,231.214832295,-735.250111987,508.490581745,283.901941305,747.840266319,348.094799307,-705.730580754,-263.242210974
562.82,88.7575720753,764.780441173,221.844704932,-739.885956258,504.338451823,283.901941305,747.840266319,347.139903001,-705.73058076,-263.242210974
563.84,90.8318471306,766.746413565,223.838739601,-739.415175938,505.185388897,283.901941305,748.069274596,348.333617386,-705.73058076,-263.242210974
564.86,98.2627899474,783.57835878,252.386317734,-723.317653317,515.697391778,283.901941305,755.234705375,358.483259218,-705.73058076,-263.242210974
565.88,101.231126944,790.008457934,262.640825793,-720.497525734,518.409400977,283.901941305,755.595636609,360.87198474,-705.73058076,-263.242210974
566.9,101.295299194,790.094926294,262.64080681,-720.43142141,518.67082835,283.901941305,755.617882625,361.026942908,-705.73058076,-263.242210974
567.92,102.123545113,791.423277086,265.768568141,-719.057865833,520.107309922,283.901941305,755.712056265,362.366024998,-705.745490248,-263.242210974
568.94,105.97614402,797.340962597,277.389827916,-711.789077198,529.058672848,283.901941305,755.712056265,363.776060566,-705.745490247,-263.242210974
569.96,105.645733521,797.012291032,275.996116489,-712.713948849,528.201888343,283.901941305,755.712056265,362.993912253,-705.779588257,-263.242210974
570.98,95.0258630676,783.728067524,258.101985444,-725.107830886,520.211143027,283.901941305,755.712056265,356.939570677,-708.733985129,-263.242210974
572.0,90.8904197834,777.856310014,241.035348825,-734.176775706,514.182615288,283.901941305,755.712056265,353.911117778,-709.172757767,-263.242210974
573.02,89.9749485169,777.128974141,239.895454196,-734.42406128,514.115724747,283.901941305,755.712056265,352.958367669,-709.172736632,-263.242210974
574.04,88.1013222288,776.010216748,236.430291888,-736.7283071,511.557416147,283.901941305,755.697554761,349.950145493,-709.729848781,-263.242210974
575.06,80.3251679078,769.048746563,226.471447561,-741.559335788,507.165548404,283.901941305,755.697554754,348.938086497,-709.729865365,-263.242210974
576.08,81.490508168,770.700622055,229.527021378,-740.726003148,507.372283646,283.901941305,755.752284349,349.938599356,-709.729865365,-263.242210974
577.1,91.9356232821,790.16293034,256.918639232,-720.760743128,525.08153509,283.901941305,764.089020738,361.164725037,-709.729865365,-263.242210974
578.12,95.6087341084,802.737921282,276.070474801,-716.593071107,527.450556228,283.901941305,766.228444512,363.660887483,-709.729865365,-263.242210974
579.14,95.6028831833,802.989814756,276.212517932,-716.677699777,527.641224663,283.901941305,766.230998204,363.49217864,-709.729865365,-263.242210974
580.16,96.3687554373,803.745859243,278.008365467,-715.795348637,528.67470999,283.901941305,766.349011677,364.780834469,-709.746436639,-263.242210974
581.18,102.932718165,812.067982482,294.572729893,-707.072535941,539.70054796,283.901941305,766.375110136,366.893560009,-709.746435819,-263.242210974
582.2,102.604541653,811.346762068,292.020100813,-708.127577817,539.591038806,283.901941305,766.375110136,366.309817329,-709.746435819,-263.242210974
583.22,91.4422835613,800.285665832,279.886920461,-718.138452398,529.251921309,283.901941305,766.375110136,361.557688313,-711.600395311,-263.242210974
584.24,87.6161322794,789.122859817,255.366465553,-732.153327031,523.307436536,283.901941305,766.375110136,356.883870104,-712.682449339,-263.242210974
585.26,83.7608508888,785.091234978,247.729871534,-735.806240198,522.127620732,283.901941305,766.375110136,354.818165287,-712.812604013,-263.242210974
586.28,81.3504868349,783.248127475,242.984145235,-738.785138559,519.280193431,283.901941305,766.349687395,350.700481456,-713.504646033,-263.242210974
587.3,71.4748176668,774.048136568,229.453110108,-744.804077308,514.842820357,283.901941305,766.349665823,347.332289592,-713.529345702,-263.242210974
588.32,70.8954743005,773.61286301,227.575993368,-746.451901068,513.473064031,283.901941305,766.349665823,347.277889001,-713.529345702,-263.242210974
589.34,81.6998121094,785.79024154,245.575197876,-732.468069122,530.199384471,283.901941305,769.662005799,355.1313067,-713.529345702,-263.242210974
590.36,88.1900181545,811.041340742,281.267682176,-719.862563428,535.505074732,283.901941305,777.201147101,361.909553695,-713.529345702,-263.242210974
591.38,89.1421853259,813.142369694,282.936754446,-717.956948662,536.841176379,283.901941305,777.201148117,361.960189034,-713.529345702,-263.242210974
592.4,89.3158557783,813.67269989,284.677008784,-716.647575228,539.063192942,283.901941305,777.302936054,363.323248967,-713.554665742,-263.242210974
593.42,92.1881224969,817.137260181,293.68543387,-711.654063841,544.868929611,283.901941305,777.302903729,365.179889644,-713.555157435,-263.242210974
594.44,94.0773183087,819.225585983,295.311585617,-710.948082565,546.438853755,283.901941305,777.302903729,364.990362143,-713.555157435,-263.242210974
595.46,90.2258091488,815.390720378,291.489979194,-714.267236236,541.576834106,283.901941305,777.302903729,363.507655964,-713.927855967,-263.242210974
596.48,81.9185926756,799.367627844,265.441101898,-731.101963071,534.795536554,283.901941305,777.302903729,357.461611962,-715.922367478,-263.242210974
597.5,73.5625616273,789.023478064,245.098548028,-740.325823353,528.532037193,283.901941305,777.302903729,354.246177035,-716.75091613,-263.242210974
598.52,69.9300627434,785.903927118,239.970150765,-742.469068905,527.131276862,283.901941305,777.302903729,349.975086902,-717.22458357,-263.242210974
599.54,63.9947574675,779.846852106,230.649761771,-746.084487147,524.63774028,283.901941305,777.294069237,347.219086086,-717.220653075,-263.242210974
600.56,60.0406717596,777.192816776,225.547095195,-748.75273131,521.89025706,283.901941305,777.294069237,347.045669707,-717.220653075,-263.242210974
601.58,70.493612662,787.643108802,235.053674138,-741.457932592,531.316323269,283.901941305,778.627077213,351.468902606,-717.220653075,-263.242210974
602.6,82.0560489288,821.951255788,285.064971571,-717.539243711,548.371082314,283.901941305,789.61232687,362.238657591,-717.220653075,-263.242210974
603.62,84.1130772417,826.127204327,291.532860753,-713.598220196,550.941872316,283.901941305,789.734217594,363.673682813,-717.220653075,-263.242210974
604.64,85.4352336076,827.671896264,293.910122913,-711.587565586,553.671930479,283.901941305,790.259227778,365.275344579,-717.220653075,-263.242210974
605.66,90.1036921813,833.804643578,305.854259536,-704.659548962,561.22751685,283.901941305,790.383259027,369.197348323,-717.220653075,-263.242210974
606.68,93.9623009837,838.125807244,313.581727902,-701.0293768,565.735440066,283.901941305,790.383266918,369.336338911,-717.220653075,-263.242210974
607.7,91.6260986423,836.004985865,307.579865045,-705.372094732,562.081584032,283.901941305,790.383266918,366.990578101,-717.322398226,-263.242210974
608.72,77.0855057925,816.055498118,280.660887715,-722.738794116,552.645141236,283.901941305,790.383266918,360.166530287,-720.138262621,-263.242210974
609.74,68.9227456682,806.418682525,261.760394462,-731.226739122,546.551225014,283.901941305,790.383266918,356.6626266,-720.628436133,-263.242210974
610.76,65.8922292941,804.101456464,258.291161953,-731.975582319,546.115275295,283.901941305,790.383266918,354.173297487,-720.89253864,-263.242210974
611.78,62.9439121213,800.984361292,252.390240403,-735.383366128,543.732306675,283.901941305,790.372289398,351.085564807,-721.139311573,-263.242210974
612.8,55.9683136137,795.510272858,243.061476827,-739.434719666,540.501710877,283.901941305,790.372289398,349.797396665,-721.139311641,-263.242210974
613.82,58.706975292,797.612264427,244.246610481,-738.908950949,541.725538829,283.901941305,790.584530024,350.904587218,-721.139311641,-263.242210974
614.84,73.0406037726,824.691955773,285.038165593,-718.618185132,559.155829663,283.901941305,797.387912837,363.240016326,-721.139311641,-263.242210974
615.86,81.7085618681,840.922581438,312.271946072,-708.127629734,566.098712105,283.901941305,798.577917256,367.567562318,-721.139311641,-263.242210974
616.88,81.6559748346,840.97606355,311.910387074,-707.870024356,566.618534501,283.901941305,798.637517437,367.263576157,-721.139311641,-263.242210974
617.9,84.1252786161,844.207004241,316.67854275,-705.507796261,569.366047889,283.901941305,798.964938574,369.678402104,-721.153232348,-263.242210974
618.92,86.9929030365,847.391109614,324.394950733,-701.422858714,574.327750652,283.901941305,798.964938582,370.761376212,-721.153232339,-263.242210974
619.94,86.3904204482,845.901200585,319.309870476,-704.679398705,572.672487416,283.901941305,798.964938582,368.876399816,-721.188922792,-263.242210974
620.96,68.005113274,826.827141856,297.101226682,-720.650943212,562.359343537,283.901941305,798.964938582,362.433883604,-723.172189028,-263.242210974
621.98,59.6513012176,814.094744055,270.331301046,-733.483672451,554.190327169,283.901941305,798.964938582,358.291254568,-723.81320848,-263.242210974
623.0,58.0266963849,812.474761436,268.266033393,-734.385884251,554.065384899,283.901941305,798.964938582,357.190751877,-723.835468234,-263.242210974
624.02,52.6777266502,807.368894083,257.514255245,-742.993095635,546.78789895,283.901941305,798.964938582,348.461353599,-725.926518815,-263.242210974
625.04,43.1201776704,799.650338134,244.359950065,-747.858501179,543.990690604,283.901941305,798.964938582,345.751823296,-725.926731225,-263.242210974
626.06,44.788310207,801.291196539,246.437979837,-748.534288517,542.847023562,283.901941305,798.983311301,347.03055419,-725.926731225,-263.242210974
627.08,60.5285414069,824.82656206,281.200458173,-724.614455387,566.394433862,283.901941305,806.512341662,358.468132858,-725.926731225,-263.242210974
628.1,66.8445412694,838.516026797,303.852925837,-718.606865118,569.537586815,283.901941305,809.393544801,361.149317122,-725.926731225,-263.242210974
629.12,67.1758094393,839.22377021,304.555004357,-718.114794086,569.830945875,283.901941305,809.401363593,360.989109411,-725.926731225,-263.242210974
630.14,69.9553997696,842.171062038,308.242599055,-716.429067477,572.482756183,283.901941305,810.080803923,363.740710614,-725.926731225,-263.242210974
631.16,73.4190461105,846.815335475,318.121106026,-711.626826224,578.613923506,283.901941305,810.080815555,365.791878268,-725.926731225,-263.242210974
632.18,75.1647912659,847.819999791,318.153370303,-711.726360885,578.298783583,283.901941305,810.080815555,365.390109425,-725.928726522,-263.242210974
633.2,58.5838277033,834.008247461,303.314475094,-722.478499028,567.587794288,283.901941305,810.080815555,359.636183497,-727.177976138,-263.242210974
634.22,54.16255765,822.859419272,278.02340917,-735.178606031,561.840857368,283.901941305,810.080815555,354.380681502,-728.525763163,-263.242210974
635.24,50.2087463827,818.280296867,269.313445142,-740.204788153,559.277027227,283.901941305,810.080815555,352.676746395,-728.737673462,-263.242210974
636.26,46.9490798669,815.950680576,265.299724892,-742.378181502,557.219736865,283.901941305,810.069926234,349.524322773,-729.122329813,-263.242210974
637.28,37.3847648081,808.135389494,252.877351842,-746.218313894,554.060676048,283.901941305,810.069766385,346.233529828,-729.122536937,-263.242210974
638.3,36.7515949363,807.154242985,249.738223357,-748.635528342,552.028094694,283.901941305,810.069766385,346.151024385,-729.122536937,-263.242210974
639.32,52.7658812929,821.817464126,272.073151462,-732.896940774,571.138856727,283.901941305,814.559634497,354.713343751,-729.122536937,-263.242210974
640.34,63.5197896551,848.052221562,307.678114558,-721.884499128,576.231086166,283.901941305,822.392927715,362.439579342,-729.122536937,-263.242210974
641.36,69.466806465,858.161494087,320.870358096,-715.794800843,582.05297143,283.901941305,823.545910553,365.017509288,-729.122536937,-263.242210974
642.38,71.1523307284,860.309046705,324.319747279,-713.660304556,585.289974254,283.901941305,824.051473591,367.406109597,-729.119240817,-263.242210974
643.4,73.73888819,864.261070579,334.022401029,-708.418165152,590.888040144,283.901941305,824.05330538,370.314383365,-729.117712669,-263.242210974
644.42,77.7092441878,867.301849598,338.755505272,-707.105422613,591.637831323,283.901941305,824.05330538,370.870032083,-729.117712669,-263.242210974
645.44,69.310013573,860.312274945,326.551619495,-715.606596839,584.284518885,283.901941305,824.05330538,365.544644327,-729.735022578,-263.242210974
646.46,58.7292061636,846.485247023,303.288336077,-729.508264739,577.26067757,283.901941305,824.05330538,359.428239097,-731.172963709,-263.242210974
647.48,54.1125568106,840.815868569,291.275134532,-734.669568098,573.825621935,283.901941305,824.05330538,356.342162651,-731.223212605,-263.242210974
648.5,50.3700044147,838.113830428,286.984603508,-736.58465497,572.204220149,283.901941305,824.05330538,352.686758586,-731.826978295,-263.242210974
649.52,39.7704804523,829.337082345,273.515863117,-743.277612937,568.969039779,283.901941305,824.05330538,347.355237423,-731.881602505,-263.242210974
650.54,38.1067621118,827.467201865,268.438630328,-745.664469679,567.481872512,283.901941305,824.05330538,346.797993749,-731.881602505,-263.242210974
651.56,44.4096249747,832.915652599,271.395408112,-742.17043208,572.555378841,283.901941305,824.500241308,348.847146645,-731.881602505,-263.242210974
652.58,58.2741827791,859.825710925,313.27367118,-728.751576021,582.633414666,283.901941305,831.006204764,360.101274806,-731.881602505,-263.242210974
653.6,65.8685732945,871.242515896,327.776010406,-722.94487036,588.526175889,283.901941305,832.100229733,362.341478841,-731.881602505,-263.242210974
654.62,66.6163819861,872.661029288,330.753112287,-720.850212668,591.286060706,283.901941305,832.252134126,364.430643395,-731.881602505,-263.242210974
655.64,68.8596167719,876.077831329,337.533998804,-717.525862434,595.026105275,283.901941305,832.275254137,367.322454355,-731.881602505,-263.242210974
656.66,70.739926507,878.212610996,342.073350244,-715.720425707,596.854945918,283.901941305,832.275254137,367.752427432,-731.881602505,-263.242210974
657.68,67.4327359316,874.334924207,339.007952429,-718.980404532,593.972480385,283.901941305,832.276682674,364.729303648,-732.255252547,-263.242210974
658.7,48.547583652,855.492312413,316.787518764,-734.901843796,585.063046416,283.901941305,832.276682261,358.147619941,-734.917592276,-263.242210974
659.72,44.1943628808,850.161742796,303.974610501,-740.542487097,580.751276001,283.901941305,832.276682261,355.450268575,-735.22799888,-263.242210974
660.74,40.6068776808,847.411099746,301.508116086,-740.955057449,580.501066901,283.901941305,832.276682261,353.376273541,-735.503402885,-263.242210974
661.76,22.4148992985,835.815618059,284.500287539,-751.859826459,573.426327857,283.901941305,832.276682261,345.195939223,-737.224141585,-263.242210974
662.78,19.4242790703,832.889737542,277.797456605,-755.093893206,571.398436559,283.901941305,832.276682261,344.137469284,-737.244386873,-263.242210974
663.8,22.6490343693,835.856093387,280.241839451,-753.980473262,574.249062793,283.901941305,832.622790072,346.097980852,-737.244386873,-263.242210974
664.82,46.3914941327,863.961648821,315.558153159,-735.685002399,591.087262807,283.901941305,841.124022601,358.289687442,-737.244386873,-263.242210974
665.84,61.2538987289,883.243364793,339.11422025,-726.673935038,598.945590879,283.901941305,843.809033363,361.657286791,-737.244386873,-263.242210974
666.86,61.6965745885,884.487187801,341.279926819,-725.444744039,600.439143381,283.901941305,843.913002347,362.734571162,-737.244386873,-263.242210974
667.88,66.4344512107,889.564741883,347.481632812,-722.36130045,604.23631443,283.901941305,844.698895332,366.157419386,-737.244386873,-263.242210974
668.9,67.2103133621,890.904424025,351.343850581,-720.659961055,606.023192402,283.901941305,844.698895563,367.003052322,-737.244386873,-263.242210974
669.92,66.2671538547,890.511153666,349.5653368,-721.800854204,604.948039079,283.901941305,844.698895563,365.509621312,-737.269955164,-263.242210974
670.94,56.4175625992,881.436686773,336.447601228,-729.466178323,600.332888615,283.901941305,844.698895563,360.103406802,-738.312100561,-263.242210974
671.96,51.2636085691,874.816169474,318.065930924,-737.89906465,596.574293755,283.901941305,844.698895563,356.257104354,-738.847613627,-263.242210974
672.98,49.6985020511,873.673485233,315.949734938,-738.223789286,596.575088148,283.901941305,844.698895563,354.756910181,-738.881105389,-263.242210974
674.0,47.0931934954,871.992770419,312.876088426,-739.89098914,595.180114202,283.901941305,844.683810071,352.188608486,-739.086891372,-263.242210974
675.02,41.893938319,867.751817063,303.61423447,-743.754297596,592.496896701,283.901941305,844.683810066,349.931828406,-739.086894375,-263.242210974
676.04,41.7369672527,864.829086715,297.636122071,-747.039674651,590.902797579,283.901941305,844.683810066,348.778450178,-739.086894375,-263.242210974
677.06,48.8176796092,873.669662873,312.738134046,-738.70312721,599.828304267,283.901941305,846.425758075,357.183472842,-739.086894375,-263.242210974
678.08,56.2862654378,885.969801184,336.111148214,-732.015633819,603.655821433,283.901941305,847.955170418,362.288943043,-739.086894375,-263.242210974
679.1,56.8414120513,887.203764573,337.125357108,-731.18470388,604.662098231,283.901941305,847.976090873,362.52011722,-739.086894375,-263.242210974
680.12,57.6777494231,887.969133396,338.247626654,-730.504842852,605.889876521,283.901941305,848.146891652,363.429805132,-739.090720807,-263.242210974
681.14,59.0581045477,890.051749181,343.6219301,-728.182460706,608.663035347,283.901941305,848.146891876,364.632271788,-739.09071853,-263.242210974
682.16,59.4650188949,891.045099981,345.499410331,-727.396643528,608.897045815,283.901941305,848.16917382,365.139519481,-739.09071853,-263.242210974
683.18,53.6410131927,886.707286642,338.12857596,-731.340626993,604.650985828,283.901941305,848.168830264,361.429756389,-739.481792354,-263.242210974
684.2,50.0944777971,879.127480204,317.596528606,-740.357196772,601.196965909,283.901941305,848.168830264,356.322297654,-740.062479609,-263.242210974
685.22,47.3203361998,876.716632824,311.773531449,-742.917357843,600.505423148,283.901941305,848.168830264,354.212665778,-740.187718212,-263.242210974
686.24,46.0941127553,875.71530039,309.355886495,-743.647590161,599.981879965,283.901941305,848.133412278,352.015736752,-740.419305925,-263.242210974
687.26,41.0677892399,871.302394348,299.065691164,-747.936967099,596.927913532,283.901941305,848.128700361,348.254013007,-740.4514922,-263.242210974
688.28,39.9419995304,868.850824652,293.532033553,-751.108979091,595.091857925,283.901941305,848.128700361,347.496595469,-740.451492201,-263.242210974
689.3,45.3511092325,874.366490096,301.63606311,-746.559116634,601.449657372,283.901941305,849.284080741,352.775186916,-740.451492201,-263.242210974
690.32,49.6184387416,889.91851968,330.037969828,-739.031302071,605.251585889,283.901941305,852.577036998,359.79789204,-740.451492201,-263.242210974
691.34,51.1759884108,892.689329363,334.443305707,-736.74543477,607.914171251,283.901941305,852.625295338,360.980999405,-740.451492201,-263.242210974
692.36,51.4997292563,893.203096963,335.850360083,-736.030074229,608.930656444,283.901941305,852.760038163,362.091816809,-740.444681823,-263.242210974
693.38,53.2462482038,895.949206673,343.29520011,-733.219214265,611.872904931,283.901941305,852.869301384,364.897014074,-740.430739603,-263.242210974
694.4,55.2198256886,898.913171335,347.393131974,-731.690447508,613.001273213,283.901941305,852.869301386,365.194566876,-740.430739603,-263.242210974
695.42,53.5340760031,897.840095594,346.029132398,-733.120246129,611.374054562,283.901941305,852.869301386,364.107997622,-740.535622302,-263.242210974
696.44,49.2429299346,891.477587163,332.294178439,-740.275187459,608.999446903,283.901941305,852.869301386,359.179044597,-741.219892541,-263.242210974
697.46,40.9460534411,880.465941905,310.494801159,-753.907018343,603.202690635,283.901941305,852.869301386,354.169471161,-743.903123297,-263.242210974
698.48,39.0746831847,879.03871608,307.839330185,-754.742263558,602.76002042,283.901941305,852.869301386,351.904219894,-744.086083116,-263.242210974
699.5,37.0121820541,876.410752456,302.535578675,-757.191420802,601.072836557,283.901941305,852.843770161,349.253643901,-744.170468292,-263.242210974
