time,0,1,2,3,4,5,6,7,8,9,10,11,12,13,14,15,16,17,18,19,20,21,22,23,24,25,26,27,28,29,30,31,32,33,34,35,36,37,38,39,Simulation_reset
0.0,131.052528601,426.098520122,18.0353534408,350.405880995,-195.79624841,-116.370606329,556.433420535,494.628404733,-4.74767861888,-22.6578460075
1.0,131.052528601,426.098520122,18.0353534408,350.405880995,-195.79624841,-116.370606329,556.433420535,494.628404733,-4.74767861888,-22.6578460075
2.0,131.052528601,426.098520122,18.0353534408,350.405880995,-195.79624841,-116.370606329,556.433420535,494.628404733,-4.74767861888,-22.6578460075
3.0,134.734423309,432.290552709,28.9180002492,357.508712518,-185.703420938,-116.370606329,561.927470167,495.962147661,-4.74767861888,-22.6578460075
4.0,176.240652111,475.291888421,54.1887495057,392.014419981,-150.542339051,-101.843525853,606.74048607,497.166822366,2.40212194657,7.49628019045
5.02,323.333705461,563.773147893,84.5848035681,461.722308387,-67.7900290737,12.8686969487,650.532610406,497.166822623,3.34672366648,21.6607638104
6.04,368.349045434,608.501592232,97.9384496159,497.79047299,-13.6929476059,84.3769027239,679.529624099,497.166822623,3.34672366652,21.6607638128
7.06,408.527169658,676.54312276,130.035840147,520.736765877,17.8973682074,108.807573493,699.137355423,497.166822623,3.34672366652,21.6607638128
8.08,410.558231052,680.536400444,116.209209676,508.767364681,16.4107031256,108.807573876,699.344620001,495.332098712,2.1989665074,21.6607638128
9.1,368.195086467,636.795179784,66.4209502121,411.854407205,-42.3598439646,108.807573876,699.344620001,491.910011165,-76.66634907,-59.7460062028
10.12,326.832709807,605.066470118,51.2161249236,403.265554598,-64.2958509363,108.807573876,699.344620001,491.910011162,-78.9151538035,-86.2906632589
11.14,326.832709807,605.066470118,51.2161249236,403.265554598,-64.2958509363,108.807573876,699.344620001,491.910011162,-78.9151538035,-86.2906632589
12.16,319.583342429,597.075574838,36.8704102014,394.576937476,-66.7698349768,108.807573876,699.344620001,485.847782445,-79.4474869046,-86.2906632589
13.18,296.49990168,577.511923843,14.3728549057,352.522710902,-91.0911646694,103.477666183,699.344620001,472.429387635,-91.8369338406,-86.2906632589
14.2,271.987988301,556.713832736,-0.648906003247,259.433043886,-188.466529802,92.4094431021,699.344620001,472.429361756,-123.028693936,-96.972188622
15.22,269.353523077,556.002797433,-8.70592265006,244.826819369,-193.503424051,92.4094429383,699.344620001,468.678852166,-130.794290592,-96.975547716
16.24,274.024146697,567.264611286,4.52551995918,247.978472783,-189.770344431,92.4094429383,700.710835389,474.661467164,-130.792773262,-96.975547716
17.26,285.99490197,614.200971039,40.3044789028,274.218249494,-160.954239659,92.4094429383,702.247939005,475.4516285,-130.792773262,-96.975547716
18.28,308.206976284,727.852181342,103.018490151,301.207266215,-144.125443529,92.4094429383,747.062639454,480.7756697,-130.792773262,-96.975547716
19.3,311.594288432,733.341826276,102.171822578,299.795822359,-138.565256246,92.4094429383,754.506499767,482.954822366,-130.792773262,-96.975547716
20.32,293.316287145,711.318777359,44.6757570748,252.429946983,-151.253799677,92.4094429383,754.506499755,477.934289179,-135.953561048,-96.975547716
21.34,274.805145572,697.502715191,21.3692827746,223.025630826,-152.89239872,92.4094429383,754.506499755,477.691371809,-153.561725691,-96.975547716
22.36,262.58837585,689.205112844,6.21713760685,192.191503216,-164.897774537,92.4094429383,754.506499755,473.145509482,-185.660171661,-99.6927304344
23.38,245.065071181,672.150289387,-34.760661816,151.227807612,-172.368678098,92.4094429383,754.506499755,469.025883101,-194.449206771,-99.6927317321
24.4,250.171046958,693.445311002,-10.5851222755,155.911449806,-165.992550374,92.4094429383,755.633463005,472.041305412,-194.449206597,-99.6927317321
25.42,262.967025873,711.059712689,9.8020464715,168.519565305,-150.676261035,92.4094429383,763.684838391,478.133132589,-194.449206597,-99.6927317321
26.44,272.676353769,748.71435845,53.6839037886,183.986011193,-143.045095371,92.4094429383,779.58613873,480.62172786,-194.449206597,-99.6927317321
27.46,275.702193916,775.647030621,84.9103715462,196.43480401,-126.201973792,92.4094429383,792.591695704,488.531587646,-194.449206597,-99.6927317321
28.48,271.833947965,772.953892548,78.6102385137,192.001433244,-128.766536412,92.4094429383,792.589403211,483.459949087,-195.704345991,-99.6927317321
29.5,273.674729467,779.774628763,92.8899970708,195.490847078,-122.26199188,92.4094429383,792.589403211,482.932688993,-195.829991981,-99.6927317321
30.52,282.73602196,803.471276265,121.266331811,200.907347783,-120.443147094,92.4094429383,792.811238604,484.182571239,-195.829991981,-99.6927317321
31.54,277.56890472,802.43015073,124.361770911,200.161250962,-121.197481062,92.4094429383,793.545380641,485.985537713,-196.537986661,-99.6927317321
32.54,271.921493828,791.226104656,103.74519172,187.318754593,-126.724308474,92.4094429383,793.545380627,479.964803176,-198.286978159,-99.6927317321
33.54,262.414647362,782.967021744,86.453100007,178.325254308,-129.033624269,92.4094429383,793.545380627,473.906161002,-199.061128515,-99.6927317321
34.54,251.931885863,776.000271103,72.2459556648,165.413915839,-134.256122694,92.4094429383,793.545380627,457.662506129,-209.430263698,-99.6927317321
35.54,237.707950013,762.625100867,39.7665501035,133.909579326,-145.625982935,92.4094429383,793.545380627,450.577709746,-220.533137916,-99.6927317321
36.54,235.809336852,767.097195137,43.3417232912,131.707914234,-144.241906596,92.4094429383,793.545380627,451.136212853,-220.541578787,-99.6927317321
37.54,236.207374008,769.514379152,46.8690372542,130.37049774,-145.127896002,92.4094429383,793.59259721,452.252815416,-220.675938531,-99.6927317321
38.54,237.30833346,772.964460835,55.0778483996,131.761435126,-145.511871968,92.4094429383,793.928024377,455.580658855,-220.687522603,-99.6927317321
39.54,241.079565115,787.634432068,73.2909246888,139.918234568,-135.723395318,92.4094429383,798.457358265,460.364456195,-220.687522603,-99.6927317321
40.54,243.419126586,795.54360849,85.2680301293,145.592135242,-127.074309093,92.4094429383,803.77481036,470.0447742,-220.687522603,-99.6927317321
41.54,242.408556055,794.721512228,84.9061729206,144.93630341,-126.839640182,92.4094429383,803.732500086,468.665063482,-220.830388638,-99.6927317321
42.54,250.241991548,810.76364309,105.106142612,150.457132725,-119.630602986,92.4094429383,803.732500086,470.011871595,-220.830388628,-99.6927317321
43.54,247.10694859,809.321996874,98.3911351953,144.88215801,-123.869558711,92.4094429383,803.732500086,463.288846538,-222.18604635,-99.6927317321
44.54,229.32981325,790.359530109,70.9098197352,121.113384908,-130.885453303,92.4094429383,803.732500086,456.517393354,-229.285197559,-99.6927317321
45.54,228.304879234,789.803558443,68.9460111777,119.883637586,-131.285691353,92.4094429383,803.732500086,455.612571892,-229.31052421,-99.6927317321
46.54,222.692781056,785.661917342,59.7933583399,116.246922861,-131.775968123,92.4094429383,803.732500086,447.304687033,-231.267637892,-99.6927317321
47.54,216.380190259,781.136202389,43.0467939678,98.1804029521,-139.455720693,92.4094429383,803.732500086,433.294156812,-242.647517054,-99.6927317321
48.54,209.606468904,776.613648268,29.6773431465,90.8485013275,-140.974256959,92.4094429383,803.732500086,429.940278404,-243.282902897,-99.6927317321
49.54,211.88435246,784.12632295,39.5801725954,92.9821890122,-138.447010726,92.4094429383,803.985586909,432.908792326,-243.282902897,-99.6927317321
50.54,216.361674797,799.370710428,67.0375251246,104.248577317,-128.701053776,92.4094429383,808.577530985,442.352587716,-243.282902897,-99.6927317321
51.54,230.04941536,849.563924505,132.656348642,127.413251584,-106.829441877,92.4094429383,825.43373809,448.60011818,-243.282902897,-99.6927317321
52.54,233.137212316,876.220802725,165.489822561,140.111816392,-90.023095279,92.4094429383,837.449063525,460.122725386,-243.282902897,-99.6927317321
53.54,228.998893392,873.633829835,159.166720256,135.929182685,-91.9605372522,92.4094429383,837.54365211,454.782897107,-244.903416125,-99.6927317321
54.54,229.995784405,875.913189437,161.23645921,134.600568291,-90.5577566555,92.4094429383,837.54365211,452.741195968,-245.276581599,-99.6927317321
55.54,231.981442072,879.389895777,166.735754441,136.009122181,-89.9528493443,92.4094429383,837.54365211,453.336064073,-245.276581598,-99.6927317321
56.54,219.513671499,869.162931592,154.891657023,126.495417504,-96.9795416212,92.4094429383,837.538389062,448.253697133,-246.637037311,-99.6927317321
57.54,216.601600552,862.022333293,137.835220672,114.27313573,-100.263202702,92.4094429383,837.538389062,443.575046096,-248.851822075,-99.6927317321
58.54,213.270279728,859.181769937,132.570468403,110.986138949,-100.97418419,92.4094429383,837.538389062,442.187875676,-248.87883123,-99.6927317321
59.54,203.680615756,853.489400945,117.125466615,99.1038383152,-104.101074192,92.4094429383,837.538389062,419.760183089,-260.640383775,-99.6927317321
60.54,186.869508191,836.890777699,84.7557708099,61.6553544733,-112.978298747,92.4094429383,837.538389062,407.806207074,-272.345220516,-99.6927317321
61.54,179.191280892,830.841019018,70.12311077,48.7555874581,-117.166086712,92.4094429383,837.538389062,407.881517872,-272.498525567,-99.6927317321
62.54,178.160541308,829.511764792,68.2605882675,48.1874821128,-117.747587092,92.4094429383,837.538389062,406.70055829,-272.498525567,-99.6927317321
63.54,182.116792618,839.572060609,88.1386758133,53.6694946009,-115.614396331,92.4094429383,840.487786544,413.650665566,-272.498525567,-99.6927317321
64.56,186.114505177,853.263953928,105.24818025,63.1563792579,-104.372637397,92.4094429383,844.671458757,416.757520755,-272.498525567,-99.6927317321
65.58,187.017257696,858.9593209,116.296326622,66.7901464672,-98.4840951117,92.4094429383,847.916222994,425.363933129,-272.498525567,-99.6927317321
66.6,187.63119401,862.206809543,125.006838815,69.4617468351,-95.3036456578,92.4094429383,847.907393703,427.178163944,-272.504325648,-99.6927317321
67.62,201.967711497,902.365368869,168.561569451,80.7111758736,-84.0247775212,92.4094429383,848.255041633,428.750166424,-272.504325648,-99.6927317321
68.64,202.864671693,909.768115853,186.28730665,84.888318338,-81.3958581634,92.4094429383,848.79236082,432.798763534,-272.528731153,-99.6927317321
69.66,196.311606487,901.764821272,174.838293268,77.1389016958,-86.0557156347,92.4094429383,848.792307366,428.992265243,-273.808346316,-99.6927317321
70.68,191.128931382,896.411534447,163.648955766,72.1109190734,-88.4349048876,92.4094429383,848.792307366,423.848412039,-273.881066193,-99.6927317321
71.7,183.676495813,891.499496362,154.392850422,67.5985138593,-89.8167651409,92.4094429383,848.792307366,412.213472885,-277.164854878,-99.6927317321
72.72,177.850850491,886.077237839,139.329053301,54.0020703862,-95.9512993116,92.4094429383,848.792307366,402.341556082,-281.275263367,-99.6927317321
73.74,169.732116582,879.364551029,124.522360649,46.0913408385,-99.9680434872,92.4094429383,848.792307366,401.230115138,-281.287501721,-99.6927317321
74.76,169.094422558,878.824419915,123.359030011,45.99203649,-99.8448817127,92.4094429383,848.811799301,400.141902471,-281.268111608,-99.6927317321
75.78,172.627400623,884.844512801,138.13162804,50.5326950656,-96.6202567147,92.4094429383,850.126007456,405.518706606,-281.267410716,-99.6927317321
76.8,178.935057932,901.699176392,169.63458661,63.3259846943,-86.0526845104,92.4094429383,854.358074973,412.773542873,-281.267410716,-99.6927317321
77.82,179.261707511,902.749860593,171.653902741,64.0200417419,-84.8789021428,92.4094429383,854.601441892,414.04091756,-281.267410716,-99.6927317321
78.84,178.645188759,902.104947797,170.284996751,63.3080031324,-85.053097909,92.4094429383,854.614566232,412.908926792,-281.348389476,-99.6927317321
79.86,185.404141738,915.005993115,190.123856842,69.1666015161,-77.8517474217,92.4094429383,854.614566232,414.444937657,-281.348363928,-99.6927317321
80.88,185.418730696,915.049273334,188.120849966,67.4762605969,-79.0969459212,92.4094429383,854.614566232,412.941091971,-281.451311054,-99.6927317321
81.9,174.139018014,901.053434792,169.770715896,53.7518734222,-85.4989019219,92.4094429383,854.614566232,405.366535366,-284.163315175,-99.6927317321
82.92,168.988153559,896.072780984,155.881839549,46.5005815087,-88.1677692671,92.4094429383,854.614566232,401.723245688,-284.658527826,-99.6927317321
83.94,164.301898674,892.900730669,149.311861469,43.8443412277,-88.393241986,92.4094429383,854.614566232,396.892822082,-285.483572633,-99.6927317321
84.96,160.085733999,890.380889376,139.343917506,35.9939732571,-92.8716577162,92.4094429383,854.614566232,385.531021607,-289.950831049,-99.6927317321
85.98,154.266535289,886.098867147,129.775668372,32.0315022109,-95.6952439346,92.4094429383,854.614566232,383.329459475,-289.950913651,-99.6927317321
87.0,153.305660018,885.949621769,129.388967181,32.0485640649,-95.4677263941,92.4094429383,854.614566232,382.445950465,-289.970237995,-99.6927317321
88.02,156.373635003,894.091551708,147.208956503,40.1600959588,-89.516683909,92.4094429383,856.47142897,389.749651657,-289.970238691,-99.6927317321
89.04,168.761621382,934.146765586,208.311202829,55.971877374,-75.5264400287,92.4094429383,863.726206579,401.92425319,-289.970238691,-99.6927317321
90.06,169.908104239,941.643880789,221.861009659,60.7271135773,-69.3543640619,92.4094429383,865.02674131,407.235015557,-289.97069232,-99.6927317321
91.08,168.157857997,940.158839476,218.902164036,58.9966856159,-70.0328548398,92.4094429383,865.040876329,405.013644372,-290.292655167,-99.6927317321
92.1,170.83243472,946.092522546,228.381524019,62.2129403742,-65.3107927245,92.4094429383,865.040876327,405.61508738,-290.296561572,-99.6927317321
93.12,171.26081637,947.329239249,231.579750038,63.1665052515,-64.8416685651,92.4094429383,865.040876327,406.210242611,-290.296561572,-99.6927317321
94.14,163.261672074,940.426886272,222.061229363,56.555443902,-70.127959829,92.4094429383,865.040876327,401.814656817,-290.922187196,-99.6927317321
95.16,160.887464778,935.171270022,207.534558812,48.9736039717,-73.2405829611,92.4094429383,865.040876327,398.588068046,-292.140224861,-99.6927317321
96.18,157.393251747,932.218640802,201.60503399,46.4446251982,-73.8535395061,92.4094429383,865.040876327,395.796980477,-292.280929147,-99.6927317321
97.2,149.484663283,927.563539711,191.298288724,37.5408063933,-77.6270315927,92.4094429383,865.040876327,383.971164191,-297.833029392,-99.6927317321
98.22,132.627912291,913.299358198,161.309032703,15.4950921147,-82.7236850283,92.4094429383,865.040876327,376.208681399,-299.849478463,-99.6927317321
99.24,129.655177186,908.885405672,147.322550503,7.18966868702,-86.1861325819,92.4094429383,865.040876327,374.80978511,-299.849489446,-99.6927317321
100.26,129.870862912,908.959081037,146.949055983,7.90639122388,-84.2308801,92.4094429383,865.166516479,374.530603148,-299.878812709,-99.6927317321
101.28,138.071648373,925.193824277,177.091211534,18.0919729141,-79.3583231772,92.4094429383,872.267481488,383.575679418,-299.878812709,-99.6927317321
102.3,140.684172549,943.346203442,200.148290538,28.2137299563,-66.6961750206,92.4094429383,881.805219594,390.634076858,-299.878812709,-99.6927317321
103.32,141.310252099,944.458485105,201.650287197,28.9149316291,-65.3483551834,92.4094429383,882.274028116,391.952117616,-299.892056612,-99.6927317321
104.34,143.531669192,948.412246352,210.823411202,32.123923837,-61.1068347651,92.4094429383,882.274025169,393.769623044,-299.892063068,-99.6927317321
105.36,146.022178114,953.775779357,218.200960207,33.8825176232,-58.6130145822,92.4094429383,882.274025169,394.038534853,-299.892063068,-99.6927317321
106.38,144.864115285,953.115880268,217.305771157,32.8189018257,-59.873351676,92.4094429383,882.274025169,392.932303437,-299.912232689,-99.6927317321
107.4,142.351721323,948.995700145,209.464573643,29.079939152,-62.0854433932,92.4094429383,882.274025169,389.247736832,-300.257640362,-99.6927317321
108.42,137.496041869,944.707164803,200.389254624,25.4944973686,-63.6782762026,92.4094429383,882.274025169,385.111168466,-300.328461603,-99.6927317321
109.44,131.000594923,940.299603682,191.330008012,19.7230974268,-66.6185674526,92.4094429383,882.274025169,373.110984396,-303.291773171,-99.6927317321
110.46,127.300259515,936.832742881,182.795209071,15.7187587147,-69.4106114341,92.4094429383,882.274025169,368.657532246,-303.525069419,-99.6927317321
111.48,125.729695295,937.233404233,181.975971081,14.7959738251,-69.5744540304,92.4094429383,882.274025169,368.768524656,-303.525069419,-99.6927317321
112.5,125.912267712,937.281053513,181.547765744,15.3108435968,-68.329769197,92.4094429383,882.495491688,368.537712455,-303.525069419,-99.6927317321
113.52,129.878406096,945.419320468,201.004767811,22.278656704,-63.4628300449,92.4094429383,884.759825817,376.595711952,-303.525069419,-99.6927317321
114.54,133.74891302,954.332374114,216.566913546,29.5880311355,-55.9850234317,92.4094429383,886.666440909,380.098974286,-303.525069419,-99.6927317321
115.56,134.145324526,955.664917971,219.363969928,30.8102171608,-54.2147505339,92.4094429383,887.0855905,382.285737999,-303.525069419,-99.6927317321
116.58,134.377861622,956.230915808,222.054253101,31.8106036499,-52.7924641785,92.4094429383,887.082251918,382.312185673,-303.570335906,-99.6927317321
117.6,136.493464106,960.934414472,226.631402826,33.8295739068,-48.7457132185,92.4094429383,887.082251918,382.078369099,-303.570335904,-99.6927317321
118.62,135.588610187,959.943019145,223.463814045,32.0061287316,-50.1617385715,92.4094429383,887.082251918,380.667964979,-303.607268123,-99.6927317321
119.64,128.254291814,949.511768166,203.526394003,17.3849608338,-54.2346826713,92.4094429383,887.082251918,374.56267394,-304.558202953,-99.6927317321
120.66,126.28408226,947.693548789,198.772135662,15.8348130287,-55.372248684,92.4094429383,887.082251918,373.207087032,-304.558201229,-99.6927317321
121.68,120.699589434,943.993860019,191.403195436,13.200628296,-56.0380440583,92.4094429383,887.082251918,365.676005379,-306.264860623,-99.6927317321
122.7,118.726744748,942.370964664,186.001721589,9.45047063814,-58.385130688,92.4094429383,887.068462454,360.789878945,-307.482272025,-99.6927317321
123.72,115.870113339,940.58220516,180.776550134,7.72704886077,-59.7126074198,92.4094429383,887.068462247,360.112846576,-307.48227205,-99.6927317321
124.74,114.382595578,938.291933078,174.743480215,5.92827028045,-60.3038585311,92.4094429383,887.091913009,358.139932018,-307.48227205,-99.6927317321
125.76,118.557118327,947.189377954,194.376530464,13.4055295279,-55.2580253329,92.4094429383,889.828061161,365.649819521,-307.48227205,-99.6927317321
126.78,122.480270767,958.456754265,213.979359304,21.3024666149,-47.9233290843,92.4094429383,891.216520316,370.34905015,-307.48227205,-99.6927317321
127.8,122.691418435,959.672178494,216.500333724,22.5846234832,-45.9432118482,92.4094429383,891.484216034,371.940244577,-307.48227205,-99.6927317321
128.8,123.946982038,961.609360551,219.195745211,23.5683640831,-44.1210340531,92.4094429383,892.446089523,374.113116675,-307.502902112,-99.6927317321
129.8,131.824345911,989.187043035,257.076471426,35.2578365577,-32.8750742484,92.4094429383,892.446089551,376.728582815,-307.502902031,-99.6927317321
130.8,137.89269887,1007.6221309,288.40858459,40.2806269626,-31.0597977076,92.4094429383,893.048433425,380.820087617,-307.502902031,-99.6927317321
131.8,131.269348677,1001.13931369,280.715598281,33.9956215645,-35.5342276857,92.4094429383,893.047623302,377.551361854,-308.338146482,-99.6927317321
132.8,124.679521742,991.578539852,259.743166175,22.2069809845,-41.8967294366,92.4094429383,893.047623302,373.077559767,-310.499057975,-99.6927317321
133.8,117.571542684,985.982428801,249.404422631,15.5166481508,-43.4393634155,92.4094429383,893.047623302,368.122950258,-311.792243909,-99.6927317321
134.8,110.272547821,980.326721584,233.555039112,0.982618108076,-49.0532499993,92.4094429383,893.047623302,347.935374326,-323.314684963,-99.6927317321
135.8,97.7321426023,970.050791887,213.057954048,-11.5261037704,-54.7829516578,92.4094429383,893.047623302,343.726012317,-323.769030482,-99.6927317321
136.8,96.4004538961,967.888669987,204.558539495,-16.1789199375,-56.9045272698,92.4094429383,893.047623302,342.286367084,-323.769030483,-99.6927317321
137.8,96.8192633805,968.120000381,206.391360577,-15.0547088283,-55.3310500998,92.4094429383,893.227620625,343.198490439,-323.788815933,-99.6927317321
138.8,101.523710462,980.675584244,234.103630369,-5.27969098496,-50.542489745,92.4094429383,895.721686525,349.041208508,-323.788815933,-99.6927317321
139.8,103.358477875,989.064816353,247.26464401,1.30078565959,-42.2030140275,92.4094429383,897.723739864,353.167856067,-323.788815933,-99.6927317321
140.8,103.653880564,990.123278094,249.768454332,2.09705349339,-40.4140263807,92.4094429383,898.326007405,355.182821522,-323.83363096,-99.6927317321
141.8,105.078574743,994.375094391,260.092317794,6.34191174324,-35.1363067319,92.4094429383,898.325910919,357.124144538,-323.844613184,-99.6927317321
142.8,113.989912219,1016.53634221,290.952271642,11.9404619664,-31.7021615745,92.4094429383,898.325910919,358.322016071,-323.844613184,-99.6927317321
143.8,112.645344886,1016.00209591,291.161375906,11.0472512103,-33.0025897764,92.4094429383,898.325910919,357.380087371,-323.955599306,-99.6927317321
144.8,108.6683199,1008.80954814,276.879319658,1.36656880816,-37.2016996715,92.4094429383,898.325910919,352.585408832,-324.897139538,-99.6927317321
145.8,97.2750918784,997.208739434,251.171350832,-10.7887635869,-42.6918545185,92.4094429383,898.325910919,342.659455914,-327.014474477,-99.6927317321
146.8,91.3634712132,993.141976062,242.406619523,-16.1347723733,-44.3250476232,92.4094429383,898.325910919,332.169758816,-330.413047468,-99.6927317321
147.8,87.5216007214,989.291158672,233.123941321,-20.9882995438,-47.3416063531,92.4094429383,898.325910919,326.307439966,-331.058044359,-99.6927317321
148.8,81.1529568958,984.565536694,222.931825783,-27.2620906999,-51.9241302507,92.4094429383,898.325910919,325.673431329,-331.058045593,-99.6927317321
149.8,81.9048549908,984.64093303,221.487092559,-27.6127864046,-51.1941040704,92.4094429383,898.401163905,325.398261269,-331.058045593,-99.6927317321
150.8,85.8036691414,995.159929195,248.845416996,-18.329171212,-45.1525744356,92.4094429383,902.038957892,334.753461276,-331.058045593,-99.6927317321
151.8,92.6469680798,1014.1249586,289.294024489,-4.15457717981,-31.4339475886,92.4094429383,905.25468611,342.692719546,-331.058045593,-99.6927317321
152.8,92.8977926091,1018.6691735,299.123419757,-0.690798575283,-26.6638386282,92.4094429383,906.513175351,348.475031202,-331.058045593,-99.6927317321
153.8,92.0393283857,1017.92073306,298.244904774,-1.18118453538,-26.5877434428,92.4094429383,906.509776236,347.613994751,-331.137494288,-99.6927317321
154.8,96.9734599294,1027.05635683,315.222784827,4.51459339055,-19.5034826071,92.4094429383,906.509776236,348.992495482,-331.137494222,-99.6927317321
155.8,97.3496125103,1027.98831541,316.850883998,4.65582604316,-19.6427832114,92.4094429383,906.509776236,348.752750097,-331.137494222,-99.6927317321
156.8,90.7300893885,1019.37301082,306.856412946,-3.30479886076,-23.7911160202,92.4094429383,906.495060388,344.453562753,-331.886723737,-99.6927317321
157.8,82.5676428434,1008.84876065,282.95921442,-16.2784531541,-28.812188431,92.4094429383,906.495060388,338.88350701,-333.147563665,-99.6927317321
158.8,78.6225274668,1005.77659103,276.306218267,-19.3837239224,-29.7553139766,92.4094429383,906.495060388,334.623590405,-333.78018974,-99.6927317321
159.8,74.3453750298,1002.75067471,267.834188146,-25.8180707991,-32.9198028943,92.4094429383,906.495060388,325.023072853,-337.459149008,-99.6927317321
160.8,62.8429054527,993.141236132,249.275828682,-35.9427479277,-38.2367016583,92.4094429383,906.495060388,320.6170663,-337.493425063,-99.6927317321
161.8,61.5619449466,990.535331483,240.539737532,-40.2976807089,-40.4146028757,92.4094429383,906.495060388,318.815317562,-337.493425063,-99.6927317321
162.8,64.0456357388,992.912383091,246.626589179,-36.9720399965,-36.2327711236,92.4094429383,907.381657107,322.599783491,-337.493425063,-99.6927317321
163.8,69.0259087507,1007.65375625,274.664972737,-27.773405058,-32.0744621813,92.4094429383,911.074970415,328.940147824,-337.493425063,-99.6927317321
164.8,70.9804449691,1017.11811384,290.143128437,-21.5123200391,-23.9671290182,92.4094429383,913.699918781,333.912773493,-337.493425063,-99.6927317321
165.8,73.6555457171,1022.00345651,296.157940117,-18.9441863199,-20.1032016838,92.4094429383,916.40256599,338.603932629,-337.493425063,-99.6927317321
166.8,77.3977102064,1030.33410449,314.468545658,-11.1878952151,-11.0551857271,92.4094429383,916.527745689,342.932628181,-337.493425063,-99.6927317321
167.8,85.7516200315,1052.086309,341.866084137,-4.87381778561,-6.98481178561,92.4094429383,916.527745689,344.068145546,-337.493425063,-99.6927317321
168.8,84.2308199528,1051.04709268,340.145556163,-6.57730086508,-8.70912142351,92.4094429383,916.527745689,342.617478966,-337.531643708,-99.6927317321
169.8,80.1831065106,1043.18422186,323.626434689,-17.4886765366,-13.438402668,92.4094429383,916.527745689,337.773772131,-339.230741473,-99.6927317321
170.8,69.7373979075,1033.63800593,305.055593619,-27.6525030466,-18.7504503262,92.4094429383,916.527745689,331.823062826,-340.472942391,-99.6927317321
171.8,62.6806289395,1028.78003703,295.553212467,-32.3532963224,-20.6748422849,92.4094429383,916.527745689,322.350434905,-343.812930736,-99.6927317321
172.8,56.9437631467,1023.63085591,282.592995253,-42.6396137577,-25.2957822607,92.4094429383,916.527745689,313.559306756,-345.772597099,-99.6927317321
173.8,49.9110721891,1017.35097977,268.191160371,-52.3980068996,-31.5884034273,92.4094429383,916.527745689,312.696745471,-345.772640964,-99.6927317321
174.8,48.1125414762,1015.01093376,261.554835845,-54.7786219362,-32.7863064216,92.4094429383,916.53063386,309.935854201,-345.805662374,-99.6927317321
175.8,50.4930460117,1023.2771864,280.948153464,-48.1497261384,-28.1558923462,92.4094429383,918.487605681,317.695969955,-345.80566237,-99.6927317321
176.8,55.0200945419,1036.08804606,300.271699885,-39.2509257745,-19.2044885015,92.4094429383,921.03101163,323.405627163,-345.80566237,-99.6927317321
177.8,55.417457907,1041.5045913,310.484669391,-34.739237381,-12.945977542,92.4094429383,923.928888604,328.898397664,-345.80566237,-99.6927317321
178.8,60.6583184031,1050.26730875,317.383440929,-32.4170185142,-8.86696494182,92.4094429383,929.205575196,333.469395047,-345.80566237,-99.6927317321
179.8,64.661362612,1057.41446352,330.445180086,-27.9326725205,-2.73004946475,92.4094429383,929.205576659,334.874817355,-345.80566237,-99.6927317321
180.8,64.960152956,1058.29010339,332.472505233,-27.1951040333,-2.48443065619,92.4094429383,929.205576659,335.139682059,-345.80566237,-99.6927317321
181.8,62.0452978897,1054.3648163,327.632164386,-30.3598641477,-4.42162945159,92.4094429383,929.205576659,332.755336946,-345.896420692,-99.6927317321
182.8,55.8709658315,1046.05305656,310.469911531,-39.9004099097,-8.85065315933,92.4094429383,929.205576659,327.564748172,-346.136043195,-99.6927317321
183.8,52.986048347,1044.03284661,306.107018238,-42.1540902583,-9.54571474492,92.4094429383,929.205576659,324.642680747,-346.370763562,-99.6927317321
184.8,49.3045216814,1041.69643199,299.706438473,-47.2283614538,-12.3423740272,92.4094429383,929.205576659,315.25671026,-349.465266811,-99.6927317321
185.8,37.5041817775,1032.02032457,280.767830698,-58.8959355624,-17.8508859756,92.4094429383,929.205576659,311.060985621,-349.51149796,-99.6927317321
186.8,35.9843393028,1028.38334491,268.64949859,-65.8430062705,-21.1854572231,92.4094429383,929.205576659,308.056516523,-349.512073793,-99.6927317321
187.8,37.5258122011,1030.25290739,273.011591596,-63.316960447,-17.8379103307,92.4094429383,929.776181402,310.993506903,-349.532467798,-99.6927317321
188.8,41.2397349991,1041.78331614,299.688484775,-55.223235776,-14.2121156618,92.4094429383,932.301156047,317.394483345,-349.532467798,-99.6927317321
189.8,42.6922523599,1046.61687489,306.754384224,-51.3882198007,-9.22915073161,92.4094429383,933.154127638,319.785076648,-349.532467798,-99.6927317321
190.8,46.5940722559,1055.25621731,315.982379875,-47.9789561216,-3.79984696278,92.4094429383,941.281710103,330.370291761,-349.532467798,-99.6927317321
191.8,48.9612728228,1062.12501332,333.555872713,-41.5166576596,3.88183933566,92.4094429383,941.533407314,334.725222481,-349.532467798,-99.6927317321
192.8,56.4303508709,1078.89790425,356.742072132,-35.903426872,7.39693495914,92.4094429383,941.533407321,335.589687262,-349.532467798,-99.6927317321
193.8,55.3140564766,1078.39572328,356.528339094,-36.7789054083,6.12408155588,92.4094429383,941.533407321,335.027647968,-349.554413946,-99.6927317321
194.8,53.316603976,1073.26570702,344.358967846,-44.4759354054,2.48114189525,92.4094429383,941.533407321,331.61936942,-349.925965577,-99.6927317321
195.8,46.1588856075,1066.72373226,330.514738556,-51.3975513372,-0.92418907493,92.4094429383,941.533407321,327.557085635,-350.011702851,-99.6927317321
196.8,42.4705005517,1064.55524421,325.209462533,-53.8815237626,-1.81157210651,92.4094429383,941.533407321,322.639327911,-350.827435502,-99.6927317321
197.8,37.9185855844,1060.48472776,316.460658561,-59.69933133,-5.11662107058,92.4094429383,941.533407321,317.250219745,-351.087711358,-99.6927317321
198.8,32.2265264831,1054.50447201,302.553573346,-68.8864070784,-9.93035665729,92.4094429383,941.533407321,316.135992348,-351.087740596,-99.6927317321
199.8,31.2386749851,1052.48103758,296.474880238,-71.4346997424,-10.2319937845,92.4094429383,941.751957746,314.115031034,-351.147085952,-99.6927317321
200.8,35.0888113873,1061.73951259,316.570632318,-62.1843217758,-3.60997354207,92.4094429383,943.77652607,321.548268366,-351.14653141,-99.6927317321
201.8,37.4832745904,1067.57427743,328.221032875,-57.2606397284,0.890078507753,92.4094429383,943.95976983,324.835883922,-351.14653141,-99.6927317321
202.8,37.6499542984,1070.23493054,332.645199585,-55.0927758016,4.01412009383,92.4094429383,945.387661246,328.943006664,-351.14653141,-99.6927317321
203.8,39.8773608573,1073.65963258,335.883408323,-53.8365726505,6.1567135555,92.4094429383,946.712665317,331.797159648,-351.14653141,-99.6927317321
204.8,45.1140094184,1083.30272718,353.412625322,-47.1637248661,14.1197909369,92.4094429383,946.71267012,333.817667065,-351.14653141,-99.6927317321
205.8,45.5411250341,1084.56362122,356.077321482,-46.2504718027,14.4181718258,92.4094429383,946.71267012,334.331844995,-351.14653141,-99.6927317321
206.8,43.0317337053,1081.23236826,351.263810455,-49.2234403437,12.472651722,92.4094429383,946.71267012,331.851091055,-351.206761487,-99.6927317321
207.8,38.3331350657,1075.20304112,335.393621526,-57.774959063,7.84818096353,92.4094429383,946.71267012,326.686548412,-351.369184652,-99.6927317321
208.8,34.5301021469,1072.32721327,329.287452123,-60.9345390362,7.30093317343,92.4094429383,946.71267012,322.26440339,-351.819474567,-99.6927317321
209.8,30.7364072707,1069.753722,322.241146993,-65.6843419405,4.75780374455,92.4094429383,946.71267012,312.288289151,-355.20817631,-99.6927317321
210.8,21.0665418589,1060.91897214,304.212116156,-77.151344376,-1.45438071672,92.4094429383,946.71267012,308.327825758,-355.218320659,-99.6927317321
211.8,19.853226809,1058.0924122,295.520522023,-81.3347118126,-3.66282720259,92.4094429383,946.71267012,306.338831129,-355.262774915,-99.6927317321
212.8,23.413911784,1063.2867728,307.295993689,-75.6002736685,3.87598799676,92.4094429383,949.231293894,313.879796866,-355.270912832,-99.6927317321
213.8,27.060667677,1075.32870828,329.763499855,-67.9789720817,6.88250363856,92.4094429383,952.455770391,319.294044432,-355.270912832,-99.6927317321
214.8,28.2025717844,1080.54263802,338.692661207,-63.6670284543,11.8755724567,92.4094429383,953.181380976,322.892442578,-355.270912832,-99.6927317321
215.8,29.9447854839,1084.10240639,343.868198582,-61.4207180402,15.8039673811,92.4094429383,954.769857597,327.217466336,-355.270912832,-99.6927317321
216.8,32.2392693528,1088.76207735,356.795226672,-55.84160163,22.6405321856,92.4094429383,954.831255228,330.774277806,-355.270912832,-99.6927317321
217.8,36.5091618603,1098.0821366,367.426857035,-52.5359149911,26.8857037407,92.4094429383,954.831255228,331.070489995,-355.270912832,-99.6927317321
218.8,35.4593868495,1097.45579224,366.630931885,-53.4387811257,25.5751316711,92.4094429383,954.844994531,329.98045064,-355.292147989,-99.6927317321
219.8,33.068858668,1092.32678791,354.502803884,-61.4732497197,21.7286247586,92.4094429383,954.844994531,324.916808482,-355.902203309,-99.6927317321
220.8,27.0517379346,1085.9255913,340.631103566,-67.9791364657,18.2486516626,92.4094429383,954.844994531,319.331536569,-356.113807025,-99.6927317321
221.8,21.4730151944,1082.46280402,333.162512306,-71.4834064594,16.5441395361,92.4094429383,954.844994531,310.252292146,-358.467493866,-99.6927317321
222.8,17.1811321271,1078.50956034,322.910519981,-78.3220222333,12.5023619163,92.4094429383,954.844994531,303.428275408,-359.277417338,-99.6927317321
223.8,11.2517011108,1073.19606969,311.576903105,-85.1326951066,7.18288020491,92.4094429383,954.844994531,302.702316829,-359.277417347,-99.6927317321
224.8,9.86664923707,1070.74416472,305.665956268,-87.6567768484,6.52215501689,92.4094429383,954.844994531,300.060849894,-359.288257498,-99.6927317321
225.8,14.9457641138,1084.03802527,334.195234487,-77.8665537929,12.7629248515,92.4094429383,958.19639587,310.09300763,-359.288257088,-99.6927317321
226.8,18.8232855718,1094.62466801,353.255100877,-70.3445706799,19.4832279825,92.4094429383,958.986766134,314.593753334,-359.288257088,-99.6927317321
227.8,18.9994570138,1096.79483801,358.759305329,-67.3644003421,23.941549484,92.4094429383,960.071902159,317.640942112,-359.288257088,-99.6927317321
228.8,23.1515632952,1103.5356296,365.890774372,-65.4917224372,27.9835772333,92.4094429383,964.454196749,323.497638022,-359.288257088,-99.6927317321
229.8,27.808732953,1111.5889721,379.7603581,-59.4521128481,34.7555837067,92.4094429383,964.454197176,325.015005368,-359.288257088,-99.6927317321
230.8,28.3327500173,1112.93951711,382.87779261,-58.414725125,35.0791787815,92.4094429383,964.454197176,325.756195881,-359.288257088,-99.6927317321
231.8,24.6616828834,1108.04179456,376.834751694,-62.596370099,32.1407450132,92.4094429383,964.437392195,322.612816132,-359.302469473,-99.6927317321
232.8,19.1511296793,1100.65868456,359.083954601,-73.7322029897,27.4263950728,92.4094429383,964.437392195,317.377922156,-359.981919183,-99.6927317321
233.8,16.11203524,1098.41588975,354.872211017,-75.9685222807,26.8786059506,92.4094429383,964.437392195,314.149355389,-360.151955423,-99.6927317321
234.8,12.8001669898,1095.84455266,349.522116437,-79.672614077,24.8370075438,92.4094429383,964.437392195,306.186129464,-362.149820638,-99.6927317321
235.8,2.35673716162,1087.78996313,331.449230684,-90.3576220458,19.3806025328,92.4094429383,964.437392195,302.424431645,-362.14987607,-99.6927317321
236.8,0.947712138512,1084.10681985,321.005356183,-94.9864942508,16.9032200433,92.4094429383,964.437392195,299.805642746,-362.157302983,-99.6927317321
237.8,2.61930274873,1085.98232311,327.786973076,-91.8917346599,21.0006483892,92.4094429383,965.542315641,304.275321416,-362.171973682,-99.6927317321
238.8,6.8488237068,1097.78515598,354.896654971,-84.9885863539,23.3338391859,92.4094429383,968.211188854,311.629503956,-362.171973682,-99.6927317321
239.8,8.07598875755,1103.05329031,364.295697193,-81.2570310056,27.814182978,92.4094429383,968.853457393,316.084236406,-362.171973682,-99.6927317321
240.8,9.08306606842,1105.4356529,368.575603759,-79.4081734091,31.1256926991,92.4094429383,970.114417634,320.201468218,-362.171973682,-99.6927317321
241.8,12.5848499648,1112.54515667,384.955055234,-72.4146647032,38.8494344416,92.4094429383,970.191105657,325.181773598,-362.171973682,-99.6927317321
242.8,15.4503193657,1119.06705639,392.724836174,-70.185029224,41.6610295981,92.4094429383,970.191105663,325.565708023,-362.171973682,-99.6927317321
243.8,14.8031899181,1118.68852435,392.613471579,-70.4977977569,41.0165260148,92.4094429383,970.191105663,325.287210848,-362.193240518,-99.6927317321
244.8,12.3486559661,1113.70075041,381.223765519,-77.2635357909,37.6348229974,92.4094429383,970.191105663,321.018040333,-362.355955026,-99.6927317321
245.8,4.67774735706,1106.11988446,367.904788504,-84.9490184501,33.5625149541,92.4094429383,970.191105663,316.559856003,-362.718066326,-99.6927317321
246.8,-0.537863185449,1102.36296959,360.701055559,-88.9674053838,32.3786244813,92.4094429383,970.191105663,308.391197131,-364.36877513,-99.6927317321
247.8,-3.85118809946,1099.22289205,353.474036989,-92.8099557397,29.6092688475,92.4094429383,970.191105663,303.768670134,-364.478966165,-99.6927317321
248.8,-10.011264794,1093.83176062,341.404084974,-100.330382127,24.1732356704,92.4094429383,970.191105663,302.56836527,-364.478967033,-99.6927317321
249.8,-11.4929250767,1091.34659059,334.160010092,-103.065435982,23.2278487337,92.4094429383,970.1994797,299.513344742,-364.533095969,-99.6927317321
250.8,-8.3504547151,1098.63222151,352.830714342,-95.8872896074,28.0917492333,92.4094429383,971.307528223,307.620718618,-364.5330959,-99.6927317321
251.8,-5.11349166294,1106.72321756,369.030320435,-89.4292137835,34.0260660322,92.4094429383,971.769920761,311.559510254,-364.5330959,-99.6927317321
252.8,-4.3597460296,1109.8460173,375.27738776,-87.2460908211,37.9956511164,92.4094429383,973.913088656,316.465131642,-364.5330959,-99.6927317321
253.8,2.25716215672,1119.98603717,386.267133292,-83.768466911,43.1969875604,92.4094429383,977.446138103,324.688236676,-364.5330959,-99.6927317321
254.8,8.09851734461,1132.81820171,407.582023256,-75.2705179967,52.2246684054,92.4094429383,977.483154481,327.005192171,-364.5330959,-99.6927317321
255.8,9.01350727172,1134.99412413,412.503651337,-73.824453864,52.8438451241,92.4094429383,977.483154481,328.242324401,-364.5330959,-99.6927317321
256.82,4.63154717274,1129.65368462,405.422329994,-78.2984804305,49.3877663325,92.4094429383,977.483154481,324.132825339,-364.95863958,-99.6927317321
257.84,-1.07709512697,1122.16315382,386.454062533,-89.6423942704,44.7529906575,92.4094429383,977.483154481,316.823027074,-365.660676892,-99.6927317321
258.86,-5.00097768773,1118.92320001,379.75914797,-93.1572131238,44.1182445162,92.4094429383,977.483154481,311.301566315,-366.221626658,-99.6927317321
259.88,-8.68488271858,1115.74274959,372.244525879,-98.9630667341,40.6712545907,92.4094429383,977.483154481,301.916331453,-369.780120887,-99.6927317321
260.9,-18.2325406629,1107.28740223,355.498388777,-109.601957761,33.1560239831,92.4094429383,977.483154481,298.252498334,-369.784401961,-99.6927317321
261.92,-19.7578768024,1103.8284449,344.547531883,-114.784756856,30.5149474856,92.4094429383,977.483154481,295.073104774,-369.82078685,-99.6927317321
262.94,-15.5031995062,1109.00474743,356.140735589,-109.353391705,36.8738708464,92.4094429383,978.737965475,301.070529351,-369.82101872,-99.6927317321
263.96,-12.6579290915,1117.44376909,375.775312595,-103.591739946,40.0481212408,92.4094429383,979.381129982,305.865307921,-369.82101872,-99.6927317321
264.98,-12.0812434903,1121.86279566,385.369001753,-99.3987311647,44.8616678571,92.4094429383,979.776465,310.611486404,-369.82101872,-99.6927317321
266.0,-5.76086672945,1134.5029903,397.511256129,-94.7496003373,51.7668908308,92.4094429383,987.528822334,318.96855251,-369.82101872,-99.6927317321
267.02,-0.971822289194,1144.15652182,417.392079399,-85.4989068391,64.0944629549,92.4094429383,987.68409499,322.881880332,-369.82101872,-99.6927317321
268.04,2.54003636135,1151.45690495,425.719868642,-83.7843800374,64.9394501452,92.4094429383,987.684094991,323.672447974,-369.82101872,-99.6927317321
269.06,0.32427443023,1149.75564251,423.381987822,-85.2231150752,62.8857462447,92.4094429383,987.684094991,322.164643511,-369.846941403,-99.6927317321
270.08,-4.36018781671,1140.30830495,400.35461871,-97.7264864096,56.3394880733,92.4094429383,987.684094991,314.251062196,-370.763126971,-99.6927317321
271.1,-12.4774593625,1133.48616528,387.794230799,-107.030942362,53.0688966849,92.4094429383,987.684094991,309.989934301,-371.713042241,-99.6927317321
272.12,-15.8873522027,1131.51139204,382.700124822,-110.138266433,51.3013740533,92.4094429383,987.684094991,302.205359497,-373.577750383,-99.6927317321
273.14,-23.7577171796,1124.84963863,371.787139704,-116.049250837,46.212642984,92.4094429383,987.684094991,298.876138379,-373.576950869,-99.6927317321
274.16,-25.7834178446,1120.66687572,355.773511591,-124.471920724,41.4285386319,92.4094429383,987.684094991,296.445398646,-373.610852566,-99.6927317321
275.18,-25.0435529548,1121.53877896,358.12753596,-122.663868383,44.6574059559,92.4094429383,988.145593508,298.454713369,-373.699438868,-99.6927317321
276.2,-21.0530311669,1133.41301541,389.111465674,-113.934409113,48.1635733859,92.4094429383,992.870118788,309.255460486,-373.699438867,-99.6927317321
277.22,-19.9002266209,1139.17660678,399.643972276,-108.604479745,54.173525437,92.4094429383,993.641579646,312.833314916,-373.699438867,-99.6927317321
278.24,-17.1645726424,1144.38983437,405.947517111,-105.521184138,59.6039294198,92.4094429383,996.212000134,318.197035069,-373.699438867,-99.6927317321
279.26,-14.6810545004,1149.5861595,418.134519649,-100.690068022,65.8955785278,92.4094429383,996.281345005,322.091856445,-373.699438867,-99.6927317321
280.28,-6.2475234837,1163.86372601,434.619220056,-94.8279572817,70.2293969859,92.4094429383,996.281345005,322.925445633,-373.699438867,-99.6927317321
281.3,-7.33602713003,1163.26140688,434.348493674,-95.4576866159,69.3074640521,92.4094429383,996.281345005,322.215575673,-373.706171382,-99.6927317321
282.32,-9.60283470165,1158.69764891,423.394253381,-101.878562697,65.6270349625,92.4094429383,996.281345005,318.361194309,-373.799180706,-99.6927317321
283.34,-14.1150637032,1154.48862834,414.740101518,-106.752021965,63.1383975382,92.4094429383,996.281345005,314.595499387,-373.914945613,-99.6927317321
284.36,-20.3580222142,1150.6661336,406.126662693,-111.904567556,60.8707378914,92.4094429383,996.281345005,302.478113508,-377.235707823,-99.6927317321
285.38,-25.6298968801,1145.83078929,395.645908158,-117.602788673,56.8224299141,92.4094429383,996.281345005,295.959071067,-377.615475353,-99.6927317321
286.4,-30.9375267311,1139.69325498,382.209423017,-127.599503632,49.7417572488,92.4094429383,996.281345005,294.926241317,-377.615475368,-99.6927317321
287.42,-32.596728566,1137.27497791,375.576063673,-130.252350539,49.607452319,92.4094429383,996.289548608,291.970823325,-377.728865381,-99.6927317321
288.44,-27.4419197211,1149.26786953,405.130045362,-121.852391392,54.887984987,92.4094429383,999.293653057,302.645264109,-377.728855598,-99.6927317321
289.46,-26.7502779731,1151.35181811,408.927383652,-119.721904963,57.2382971725,92.4094429383,999.293774509,304.132365355,-377.728855598,-99.6927317321
290.48,-25.0402451924,1155.72488891,414.417825006,-116.158631753,63.0149450705,92.4094429383,1003.2816073,307.698971333,-377.728855598,-99.6927317321
291.5,-18.8803214538,1166.05433969,429.37805855,-110.198015154,70.1453398999,92.4094429383,1006.23023166,316.590992351,-377.728855598,-99.6927317321
292.52,-9.51563588088,1186.16009432,459.400551324,-100.683922881,79.2142644339,92.4094429383,1006.23625075,317.757655925,-377.728855598,-99.6927317321
293.54,-9.67331767078,1186.93329513,461.80455834,-100.703990789,78.5735631853,92.4094429383,1006.23625075,317.494090422,-377.753213827,-99.6927317321
294.56,-12.0689222973,1181.43504709,452.393654827,-108.367340137,74.8144286911,92.4094429383,1006.23625075,313.553344193,-378.486976162,-99.6927317321
295.58,-18.6818475839,1174.23967784,434.855736334,-119.371872699,69.503913409,92.4094429383,1006.23625075,308.368253891,-379.050469477,-99.6927317321
296.6,-24.3373044915,1170.1703461,428.167023207,-122.869264603,68.3170255951,92.4094429383,1006.23625075,300.134834,-380.565434337,-99.6927317321
297.62,-26.7344586197,1167.90562465,421.926711174,-127.317437601,65.4048554513,92.4094429383,1006.23119303,295.263479376,-381.238488994,-99.6927317321
298.64,-37.0421731941,1159.49081814,404.416175808,-139.333013507,57.5092330107,92.4094429383,1006.23119302,292.386405265,-381.238488995,-99.6927317321
299.66,-39.0899950518,1155.75902545,393.770578261,-143.578052139,55.8365884294,92.4094429383,1006.23119302,288.262063582,-381.258350628,-99.6927317321
300.68,-34.387855369,1164.64397752,415.060064789,-133.807586134,62.4298675829,92.4094429383,1009.26210567,297.714832972,-381.258345304,-99.6927317321
301.7,-32.5351284317,1169.58068167,424.363321116,-129.439176376,66.5906886011,92.4094429383,1009.45005581,300.631643285,-381.258345304,-99.6927317321
302.72,-32.3559236139,1172.51952637,430.623259654,-126.195232781,70.7209213284,92.4094429383,1010.18354606,304.226816135,-381.258345304,-99.6927317321
303.74,-27.6405793373,1180.79892887,440.144457841,-123.299254328,75.3138067444,92.4094429383,1014.2716149,311.739172755,-381.258345304,-99.6927317321
304.76,-22.7337880053,1190.21005172,456.580298683,-115.341907652,84.8275999552,92.4094429383,1014.32707732,313.999161157,-381.258345304,-99.6927317321
305.78,-22.292169241,1191.39824682,459.179785448,-114.553473984,85.0219520935,92.4094429383,1014.32707732,314.331369656,-381.258345304,-99.6927317321
306.8,-24.4188168304,1188.22735143,454.630046118,-117.672686445,82.9664628568,92.4094429383,1014.32707732,311.891462102,-381.453857259,-99.6927317321
307.82,-29.9735890546,1181.14842046,436.056455721,-128.506099727,76.8716641351,92.4094429383,1014.32707732,305.268799286,-381.804317616,-99.6927317321
308.84,-33.2419945505,1178.70647269,430.833604084,-131.161916096,76.0543960148,92.4094429383,1014.32707732,301.277019528,-381.972867565,-99.6927317321
309.86,-36.5056068896,1176.6367176,425.942618437,-134.415388927,73.8715034713,92.4094429383,1014.31732361,294.772997942,-383.851873736,-99.6927317321
310.88,-45.9290132631,1168.67090848,410.042698541,-144.886787872,66.6059360133,92.4094429383,1014.31731635,290.552439084,-383.885698232,-99.6927317321
311.9,-47.9941288294,1163.56559889,396.146334532,-152.425257409,62.1339028639,92.4094429383,1014.31731635,285.921240732,-383.952977771,-99.6927317321
312.92,-45.6940090367,1167.50172546,407.125523068,-146.832600264,67.4334389358,92.4094429383,1015.93388453,293.244918689,-383.963316657,-99.6927317321
313.94,-41.0257967008,1179.91859265,432.389768404,-139.129262203,72.6455429601,92.4094429383,1018.4084131,301.177683155,-383.963316657,-99.6927317321
314.96,-39.8209676395,1186.6882653,444.514865858,-133.266119028,79.8494070289,92.4094429383,1019.68190416,306.549762331,-383.963316657,-99.6927317321
315.98,-37.6792775774,1190.60069568,449.150057416,-130.674872493,84.0668037343,92.4094429383,1021.68741811,311.850285314,-383.963316657,-99.6927317321
317.0,-33.3400762584,1200.84721395,468.604130577,-120.918645117,96.0231367031,92.4094429383,1021.77497073,316.635019905,-383.963316657,-99.6927317321
318.02,-31.3215342322,1204.70252211,473.345565817,-119.540173471,96.7363823928,92.4094429383,1021.77497077,317.059978169,-383.963316657,-99.6927317321
319.04,-33.2389438691,1203.09337279,470.511214135,-121.573220608,94.6412387049,92.4094429383,1021.77497077,314.876806884,-384.07445341,-99.6927317321
320.06,-36.5820433897,1196.03895164,453.480344328,-131.586960952,89.2409183717,92.4094429383,1021.77497077,308.013889796,-384.429204635,-99.6927317321
321.08,-41.5157809881,1192.13949188,448.15784791,-135.386193644,87.66157864,92.4094429383,1021.77497077,305.761854526,-384.568500665,-99.6927317321
322.1,-46.7088389492,1188.65699747,440.454301758,-140.969715328,84.7343120314,92.4094429383,1021.77497077,294.612474245,-388.366414066,-99.6927317321
323.12,-55.6348963135,1181.30726714,426.168515964,-148.415912507,78.3022047148,92.4094429383,1021.77497077,289.558366559,-388.406860932,-99.6927317321
324.14,-57.9616904733,1177.74081608,411.840949948,-156.826333261,73.0653869797,92.4094429383,1021.77497077,287.392551561,-388.406860933,-99.6927317321
325.16,-55.9848947222,1180.21584582,418.076067709,-153.193479524,78.5864299221,92.4094429383,1023.19367579,292.847976276,-388.406860933,-99.6927317321
326.18,-52.8492483108,1189.7303104,438.765990294,-146.220641488,82.1910342409,92.4094429383,1026.0509552,299.13564342,-388.406860933,-99.6927317321
327.2,-52.2175967263,1192.20972568,443.138112284,-143.820503898,85.0899395746,92.4094429383,1026.09450391,301.003479178,-388.406860933,-99.6927317321
328.22,-49.0128270661,1198.87623234,450.58943647,-139.85228744,91.6818076169,92.4094429383,1030.47551628,307.749141025,-388.406860933,-99.6927317321
329.24,-45.7256234863,1204.5974158,464.146130765,-133.178261297,99.7138661733,92.4094429383,1030.69741892,312.918104315,-388.406860933,-99.6927317321
330.26,-41.6830789832,1213.85903743,477.091980824,-128.248666074,104.966375682,92.4094429383,1030.69741893,313.578249236,-388.406860933,-99.6927317321
331.28,-41.7032398535,1214.45890537,478.978375057,-127.368943902,105.838861828,92.4094429383,1030.69741893,314.120217955,-388.406860933,-99.6927317321
332.3,-44.3980546085,1207.90551695,465.601048396,-137.550805741,100.649626426,92.4094429383,1030.69741893,309.564477885,-388.843135583,-99.6927317321
333.32,-51.5847468575,1200.7649067,451.892661775,-145.179751921,95.9157999374,92.4094429383,1030.69741893,304.471666643,-389.301412232,-99.6927317321
334.34,-56.1905419555,1197.49765751,445.495747685,-149.28368018,94.255163573,92.4094429383,1030.69741893,296.819458065,-390.651726534,-99.6927317321
335.36,-61.0651042391,1193.21007019,437.362325321,-154.168207321,91.0090089512,92.4094429383,1030.69741893,292.475974417,-390.695860316,-99.6927317321
336.38,-66.7157729002,1187.25871506,421.753042298,-164.409658417,83.018177973,92.4094429383,1030.69741893,291.307258828,-390.695860316,-99.6927317321
337.4,-67.8370352521,1184.86181073,414.535624328,-167.763889458,82.2049100058,92.4094429383,1030.84945153,288.270213855,-390.765866336,-99.6927317321
338.42,-61.8289038165,1201.85522683,456.137501975,-155.481062069,90.3480549805,92.4094429383,1037.67627952,303.188582267,-390.765866302,-99.6927317321
339.44,-59.5858413193,1207.56857073,468.388361878,-149.751398833,95.3687920781,92.4094429383,1037.94585953,306.356644552,-390.765866302,-99.6927317321
340.46,-58.6962995931,1210.1629337,471.96706923,-146.854565621,99.5062981605,92.4094429383,1039.17190171,309.112331091,-390.765866302,-99.6927317321
341.48,-55.2140230019,1216.74634804,482.278261792,-142.482608825,104.74813365,92.4094429383,1040.20334471,316.581650151,-390.765866302,-99.6927317321
342.5,-48.8564742288,1228.29418776,498.411784698,-135.535891216,112.191294272,92.4094429383,1040.20355987,317.893597054,-390.765866302,-99.6927317321
343.52,-48.4536860825,1229.45873781,500.949938985,-134.171132115,113.043228648,92.4094429383,1040.23656269,319.0140021,-390.765866302,-99.6927317321
344.54,-51.0275699258,1223.62318172,491.556938119,-140.674564843,109.457258309,92.4094429383,1040.23656285,314.761631018,-391.116670147,-99.6927317321
345.56,-58.9601510606,1214.37493678,471.778352522,-153.267279273,102.306145695,92.4094429383,1040.23656285,308.012681131,-391.796074823,-99.6927317321
346.58,-65.3981895739,1209.44176481,463.057436242,-158.068120327,100.626016576,92.4094429383,1040.23656285,298.789659203,-393.612296937,-99.6927317321
347.6,-68.327396893,1207.14195075,455.625576406,-164.079391497,97.1279262349,92.4094429383,1040.23656285,291.477537369,-394.939429133,-99.6927317321
348.62,-77.8823457244,1198.22669512,439.149037746,-175.775741429,86.9311586617,92.4094429383,1040.23656285,288.815735795,-394.939429165,-99.6927317321
349.64,-80.5116062123,1193.51776618,426.165309053,-182.191369971,83.4033195507,92.4094429383,1040.23656285,283.645755573,-395.121568948,-99.6927317321
350.66,-76.8078015737,1201.11212133,444.279033184,-173.546339911,90.7655956502,92.4094429383,1041.30580066,293.082871184,-395.121517044,-99.6927317321
351.68,-74.0337086329,1208.94227625,457.874515525,-169.594916919,94.5463612249,92.4094429383,1042.18145476,296.681943538,-395.121517044,-99.6927317321
352.7,-73.9727524003,1210.54916792,461.397066609,-167.079175286,97.6276672527,92.4094429383,1042.87533616,298.458185517,-395.121517044,-99.6927317321
353.72,-68.8810837624,1219.40599859,471.015766013,-162.243293237,104.16976865,92.4094429383,1046.06292963,306.5817642,-395.121517044,-99.6927317321
354.74,-61.9232892331,1233.39405805,496.914191596,-148.06480003,118.265508747,92.4094429383,1046.07398176,309.689664945,-395.121517044,-99.6927317321
355.76,-55.716054728,1247.56574787,521.351631261,-143.262629272,119.350172906,92.4094429383,1046.11698504,313.440235062,-395.121517044,-99.6927317321
356.78,-56.7973600212,1245.83102265,518.548589711,-144.844118085,118.119729605,92.4094429383,1046.11664664,311.893140182,-395.16325146,-99.6927317321
357.8,-64.0897746765,1236.56764134,500.954935777,-156.75479152,111.415273217,92.4094429383,1046.11664664,305.129312904,-395.522559579,-99.6927317321
358.82,-67.8978040457,1233.50106314,495.131669813,-160.087969608,110.489634395,92.4094429383,1046.11664664,300.490980812,-396.025692391,-99.6927317321
359.84,-71.153828753,1230.98959527,488.624326884,-165.169813747,106.543731211,92.4094429383,1046.11664664,291.958817586,-398.408203674,-99.6927317321
360.86,-81.9684852802,1221.27666288,470.981606546,-176.865117256,98.4755615134,92.4094429383,1046.11664664,287.689500129,-398.409046306,-99.6927317321
361.88,-84.3426271099,1216.0250331,453.867768685,-187.707552177,92.9011180004,92.4094429383,1046.11664664,283.099660286,-398.588200604,-99.6927317321
362.9,-81.4982743527,1219.9222977,464.253088781,-181.77259381,99.7193914223,92.4094429383,1046.92656927,289.973151578,-398.640295007,-99.6927317321
363.92,-79.5597087883,1226.8421439,479.112805007,-177.309147787,101.754020111,92.4094429383,1048.25801503,294.485481756,-398.640295007,-99.6927317321
364.94,-79.1329132864,1230.1118042,485.41329263,-174.193845571,105.695600335,92.4094429383,1048.62181754,298.051881972,-398.640295007,-99.6927317321
365.96,-73.8273480035,1240.01222655,496.151279528,-168.599874756,112.81081065,92.4094429383,1054.4593599,307.770472611,-398.640295007,-99.6927317321
366.98,-68.1941862881,1253.7710081,522.629124561,-153.297538613,130.474889719,92.4094429383,1055.34507439,314.206007945,-398.640295007,-99.6927317321
368.0,-58.5973595921,1274.33163871,553.380480729,-146.216200467,131.808601214,92.4094429383,1055.34507439,317.225253194,-398.640295007,-99.6927317321
369.02,-60.5064542378,1272.55919589,551.432684025,-148.119050551,129.854047931,92.4094429383,1055.33306105,315.635879093,-398.640295007,-99.6927317321
370.04,-64.489523133,1264.17681616,530.769644936,-161.570336086,122.745436291,92.4094429383,1055.33306104,308.326761175,-399.31820038,-99.6927317321
371.06,-71.7360741258,1257.90733368,520.555806807,-168.944334412,120.765957643,92.4094429383,1055.33306104,304.165198453,-399.707411294,-99.6927317321
372.08,-76.7076788619,1255.08275859,514.549245729,-173.337231134,118.49687569,92.4094429383,1055.32502506,294.542699752,-402.226270867,-99.6927317321
373.1,-85.7269836518,1247.11788587,501.061959207,-182.317003679,112.174136771,92.4094429383,1055.32462485,289.17833558,-402.254576386,-99.6927317321
374.12,-88.450067942,1242.02996326,483.26208125,-194.261209693,104.503624455,92.4094429383,1055.32462485,286.599536345,-402.305664686,-99.6927317321
375.14,-87.8400465289,1242.50647762,483.869056602,-193.69256409,108.07705251,92.4094429383,1055.80675193,287.863457664,-402.57897926,-99.6927317321
376.16,-83.3409683057,1253.4493367,509.268036743,-184.020536367,112.565447211,92.4094429383,1059.14867968,296.598511896,-402.578979254,-99.6927317321
377.18,-82.0397975593,1258.45721383,517.620723175,-179.53162147,118.040482654,92.4094429383,1059.50901679,299.828141135,-402.578979254,-99.6927317321
378.2,-79.2677363716,1264.45025543,524.491967933,-175.311878064,123.974603298,92.4094429383,1062.98964702,306.060635466,-402.578979254,-99.6927317321
379.22,-75.8281539298,1270.44574594,539.836997643,-167.606165787,133.470807237,92.4094429383,1063.38612987,312.412428397,-402.578979254,-99.6927317321
380.24,-67.7213402921,1286.05430462,564.634406969,-159.535863073,138.736008107,92.4094429383,1063.38614167,313.714543963,-402.578979254,-99.6927317321
381.26,-68.2770421364,1285.86109997,565.267573516,-159.746974052,138.09647724,92.4094429383,1063.38614167,313.623314556,-402.603513876,-99.6927317321
382.28,-71.2799787201,1279.12858346,551.020079109,-170.999817017,131.290931179,92.4094429383,1063.38614167,307.956644932,-403.208936668,-99.6927317321
383.3,-80.437322214,1270.2074475,533.642196116,-182.028602533,125.777820087,92.4094429383,1063.38614167,301.015675791,-403.752432267,-99.6927317321
384.32,-86.6307325113,1266.15907244,526.296433963,-186.794099595,123.133398405,92.4094429383,1063.38614167,290.933697668,-406.185891401,-99.6927317321
385.34,-92.3451481138,1261.27471087,514.479090307,-194.739697853,118.24914831,92.4094429383,1063.38614167,283.224173015,-406.741594383,-99.6927317321
386.36,-98.0205902222,1255.85543708,499.899497823,-205.391359155,110.439732575,92.4094429383,1063.38614167,282.368140544,-406.741594409,-99.6927317321
387.38,-100.961087378,1252.03792158,490.978874438,-209.71301955,109.001783105,92.4094429383,1063.38614167,277.789399884,-406.765143735,-99.6927317321
388.4,-94.5554745787,1265.17119898,520.427350956,-202.555510451,113.038526572,92.4094429383,1066.14526417,289.480827138,-406.7651437,-99.6927317321
389.42,-93.6952618039,1267.70607034,525.055057362,-200.089444642,115.83074114,92.4094429383,1066.22455384,291.380468981,-406.7651437,-99.6927317321
390.44,-92.8497131973,1270.56953943,528.889590304,-197.083894319,120.779221912,92.4094429383,1067.51499707,294.364311716,-406.7651437,-99.6927317321
391.46,-89.0993365432,1277.83808845,541.00377413,-192.044901456,126.920641104,92.4094429383,1068.86948567,302.257813179,-406.7651437,-99.6927317321
392.48,-84.0047227866,1291.90234936,563.045443427,-182.497467804,138.592713173,92.4094429383,1068.90071725,304.212800618,-406.7651437,-99.6927317321
393.5,-83.6872312613,1292.71286014,565.409048729,-181.353365366,139.208317141,92.4094429383,1068.90071725,304.872801237,-406.7651437,-99.6927317321
394.52,-86.3385441384,1287.84577288,557.933290929,-187.219228588,135.84676709,92.4094429383,1068.90071725,301.011883142,-406.957952807,-99.6927317321
395.54,-92.831814162,1279.29166742,538.604265372,-199.273979718,129.73211374,92.4094429383,1068.90071725,295.30639431,-407.532560579,-99.6927317321
396.56,-96.2858711316,1276.72575417,533.923016057,-201.956825461,128.688424292,92.4094429383,1068.90071725,290.391125552,-407.93499187,-99.6927317321
397.58,-98.1177849366,1274.77607873,529.483115353,-205.559816923,126.097590006,92.4094429383,1068.87954705,286.998164369,-408.096069143,-99.6927317321
398.6,-110.849277638,1262.62775371,502.790893971,-226.506506935,112.888940325,92.4094429383,1068.87954704,283.30225184,-408.096070042,-99.6927317321
399.62,-113.858361119,1257.36362657,488.812430651,-233.37537203,109.235481682,92.4094429383,1068.88171984,278.330595812,-408.360221393,-99.6927317321
400.64,-107.212229471,1268.71872468,514.750411957,-220.576636682,117.54941613,92.4094429383,1075.07494682,290.760053796,-408.360130629,-99.6927317321
401.66,-103.294740689,1278.62254097,532.64075981,-214.761493718,122.461629965,92.4094429383,1077.06432729,296.767027389,-408.360130629,-99.6927317321
402.68,-102.62771396,1285.08831711,545.45058716,-209.585142666,128.844226541,92.4094429383,1079.37818248,304.226133582,-408.360130629,-99.6927317321
403.7,-98.6603934348,1290.72909592,552.992975644,-206.367664141,133.07037396,92.4094429383,1080.84245719,311.391273858,-408.360130629,-99.6927317321
404.72,-90.5281445839,1307.90074586,582.0518433,-191.245790512,148.518151716,92.4094429383,1080.84246317,316.001946562,-408.360130629,-99.6927317321
405.74,-86.5117148815,1315.48506761,594.355790082,-189.072383852,148.75022648,92.4094429383,1080.84246317,317.449486969,-408.360130629,-99.6927317321
406.76,-90.8348934047,1310.26908568,588.377197263,-193.507351549,144.680340046,92.4094429383,1080.84246317,313.911677765,-408.535467603,-99.6927317321
407.78,-99.4592024288,1297.55484828,559.998248382,-212.89178763,135.981857127,92.4094429383,1080.84246317,303.949539026,-409.820559378,-99.6927317321
408.8,-106.264945478,1291.78803944,550.909988234,-220.015656966,134.356076187,92.4094429383,1080.84246317,298.168526983,-410.610798899,-99.6927317321
409.82,-110.18764211,1288.65325992,543.951068354,-226.061462131,130.182564304,92.4094429383,1080.84246317,288.019831666,-414.344430094,-99.6927317321
410.84,-120.617352877,1280.33103252,529.883998689,-234.89247289,121.141751354,92.4094429383,1080.84246317,283.819789879,-414.345956734,-99.6927317321
411.86,-123.204855248,1275.40445392,514.60889637,-244.820395442,115.341908546,92.4094429383,1080.84246317,278.677438704,-414.679307646,-99.6927317321
412.88,-119.033407212,1281.27986119,528.680643086,-236.399545035,124.339663417,92.4094429383,1082.58942763,286.994030919,-414.735974579,-99.6927317321
413.9,-113.79106701,1297.43191989,561.695391887,-228.134211939,126.846004808,92.4094429383,1088.69634398,296.280962318,-414.735974579,-99.6927317321
414.92,-112.73320248,1301.57446897,570.166798654,-224.316350376,132.064164262,92.4094429383,1088.8390562,299.683872923,-414.735974579,-99.6927317321
415.94,-110.061951616,1306.64215003,576.937259352,-220.690683484,137.506868966,92.4094429383,1091.96831252,306.542571595,-414.735974579,-99.6927317321
416.96,-106.903264596,1311.04018263,588.844826117,-213.839272776,146.050242937,92.4094429383,1091.97803968,309.940519195,-414.735974579,-99.6927317321
417.98,-99.4128477254,1323.32029669,608.671215859,-208.635315905,147.236846838,92.4094429383,1091.97803968,312.120675267,-414.735974579,-99.6927317321
419.0,-100.534365637,1322.2563219,606.936451578,-209.863210872,145.760177597,92.4094429383,1091.96247632,310.927224465,-414.762643123,-99.6927317321
420.02,-104.127952947,1311.57736845,582.011466727,-224.789940688,135.821235521,92.4094429383,1091.96247632,302.927883989,-415.588355765,-99.6927317321
421.04,-114.933341198,1301.58929676,567.039702567,-236.373826993,132.23191956,92.4094429383,1091.96247632,298.039735363,-417.174795425,-99.6927317321
422.06,-119.866464133,1297.73925007,560.131698106,-241.779333811,129.528585483,92.4094429383,1091.95007711,288.099073964,-419.829395219,-99.6927317321
423.08,-129.785160514,1288.53039923,543.575531171,-253.103354543,122.225752374,92.4094429383,1091.94117367,280.732957268,-419.914436469,-99.6927317321
424.1,-133.373302037,1283.64908298,525.052305321,-265.123513497,114.624968839,92.4094429383,1091.94117367,278.347958259,-419.914436469,-99.6927317321
425.12,-132.316453555,1284.8530146,524.994761512,-263.832416417,117.879647741,92.4094429383,1092.20430289,278.464858944,-420.024337991,-99.6927317321
426.14,-123.820784602,1303.47037374,564.438470209,-252.336645847,122.723922026,92.4094429383,1099.18584136,293.36772494,-420.02433799,-99.6927317321
427.16,-121.979273452,1310.39345687,577.138601275,-246.328115141,130.188096562,92.4094429383,1099.81152111,299.036404505,-420.02433799,-99.6927317321
428.18,-119.53714909,1315.58854105,585.491947218,-241.75611863,137.268254794,92.4094429383,1102.81561691,306.243936095,-420.02433799,-99.6927317321
429.2,-115.314811852,1323.59003857,603.258396648,-232.777167609,147.652555701,92.4094429383,1103.02479699,313.589175325,-420.02433799,-99.6927317321
430.22,-97.2258272974,1353.84895057,651.960641851,-218.181777544,157.192509244,92.4094429383,1103.16030039,316.680458914,-420.02433799,-99.6927317321
431.24,-97.5995373273,1356.20110162,660.398800171,-215.591620927,157.9966227,92.4094429383,1103.25419496,319.609687563,-420.02433799,-99.6927317321
432.26,-103.084722086,1344.8133869,639.181618514,-233.907201343,149.487749939,92.4094429383,1103.25418611,312.256274227,-422.10872843,-99.6927317321
433.28,-117.845103787,1330.15361555,614.014700874,-252.492848086,139.889787022,92.4094429383,1103.25418611,303.232365656,-424.295492183,-99.6927317321
434.3,-127.029971405,1323.45998455,603.690869384,-261.25782499,136.460116995,92.4094429383,1103.25418611,291.860191097,-429.189460954,-99.6927317321
435.32,-130.695682399,1320.12124193,593.577495283,-267.888440709,131.53665896,92.4094429383,1103.25418611,283.087038466,-430.312338437,-99.6927317321
436.34,-135.539445531,1315.42211648,583.072821967,-275.041709877,124.535361656,92.4094429383,1103.25418611,281.955514776,-430.312338443,-99.6927317321
437.36,-138.921201622,1310.26302103,570.442614539,-280.643368401,122.175636493,92.4094429383,1103.25418611,276.123241562,-430.556197601,-99.6927317321
438.38,-134.33962365,1319.5588508,592.197302969,-271.089913502,127.98536402,92.4094429383,1104.80512491,286.063819682,-430.55619025,-99.6927317321
439.4,-132.029947446,1326.36920962,604.488862411,-265.246872981,133.650437547,92.4094429383,1105.44326196,290.720800918,-430.55619025,-99.6927317321
440.42,-130.927738171,1331.75731763,613.105489356,-260.034657458,140.851237336,92.4094429383,1107.91409975,297.672535692,-430.55619025,-99.6927317321
441.44,-124.373508056,1341.30039176,626.014632188,-253.401478819,147.564674031,92.4094429383,1110.89495747,306.496914599,-430.55619025,-99.6927317321
442.46,-111.64556893,1365.22290338,663.22535178,-239.18901925,158.54622481,92.4094429383,1110.89632074,308.65667793,-430.55619025,-99.6927317321
443.48,-108.687666174,1372.39657263,677.128857234,-234.964159913,159.876289372,92.4094429383,1110.92246447,312.303443984,-430.55619025,-99.6927317321
444.5,-112.263257632,1364.64619321,665.669776704,-243.847562278,155.043610685,92.4094429383,1110.92140096,307.070627612,-430.999161013,-99.6927317321
445.52,-119.864337187,1356.66476493,648.404420327,-256.47327359,148.163422242,92.4094429383,1110.92140096,301.130099298,-431.617784498,-99.6927317321
446.54,-123.890942363,1353.72778328,643.405989644,-258.912723769,147.079316478,92.4094429383,1110.92140096,295.513656143,-432.249079092,-99.6927317321
447.56,-126.475203168,1351.39252082,637.273356496,-264.082138164,143.380688774,92.4094429383,1110.92140096,288.858784917,-433.281508455,-99.6927317321
448.58,-140.170902007,1337.43064363,610.027245528,-287.546380194,126.923665038,92.4094429383,1110.92140096,285.003894615,-433.28150848,-99.6927317321
449.6,-144.456863987,1330.34062504,589.482630762,-302.826301329,119.592078513,92.4094429383,1110.92140096,278.425148694,-433.435549625,-99.6927317321
450.62,-140.459590926,1339.25461507,609.066413443,-294.531967329,125.45005999,92.4094429383,1113.11505398,288.782424482,-433.43530769,-99.6927317321
451.64,-137.650339044,1346.71537193,623.659467852,-289.548870625,129.969209602,92.4094429383,1113.90338338,293.148094494,-433.43530769,-99.6927317321
452.66,-137.45477811,1348.49197027,628.179131721,-287.43812404,132.577315132,92.4094429383,1114.29200872,296.453263743,-433.43530769,-99.6927317321
453.68,-133.887030766,1353.34488614,633.389304934,-284.817868992,136.770074986,92.4094429383,1115.88697423,301.103435437,-433.43530769,-99.6927317321
454.7,-124.788748884,1371.53611843,671.605559778,-264.229475444,156.396605492,92.4094429383,1116.12687077,305.815649539,-433.43530769,-99.6927317321
455.72,-115.359892034,1392.09084835,695.291725404,-259.108209763,157.398544085,92.4094429383,1116.29732158,309.623906693,-433.43530769,-99.6927317321
456.74,-119.525070067,1386.98653518,689.715457596,-263.359636224,153.455199395,92.4094429383,1116.29732158,306.474111885,-433.52988808,-99.6927317321
457.76,-129.594860312,1372.81347949,656.433524838,-285.874860236,140.800753737,92.4094429383,1116.29732158,297.015316872,-436.693246116,-99.6927317321
458.78,-134.303284093,1369.16274888,648.870773669,-290.911965243,138.927831874,92.4094429383,1116.29732158,292.944736318,-437.290105567,-99.6927317321
459.8,-137.037205445,1367.38608623,645.32399595,-293.750099325,136.615883932,92.4094429383,1116.25503574,288.025348963,-438.242706796,-99.6927317321
460.82,-149.621604698,1357.21524652,628.413844078,-305.031804422,126.694201193,92.4094429383,1116.25499644,283.913071884,-438.242707186,-99.6927317321
461.84,-151.735503729,1352.65813574,611.869186606,-317.06197531,119.916109788,92.4094429383,1116.25499644,279.24572278,-438.33425844,-99.6927317321
462.86,-146.513983718,1360.30340886,629.847662278,-308.818066868,128.918516727,92.4094429383,1119.3187491,291.55952201,-438.341977413,-99.6927317321
463.88,-143.081935991,1369.36140864,646.794101983,-302.291208165,131.58118602,92.4094429383,1121.10584763,297.758543008,-438.341977413,-99.6927317321
464.9,-142.493420365,1372.28999915,651.676061495,-298.973734721,135.638563541,92.4094429383,1121.19981626,299.865052809,-438.341977413,-99.6927317321
465.92,-137.955272844,1380.32092455,659.680244981,-293.885102386,142.737333648,92.4094429383,1124.89285118,306.709694428,-438.341977413,-99.6927317321
466.94,-132.590746852,1389.02757256,677.088565056,-283.107544022,156.03947522,92.4094429383,1125.18593205,312.408024815,-438.341977413,-99.6927317321
467.96,-122.726756231,1408.32600359,698.884232623,-276.069337603,158.153590625,92.4094429383,1125.18593205,314.387881204,-438.341977413,-99.6927317321
468.98,-124.33820539,1406.80292588,697.045990557,-277.604859642,156.204271212,92.4094429383,1125.16804486,312.992752189,-438.341977413,-99.6927317321
470.0,-129.017966097,1392.3791453,668.179658473,-297.553831704,144.434733305,92.4094429383,1125.16804485,303.601988457,-440.616521208,-99.6927317321
471.02,-136.141508188,1385.82379207,656.62375747,-307.516842742,140.675356903,92.4094429383,1125.16804485,299.592494565,-441.7804502,-99.6927317321
472.04,-140.406219608,1383.04037451,651.989924648,-310.971739616,138.383411727,92.4094429383,1125.1645125,291.569004761,-443.627406302,-99.6927317321
473.06,-152.028780494,1373.11488767,636.193550213,-323.86478255,131.534503902,92.4094429383,1125.15407898,285.328603938,-443.627946661,-99.6927317321
474.08,-155.47454331,1367.95608527,617.970500471,-337.341056109,123.617322438,92.4094429383,1125.15407898,282.944665606,-443.627946661,-99.6927317321
475.1,-157.302764621,1366.20832874,614.310733652,-339.207479877,124.832442087,92.4094429383,1125.1968061,281.450585286,-443.713736606,-99.6927317321
476.12,-154.029778516,1374.81261621,632.053889493,-331.643937323,128.333024005,92.4094429383,1126.90881536,290.365457841,-443.713736604,-99.6927317321
477.14,-151.774147313,1382.02879918,646.084685108,-325.94726066,134.939736242,92.4094429383,1128.22314605,297.755581421,-443.713736604,-99.6927317321
478.16,-148.720552093,1389.01725738,655.0692017,-320.607156213,143.561255817,92.4094429383,1132.65546016,305.290605876,-443.713736604,-99.6927317321
479.18,-141.925786931,1400.34557823,679.07930731,-308.605581465,157.081672491,92.4094429383,1134.02903626,314.104244004,-443.713736604,-99.6927317321
480.2,-124.097249467,1432.07446385,719.089193428,-293.152031898,167.730598747,92.4094429383,1134.19432593,317.326329981,-443.713736604,-99.6927317321
481.22,-123.525316066,1433.79097529,723.961993924,-290.56654971,169.324917938,92.4094429383,1134.24303409,319.143414979,-443.713736604,-99.6927317321
482.24,-124.857313391,1429.77823861,713.99404073,-298.147285859,165.276464939,92.4094429383,1134.24304243,314.942999379,-444.129949111,-99.6927317321
483.26,-135.546345116,1419.08843995,695.26023793,-311.355325109,156.143082442,92.4094429383,1134.24304243,307.721566996,-444.936282516,-99.6927317321
484.28,-140.340531309,1415.93103995,689.545171903,-315.05507141,154.323128704,92.4094429383,1134.24304243,301.194270717,-446.330525067,-99.6927317321
485.3,-145.55637071,1411.42832372,682.034535755,-320.434774091,150.14354972,92.4094429383,1134.23264835,296.355513342,-446.35237291,-99.6927317321
486.32,-156.903727805,1401.79053461,658.50317559,-341.087193498,135.761197041,92.4094429383,1134.23264835,294.320287461,-446.352372918,-99.6927317321
487.34,-159.641630214,1398.07118057,648.398300846,-345.246412783,134.02619248,92.4094429383,1134.26587779,289.527264196,-446.391590433,-99.6927317321
488.36,-152.735202544,1413.98525898,683.548882611,-333.504011857,140.805432469,92.4094429383,1140.68680334,305.743058609,-446.391573189,-99.6927317321
489.38,-151.903992775,1416.05277676,686.793135252,-331.474225113,142.842692197,92.4094429383,1140.75058947,307.344133242,-446.391573189,-99.6927317321
490.4,-150.724146641,1419.28653524,692.012303418,-327.940417929,147.755302698,92.4094429383,1142.59937037,312.566116468,-446.391573189,-99.6927317321
491.42,-146.777168469,1425.60973491,701.047553179,-323.470482121,153.405020907,92.4094429383,1143.41450701,318.932237612,-446.391573189,-99.6927317321
492.44,-136.095561007,1446.06550033,734.899213509,-309.237112119,167.874283646,92.4094429383,1143.52975027,322.041398496,-446.391573189,-99.6927317321
493.46,-135.954352242,1446.72933601,736.80789699,-308.069209852,168.428718084,92.4094429383,1143.52975027,322.615592524,-446.391573189,-99.6927317321
494.48,-139.270204354,1439.63372784,725.498082935,-316.756724151,163.019854075,92.4094429383,1143.52975027,318.051191998,-446.933230792,-99.6927317321
495.5,-150.377214126,1422.56097289,690.896678726,-343.650015305,149.775829548,92.4094429383,1143.52975027,308.478233291,-451.66431923,-99.6927317321
496.52,-155.556438864,1419.26035762,684.493422893,-347.589167269,148.50600718,92.4094429383,1143.52975027,301.681005395,-452.740288125,-99.6927317321
497.54,-158.394650346,1416.77483524,678.317516186,-352.842477258,144.437996101,92.4094429383,1143.52975027,295.511049885,-453.724666475,-99.6927317321
498.56,-172.341446802,1405.51314884,658.073666666,-367.246432515,133.579755361,92.4094429383,1143.52975027,290.914176031,-453.724683909,-99.6927317321
499.58,-174.991467103,1400.17138085,645.334523717,-374.857728919,130.203362795,92.4094429383,1143.52975027,285.930483047,-453.914252876,-99.6927317321
500.6,-169.81509316,1409.61520197,668.271962394,-361.433720857,139.6341541,92.4094429383,1147.35027413,298.594192682,-453.913955208,-99.6927317321
501.62,-167.066943037,1416.23185125,680.351839673,-357.560417071,142.628381775,92.4094429383,1148.14254201,302.896423396,-453.913955208,-99.6927317321
502.64,-166.650365435,1419.06166627,686.264691369,-353.698839662,146.85218765,92.4094429383,1150.55056363,307.648794752,-453.913955208,-99.6927317321
503.66,-153.596918083,1440.79428177,708.901372851,-343.469338212,158.881131628,92.4094429383,1166.3325515,324.20062069,-453.913955208,-99.6927317321
504.68,-143.334659939,1460.04733679,745.621911257,-318.979632447,181.820685695,92.4094429383,1167.72829245,330.710074325,-453.913955208,-99.6927317321
505.7,-133.362890089,1479.44847602,772.570210378,-313.808470698,183.451915247,92.4094429383,1167.7407287,334.063036408,-453.913955208,-99.6927317321
506.72,-135.122540779,1477.78605099,770.66158164,-315.361336262,181.560123675,92.4094429383,1167.74031021,332.630198484,-453.913955208,-99.6927317321
507.74,-142.106336234,1468.6354336,750.626587432,-329.553104601,173.500800044,92.4094429383,1167.74031021,323.569062857,-454.405488896,-99.6927317321
508.76,-145.64242928,1466.14302006,745.981579537,-332.560236363,172.234445692,92.4094429383,1167.74031021,319.633318198,-454.691264868,-99.6927317321
509.78,-149.19774027,1463.57448943,741.172177176,-336.116348582,169.754519254,92.4094429383,1167.70168571,313.29427917,-456.247983043,-99.6927317321
510.8,-171.123649092,1447.09763551,719.1042396,-351.818997357,156.665187079,92.4094429383,1167.70156343,307.442477694,-456.247983683,-99.6927317321
511.82,-174.352917775,1438.93672227,685.592756021,-381.819492508,139.257055182,92.4094429383,1167.70156343,301.058684705,-456.50997082,-99.6927317321
512.84,-171.879411172,1442.54146825,692.180376656,-377.468602485,145.46473103,92.4094429383,1168.88202851,306.83726478,-456.652864171,-99.6927317321
513.86,-166.667350334,1455.67761136,714.359293671,-369.780737675,147.070255219,92.4094429383,1173.31407421,317.575864745,-456.652864171,-99.6927317321
514.88,-166.47717574,1456.74245867,716.581887212,-368.094979465,149.343149556,92.4094429383,1173.42697483,318.457937775,-456.652864171,-99.6927317321
515.9,-163.593667022,1461.84139688,723.037335105,-364.079475241,154.71242732,92.4094429383,1175.94785991,325.069776943,-456.652864171,-99.6927317321
516.92,-156.172388805,1478.87269313,760.926918317,-343.378195367,178.185425345,92.4094429383,1176.73252233,334.109965124,-456.652864171,-99.6927317321
517.94,-140.448747462,1506.38061099,797.261447824,-333.636970345,181.516012054,92.4094429383,1176.73253611,336.22212395,-456.652864171,-99.6927317321
518.96,-139.850898704,1506.82967797,797.494631443,-333.040723987,182.244506424,92.4094429383,1176.75492227,336.065984877,-456.652864171,-99.6927317321
519.98,-144.408465864,1496.19694081,772.975529795,-349.467271131,171.937128669,92.4094429383,1176.75491586,326.738509834,-458.569740162,-99.6927317321
521.0,-154.241233521,1488.59955159,758.566906731,-360.700035581,166.535407154,92.4094429383,1176.75491586,321.498046045,-460.498466631,-99.6927317321
522.02,-159.322814692,1485.32144884,753.105857399,-364.229713755,164.297017891,92.4094429383,1176.73487039,313.798443707,-461.803726657,-99.6927317321
523.04,-171.480492124,1476.40187583,738.891912571,-374.464637584,155.921542767,92.4094429383,1176.72374274,308.733900882,-461.80380761,-99.6927317321
524.06,-177.001447126,1470.03312857,718.090512867,-391.531014692,143.985623467,92.4094429383,1176.72374274,307.109814686,-461.80380761,-99.6927317321
525.08,-178.847443528,1467.7761024,713.162897241,-393.69215391,143.820801361,92.4094429383,1176.74037564,304.341287998,-461.829703106,-99.6927317321
526.1,-175.768971577,1476.31630917,735.775789142,-386.564071875,147.571483368,92.4094429383,1178.60793378,314.15217717,-461.829703105,-99.6927317321
527.12,-175.240251723,1478.25788768,738.74705582,-384.382285007,149.784683582,92.4094429383,1178.62425263,315.703069703,-461.829703105,-99.6927317321
528.14,-173.862300611,1480.79562562,742.361518051,-382.267701911,152.739576536,92.4094429383,1179.51039572,319.628429631,-461.829703105,-99.6927317321
529.16,-171.262625329,1485.48061716,753.770705912,-376.463194191,159.6513655,92.4094429383,1179.51155702,323.935742601,-461.829918771,-99.6927317321
530.18,-148.731056673,1515.06943574,798.08427254,-360.619016239,169.410739266,92.4094429383,1179.51155702,326.810310752,-461.829918771,-99.6927317321
531.2,-147.722827132,1517.2473223,802.900335173,-358.40684164,170.165542478,92.4094429383,1179.51107157,328.506752624,-461.829918771,-99.6927317321
532.22,-150.188964563,1511.32662728,789.618335045,-368.400316139,164.054772485,92.4094429383,1179.50912577,323.243384059,-462.295872592,-99.6927317321
533.24,-160.146140055,1501.77721681,773.990136822,-379.139314448,157.199979962,92.4094429383,1179.50912577,314.815013696,-462.675913918,-99.6927317321
534.26,-166.952523218,1497.86400011,768.006866819,-383.422117567,154.445130504,92.4094429383,1179.50912577,307.597799426,-464.054430501,-99.6927317321
535.28,-172.764716063,1493.48550972,759.467775374,-389.666149976,148.907935445,92.4094429383,1179.50912577,301.342260217,-464.354080071,-99.6927317321
536.3,-182.968321108,1484.15019496,739.59688598,-405.462760645,135.359764388,92.4094429383,1179.50912577,299.183063188,-464.354080072,-99.6927317321
537.32,-185.481338084,1480.31391674,730.82198073,-409.501595681,134.237818478,92.4094429383,1179.72325327,295.699916829,-464.39496427,-99.6927317321
538.34,-176.003806419,1497.33589129,765.332059038,-393.129463749,145.540309922,92.4094429383,1185.5562127,312.014610483,-464.394964224,-99.6927317321
539.36,-173.056883064,1504.72117299,777.55650723,-385.626525688,153.435793508,92.4094429383,1186.18440195,317.203231592,-464.394964224,-99.6927317321
540.38,-171.770041252,1510.64404839,786.883506564,-378.353563306,163.055262338,92.4094429383,1188.73563865,323.812872231,-464.394964224,-99.6927317321
541.4,-159.847580608,1527.07737135,803.890332267,-368.921556318,175.046076683,92.4094429383,1193.79950001,335.524451358,-464.394964224,-99.6927317321
542.42,-141.609503431,1550.09909854,833.493280582,-353.956728751,189.972554274,92.4094429383,1193.85236952,337.703733134,-464.394964224,-99.6927317321
543.44,-140.305081873,1552.23067391,837.351165978,-353.375444202,189.814186446,92.4094429383,1193.84370563,337.903420202,-464.394964224,-99.6927317321
544.46,-143.90668587,1543.62735452,824.22696322,-363.215691356,184.44242908,92.4094429383,1193.85088311,332.833958038,-464.502770288,-99.6927317321
545.48,-154.731743099,1530.31094156,792.287819194,-387.025276821,171.336799684,92.4094429383,1193.85088311,323.223587533,-467.310756021,-99.6927317321
546.5,-161.519173957,1525.66333665,784.749951302,-391.476881721,168.933245148,92.4094429383,1193.85088311,315.106880647,-468.386384156,-99.6927317321
547.52,-165.182271111,1522.70792539,777.840749335,-397.710571119,164.055367892,92.4094429383,1193.84209817,308.160665147,-470.033223542,-99.6927317321
548.54,-185.788059172,1505.65444838,751.284094085,-418.802678167,145.71699085,92.4094429383,1193.84209816,302.904242493,-470.03445729,-99.6927317321
549.56,-190.657727272,1497.81591427,733.028017053,-431.02875634,139.964549569,92.4094429383,1193.84209816,296.530445589,-470.403763847,-99.6927317321
550.58,-184.341850054,1509.28805283,754.457951366,-418.249952943,147.348758634,92.4094429383,1198.27167571,308.314144698,-470.40368021,-99.6927317321
551.6,-181.468301378,1515.54759931,765.586344443,-413.988345736,150.867578759,92.4094429383,1199.60357983,311.777193331,-470.40368021,-99.6927317321
552.62,-180.845690576,1519.71158186,773.216660225,-408.611608351,157.571677476,92.4094429383,1200.81318485,316.656563683,-470.40368021,-99.6927317321
553.64,-171.822335859,1531.61984723,785.047392931,-402.199074847,165.77216099,92.4094429383,1205.04459074,325.641402283,-470.40368021,-99.6927317321
554.66,-160.439985876,1551.2042859,828.2832499,-379.941638224,187.558721549,92.4094429383,1205.36712433,330.557744538,-470.40368021,-99.6927317321
555.68,-133.503676835,1592.51289196,881.913413214,-366.687311752,190.226167693,92.4094429383,1206.13940977,340.20467057,-470.40368021,-99.6927317321
556.7,-139.881426031,1584.30215119,875.354745113,-372.049140124,185.020989765,92.4094429383,1206.1394113,337.097089655,-470.775745687,-99.6927317321
557.72,-148.992902589,1564.32327786,830.620770406,-405.02037121,167.306701355,92.4094429383,1206.1394113,323.857608124,-475.408374972,-99.6927317321
558.74,-157.285597166,1558.0246991,819.935378684,-413.424920428,163.530953604,92.4094429383,1206.1394113,317.970304299,-476.712542022,-99.6927317321
559.76,-162.044707201,1554.6770623,813.763082479,-418.022725739,159.736095624,92.4094429383,1206.085983,312.21652328,-478.105014046,-99.6927317321
560.78,-188.191999608,1533.94352374,786.443888381,-437.467153357,143.563270633,92.4094429383,1206.0859504,306.048396031,-478.144196766,-99.6927317321
561.8,-190.069747013,1527.24708705,757.748535389,-464.438053912,123.459662953,92.4094429383,1206.0859504,301.945882665,-478.144196766,-99.6927317321
562.82,-188.537427552,1526.97317695,762.686867625,-461.14028741,128.884451502,92.4094429383,1206.90292925,305.18631238,-478.20670422,-99.6927317321
563.84,-182.938183561,1539.32973073,786.528090218,-451.358107582,132.384320184,92.4094429383,1210.16791451,315.417108578,-478.206704209,-99.6927317321
564.86,-181.557501628,1544.31842243,795.608396289,-445.744750006,139.681834411,92.4094429383,1210.74509343,319.148865692,-478.206704209,-99.6927317321
565.88,-170.347668795,1556.82426216,807.445797951,-438.044643227,150.295323827,92.4094429383,1217.00917293,327.031694519,-478.206704209,-99.6927317321
566.9,-159.545843567,1576.53993128,846.51079137,-414.552115574,175.039691134,92.4094429383,1218.07992261,335.316217608,-478.206704209,-99.6927317321
567.92,-135.970751993,1606.92142358,883.182503892,-406.427154967,179.268537878,92.4094429383,1218.07992366,336.689558248,-478.206704209,-99.6927317321
568.94,-134.850439458,1607.76505795,883.323881914,-406.085425551,180.21079735,92.4094429383,1218.10249402,337.597959013,-478.206704209,-99.6927317321
569.96,-138.888319194,1594.71725534,854.615164801,-425.333665706,167.481510727,92.4094429383,1218.10249402,329.841149126,-478.827722653,-99.6927317321
570.98,-158.342433413,1573.39587912,821.814252541,-450.509015612,156.374606335,92.4094429383,1218.10249402,315.155118184,-482.409431986,-99.6927317321
572.0,-167.307145744,1566.98556286,812.732165353,-457.955214977,150.821986828,92.4094429383,1218.10249402,302.82352527,-486.523563777,-99.6927317321
573.02,-188.591258217,1548.86942709,791.649943304,-472.434935785,141.37732051,92.4094429383,1218.10249402,296.387787577,-486.559902992,-99.6927317321
574.04,-193.456900601,1543.67372057,776.453104212,-486.698626949,127.302426914,92.4094429383,1218.10249402,295.165083178,-486.559902993,-99.6927317321
575.06,-188.324282896,1546.66500717,778.46604762,-484.052125035,132.567756015,92.4094429383,1218.79907064,297.437728397,-486.559902993,-99.6927317321
576.08,-179.588809621,1565.1647156,816.608543036,-469.777853049,140.982395913,92.4094429383,1224.51966892,310.962515922,-486.559902993,-99.6927317321
577.1,-177.680302171,1569.04176276,824.498222146,-466.627282101,145.09005717,92.4094429383,1224.66019834,314.430721752,-486.559902993,-99.6927317321
578.12,-173.262109722,1575.11437913,832.664519446,-461.996269155,153.09137965,92.4094429383,1226.48235365,319.705659997,-486.559902993,-99.6927317321
579.14,-163.990841916,1588.35955664,854.452046385,-447.939433877,167.144100129,92.4094429383,1227.23389228,328.211278461,-486.559902993,-99.6927317321
580.16,-141.374142917,1619.7993471,895.156131524,-430.944250285,180.646705942,92.4094429383,1227.3964185,331.012794102,-486.559902993,-99.6927317321
581.18,-143.353479353,1618.80247774,894.439174882,-432.291523443,178.337713485,92.4094429383,1227.3964187,329.670865539,-486.586295908,-99.6927317321
582.2,-149.365985615,1604.80020167,865.073217493,-452.453893457,167.457719057,92.4094429383,1227.3964187,321.317553856,-488.112519346,-99.6927317321
583.22,-173.409752152,1570.33943786,807.058422146,-490.904585933,142.024974981,92.4094429383,1227.3964187,302.934264994,-495.184993449,-99.6927317321
584.24,-196.559417902,1552.63514284,789.201065667,-506.298675561,137.824049773,92.4094429383,1227.3964187,289.188092891,-501.971046319,-99.6927317321
585.26,-207.006433672,1542.90215662,773.599915213,-517.78137198,128.848557733,92.4094429383,1227.3964187,277.903825397,-503.836694609,-99.6927317321
586.28,-218.391131324,1533.26083166,751.916120708,-531.68519496,113.187336175,92.4094429383,1227.3964187,276.088610645,-503.83669461,-99.6927317321
587.3,-219.917889691,1528.92217576,741.196638996,-536.772038119,111.593882051,92.4094429383,1227.49334202,272.482081448,-503.83669461,-99.6927317321
588.32,-208.921845715,1549.41858509,782.720306965,-516.202044895,126.182140233,92.4094429383,1234.06746412,288.150153392,-503.83669461,-99.6927317321
589.34,-202.501759822,1564.40996923,808.220236794,-503.950084586,137.535035628,92.4094429383,1236.76595403,296.186986166,-503.83669461,-99.6927317321
590.36,-199.429319973,1580.30803113,836.539873332,-486.870690663,158.479715082,92.4094429383,1245.21427643,309.391026744,-503.83669461,-99.6927317321
591.38,-168.26052137,1626.09101102,884.48897809,-460.526822488,187.036170823,92.4094429383,1266.43358538,327.407743085,-503.83669461,-99.6927317321
592.4,-141.042334827,1685.68958699,963.262947554,-415.615841687,227.497630479,92.4094429383,1269.35811781,330.773194844,-503.83669461,-99.6927317321
593.42,-128.837850036,1705.66609162,981.709357882,-411.145460876,228.281466382,92.4094429383,1269.53117347,335.692181315,-503.83669461,-99.6927317321
594.44,-132.053313959,1696.18218346,965.212969565,-423.256003928,221.869107874,92.4094429383,1269.53117347,330.677388301,-504.411125267,-99.6927317321
595.46,-149.216369166,1671.22612498,921.354531617,-454.779711948,203.70028914,92.4094429383,1269.53117347,318.180534319,-508.446131963,-99.6927317321
596.48,-174.317280303,1650.24142226,895.950849715,-475.252213367,199.205366805,92.4094429383,1269.53117347,303.104124511,-515.145528927,-99.6927317321
597.5,-186.953325114,1639.49637284,877.723742933,-495.102935276,182.472472843,92.4094429383,1269.53117347,285.192479717,-523.822392246,-99.6927317321
598.52,-224.145174129,1607.07998157,829.921135605,-534.216413032,152.837100853,92.4094429383,1269.53117347,279.686376601,-524.088168261,-99.6927317321
599.54,-226.868409503,1601.26399406,805.317319934,-562.000003499,129.878801828,92.4094429383,1269.53117347,274.689146756,-524.088168261,-99.6927317321
600.56,-213.603266643,1619.73290471,840.687699719,-537.782126501,145.436903505,92.4094429383,1277.77884437,291.024505256,-524.088168261,-99.6927317321
601.58,-206.543869165,1633.77214144,866.390045291,-527.638511855,153.322374858,92.4094429383,1281.51708123,298.026846666,-524.088168261,-99.6927317321
602.6,-204.104374179,1648.24665691,895.295779523,-509.567603807,172.530356146,92.4094429383,1287.3430417,309.12094786,-524.088168261,-99.6927317321
603.62,-184.380839369,1675.50168708,921.60427586,-492.436850206,191.182949992,92.4094429383,1298.31150238,322.020608311,-524.088168261,-99.6927317321
604.64,-173.497601298,1703.8415974,972.00417314,-455.292416215,239.261921067,92.4094429383,1300.26240439,328.696441044,-524.088168261,-99.6927317321
605.66,-158.255798449,1724.84893106,996.393106469,-453.606028245,238.96553711,92.4094429383,1300.26243322,330.102734218,-524.088168261,-99.6927317321
606.68,-158.066718553,1722.71995578,993.01887423,-454.450688934,238.993162675,92.4094429383,1300.26243322,328.769017899,-524.160488314,-99.6927317321
607.7,-166.6357155,1704.93202604,952.742394607,-480.998086802,222.563404248,92.4094429383,1300.26243322,317.795740375,-525.667241965,-99.6927317321
608.72,-192.12427585,1679.92421533,920.665341048,-505.935511418,214.924835221,92.4094429383,1300.26243322,306.039839671,-531.503500711,-99.6927317321
609.74,-214.324561942,1663.25923834,896.670945224,-533.030860943,199.929823689,92.4094429383,1300.26243322,275.386319615,-553.301889458,-99.6927317321
610.76,-247.419637559,1635.33926562,859.68550646,-560.125519985,181.854464239,92.4094429383,1300.26243322,266.491166187,-553.615030592,-99.6927317321
611.78,-249.116460607,1629.94982985,835.20421624,-588.966021354,158.446126418,92.4094429383,1300.26243322,263.481081993,-553.615030592,-99.6927317321
612.8,-240.659595844,1636.32635122,846.433865427,-579.356843453,170.771073757,92.4094429383,1301.16764162,270.466070028,-553.615030592,-99.6927317321
613.82,-234.242590722,1651.1332225,875.008897221,-564.891088082,176.156639016,92.4094429383,1303.61848588,280.660926636,-553.615030592,-99.6927317321
614.84,-232.618134414,1662.56934312,892.491043817,-550.855084784,192.197161699,92.4094429383,1304.49711818,288.143676062,-553.615030592,-99.6927317321
615.86,-218.364241661,1683.02442479,912.681219458,-534.352396389,213.214784904,92.4094429383,1313.23818208,297.646058272,-553.615030592,-99.6927317321
616.88,-204.250278201,1722.94911761,980.066427084,-485.621536418,273.892200084,92.4094429383,1321.04744025,309.607905754,-553.615030592,-99.6927317321
617.9,-182.32133529,1760.01837352,1022.41952171,-473.148269981,279.57948005,92.4094429383,1321.48049189,312.20046944,-553.615030592,-99.6927317321
618.92,-184.907244636,1757.50178374,1019.41114849,-476.271181628,275.956201452,92.4094429383,1321.48049189,310.449370113,-553.634152724,-99.6927317321
619.94,-190.005919419,1743.29116914,985.020025955,-499.855196044,261.045699613,92.4094429383,1321.48049189,301.159495557,-554.58519956,-99.6927317321
620.96,-204.123287254,1725.31178247,949.884946288,-522.786583461,250.044163418,92.4094429383,1321.48049189,288.531634391,-556.606006597,-99.6927317321
621.98,-217.237049611,1716.3027553,937.21361362,-532.304614941,242.852724678,92.4094429383,1321.48049189,273.330407557,-560.284857209,-99.6927317321
623.0,-241.412010966,1693.55462235,910.056012729,-550.815357766,229.04740328,92.4094429383,1321.48049189,264.245309629,-560.33648007,-99.6927317321
624.02,-250.701113206,1681.28250225,872.748189871,-593.275610298,193.111062845,92.4094429383,1321.48049189,262.184863214,-560.336480071,-99.6927317321
625.04,-247.057138656,1682.98978923,872.263832546,-591.563158227,198.232406809,92.4094429383,1321.99177864,263.359539869,-560.336480071,-99.6927317321
626.06,-239.387103218,1697.05919234,904.487884895,-573.705751605,209.669387012,92.4094429383,1325.98678583,274.873915898,-560.336480071,-99.6927317321
627.08,-235.392116651,1707.68546936,922.280939488,-561.176469379,222.138269946,92.4094429383,1326.57164353,281.805665896,-560.336480071,-99.6927317321
628.1,-228.658691611,1723.27025905,939.792420063,-545.085043976,245.635785092,92.4094429383,1334.35244607,288.537860151,-560.336480071,-99.6927317321
629.12,-216.328719682,1749.1917826,982.896801799,-518.135075469,278.364028198,92.4094429383,1337.66008149,302.311849107,-560.336480071,-99.6927317321
630.14,-204.241830142,1775.49386616,1013.02313334,-503.045858272,294.308006359,92.4094429383,1337.86351602,303.485172322,-560.336480071,-99.6927317321
631.16,-206.204191687,1773.42245402,1009.1375465,-506.672283025,290.930771856,92.4094429383,1337.86351602,301.671802485,-560.336480071,-99.6927317321
632.18,-211.781534023,1762.48989291,986.628966717,-523.01006009,281.247404257,92.4094429383,1337.86351602,294.091965578,-560.890585747,-99.6927317321
633.2,-226.375043767,1746.65965427,947.774125345,-550.470514924,263.883038598,92.4094429383,1337.86351602,282.753175712,-562.822630442,-99.6927317321
634.22,-247.513797949,1729.97504004,928.800474237,-564.197339334,258.465981453,92.4094429383,1337.86351602,267.843657473,-567.937765856,-99.6927317321
635.24,-264.922449636,1712.76959309,904.091730021,-585.006118117,243.927264997,92.4094429383,1337.86351602,253.873553928,-570.417877683,-99.6927317321
636.26,-282.092693832,1695.37414891,862.697951535,-623.234685224,212.830978266,92.4094429383,1337.86351602,251.105087698,-570.593038337,-99.6927317321
637.28,-285.329895951,1687.41146772,839.778902435,-647.788854758,192.495102897,92.4094429383,1337.88373502,244.046565039,-571.13341682,-99.6927317321
638.3,-276.442616613,1702.27117205,869.198554363,-630.170414284,206.780543174,92.4094429383,1341.49011562,256.682236521,-571.133416233,-99.6927317321
639.32,-273.774373868,1707.6410868,876.618908152,-623.784368636,213.192042623,92.4094429383,1341.67619327,259.267479897,-571.133416233,-99.6927317321
640.34,-272.400049253,1715.29065615,889.043320671,-612.424215887,228.601386529,92.4094429383,1344.92910123,265.575213322,-571.133416233,-99.6927317321
641.36,-253.231590089,1747.16567153,929.292922826,-586.613218709,260.984596772,92.4094429383,1356.75936441,283.360012146,-571.133416233,-99.6927317321
642.38,-236.064549411,1803.35327142,1004.17720075,-545.366369929,310.689122659,92.4094429383,1360.79992052,286.860446847,-571.133416233,-99.6927317321
643.4,-231.33715421,1809.7947704,1018.25801211,-543.841265027,310.776922582,92.4094429383,1360.79992147,288.614554245,-571.133416233,-99.6927317321
644.42,-232.179766,1806.16017195,1011.3639823,-548.07606442,308.068369247,92.4094429383,1360.80145778,286.0717633,-571.328997063,-99.6927317321
645.44,-237.863394732,1798.85176901,992.19617036,-560.222914441,299.957669936,92.4094429383,1360.80145778,279.244120632,-571.458592475,-99.6927317321
646.46,-244.957472119,1793.2281571,984.364171909,-563.968080634,298.419929736,92.4094429383,1360.80145778,273.228566603,-571.674446571,-99.6927317321
647.48,-253.356207166,1785.7171062,971.91537305,-574.771384764,289.547218243,92.4094429383,1360.80145778,261.765254225,-573.790613794,-99.6927317321
648.5,-278.362761599,1765.27211653,939.479013774,-601.106646105,271.567927392,92.4094429383,1360.80145778,256.378469532,-573.790665059,-99.6927317321
649.52,-279.806035641,1759.76442336,913.225307058,-625.508549707,250.424162516,92.4094429383,1360.80145778,252.482165161,-573.790665059,-99.6927317321
650.54,-274.130847868,1764.53578,922.043981527,-619.098001487,257.660092636,92.4094429383,1361.09330334,256.523107491,-573.790665059,-99.6927317321
651.56,-271.862658021,1767.64204581,926.756320056,-617.18834148,258.495629831,92.4056582697,1361.2559661,258.728389619,-573.790665059,-99.6927317321
652.58,-271.590811241,1769.0305704,929.568015894,-614.199985638,262.471558927,92.4056582698,1361.55880823,259.942211366,-573.790665059,-99.6927317321
653.6,-262.134210179,1784.1391463,946.008612847,-600.291015412,279.550140185,92.4056582698,1365.57358265,269.448476999,-573.790665059,-99.6927317321
654.62,-251.719021386,1806.59542192,984.2806725,-575.492644349,319.425245339,92.4056582698,1366.12893861,275.917614339,-573.790665059,-99.6927317321
655.64,-251.591123814,1808.06789218,985.961243668,-575.484335676,319.574607334,92.4056582698,1366.12893861,275.940714206,-573.790665059,-99.6927317321
656.66,-244.93657239,1812.56221861,986.444029557,-573.351800363,326.059697475,92.4056582698,1366.21257959,278.014537725,-573.790665059,-99.6927317321
657.68,-248.707276206,1809.92839898,979.48603308,-578.071739399,323.551530825,92.4056582698,1366.21257958,273.516071108,-573.790665059,-99.6357950412
658.7,-253.680710884,1805.77058917,972.100593803,-581.949213406,321.299359011,92.4056582698,1366.21257958,268.540320791,-573.917404278,-99.6357950887
659.72,-262.097468452,1799.37375246,963.868879681,-588.811386487,314.385799983,92.4056582698,1366.21257958,260.197940587,-575.733793505,-99.6357950887
660.74,-274.186713559,1790.05850088,948.266942878,-599.331499142,304.121862315,92.4056582698,1366.21257958,255.527560665,-575.733803907,-99.6357950887
661.76,-275.565913223,1786.59697056,939.518499595,-605.440910119,297.222022435,92.4056582698,1366.21257958,252.598329246,-575.733803907,-99.6357950887
662.78,-263.904927711,1800.03257796,965.144909995,-581.476054953,325.92162443,92.4056582698,1371.32798346,267.654242167,-575.733803907,-99.6357950887
663.8,-259.250080426,1812.25463622,990.984295172,-571.099655148,329.862480696,92.4056582698,1373.85559517,273.102100989,-575.733803907,-99.6357950887
664.82,-258.276279892,1814.41497919,993.376491757,-569.046704892,333.064994432,92.4056582698,1373.88426935,273.70016436,-575.733803907,-99.6357950887
665.84,-246.607957897,1828.67687101,1015.77239694,-545.068205806,359.14453266,92.4056582698,1382.32087768,282.053577432,-575.733803907,-99.6357950887
666.86,-230.935885353,1863.62369103,1067.0354112,-493.504091151,441.600172058,92.4056582698,1398.57717388,293.113119655,-575.733803907,-99.6357950887
667.88,-226.157349984,1875.63852231,1079.54955475,-489.917883849,445.124728724,92.4056582698,1398.57733179,293.927512865,-575.733803907,-99.6357950887
668.9,-240.110872101,1865.97676624,1066.79787997,-501.925325862,429.311503417,92.4056582698,1398.57733179,286.779905437,-576.217052564,-99.6357950887
669.92,-246.602532894,1850.33715687,1024.69442849,-534.583380431,401.976428966,92.4056582698,1398.57733179,276.705740263,-578.007975687,-99.6357950887
670.94,-270.38659618,1825.60923254,974.019362607,-576.776320937,378.572266561,92.4056582698,1398.57733179,261.676351368,-588.672050776,-99.6357950887
671.96,-287.800213919,1811.03981484,955.960678317,-594.401313306,365.935288062,92.4056582698,1398.57733179,249.418205362,-592.46806003,-99.6357950887
672.98,-306.61773547,1794.49179389,927.671140237,-619.29157707,350.858949423,92.4056582698,1398.57733179,234.22567142,-596.431150299,-99.6357950887
674.0,-314.099398974,1784.83947926,898.336265879,-646.150589188,329.447288752,92.4056582698,1398.57733179,231.718353438,-596.431205297,-99.6357950887
675.02,-315.788742183,1782.99146932,890.599872145,-650.460475095,329.01117066,92.4056582698,1398.65050199,229.153178286,-596.686015514,-99.6357950887
676.04,-311.529919985,1792.75159884,911.188578705,-642.17591482,333.651054536,92.4056582698,1400.55343747,238.969151017,-596.686015505,-99.6357950887
677.06,-310.993552777,1794.56407013,914.145550628,-639.902648503,336.666435368,92.4056582698,1400.55342479,240.134235672,-596.686015505,-99.6357950887
