2074.46,386.250498235,-117.420660037,-149.370230146,39.5211724512,136.518140026,698.985011049,257.577128438,186.056470576,624.029712363,-10.5038174516
2075.48,389.25960844,-111.684109328,-146.514884926,41.7241692367,139.605024095,701.475825239,264.598751305,187.24184335,624.029712363,-10.5038174516
2076.5,396.843824526,-95.3563435486,-140.913739131,46.1221401524,144.353892471,701.475825249,266.233750366,188.119600391,624.029712363,-10.5038174516
2077.52,398.783306863,-93.1770252984,-139.700998362,46.3179879984,144.52423156,701.475825249,266.317691376,188.275601784,624.029712363,-10.5038174516
2078.54,401.397386829,-89.9522167567,-136.215013099,50.5536045109,148.349265894,703.073932199,270.17237642,188.639855237,624.115327735,-9.07042236094
2079.56,404.38149177,-86.2144422748,-133.462074475,52.0715365156,149.779823162,703.679656609,272.628483033,189.906287807,624.202617464,-8.09139658547
2080.58,404.527787159,-85.3939001428,-133.085376305,52.1680804965,150.020993852,703.679656609,273.218041182,189.94237501,624.12341612,-8.09139366531
2081.6,403.940705451,-85.6729915816,-134.350166165,50.8289917775,149.323490027,703.679656609,273.218040376,188.510266252,623.452943688,-8.09139366531
2082.62,404.15711971,-85.2062133339,-133.764133257,51.044857926,149.615146187,703.679656609,273.228410784,188.563240785,623.452944683,-8.09139366531
2083.64,406.263467403,-79.1556725891,-128.87463762,53.3213217068,151.013040628,703.769167022,276.291541075,189.350573861,623.452944683,-6.71118716421
2084.66,406.727804456,-77.3919871305,-126.132589798,54.5347947083,152.454882542,703.769167028,277.509375724,190.907240198,623.452944683,-6.71116705894
2085.68,407.028270207,-75.7902305319,-124.817959139,54.7955719212,152.630911624,703.769167028,278.105948569,191.288891886,623.452944683,-6.71116705894
2086.7,407.497738507,-73.0385299179,-121.775070965,55.8531550114,153.753449076,703.769167028,279.476939005,192.148127383,623.452944683,-6.71116705894
2087.72,409.27071199,-68.3323485536,-118.120556543,57.7753013352,156.275465872,705.666301645,287.466577325,194.164916067,623.444666607,-6.71116705894
2088.74,410.60603689,-62.1829874836,-114.217638175,59.6814330141,158.681456653,705.666301631,288.417894631,194.652646752,623.442752718,-6.71116705894
2089.76,413.645891571,-59.2094097749,-112.748513447,60.5770751481,159.345422433,705.666301631,288.771762409,194.69954305,623.442752718,-6.71116705894
2090.78,414.238387078,-58.4558084917,-112.051964521,61.0392146672,160.056864641,705.666301631,288.997324273,195.125219326,623.442752718,-6.71116705894
2091.8,414.899420127,-56.1372102668,-110.37512914,61.5979245214,160.767584215,705.666301631,289.640921203,195.641679936,623.441411181,-6.55300116783
2092.82,414.563770338,-56.3931914819,-111.228907432,61.1737705028,160.66858104,705.666301631,289.670302553,195.128041227,623.36068336,-6.5529154164
2093.84,411.351203682,-58.5677182839,-115.681672993,56.131132669,158.90752171,705.666301631,289.670302553,191.559896465,615.815592608,-6.99967961327
2094.86,408.499114632,-61.1901584848,-122.140883493,46.4935053819,156.023558789,705.666301631,289.670302553,190.789992242,610.268320394,-7.14531261817
2095.88,411.189803407,-55.9232997575,-119.058451112,48.1243477521,157.45051382,705.666301631,291.210083184,190.831385486,610.242971908,-6.57806573261
2096.9,411.455838369,-55.1926495525,-118.600765383,48.3114450189,157.756626278,705.666301631,291.474975841,191.051972296,610.207556432,-6.57608059839
2097.92,411.600007603,-54.8814598097,-118.106323334,48.6015145816,158.15755806,705.652622152,291.692257593,191.533706869,610.207768754,-6.57608059839
2098.94,411.861665571,-53.7424656301,-116.162664021,49.0804668469,158.744600495,705.652593057,292.135772541,192.576749053,610.20776868,-6.57608059839
2099.96,412.44545334,-51.6834087673,-114.198875417,49.7308712935,159.849180618,705.652593057,294.246868671,194.242256958,610.20776868,-6.57608059839
2100.98,412.720130698,-50.1343605441,-112.21314882,50.2927236507,160.62710013,705.652593057,294.446959688,194.71267507,610.20776868,-6.57608059839
2102.0,415.327307017,-44.8969088136,-109.381233209,51.5635646713,161.814270312,705.652593057,295.933110231,194.716559478,610.203163881,-6.57608059839
2103.02,415.288174414,-44.8133757964,-109.15614883,51.5697013847,161.811527927,705.652593057,296.000990081,194.838736724,610.194639245,-6.57608059839
2104.04,416.558008411,-41.3593135066,-108.831822632,51.9301951548,162.382589741,705.652593057,296.30474735,194.54335731,610.085657831,-6.10685835141
2105.06,419.716283755,-34.5992490378,-106.991462391,53.1970851586,164.113676786,705.652593057,298.038044254,194.613558285,610.085657854,-6.07890206439
2106.08,417.164867739,-36.7116862068,-110.946873604,49.135784817,163.631916628,705.652593057,298.038044252,190.456262275,603.424404691,-6.18396771006
2107.1,413.579457441,-40.218176948,-116.823518108,38.4704049014,157.578626672,705.652593057,298.038044252,189.986002851,590.535436359,-8.12316771472
2108.12,411.454677712,-41.1961885928,-120.943001315,29.8709150014,156.375818678,705.652593057,298.038044252,189.986002658,588.241311675,-8.12317887453
2109.14,412.761485064,-34.9997973624,-118.605291315,30.6784601944,157.498580684,705.652593057,299.230433045,189.567469048,588.159475173,-8.12317887453
2110.16,410.022453577,-38.0645824802,-122.612658179,26.0882295802,155.26497129,703.194192886,299.115392935,185.347623445,582.044664522,-8.14631259563
2111.18,407.205347753,-40.815256453,-125.647775854,21.0037644146,151.222788469,701.788647437,299.095458934,184.70754299,578.19417816,-8.24185902894
2112.2,406.892276026,-40.9344809136,-126.747469301,19.2493718182,150.899863041,701.788647437,299.154143939,183.739071163,576.874120916,-8.24185903053
2113.22,406.980840632,-40.1019277501,-125.886267307,19.3908286633,151.184928042,701.788647437,299.26547738,183.852899981,576.862041444,-8.24185903053
2114.24,409.19848228,-35.3250271228,-122.156830481,21.1786619441,152.841925337,701.788647437,300.562383491,184.099679042,576.862041444,-8.24185903053
2115.26,409.479962111,-34.9173173165,-121.571202719,21.4830984006,153.278424585,701.788647437,300.832686576,184.516735622,576.862041444,-8.24185903053
2116.28,409.573347665,-34.5566425425,-121.442423788,21.5368364779,153.62660218,701.788647437,300.994487965,184.582208349,576.85313361,-8.23462341625
2117.3,415.216318128,-24.3381619764,-117.729417878,24.4130938042,156.337125769,701.788647437,303.259484667,184.709416648,576.853134687,-7.74465015129
2118.32,414.706800244,-24.6885431342,-118.697612485,23.8590947462,156.214148608,701.788647437,303.274522297,183.542720361,576.393066967,-7.74465015101
2119.34,412.258577245,-26.6933452087,-124.343016517,14.9062036553,153.474637689,701.788647437,303.274522297,179.07666164,564.814668053,-8.30641713451
2120.36,411.508853367,-26.7572817824,-125.511146168,13.590707787,153.561120903,701.788647437,303.310095976,178.595869632,564.425053594,-8.30641769147
2121.38,412.601509695,-21.8775350819,-122.509357732,14.6249879704,154.76066708,701.788647437,304.218423831,178.732406202,564.421805644,-8.30641769147
2122.4,412.958040634,-21.4599767485,-121.614312514,15.1118147488,155.25497673,701.783811515,304.533151697,179.221262171,564.422464433,-8.30641769147
2123.42,413.328100599,-20.1197947729,-119.841447242,15.8230808752,156.065724311,701.786320126,305.229375327,179.721452193,564.422464433,-8.30641769147
2124.44,413.675917446,-16.8424334608,-116.563350344,17.2617630621,157.860928251,701.816249366,308.171018928,180.787613315,564.422464433,-8.30641769147
2125.46,415.277725146,-13.5861066413,-114.254678032,18.4057217569,159.566718572,702.398669695,312.450844919,182.31714893,564.422464433,-8.30641769147
2126.48,416.754493104,-7.24752379164,-108.943310944,20.0040328412,161.433620063,702.398669697,313.515984648,182.738164352,564.422464433,-8.30641769147
2127.5,416.928034731,-6.7003117772,-108.358962227,20.1940349513,161.563698373,702.398669697,313.597984267,182.906622341,564.422464433,-8.30641769147
2128.52,418.674607493,-4.6311665478,-106.827169341,21.4999527906,163.563902012,702.398669697,315.032852505,183.516977593,564.422464433,-8.21855044077
2129.54,419.218405586,-3.17394191301,-105.857600592,21.9173162251,164.059099309,702.398669697,315.353652543,183.883695942,564.422464433,-8.13423900903
2130.56,418.658310854,-3.56554581066,-107.656515824,20.9922504661,163.902124773,702.398669697,315.351206862,181.927091102,563.6125589,-8.13423907146
2131.58,416.411191666,-4.82104541074,-112.58516143,11.916361624,161.375967287,702.398669697,315.351206862,177.587765473,551.274768604,-8.53662029104
2132.6,415.351354997,-5.74598198018,-115.567039537,8.21220494744,160.688734753,702.398669697,315.351206862,176.759289142,549.83437996,-8.53662145148
2133.62,415.607772132,-3.19423717913,-113.499653249,8.89037114797,161.364616379,702.398669697,315.926585048,177.071374763,549.830099407,-8.39870576277
2134.64,415.831632045,-1.78394467997,-111.060511174,9.81776037626,162.112468358,702.398669697,316.650175253,178.160216327,549.821053687,-8.39870579786
2135.66,416.305034836,1.32996950217,-108.619371098,10.2223939614,162.457965239,702.398669697,317.822701093,178.609573408,549.821053687,-8.39870579786
2136.68,416.992726166,5.44922360211,-104.321086022,11.6016666933,164.012194053,702.398669697,319.986412858,179.375742386,549.821053687,-8.39870579786
2137.7,418.27831669,10.5288939693,-100.235806888,13.2896914837,166.287748765,702.748963382,327.862125687,181.920188206,549.815494151,-8.39870579786
2138.72,419.129337892,16.0433283589,-95.966821106,15.0347714771,168.357853175,702.748963386,328.61947099,182.636880994,549.816025794,-8.39870579786
2139.74,420.197117631,18.7641103795,-94.2061908409,15.6418458955,168.889502738,702.748963386,328.73287507,182.76199249,549.816025794,-8.39870579786
2140.76,421.468329415,20.4643187349,-92.4103513681,17.0169073139,170.743184589,702.748963386,329.763639379,183.317687705,549.816025794,-8.39870579786
2141.78,422.11640633,21.5089815276,-91.7802445442,17.3867940572,171.239729996,702.748963386,330.166942461,183.591842479,549.816025794,-8.3218376656
2142.8,421.939599625,21.3318760544,-92.2690443668,17.1760007297,171.167401196,702.748963386,330.16679587,183.281710158,549.791589016,-8.32183786354
2143.82,420.022876742,19.9506791913,-95.2888412145,13.5384071324,170.032868394,702.748963386,330.16679587,180.095854252,544.8218584,-8.32183786354
2144.84,419.279357985,18.912127853,-98.7112338135,9.26439965834,168.85341306,702.748963386,330.16679587,178.254671908,542.002886582,-8.32183786354
2145.86,419.565451841,21.8903313857,-96.0508242039,10.113398183,169.692284109,702.748963386,330.62110068,178.39353929,542.00288647,-8.19973573986
2146.88,419.361466673,21.8829815574,-96.29928334,9.9812540253,169.690675355,702.748963386,330.667303944,178.105245015,541.943704282,-8.19958333626
2147.9,419.568578419,22.2251989226,-95.4619315399,10.3326493163,170.08718726,702.7417406,330.940970312,178.694510988,541.943704939,-8.19958333626
2148.92,419.888764615,24.064231468,-92.7075603706,11.2067972158,171.259531407,702.741773046,331.829844107,179.865710534,541.943704939,-8.19958333626
2149.94,420.525684817,26.2948840908,-90.5511292321,12.0289618973,172.606316845,702.741773046,334.624009235,181.355880263,541.943685409,-8.19958333626
2150.96,420.693459847,27.2457614639,-89.1578846967,12.3806427492,173.190214601,702.741773046,334.706659064,181.67463225,541.926011823,-8.19958333626
2151.98,421.780415564,31.7318106116,-85.7783582404,13.4283813001,174.350345544,702.741773046,335.5916547,181.854856378,541.926011826,-8.19958333626
2153.0,421.962153794,32.0708768917,-85.2554911773,13.6478109572,174.58581452,702.741773046,335.689715674,182.144227432,541.926011826,-8.19958333626
2154.02,421.445699923,31.9330464472,-85.5596457518,13.2794829538,174.525994898,702.741773046,335.68951148,181.880519776,541.837389064,-8.19566591478
2155.04,421.365470314,32.4334455663,-85.4237796989,13.1514530452,174.635047183,702.741773046,335.717423983,181.822674822,541.835355206,-8.19529290563
2156.06,418.949326813,30.5953852388,-89.3957130631,9.95335752406,174.361372044,702.741773046,335.717423983,178.154243568,536.254970215,-8.28732999697
2157.08,415.928711472,28.0633985114,-94.5899613713,0.62316417302,171.117116,702.741773046,335.717423983,177.256380834,527.287179856,-8.88920533757
2158.1,414.774888213,29.0504203698,-96.0050362603,-2.74644067484,171.582955636,702.741773046,335.832104526,177.143779005,526.574000208,-8.88920534907
2159.12,414.727176877,31.0620277441,-95.1512183342,-2.62204222393,171.813244372,702.741773046,336.260828351,176.778683592,526.526679944,-8.88920534907
2160.14,414.901899499,31.4042787481,-94.4063759775,-2.3418736483,172.033804467,702.74536078,336.347512089,177.291055249,526.524732902,-8.88920534907
2161.16,415.526877922,33.763175993,-91.3496862158,-1.20688330526,173.159619874,702.745658592,337.430059963,178.664353935,526.524732902,-8.88920534907
2162.18,415.675201594,34.663131826,-90.1918623355,-0.63710286163,173.883390122,702.745658592,338.492464739,179.656403263,526.524732902,-8.88920534907
2163.2,416.088392332,35.4788578165,-89.216895343,-0.380331477084,174.309709317,702.745658592,338.949366645,180.421809781,526.52500864,-8.88920534907
2164.22,416.69178191,38.5281453042,-86.3234608992,0.616167788126,175.605334408,702.745658592,339.232350893,180.651221506,526.525008656,-8.88920534907
2165.24,416.795811886,38.7660326434,-85.9393957807,0.735869091365,175.919757933,702.745658592,339.388756295,180.873027774,526.525008656,-8.88920534907
2166.26,417.128751074,39.2526443456,-85.619000173,0.94254969397,176.47786638,702.745658592,339.766317857,181.17749356,526.477037833,-8.88470595655
2167.28,417.334864428,40.5283124484,-84.8784606315,1.18774478368,176.924129177,702.745658592,340.035972232,181.423934805,526.469524668,-8.77762150705
2168.3,416.291608634,39.8305020131,-86.4149020721,0.0634389212151,176.735360596,702.745658592,340.035972348,179.517973317,525.174976844,-8.77762150703
2169.32,414.067154886,38.1096850356,-91.4522713245,-9.25633749712,173.555795822,702.745658592,340.035972348,176.644133431,514.982541798,-9.12276114935
2170.34,413.449646236,38.3854098257,-92.2759417589,-10.4704996639,173.791107085,702.745658592,340.123782958,176.301913138,514.633745674,-9.1227611532
2171.36,413.665540239,41.5126865706,-89.9702108302,-9.60002762067,174.419662412,702.745658592,341.135357386,176.461495792,514.603526462,-8.8537302479
2172.38,414.344716429,43.9625691534,-86.1638064728,-8.32489887147,175.47519217,702.745658592,342.470879743,178.152139951,514.604120756,-8.85373024784
2173.4,414.34959777,44.1983768321,-85.7830745997,-8.28602764649,175.701506598,702.745658592,342.533682551,178.269054278,514.604120756,-8.85373024784
2174.42,414.377976079,44.9040715334,-84.7197688209,-7.80644963916,176.283943402,702.745658592,343.144347984,178.820876528,514.604120756,-8.85373024784
2175.44,414.976989262,46.5985775173,-83.0344271647,-7.12252124934,177.397501735,702.745658592,345.824993693,180.287196271,514.587236138,-8.85373024784
2176.46,416.295765009,51.4934659283,-78.2605301602,-5.58206727162,179.096548554,702.745658592,346.546510072,180.746163398,514.587239593,-8.85373024784
2177.48,416.38221649,52.071987998,-78.0607531004,-5.57095233042,179.201213177,702.745658592,346.633070726,180.948512032,514.587239593,-8.85373024784
2178.5,416.15783128,51.9179747267,-78.2030481039,-5.68593936052,179.204797478,702.745658592,346.714175536,180.941169237,514.536799096,-8.85373024784
2179.52,416.095536421,52.1452655307,-77.9431661776,-5.67134384527,179.307051203,702.745658592,346.718819789,181.013179385,514.536153453,-8.84956843071
2180.54,415.799106638,51.8712897867,-78.8161143927,-6.05632840673,179.243110964,702.745658592,346.718818255,180.360215327,514.466422906,-8.84956843079
2181.56,413.818100698,50.7683520754,-82.1078055514,-10.1277235479,177.559119569,702.745658592,346.718818255,177.180363024,510.237651103,-8.84956843079
2182.58,413.132610803,50.1347545973,-84.2263444802,-12.0534266019,176.994840257,702.745658592,346.718818255,175.950980814,509.333508876,-8.84956843079
2183.6,413.182171156,53.7945002294,-81.8732397498,-11.1742181894,178.076052656,702.745658592,347.137050492,176.056261196,509.333508874,-8.84956843079
2184.62,412.418976956,53.2313464369,-82.8474181466,-11.703485896,177.68029229,702.745658592,347.136212891,175.210148926,509.160401382,-8.84956843079
2185.64,412.629621993,53.8790646294,-81.389282047,-11.2505401647,177.854222654,702.817285041,347.583896249,176.330707569,509.16046831,-8.84956843079
2186.66,412.891652512,55.7355047842,-78.9359355488,-10.4159308297,178.798963618,702.8172866,349.48570166,178.126867358,509.16046831,-8.84956843079
2187.68,412.844793008,56.3394677812,-78.918615826,-10.6412173031,179.28533906,702.8172866,350.364689878,178.408981316,508.908288981,-8.84956843079
2188.7,413.372120325,57.3362854584,-77.8498173033,-10.2344649588,180.02768148,702.8172866,350.365507422,178.489834138,508.895621035,-8.84956843079
2189.72,413.366442734,57.4563957547,-77.9782794782,-10.4206434663,180.16053934,702.801788126,350.37638458,178.300742862,508.883979226,-8.84956843079
2190.74,412.495901075,56.8438349937,-78.7464660765,-10.9016817728,179.971686095,702.801976815,350.428972078,177.892907683,508.717887805,-8.84956843079
2191.76,412.31911375,58.9425678074,-77.7559296421,-10.8970810244,180.6986458,702.801976815,350.505489684,177.709681563,508.633816863,-8.84956843079
2192.78,412.464629597,59.8751006331,-77.4064580776,-10.827966728,180.910354079,702.801976815,350.592956379,177.68905118,508.628092567,-8.84956843079
2193.8,410.72126239,58.8923225036,-79.8495515818,-13.0089268605,180.493196142,702.801976815,350.592956379,175.048779469,505.99213897,-8.84956843079
2194.82,409.447772491,57.7606106202,-84.4040149619,-18.7066745147,178.875105433,702.801976815,350.592956379,172.85747485,501.797578983,-8.84956843079
2195.84,409.177504494,59.5820918007,-83.0774363834,-18.5075000921,179.402769686,702.801976815,350.662470015,172.91793018,501.797567444,-8.84956843079
2196.86,409.005453984,59.5512282908,-83.2930369428,-18.6359155981,179.342878564,702.801976815,350.675959734,172.667161443,501.772394197,-8.84956843079
2197.88,409.173798788,59.8620848402,-82.5813010026,-18.3979835754,179.571077779,702.798163162,350.786621508,173.047779793,501.772426289,-8.84956843079
2198.9,409.360547514,60.6309027765,-81.3654920638,-18.0250926532,180.015153513,702.7981758,351.091697002,173.61364641,501.772426289,-8.84956843079
2199.92,409.878073135,62.7168120416,-79.4972994581,-17.1371763237,181.25249544,702.7981758,353.649529569,175.190920848,501.771114087,-8.84956843079
2200.94,410.030392703,63.2043317253,-78.6352595533,-16.926691217,181.535320361,702.7981758,353.682203826,175.426841297,501.766786494,-8.84956843079
2201.96,410.267208099,64.2034386346,-77.6618602152,-16.6880407405,182.042610783,702.7981758,353.746101057,175.48398871,501.766786494,-8.84956843079
2202.98,410.508172863,64.4835996075,-77.2390076704,-16.4176009984,182.560681598,702.7981758,354.009219794,175.735957979,501.766786494,-8.84956843079
2204.0,410.027894326,64.2701612236,-77.679306836,-16.7266259093,182.466736323,702.7981758,354.023644403,175.388553657,501.633713901,-8.82296754959
2205.02,410.042915981,64.9508531459,-77.4041649763,-16.6872424896,182.74435068,702.7981758,354.158802485,175.379095867,501.630071552,-8.79486816982
2206.04,408.668355245,64.0514246569,-79.6362911415,-18.6651902843,182.427813852,702.7981758,354.157398179,172.26799944,499.266215502,-8.79486816982
2207.06,407.590365591,63.0431882556,-83.8835692077,-24.506241581,180.360754118,702.7981758,354.157398179,169.783892856,494.740248629,-8.79486816982
2208.08,407.418390587,64.3289259784,-83.0607898285,-24.3862701176,180.846351867,702.7981758,354.279773279,169.81066565,494.739134539,-8.78375959705
2209.1,407.44325404,64.5817981126,-82.967806252,-24.356424448,180.948379512,702.7981758,354.361461808,169.788216051,494.728218999,-8.78157760782
2210.12,408.022045159,67.3397967914,-79.2618032685,-23.2655203794,181.753218154,702.7981758,355.644768648,171.094678918,494.728219876,-8.78157760782
2211.14,408.525925382,68.877547125,-77.1137157961,-22.5185998563,182.636253998,702.7981758,355.99771109,171.699544464,494.728219876,-8.78157760782
2212.16,408.705689136,70.2118953635,-75.2442687157,-21.5680742055,183.844840142,702.7981758,357.35003281,172.287929715,494.728219876,-8.78157760782
2213.18,409.214270232,71.7275128065,-73.9678567361,-21.1324201675,184.502486373,702.7981758,359.185651686,173.510988071,494.72576639,-8.78157760782
2214.2,409.688785775,77.1740613056,-68.8461728604,-19.7888900977,186.067578279,702.7981758,359.483108417,173.884964907,494.725783172,-8.78157760782
2215.22,409.683600583,77.2509006307,-68.7026035684,-19.7428393855,186.264413151,702.7981758,359.536091215,174.083649082,494.725783172,-8.78157760782
2216.24,410.99512404,78.683153072,-67.4857402897,-18.5552506731,187.691381127,702.7981758,360.424990672,174.72919861,494.724580535,-8.59307960199
2217.26,410.970045324,78.9609885084,-67.3308511352,-18.513537069,187.782342779,702.7981758,360.488254109,174.773581271,494.714350137,-8.53215485584
2218.28,410.353241482,78.5581810574,-68.7620345137,-19.405737528,187.669929541,702.7981758,360.488254073,172.854467621,493.801713387,-8.53215485598
2219.3,408.970930468,77.5545172432,-72.3260008663,-23.5544942692,186.425781266,702.7981758,360.488254073,169.54540057,490.257740086,-8.53215485598
2220.32,408.928847294,77.990322642,-71.8904217604,-23.4355887919,186.651877152,702.7981758,360.499803741,169.576083371,490.257728242,-8.53215485598
2221.34,408.93833837,80.3417748069,-70.0878600757,-22.7902083367,187.448683004,702.7981758,361.075494151,169.383181759,490.192037153,-8.27054852514
2222.36,408.915499996,80.7589717101,-68.9377028433,-22.5333490337,187.675111087,702.7981758,361.221644804,169.910710483,490.12162259,-8.27054853677
2223.38,408.932581464,81.1520347614,-68.6138205169,-22.3748243163,188.187034184,702.7981758,361.297630756,170.105431936,490.12162259,-8.27054853677
2224.4,408.978880833,82.1131404912,-67.4487683283,-21.9834213233,188.701813914,702.7981758,362.318079876,170.889354243,490.12162259,-8.27054853677
2225.42,408.896220112,82.3900687893,-67.1735499111,-21.9656547383,189.139749222,702.7981758,362.97729549,171.021002189,490.005745269,-8.27054853677
2226.44,409.718633213,88.8721773052,-62.2352057141,-20.3045522698,191.092378841,702.7981758,363.566368768,171.496356602,490.005895593,-8.27054853677
2227.46,409.628009336,88.6799074326,-62.3826913423,-20.4176805789,191.13660652,702.7981758,363.569718586,171.51478059,490.005895593,-8.27054853677
2228.48,409.300547662,88.3884379183,-62.804046844,-20.6866753185,191.017656822,702.7981758,363.574524394,171.329626188,489.953638716,-8.27054853677
2229.5,409.126038098,88.4103440227,-62.76372767,-20.7152004685,191.024910277,702.7981758,363.574524394,171.276146247,489.951263361,-8.27054853677
2230.52,408.864699001,88.1551232689,-63.4967876072,-20.9933970419,190.964383263,702.7981758,363.574524394,170.747578449,489.878184423,-8.27054853677
2231.54,406.754446387,86.4652362708,-67.0972457838,-25.2204408955,189.77630592,702.7981758,363.574524394,166.602670544,484.683197073,-8.27054853677
2232.56,405.426336958,85.2074840728,-70.861953523,-28.7718646773,188.919659997,702.7981758,363.574524394,164.949213923,483.156793004,-8.27054853677
2233.58,405.430030699,87.6064951665,-68.7776445107,-28.08442515,189.684462658,702.7981758,363.657942418,164.956709755,483.156793021,-8.27054853677
2234.6,404.964334129,87.2902522665,-69.2550025197,-28.387552147,189.377805885,702.7981758,363.657929687,164.539334671,483.116298333,-8.27054853677
2235.62,405.101634652,87.6148057079,-68.29370329,-28.113059116,189.598775716,702.799011816,363.820514658,165.115410585,483.117259705,-8.27054853677
2236.64,405.189988507,88.0640957511,-67.6353264774,-27.8645294635,189.949118056,702.799012568,364.056777799,165.458298463,483.117259705,-8.27054853677
2237.66,405.221980464,88.4102529592,-67.4604999683,-27.8702176851,190.350162712,702.799012568,364.556852079,165.607714377,483.025907092,-8.27054853677
2238.68,405.481312108,89.0297736133,-66.4942971219,-27.5525256999,190.782509071,702.799012568,364.556850731,165.78416046,483.024016266,-8.27054853677
2239.7,405.573176424,89.1968815954,-66.5309627234,-27.5475664972,190.983586058,702.799012568,364.564863506,165.699176857,483.024016266,-8.27054853677
2240.72,405.082715555,88.9078992343,-66.7726414604,-27.8456449526,190.94606839,702.799012568,364.633244241,165.561729114,482.863706116,-8.27054853677
2241.74,404.569988922,88.6726016778,-67.3979293117,-28.4018582052,190.95854775,702.799012568,364.63324358,165.201842006,482.572224153,-8.27054853677
2242.76,404.342487371,88.3837194696,-68.2297795934,-28.681169115,190.837691399,702.799012568,364.63324358,164.84643496,482.562613719,-8.27054853677
2243.78,402.247724044,87.2389199893,-70.9992204468,-31.3264421015,190.202986695,702.799012568,364.63324358,162.055661476,478.724915601,-8.34474253703
2244.8,400.66193633,85.7977881939,-76.6498600023,-38.2575517685,188.195251515,702.799012568,364.63324358,159.843053765,473.547753795,-8.35537420929
2245.82,400.61310311,87.7730001552,-74.8909180774,-37.7428391561,188.916968171,702.799012568,364.73659665,159.891000086,473.547723087,-8.35537420929
2246.84,400.501515339,87.6187510117,-75.3861416256,-37.9265922082,188.886384086,702.799012568,364.739461838,159.60980809,473.491632605,-8.35537420929
2247.86,400.57295648,87.8936121924,-74.7410822725,-37.7771440554,189.245261526,702.793156883,364.941749089,159.89572242,473.491633294,-8.35537420929
2248.88,400.911286372,89.4682861059,-72.5020840298,-37.0217554512,190.117657741,702.793156872,365.463065018,160.759958889,473.491633294,-8.35537420929
2249.9,401.216359239,90.6964526276,-71.1523829762,-36.4228591028,191.087844013,702.793156872,366.835768766,161.68937368,473.491217809,-8.35537420929
2250.92,401.253008802,91.2704890009,-70.2599477183,-36.1998355355,191.447152581,702.793156872,366.872109318,161.824470702,473.423437995,-8.35537420929
2251.94,401.507815941,93.2319703562,-68.4520551968,-35.5774147987,192.286043896,702.793156872,366.972742628,161.906088288,473.423437995,-8.35537420929
2252.96,401.725429894,93.6240149819,-67.822276009,-35.271830751,192.628172005,702.793156872,367.128404691,162.230427631,473.423437995,-8.35537420929
2253.98,401.448600835,93.4824426031,-68.1087914951,-35.4492151917,192.538434382,702.793156872,367.143576053,162.11613859,473.350854863,-8.33663357198
2255.0,401.415427821,93.5904733927,-68.0314533751,-35.440042391,192.579508882,702.793156872,367.149566629,162.135653829,473.348766718,-8.32494363867
2256.02,399.841008251,92.5306473414,-70.7463680306,-37.9608857795,192.151484823,702.793156872,367.149557626,159.320997924,469.887056082,-8.32494363867
2257.04,399.072257189,91.7458008698,-74.4367426901,-42.7845166594,190.490017987,702.793156872,367.149557626,156.881855167,466.268754783,-8.32494363867
2258.06,399.13423577,93.1163201339,-73.1211154821,-42.3128976194,191.045075112,702.793156872,367.282210022,157.01427998,466.268750064,-8.29220204166
2259.08,399.099865307,93.4192995347,-72.8910148182,-42.2278541735,191.110432443,702.793156872,367.329825967,156.931818155,466.255666692,-8.27779407969
2260.1,399.474268452,94.8105607834,-70.7979200383,-41.2579796483,192.076683544,702.793156872,368.270232602,158.112407946,466.255853564,-8.27779407969
2261.12,399.707170666,95.8323374915,-69.4251098129,-40.789584766,192.592921321,702.793156872,368.44321205,158.459344154,466.255853564,-8.27779407969
2262.14,399.772190207,96.6265673693,-68.4695283729,-40.3815764589,193.254681922,702.793156872,369.171130955,159.010239752,466.255853564,-8.27779407969
2263.16,399.564594596,96.8000158296,-68.6366434264,-40.6515877734,193.433817601,702.793156872,369.648256652,158.627605725,465.899471774,-8.27779407969
2264.18,400.100064948,101.402880507,-64.305950601,-39.3427165489,194.90880222,702.793156872,370.031176515,158.881351139,465.899479719,-8.27779407969
2265.2,400.324459544,101.833938555,-63.6967102712,-39.1113238625,195.189165681,702.793156872,370.225381513,159.17989338,465.899479719,-8.27779407969
2266.22,399.930353949,101.470193979,-64.1167636929,-39.3858680635,195.097825705,702.793156872,370.245781364,159.044263737,465.813951581,-8.27779407969
2267.24,399.70725381,101.388745568,-64.3439018172,-39.5450683295,195.043235402,702.793156872,370.248833579,158.91928483,465.810338635,-8.27779407969
2268.26,399.096495556,100.88099244,-65.7799915903,-40.2116738884,194.988234315,702.793156872,370.248833579,157.439462471,465.386926298,-8.27779407969
2269.28,398.227291766,100.324577822,-67.4317248802,-41.8362641645,194.276990023,702.793156872,370.248833579,155.64830556,464.263962184,-8.27779407969
2270.3,397.918627444,100.027825461,-68.0704759487,-42.1238304689,194.180483792,702.793156872,370.248833579,155.341461467,464.248328469,-8.27779407969
2271.32,397.816283777,101.136873084,-67.2236560912,-41.9064133104,194.541999057,702.793156872,370.282789753,155.004532629,464.201706716,-8.27779407969
2272.34,397.773901464,101.158072513,-67.2364851653,-41.9320369456,194.588198409,702.798112622,370.364988131,155.04113398,464.138892333,-8.27779407969
2273.36,397.776688097,101.243588687,-66.9833064667,-41.8975642986,194.754079145,702.749258006,370.397158893,155.034864383,464.13818366,-8.27779407969
2274.38,397.859458708,101.730101372,-66.2886208891,-41.7112319109,195.012719522,702.74925802,370.651574042,155.506419998,464.138183661,-8.27779407969
2275.4,396.81623927,100.938777968,-68.4763303679,-43.3796420878,194.581192219,702.74925802,370.640810474,154.040471283,463.154719932,-8.27779407969
2276.42,396.912396794,101.246111365,-68.0746911391,-43.2969229568,194.762375605,702.74925802,370.640810474,154.115962791,463.155126157,-8.27779407969
2277.44,396.648108306,100.972644636,-68.5006624162,-43.661527686,194.793652526,702.730506529,370.656170749,153.792417919,463.139826553,-8.27779407969
2278.46,394.794122362,99.4472857255,-70.8740032502,-45.3195929257,194.359878811,702.730506778,370.642543386,152.627618268,462.416022705,-8.27779407969
2279.48,394.681627088,100.294545903,-70.2895493203,-45.2130482303,194.625309832,702.730506778,370.642543386,152.539794112,462.410144532,-8.27779407969
2280.5,394.599704425,100.294237727,-70.4827273099,-45.2666835716,194.658555477,702.730506778,370.640789469,152.39462537,462.389422743,-8.27779407969
2281.52,393.8427723,99.8412019673,-71.703841889,-46.2816616384,194.232902431,702.730506778,370.640789224,150.921862058,461.707107584,-8.27779407969
2282.54,393.308438289,99.4173867136,-72.8626214652,-46.8588398899,194.103190972,702.730506778,370.640789224,150.661281491,461.70388362,-8.27779407969
2283.56,393.307275801,100.834478921,-71.3684378616,-46.4268091463,194.678678708,702.730506778,370.659915881,150.635758782,461.70388362,-8.27779407969
2284.58,393.079730316,100.654119512,-71.6440761298,-46.5375206315,194.560967743,702.730506778,370.675011309,150.458081302,461.662106343,-8.27779407969
2285.6,393.293784326,101.342056856,-70.3643167996,-46.1139940164,194.805275478,702.722854685,371.067690837,151.194490756,461.662110528,-8.27779407969
2286.62,393.585361288,102.854156521,-68.5439483407,-45.4228812604,195.691519554,702.722854725,371.730712851,151.979595855,461.662110528,-8.27779407969
2287.64,393.806634056,103.604449591,-67.8024812012,-45.0811159925,196.51648962,702.722854725,372.721127884,152.251578408,461.638205435,-8.27779407969
2288.66,394.153074275,104.653572115,-66.0987890752,-44.5495564809,197.214610447,702.722854725,372.740373017,152.512310331,461.638147943,-8.27779407969
2289.68,394.108611601,104.898706706,-65.938770629,-44.6272765604,197.296767712,702.722854725,372.750607682,152.486064233,461.638147943,-8.27779407969
2290.7,394.163561195,104.967843224,-65.7336825032,-44.5052529856,197.41408634,702.722854725,372.794905466,152.613317794,461.619052624,-8.27779407969
2291.72,393.710338429,104.743185104,-66.1454984465,-44.8925446778,197.360952769,702.722854725,372.810106945,152.433709751,461.388590637,-8.24496525299
2292.74,393.581024982,104.593767355,-66.5381791401,-45.0369710953,197.285939224,702.722854725,372.810043069,152.209620723,461.359902796,-8.24500588343
2293.76,392.001178718,103.842308138,-69.2649353214,-47.7618653528,196.540714625,702.722854725,372.810043069,149.010194798,458.671187471,-8.24500588343
2294.78,391.552201381,103.2587842,-71.6472851714,-50.030431554,195.620203726,702.722854725,372.810043069,147.483622381,457.26968024,-8.24500588343
2295.8,391.542761969,103.884441325,-70.9104631265,-49.7876228572,195.88017899,702.722854725,372.847185505,147.573932241,457.269680232,-8.24500588343
2296.82,391.616885608,103.946287105,-70.7605377814,-49.7028733939,196.064174738,702.722854725,372.899862173,147.678408512,457.262120174,-8.24500588343
2297.84,391.610814816,104.412826221,-70.3475218816,-49.592203825,196.465354266,702.722854725,373.175165191,147.931894066,457.262120243,-8.24500588343
2298.86,391.923450949,105.63615133,-68.7640127685,-49.1000062796,196.969086862,702.722854725,373.365827514,148.393955716,457.262120243,-8.24500588343
2299.88,392.248184658,107.384692435,-66.7608210248,-48.1196260817,198.12227789,702.722854725,375.580669767,149.518731285,457.262120243,-8.24500588343
2300.9,392.322998929,108.566750799,-65.0464047065,-47.613054433,198.679881061,702.722854725,375.918105719,150.286645437,457.257122354,-8.24500588343
2301.92,392.582844485,112.848027655,-61.5069151028,-46.67079997,199.857880441,702.722854725,376.106201436,150.37550449,457.257122402,-8.24500588343
2302.94,392.780353305,113.212405972,-60.8794335781,-46.371269506,200.321853273,702.722854725,376.320395384,150.57115635,457.257122402,-8.24500588343
2303.96,393.478608929,113.90996954,-60.2748291763,-45.8214714653,201.063678534,702.722854725,376.755946998,150.848000845,457.24422428,-8.19220586605
2304.98,393.43818341,113.878070136,-60.3587199711,-45.8715507542,201.074002447,702.722854725,376.758294748,150.776716416,457.238606005,-8.18515173982
2306.0,392.650458574,113.438056842,-61.7586531836,-46.6013573838,200.804838738,702.722854725,376.754770796,149.378427197,456.714889647,-8.18515173982
2307.02,392.511448463,113.382937044,-62.380025766,-47.1221408386,200.618424669,702.722854725,376.761701062,148.950495226,456.514099544,-8.18515173982
2308.04,392.433117494,113.719492437,-62.0356996978,-47.0190867711,200.765874361,702.722854725,376.765604714,148.995287744,456.514027212,-8.18515173982
2309.06,391.989375476,113.861524255,-62.3731208284,-47.1828062713,200.608577497,702.722854725,376.837680241,148.306022794,456.339853907,-8.16058668306
2310.08,391.925207328,114.156561381,-61.8738489978,-47.0321238119,200.797082436,702.722854725,376.983056202,148.672886741,456.311930761,-8.16058668307
2311.1,392.154308747,115.164107621,-60.5130004587,-46.5245845938,201.458421712,702.722854725,377.19967547,149.075934905,456.311930761,-8.16058668307
2312.12,392.197375623,116.18108943,-58.9476356025,-45.8762827617,202.416235458,702.722854725,378.168303716,149.845967676,456.311930761,-8.16058668307
2313.14,392.145400389,116.399043247,-58.8887945185,-46.0019837389,202.614726805,702.722854725,378.584878721,149.947660743,456.166258844,-8.16058668307
2314.16,392.58562742,119.814720623,-55.3617992247,-44.9392665962,204.085528595,702.722854725,378.857615731,150.22724164,456.166267704,-8.16058668307
2315.18,392.633514803,119.933469366,-55.2613424841,-44.9133836352,204.229061266,702.722854725,378.909898902,150.370926792,456.166267704,-8.16058668307
2316.2,392.143673529,119.553072893,-55.982558011,-45.3758811694,204.111385063,702.722854725,378.909616507,150.047734226,456.018052678,-8.16058668307
2317.22,392.038793497,119.777244238,-55.8360954372,-45.3755719221,204.245894123,702.722854725,378.914409634,150.02576885,456.018056313,-8.16058668307
2318.24,391.617933904,119.430354325,-56.8470648132,-45.8979967578,204.22953951,702.722854725,378.914409633,149.14877206,455.734290042,-8.16058668307
2319.26,391.003299384,119.100765337,-57.9469896326,-46.9652579916,203.794568183,702.722854725,378.915127223,147.561064551,454.812785655,-8.16058668307
2320.28,390.209078724,118.460947273,-59.3755870371,-47.7516494753,203.55752975,702.722854725,378.915127439,147.305973735,454.808475297,-8.16058668307
2321.3,390.122532236,119.575650185,-58.3053041319,-47.4157077639,203.936729551,702.722854725,378.919615356,147.209487497,454.808475297,-8.16058668307
2322.32,390.034348675,119.624948238,-58.0076032986,-47.2713013892,204.033885637,702.722854725,379.033358369,147.459959164,454.787474736,-8.16058668307
2323.34,390.258574676,120.275661112,-57.043686668,-46.852780945,204.432193997,702.731910836,379.263388754,147.972862773,454.787474801,-8.16058668307
2324.36,390.339592601,120.569680433,-56.6223956809,-46.6680139461,204.739552832,702.731910837,379.451842621,148.255158722,454.787474801,-8.16058668307
2325.38,390.26257292,120.726700617,-56.6826382769,-46.7932050986,204.950739352,702.731910837,379.784925589,148.192460083,454.652766207,-8.16058668307
2326.4,390.806448703,121.848802398,-55.1734377497,-46.261451017,205.642795961,702.731910837,379.78492559,148.357309177,454.652770733,-8.16058668307
2327.42,390.621976617,121.542876327,-55.7348760416,-46.473593652,205.673800106,702.731910837,379.790001647,148.230112904,454.652290389,-8.16058668307
2328.44,389.918504639,120.915336565,-56.6487945289,-46.9462229402,205.442774779,702.731910837,379.787835392,147.696530714,454.569237434,-8.16058668307
2329.46,389.732559741,120.868349298,-56.9412422966,-47.1277665278,205.405098911,702.731910837,379.787835391,147.512496045,454.544709033,-8.15788917453
2330.48,389.477380625,120.633302438,-57.5889275716,-47.3983879138,205.361910537,702.731910837,379.787835391,147.1008568,454.477230007,-8.15788917462
2331.5,388.160501628,119.920422562,-60.8694879048,-50.946068424,204.259512663,702.731910837,379.787835391,143.807117255,450.735230769,-8.15788917462
2332.52,387.28653557,119.133700572,-63.5689288208,-52.8122387891,203.651444692,702.731910837,379.787835391,142.771838777,450.207076004,-8.15788917462
2333.54,387.255319566,120.37970995,-62.4027834048,-52.3700386293,204.115766385,702.731910837,379.812496349,142.787565699,450.206659547,-8.15788917462
2334.56,387.410849186,120.538578123,-62.0762673293,-52.2005374286,204.411259397,702.731910837,379.87560643,142.994505691,450.185170305,-8.15788917462
2335.58,387.4796487,120.892969516,-61.6410277527,-51.9689714203,204.641677656,702.731910837,380.036034398,143.173454154,450.185170308,-8.15788917462
2336.6,387.896787133,122.395225338,-60.0006991555,-51.2881600186,205.382900512,702.731910837,380.432432801,143.697750216,450.185170308,-8.15788917462
2337.62,387.946566556,123.013652484,-59.3438512882,-51.0177808583,205.951974673,702.731910837,381.196691891,144.005511559,450.089176434,-8.15788917462
2338.64,388.14454809,123.656033368,-58.09426329,-50.6939552443,206.349584912,702.731910837,381.213395999,144.397568784,450.090641943,-8.15788917462
2339.66,387.970894564,123.461715759,-58.5600420208,-50.8512079863,206.363244471,702.731910837,381.213396826,144.385852681,450.090641943,-8.15788917462
2340.68,388.497632789,123.946784791,-58.0176699772,-50.4193730387,206.987315698,702.731910837,381.391544262,144.669908673,450.090641943,-8.15788917462
2341.7,388.449163047,123.90591121,-58.1442292214,-50.5176718218,207.042871168,702.731910837,381.408055783,144.587424791,450.023020418,-8.13144462414
2342.72,388.263298449,123.723526095,-58.5124972497,-50.705384742,206.99453688,702.731910837,381.408323061,144.40965259,449.995541269,-8.1314308685
2343.74,387.516764504,123.267961588,-60.2424740065,-51.8882740531,206.593230821,702.731910837,381.408323061,142.609106156,449.175396433,-8.1314308685
2344.76,387.261447729,122.998881252,-60.6788798098,-52.1433613432,206.429524681,702.731910837,381.408323061,142.407752771,449.150007322,-8.1314308685
2345.78,387.185317475,123.498139318,-60.0568412127,-52.0224500419,206.592750536,702.731910837,381.414349205,142.530441661,449.150007322,-8.1314308685
2346.8,387.090200401,123.433957153,-60.233753894,-52.0236363497,206.654554717,702.731910837,381.433143528,142.363702751,449.100217823,-8.1314308685
2347.82,387.182460115,124.155116531,-59.1057481558,-51.5720490814,207.163142679,702.731910837,381.831923244,143.062001722,449.100237806,-8.1314308685
2348.84,387.322671386,124.561001156,-58.4879078691,-51.3334171756,207.450886721,702.731910837,381.847463757,143.237511892,449.100237806,-8.1314308685
2349.86,387.595994948,125.599101686,-57.3476617036,-50.8779568357,208.163155302,702.731910837,382.684607843,144.068539724,449.100237806,-8.1314308685
2350.88,387.521992326,126.158349276,-56.4528730141,-50.6132085584,208.578553847,702.731910837,382.688397686,144.024445276,449.027460723,-8.1314308685
2351.9,387.808071986,129.886856557,-53.9939397167,-49.9840102689,209.721888961,702.731910837,383.078293445,144.063060869,449.027460725,-8.1314308685
2352.92,387.908632839,130.095749898,-53.6849880606,-49.8638410874,209.807906795,702.731910837,383.111036674,144.266705886,449.030152212,-8.1314308685
2353.94,387.612216545,129.952964414,-53.8979328016,-50.0535248128,209.71422984,702.731910837,383.111075537,144.126445995,448.993712313,-8.1314308685
2354.96,387.385461873,129.713464078,-54.4760349911,-50.3505873039,209.616106332,702.731910837,383.111075537,143.94525224,448.985247001,-8.1314308685
2355.98,386.423028799,128.935750007,-55.9445331889,-51.2717126939,209.507525141,702.731910837,383.111075537,142.505540921,448.321056489,-8.1314308685
2357.0,385.943243995,128.541497356,-57.1356970329,-52.4929186504,208.969722369,702.731910837,383.111075537,141.293255449,447.544181726,-8.1314308685
2358.02,385.533018925,128.588802739,-57.6398822439,-52.6993936776,209.0050285,702.731910837,383.111075537,141.156788857,447.544180627,-8.1314308685
2359.04,385.157103046,128.394737486,-58.2687584143,-52.9298916187,208.959208223,702.731910837,383.111075537,140.669145335,447.479447137,-8.1314308685
2360.06,384.819262448,128.46589461,-57.9927136197,-53.0195262201,208.733255949,702.734517885,383.247232759,140.84798475,447.427146634,-8.1314308685
2361.08,385.195905222,129.647739472,-56.5749358328,-52.4305351856,209.307226633,702.753827779,383.665231828,141.581808769,447.427146633,-8.1314308685
2362.1,385.288615465,129.930974959,-56.079003503,-52.2713258341,209.590148069,702.753827779,383.888971066,141.931912981,447.427146633,-8.1314308685
2363.12,385.218518362,129.965102717,-56.1249450453,-52.3494518254,209.627807543,702.753827779,383.885192985,141.812691537,447.37939082,-8.1314308685
2364.14,385.42299546,130.442192111,-55.5979779778,-52.2128674764,210.142723008,702.753827779,383.89070522,141.712667018,447.379390859,-8.1314308685
2365.16,385.445885095,130.567792825,-55.4706986047,-52.1483985197,210.323255348,702.753141704,383.975759354,141.853619695,447.379390859,-8.1314308685
2366.18,384.391947084,129.665760489,-57.0121921682,-53.0668927605,209.878860979,702.753141704,383.964464418,141.087595148,447.064779645,-8.1314308685
2367.2,384.29419317,130.049125086,-56.7791775885,-53.0015122009,210.028277637,702.753141704,383.964464418,141.028576379,447.064990763,-8.1314308685
2368.22,383.90144235,129.786580121,-57.6914582315,-53.4132688381,210.025013853,702.753141704,383.962027976,140.272052604,446.834859347,-8.1314308685
2369.24,382.483110595,128.588712793,-61.1814395506,-57.194479553,208.648048349,702.753141704,383.962027972,137.045064604,443.429627169,-8.1314308685
2370.26,381.991788229,128.266546423,-62.4709418209,-57.7980605725,208.533730637,702.753141704,383.962027972,136.652994759,443.372690755,-8.1314308685
2371.28,381.872564569,128.709855186,-62.1413993802,-57.7133620831,208.720743125,702.753141704,383.961949743,136.500680109,443.361981888,-8.1314308685
2372.3,382.078134888,129.212721273,-61.1934441846,-57.3331811939,209.111765906,702.753141704,384.202222695,137.027870884,443.352983498,-8.1314308685
2373.32,382.222072229,129.83671486,-60.3459134235,-56.8682870496,209.719293137,702.747013358,384.35373616,137.304421475,443.352983498,-8.1314308685
2374.34,382.34413553,130.762445936,-59.1061278935,-56.4487510913,210.21578562,702.747013359,384.732249342,137.820642564,443.352983498,-8.1314308685
2375.36,382.518873859,131.447270668,-58.357242957,-56.1663725044,210.857076454,702.747013359,385.524204074,138.148586278,443.302139658,-8.1314308685
2376.38,382.828275723,132.694649151,-56.3617354956,-55.4687408747,211.629812881,702.747013359,385.554290564,138.428098345,443.302476724,-8.1314308685
2377.4,382.814746762,132.882120114,-56.6832163419,-55.5849850797,211.674397918,702.747013359,385.564145178,138.405413282,443.302476724,-8.1314308685
2378.42,382.832425642,132.968874468,-56.5589405179,-55.4992482066,211.881608483,702.747013359,385.604885603,138.498582728,443.280987845,-8.1314308685
2379.44,382.684783746,132.903527438,-56.7469638821,-55.6547761481,211.816367836,702.747013359,385.619749073,138.405046019,443.208193997,-8.11028261049
2380.46,382.329272788,132.599039816,-57.3524172477,-55.9446180786,211.763279226,702.747013359,385.619748448,137.991506492,443.109805322,-8.11028348203
2381.48,381.164680312,131.857976612,-60.5667791866,-59.1515997433,210.636632498,702.747013359,385.619748448,135.234892829,440.219313287,-8.11028348203
2382.5,381.011421599,131.700127051,-61.0765622802,-59.3946323974,210.531698394,702.747013359,385.619748448,135.036606534,440.181901118,-8.11028348203
2383.52,381.154887947,133.676046507,-58.9710875196,-58.6981261303,211.341470381,702.747013359,385.799003434,135.181083042,440.181901118,-8.08386158651
2384.54,381.467794993,134.439272466,-57.6534368415,-58.0239902348,212.134588859,702.747013359,386.265443766,135.961201012,440.170924935,-8.08386171259
2385.56,381.545294757,135.181875504,-57.2103159671,-57.7631470658,212.305118305,702.747013359,386.582157591,136.121199691,440.170924936,-8.08386171259
2386.58,381.747386878,136.032006316,-55.9885611293,-57.3702956131,212.79380085,702.747013359,386.720646745,136.490593121,440.170924936,-8.08386171259
2387.6,381.914311923,136.833990308,-55.147527153,-56.9596817599,213.383191225,702.747013359,387.604582121,136.975570251,440.146315259,-8.08386171259
2388.62,382.075105203,138.473174332,-52.7964089976,-56.2034288274,214.184030764,702.747013359,387.7043262,137.317324537,440.139871565,-8.08386171259
2389.64,382.127897132,139.533485845,-52.1930995576,-56.1532760794,214.526699277,702.747013359,387.732896399,137.35672503,440.139871565,-8.08386171259
2390.66,382.191655143,139.662962469,-51.973553027,-56.0685778567,214.628346481,702.747013359,387.751778377,137.490943538,440.139871565,-8.08386171259
2391.68,382.021255788,139.718257721,-51.9320197691,-56.1330075527,214.640479622,702.747013359,387.753229909,137.469145878,440.113748388,-8.07931122867
2392.7,381.900638982,139.558587117,-52.2730763325,-56.2900864657,214.58824601,702.747013359,387.752341302,137.328202995,440.110985129,-8.07931153898
2393.72,380.854034677,138.862970595,-54.1145452913,-57.5323409972,214.194660979,702.747013359,387.7523387,135.565961801,439.058736565,-8.07931153898
2394.74,380.693302633,138.608784323,-54.8719397904,-58.057778895,213.982542477,702.747013359,387.753115368,134.9417802,438.848730131,-8.07931153898
2395.76,380.540942566,139.295262039,-54.2864288821,-57.9231373129,214.302760426,702.747013359,387.753115367,134.917390656,438.848728873,-8.07931153898
2396.78,380.157150323,138.935038601,-55.1802366715,-58.2585569976,214.157383186,702.747013359,387.753089118,134.393181859,438.774467266,-8.07931153898
2397.8,380.322555744,139.39318318,-54.2220792987,-57.8716133761,214.407271919,702.740103984,388.069452311,135.0596192,438.774229195,-8.07931153898
2398.82,380.464219776,139.840832567,-53.5489179457,-57.5876667846,214.766874804,702.740801846,388.171770689,135.388141539,438.774373669,-8.07931153898
2399.84,380.420367615,139.97280252,-53.406253201,-57.5656439464,214.90422132,702.740801846,388.323069548,135.456514996,438.722324037,-8.07931153898
2400.86,380.513330078,140.209972873,-52.9858121215,-57.4351800333,215.130552555,702.740801846,388.32297403,135.503950729,438.701030836,-8.07931153898
2401.88,380.491325992,140.377173275,-52.9613365262,-57.5336061392,215.236157847,702.742950371,388.324665039,135.418507272,438.701030836,-8.07931153898
2402.9,380.228200747,140.32245659,-53.0232975603,-57.6584553737,215.115962956,702.742996384,388.38041774,135.329377954,438.59187401,-8.07931153898
2403.92,378.851040011,138.925166659,-55.3645977611,-59.5652472192,214.858949001,702.742996384,388.380411872,134.662061004,437.706111994,-8.07931153898
2404.94,378.649773358,138.73233164,-56.1350160991,-59.7885141206,214.783628628,702.742996384,388.380411872,134.406933471,437.70611207,-8.07931153898
2405.96,377.739696888,138.134053999,-57.7346738122,-60.5523310188,214.754798927,702.742996384,388.380411872,133.04687427,437.018528026,-8.07931153898
2406.98,376.635956668,137.410353891,-60.961929396,-63.8977974642,213.552696419,702.742996384,388.380411872,130.524180248,434.295710085,-8.07931153898
2408.0,376.330140553,137.435250706,-61.4240243965,-64.1132729894,213.601057312,702.742996384,388.380411872,130.398998934,434.294791865,-8.07931153898
2409.02,376.225695178,137.767417537,-60.9648498189,-64.0158162237,213.71396865,702.742996384,388.383189535,130.263188077,434.291431675,-8.07931153898
2410.04,376.356939726,137.953413512,-60.5332648458,-63.8014854884,213.941361866,702.734588958,388.475842516,130.464546387,434.291246636,-8.07931153898
2411.06,376.604864847,138.939210381,-59.1341639493,-63.2179571769,214.702531262,702.717240523,388.864223344,130.917689831,434.291246636,-8.07931153898
2412.08,376.683661586,139.389410703,-58.3893619164,-62.9434759505,215.112077751,702.717240523,389.135388638,131.280752428,434.291246636,-8.07931153898
2413.1,376.534354665,139.33857522,-58.7065354181,-63.1781737225,215.135623737,702.717240523,389.233132337,131.071088,434.169693031,-8.07931153898
2414.12,376.838083871,140.000932768,-57.6497928492,-62.7990514033,215.731307855,702.717240523,389.242677155,131.152643601,434.169694676,-8.07931153898
2415.14,376.929617141,140.257572856,-57.2018854196,-62.6893032779,215.810863758,702.717240523,389.262381731,131.375246113,434.169694676,-8.07931153898
2416.16,376.440279271,139.787170041,-57.9359430112,-63.05103555,215.671075713,702.717240523,389.28414513,131.105302812,433.976899352,-8.07931153898
2417.18,376.272420323,139.796327245,-57.9863245662,-63.1076953615,215.685968838,702.717240523,389.28414513,131.012901775,433.97569987,-8.0743289121
2418.2,375.796580724,139.484144941,-58.8684006929,-63.5690309961,215.642855884,702.717240523,389.28414513,130.315894353,433.730358438,-8.07432891209
2419.22,375.35231504,139.264726916,-59.8490439116,-64.6135534534,215.08849949,702.717240523,389.286854221,128.969270842,432.874816908,-8.07432891209
2420.24,375.154078649,139.171288806,-60.1381992551,-64.7693096044,215.065950158,702.717240523,389.286860209,128.858834334,432.874818224,-8.07432891209
2421.26,374.951307575,139.972013301,-59.7146823102,-64.6580463143,215.37199136,702.717240523,389.354986119,128.581957846,432.815688152,-8.07432891209
2422.28,375.134847557,141.000787971,-57.9742417865,-64.1817121709,215.799169089,702.717240523,389.722353244,129.251532178,432.751097736,-8.07432891209
2423.3,375.007710404,140.767734844,-58.5108782731,-64.3543216604,215.778247019,702.717240523,389.712169236,129.073894661,432.751097736,-8.07432891209
2424.32,375.042159004,141.182102051,-57.8065652625,-64.0931441272,216.063000058,702.717240523,389.8887313,129.315245221,432.751097736,-8.07432891209
2425.34,375.374308046,142.115622016,-56.5846332927,-63.5751933817,216.892213943,702.717240523,390.961268699,130.014405187,432.731277088,-8.07432891209
2426.36,375.558862558,144.428496901,-53.357265335,-62.645731088,217.970606962,702.717240523,391.0401704,130.472232307,432.731296535,-8.07432891209
2427.38,375.463664322,144.614553123,-53.5463073839,-62.7687451089,217.992094025,702.717240523,391.040228135,130.458093324,432.731296535,-8.07432891209
2428.4,376.623368844,145.950668261,-51.3627075898,-60.8941216168,219.810119945,702.717240523,392.075545277,131.318581776,432.731296535,-7.93297354097
2429.42,377.761816928,147.996189084,-50.0461760251,-59.9800225015,220.310437271,702.717240523,393.044990757,132.159943863,432.729554114,-7.19861994795
2430.44,377.38905219,147.717076464,-50.6733770394,-60.273276013,220.216549947,702.717240523,393.040168965,131.790200105,432.623444165,-7.19863378706
2431.46,377.152132274,147.704287599,-50.7525852291,-60.5095961168,220.198462633,702.717240523,393.056264803,131.626025322,432.433500601,-7.19863378706
2432.48,377.115141584,147.746742331,-50.6868068944,-60.5564853894,220.193316786,702.717240523,393.084485613,131.694496611,432.433500656,-7.19863378706
2433.5,377.167535076,149.101513524,-49.2335452479,-60.0435664837,220.817117309,702.717240523,393.242684883,131.801781151,432.432617474,-7.17050341804
2434.52,377.197053764,149.346566573,-48.6754866945,-59.6772203901,221.275395396,702.717240523,393.442628938,132.198569029,432.392454011,-7.17050604923
2435.54,377.184904316,149.795924946,-48.1687168275,-59.4139609496,221.550959971,702.717240523,393.682634791,132.374957718,432.392454052,-7.17050604923
2436.56,377.35631944,150.463229092,-47.1588991253,-59.0267122155,222.026143757,702.717240523,393.74287789,132.705767999,432.392454052,-7.17050604923
2437.58,377.444160869,151.165737256,-46.352926155,-58.6920104092,222.724126529,702.717240523,394.51494713,133.048078874,432.3451796,-7.17050604923
2438.6,377.540478875,152.306361094,-44.4413203196,-58.1997122179,223.426138613,702.717240523,394.589030884,133.265075422,432.300107281,-7.17050604923
2439.62,377.609105337,152.909509419,-44.0086767774,-58.0770465833,223.70390282,702.717240523,394.60060986,133.222656507,432.300107281,-7.17050604923
2440.64,377.617542713,152.982806321,-43.8341735914,-58.0215748243,223.750001544,702.717240523,394.610566119,133.280240341,432.298560115,-7.17050604923
2441.66,377.49877021,153.050160348,-43.708609702,-58.0274457282,223.766676364,702.717240523,394.61306931,133.278426023,432.289677031,-7.16828851416
2442.68,377.394819357,152.943800442,-43.9175236931,-58.1153791754,223.734796892,702.717240523,394.613069316,133.204860643,432.289040914,-7.1682885078
2443.7,376.428696155,152.341391983,-45.3764163276,-59.1080438333,223.383100175,702.717240523,394.610127171,131.817403171,431.644212926,-7.1682885078
2444.72,376.267393726,152.122500851,-45.9971766844,-59.4833132617,223.188113881,702.717240523,394.609992551,131.398502333,431.511964055,-7.1682885078
2445.74,376.141910958,152.478507103,-45.5432839793,-59.3599644573,223.38273684,702.717240523,394.611449964,131.358246478,431.511964055,-7.1682885078
2446.76,375.976609673,152.469844154,-45.7927666432,-59.4516463775,223.355688035,702.717240523,394.615510598,131.087291725,431.481374401,-7.1682885078
2447.78,376.152713499,152.584965857,-45.3583393461,-59.3014132355,223.669039999,702.658700802,394.706511428,131.17450987,431.4813902,-7.1682885078
2448.8,376.132812067,152.790868828,-45.0297450787,-59.2242901421,223.822003458,702.645722127,394.752368842,131.301269506,431.4813902,-7.1682885078
2449.82,376.085506705,152.874387785,-44.9210991599,-59.1873200568,223.988955978,702.645722127,394.859171343,131.375136014,431.431496361,-7.1682885078
2450.84,376.036014786,152.974056999,-44.8452407637,-59.2167827058,224.083128339,702.645722127,394.857269817,131.277066153,431.352922971,-7.1682885078
2451.86,375.828563143,152.756925676,-45.5593249231,-59.8614327608,224.289794844,702.613817425,394.857269817,130.84895247,431.329776322,-7.1682885078
2452.88,375.612639334,152.651618919,-45.7699986699,-60.0178218462,224.157757336,702.613956812,394.853235616,130.654800518,431.241776435,-7.1682885078
2453.9,374.276781314,151.396859934,-47.7773938272,-61.4274493863,223.859116319,702.613956812,394.852976109,129.876898335,430.690231933,-7.1682885078
2454.92,374.111350012,151.285081351,-48.1861914697,-61.5794384129,223.828657574,702.613956812,394.852976109,129.720023356,430.690232059,-7.1682885078
2455.94,373.584435667,150.802202614,-49.5383001712,-62.3382050431,223.770733626,702.613956812,394.852976109,128.423520776,430.233654089,-7.1682885078
2456.96,373.284034494,150.638552828,-50.0533308229,-62.91825368,223.457621252,702.613956812,394.857668037,127.872952457,429.900677651,-7.1682885078
2457.98,372.693559454,150.321706622,-51.2039324231,-63.4340019682,223.370978696,702.613956812,394.857666791,127.722837867,429.900677595,-7.1682885078
2459.0,372.50063621,150.259485537,-51.4664270142,-63.5481791303,223.35918701,702.613956812,394.857666791,127.448320837,429.8784554,-7.1682885078
2460.02,372.75238334,150.761830592,-50.5341266255,-63.1779759541,223.627407446,702.608591299,395.164286437,127.97954719,429.877450943,-7.1682885078
2461.04,373.026073954,151.776383992,-49.1112099917,-62.5729828932,224.339665333,702.609094919,395.472362381,128.458834593,429.877450943,-7.1682885078
2462.06,373.106864401,152.241569269,-48.3576123467,-62.2740957222,224.78589699,702.609094919,395.785246927,128.883821906,429.877450943,-7.1682885078
2463.08,373.136885928,152.372888452,-48.3500395897,-62.2591828871,224.978832537,702.609094919,395.942268685,128.854666103,429.820347581,-7.1682885078
2464.1,373.122313865,152.3081887,-48.2513273374,-62.33810343,225.048239462,702.609094919,395.942268552,128.836858853,429.82034758,-7.1682885078
2465.12,373.184223554,152.451149917,-47.7959263804,-62.1815875853,225.265183621,702.609094919,395.994900482,128.9714685,429.82034758,-7.1682885078
2466.14,373.023331123,152.393413627,-47.9080123456,-62.2835464576,225.451235616,702.609094919,396.314778457,128.967315607,429.627404514,-7.1682885078
2467.16,372.863856526,152.393486984,-47.9912215428,-62.3633482204,225.41883273,702.609094919,396.319408257,128.908506738,429.617084858,-7.14562280137
2468.18,372.670270145,152.216226233,-48.4378499603,-62.5464761781,225.373567105,702.609094919,396.311821104,128.580981499,429.536042972,-7.14562280159
2469.2,372.210891958,152.071514753,-49.3453684042,-63.3291467596,225.093928104,702.609094919,396.316053163,127.349656376,428.896711883,-7.14562280159
2470.22,371.891693377,151.90700695,-49.8652553933,-63.6547056531,224.997110344,702.609094919,396.316052255,127.22097338,428.896711699,-7.14562280159
2471.24,371.801452442,152.320597473,-49.5096917865,-63.5125751174,225.288034719,702.609094919,396.336787534,127.110571803,428.888831393,-7.14562280159
2472.26,372.228020041,153.681057155,-47.2937422911,-62.6986774618,226.062986862,702.609094919,396.91948736,127.95721529,428.873916793,-7.14562280159
2473.28,372.158741,153.68592541,-47.5025029917,-62.7615186124,226.219579014,702.609094919,396.908231028,127.941089763,428.873916793,-7.14562280159
2474.3,372.269575656,154.385003878,-46.4813957085,-62.3646300871,226.672516272,702.609094919,397.16113951,128.281496674,428.873916793,-7.14562280159
2475.32,372.51358349,155.315879388,-45.3231973428,-61.8357209173,227.4190954,702.609094919,398.107550011,129.098375891,428.8575357,-7.14562280159
2476.34,372.731815978,158.646300328,-41.2444453106,-60.4031968574,228.962132035,702.609094919,398.347542852,129.727679421,428.857558323,-7.14562280159
2477.36,372.58844741,159.206260597,-41.2632717952,-60.652126564,229.006993368,702.609094919,398.348227238,129.678848106,428.857558323,-7.14562280159
2478.38,372.978139693,159.678651088,-40.6910806502,-60.2979128643,229.514711662,702.609094919,398.427555879,130.010624433,428.857558323,-7.14562280159
2479.4,372.878113862,159.56693502,-40.8313955578,-60.3633528333,229.469409508,702.609094919,398.412477833,129.919479354,428.843666313,-7.13617433225
2480.42,372.64247306,159.328526648,-41.3803421747,-60.6073621823,229.413428815,702.609094919,398.412477823,129.572360743,428.758544593,-7.13617436986
2481.44,371.860816919,158.877404307,-43.0193704386,-61.8286818112,229.004775088,702.609094919,398.419039891,128.21429872,427.867788041,-7.13617436986
2482.46,371.823257816,158.910063502,-42.9402762286,-61.8172643504,228.998136675,702.609094919,398.421653606,128.273737388,427.867919007,-7.13617436986
2483.48,371.761971917,159.838181386,-41.9661752205,-61.5774112733,229.450890279,702.609094919,398.481802335,128.240902868,427.861419226,-7.13617436986
2484.5,371.726429903,159.801898873,-41.9794252872,-61.5391202776,229.600231972,702.609094919,398.520558558,128.2234259,427.828884021,-7.13617436986
2485.52,371.671171494,160.070809587,-41.9187013486,-61.5726005674,229.855760607,702.560125205,398.811670137,128.16020236,427.820406616,-7.13617436986
2486.54,371.829155776,160.673604919,-40.9293427824,-61.1838880967,230.241515522,702.560126222,398.885193532,128.528636298,427.820406619,-7.13617436986
2487.56,371.627285814,160.765009087,-40.910998182,-61.2767044271,230.542962492,702.560126222,399.140817778,128.425985062,427.616823114,-7.13617436986
2488.58,371.921482657,162.384667268,-38.8512495254,-60.4050398487,231.522580421,702.560126222,399.197258957,128.705726772,427.60244177,-7.13617436986
2489.6,372.161700049,163.312998051,-38.4892962859,-60.3489702981,231.952715156,702.560126222,399.231326248,128.656737672,427.60244177,-7.13617436986
2490.62,372.152078635,163.380989925,-38.3127525478,-60.2796061451,232.017296034,702.560126222,399.255159943,128.767229365,427.599817587,-7.13617436986
2491.64,371.751856409,163.355202271,-38.4800940016,-60.5193788409,231.984768356,702.560126222,399.255159506,128.556321585,427.5000288,-7.13617436986
2492.66,371.612805869,163.190123242,-38.9841276994,-60.6958443062,231.894145824,702.560126222,399.255159506,128.392023462,427.497984386,-7.13617436986
2493.68,370.690899203,162.410836115,-41.0729715385,-62.1094031477,231.569419138,702.560126222,399.255159506,126.292282216,426.430870867,-7.13617436986
2494.7,370.355517241,162.111017411,-42.1905608875,-62.8031431032,231.330537192,702.560126222,399.255726286,125.615352092,426.159141932,-7.13617436986
2495.72,370.035730919,162.261694709,-42.2811555111,-62.9831471027,231.48494959,702.560126222,399.255726251,125.571149442,426.159012697,-7.13617436986
2496.74,369.712345574,161.931336385,-42.9029127441,-63.2397973462,231.24362573,702.560126222,399.255726251,125.263003174,426.141378756,-7.13617436986
2497.76,369.668681646,161.948305558,-42.8140244299,-63.2252293871,231.275602921,702.534842729,399.315174448,125.332141568,426.139931704,-7.13617436986
2498.78,369.911651971,162.863035031,-41.5423672407,-62.5988725829,231.946982842,702.535512539,399.677041879,125.80023322,426.139940047,-7.13617436986
2499.8,369.87375704,163.004861546,-41.3374740142,-62.5175409981,232.120517439,702.535512539,399.800825995,125.921048009,426.100517391,-7.13617436986
2500.82,369.74373531,162.992228118,-41.4375554888,-62.6265405159,232.125466243,702.535512539,399.801877059,125.81629092,426.000403313,-7.13617436986
2501.84,369.614430568,162.915382518,-41.7029603605,-62.7535170856,232.205784043,702.535512539,399.80187706,125.784653755,426.000403313,-7.13617436986
2502.86,369.784733515,163.284856293,-40.9256906372,-62.432125914,232.582151884,702.535512539,399.98820557,126.178652687,426.000403313,-7.13617436986
2503.88,369.308662235,162.905367575,-41.6223089897,-62.8565544905,232.435427796,702.535512539,399.988350234,125.82574359,425.854262931,-7.12872403375
2504.9,369.039127009,162.562903652,-42.3678381819,-63.1589978153,232.287619146,702.535512539,399.988350234,125.538450145,425.853515349,-7.12869172861
2505.92,368.049231149,161.907543632,-44.2247302044,-64.1414868632,232.238159258,702.535512539,399.98834001,123.712354104,424.770947194,-7.12869172861
2506.94,367.415683951,161.52134919,-46.448455279,-66.4505889623,231.218590444,702.535512539,399.98834001,121.840524508,423.083087049,-7.12869172861
2507.96,366.915283589,161.531163463,-46.8546764869,-66.787240639,231.181071116,702.535512539,399.98834001,121.750876701,423.083084592,-7.12869172861
2508.98,366.752868623,161.486329227,-47.1367725404,-66.9109239248,231.122224528,702.535512539,399.981617995,121.517012213,423.05608058,-7.12869172861
2510.0,367.129945204,162.689658921,-45.2719645267,-66.349164437,231.703937245,702.526427282,400.516747097,122.182032701,423.056805073,-7.12869172861
2511.02,367.474863827,164.047967984,-43.3056302223,-65.5674843878,232.571072803,702.526459924,400.823152325,122.770012426,423.056805073,-7.12869172861
2512.04,367.457183001,164.568954222,-42.3701144725,-65.1058655834,233.16696324,702.526459924,401.289561452,123.105100092,423.056805073,-7.12869172861
2513.06,367.655214449,165.322323881,-41.7104210605,-64.8256157918,233.753194074,702.526459924,402.154008221,123.647569633,423.013783922,-7.12869172861
2514.08,367.977764105,168.318464779,-38.184382435,-63.6786756068,235.138502176,702.526459924,402.263904502,124.038049904,423.013784568,-7.12869172861
2515.1,367.907890451,168.33951093,-38.1753025512,-63.7104490447,235.268897124,702.526459924,402.273397038,124.154381886,423.013784568,-7.12869172861
2516.12,367.973760516,168.380144343,-38.2428247302,-63.6826639036,235.441057893,702.526459924,402.281985887,124.127445986,422.994812816,-7.12512043856
2517.14,367.783709582,168.28494414,-38.4789986056,-63.8671283635,235.370492947,702.526459924,402.2859356,124.053927706,422.978062432,-7.1126950457
2518.16,367.458953196,168.021875805,-39.1495590675,-64.1768280423,235.326162146,702.526459924,402.284389338,123.521426023,422.813361281,-7.11269504573
2519.18,366.789734731,167.64755855,-40.4573743009,-65.2131719011,234.894275124,702.526459924,402.290189317,122.286373857,422.124608246,-7.11269504573
2520.2,366.57939961,167.423002052,-40.9315443224,-65.4083764138,234.780087654,702.526459924,402.290106574,122.154207141,422.12197123,-7.11269504573
2521.22,366.522474978,167.82566962,-40.4773431701,-65.2493504822,235.006610416,702.526459924,402.290106574,122.085389375,422.118038208,-7.11269504573
2522.24,366.313130817,167.856913561,-40.370514267,-65.2492161497,235.103011758,702.526459924,402.403996953,122.102238011,421.991438525,-7.11269504573
2523.26,366.446431719,168.259741855,-39.7310903531,-64.9597836468,235.371902967,702.513217271,402.520200489,122.292419857,421.991438589,-7.11269504573
2524.28,366.542565059,168.895019373,-38.9353219156,-64.6554936937,235.76853441,702.513217304,402.742429155,122.654965996,421.991438589,-7.11269504573
2525.3,366.349041324,168.833107133,-39.1430735872,-64.7759489104,235.85120939,702.513217304,402.838776962,122.505954646,421.886581003,-7.11269504573
2526.32,367.049279832,170.709227263,-36.7885411257,-63.8662394296,237.06772947,702.513217304,402.901865716,122.858535827,421.888748234,-7.11269504573
2527.34,367.050679607,170.853208712,-36.8424886081,-63.9248330817,237.163556478,702.513217304,402.963005639,122.963605613,421.888748234,-7.11269504573
2528.36,365.927321685,169.920310393,-38.3494307789,-64.9761444374,236.772840707,702.513217304,402.956338179,122.160395096,421.541435854,-7.11269504573
2529.38,365.826360491,169.743216085,-38.8208421923,-65.2098818523,236.675826276,702.513217304,402.956338177,122.057253099,421.473137032,-7.11269504573
2530.4,365.717015666,169.600090904,-39.1662674734,-65.3507951377,236.646046915,702.513217304,402.956338177,121.860167848,421.462945827,-7.11269504573
2531.42,364.572572954,168.825544652,-41.6208569169,-67.487893854,235.781876271,702.513217304,402.956338177,119.313712244,419.371778712,-7.11269504573
2532.44,363.763381479,168.063986323,-44.322309337,-69.2797370803,235.095029994,702.513217304,402.956338177,118.062695755,418.760717155,-7.11269504573
2533.46,363.680825243,168.311613762,-44.1162906097,-69.249509249,235.251409021,702.513217304,402.956338177,118.049064,418.760717155,-7.11269504573
2534.48,363.59261795,168.21031875,-44.2731723764,-69.3034187593,235.245823287,702.513217304,402.96739726,117.949595506,418.737753661,-7.11269504573
2535.5,363.737118427,168.401090217,-43.9304791631,-69.1114593116,235.454506873,702.501143357,403.042453194,118.115513923,418.737754402,-7.11269504573
2536.52,363.892791511,169.337310532,-42.6528358548,-68.5842530744,236.019135751,702.501143837,403.282183777,118.603369948,418.737754402,-7.11269504573
2537.54,363.899546574,169.674477149,-42.088330255,-68.425121947,236.379307679,702.501143837,403.562869907,118.986152541,418.705359042,-7.11269504573
2538.56,364.050818517,170.021224679,-41.3418305826,-68.1876535058,236.62383667,702.501143837,403.565006123,119.201417638,418.706189765,-7.11269504573
2539.58,363.780078421,169.626054794,-42.0264089229,-68.5632327255,236.588094521,702.501143837,403.565006124,119.093392231,418.706189765,-7.11269504573
2540.6,364.277238321,170.201214209,-41.1464725811,-67.98397943,237.277804695,702.501143837,403.792220894,119.494340352,418.706189765,-7.11269504573
2541.62,364.262414488,170.059135684,-41.7796674891,-68.3167047242,237.352769075,702.501143837,403.815127478,119.179124929,418.557663091,-7.1336507225
2542.64,364.125465968,169.896407676,-42.0085815248,-68.432617749,237.273518759,702.501143837,403.812774437,119.048986409,418.556079839,-7.13363328604
2543.66,363.831379011,169.716449512,-42.4985538397,-68.6995239142,237.186670978,702.501143837,403.820810744,118.629366291,418.401830372,-7.13363328604
2544.68,363.732232391,169.922834517,-42.1940259013,-68.6453749567,237.35452356,702.501143837,404.009115636,119.065238398,418.402955724,-7.13363328604
2545.7,363.732640786,170.810755512,-41.1805842199,-68.2973255537,237.856769911,702.501143837,404.053301501,119.168307727,418.402955724,-7.13353012658
2546.72,363.640011636,170.691246941,-41.5856555179,-68.4294918609,237.841632145,702.501143837,404.060213119,118.88734562,418.348914192,-7.13361972313
2547.74,363.839202756,171.688167191,-39.9107345866,-67.82434451,238.545376292,702.501143837,404.564892698,119.663408479,418.348928166,-7.13361972313
2548.76,363.904312587,172.055123409,-39.4906088819,-67.6871407051,238.772918147,702.501143837,404.600200209,119.736205395,418.348925133,-7.13361972313
2549.78,364.101497291,173.08112205,-38.0499205566,-67.0425537356,239.60172365,702.501143837,405.444158002,120.542095694,418.350894349,-7.13361972313
2550.8,364.156906315,173.641460764,-37.1517912355,-66.7903746149,239.981720965,702.501143837,405.625889302,120.820530402,418.304903402,-7.13361972313
2551.82,364.492483426,176.375145103,-34.5251884629,-65.7739093324,241.352443917,702.501143837,405.699037928,120.907847625,418.304903403,-7.13361972313
2552.84,364.613895951,176.582507537,-34.0494341509,-65.5744163019,241.558425763,702.501143837,405.754033099,121.070401673,418.304903403,-7.13361972313
2553.86,364.498541057,176.574333736,-34.1067099916,-65.6085274429,241.548827836,702.501143837,405.762534462,121.016426379,418.272497952,-7.11179740011
2554.88,364.400991485,176.498277409,-34.2814280616,-65.733163822,241.504515058,702.501143837,405.762559894,120.944263148,418.266061219,-7.11155759341
2555.9,363.937858249,176.140321616,-35.0819896471,-66.1035717277,241.413519228,702.501143837,405.762559894,120.281078301,418.089970332,-7.11155759341
2556.92,363.813672065,176.154846371,-35.1897895898,-66.2995473983,241.266122235,702.501143837,405.777221189,120.192398409,417.956596432,-7.11155759341
2557.94,363.494148761,176.147198425,-35.4015243384,-66.4440604072,241.336630758,702.501143837,405.777220768,120.08368364,417.956596432,-7.11155759341
2558.96,363.258737767,176.353924198,-35.391936355,-66.4460157433,241.509603338,702.501143837,405.777220768,119.754513802,417.90813632,-7.11155759341
2559.98,363.385367373,176.577947419,-34.8722562989,-66.138347232,241.801498599,702.4863039,405.941821284,120.080660503,417.898021573,-7.11155759341
2561.0,363.496680036,177.222323595,-34.1179409076,-65.8074321546,242.367234671,702.470933641,406.111771633,120.266104161,417.894077276,-7.11155759341
2562.02,363.535727948,177.470383738,-33.6627277649,-65.6577164864,242.567040188,702.470933641,406.247117726,120.55359389,417.894077276,-7.11155759341
2563.04,363.330869169,177.370876654,-33.9273848877,-65.8443248632,242.582439233,702.470933641,406.224047504,120.272399092,417.708479103,-7.11155759341
2564.06,363.872576097,178.726311818,-32.498352785,-65.2481879932,243.570735749,702.470933641,406.227675602,120.309842392,417.708479534,-7.11155759341
2565.08,364.031558712,179.065040465,-31.9263034844,-65.0281289315,243.743287338,702.470933641,406.305589244,120.592807475,417.708479534,-7.11155759341
2566.1,363.175895523,178.217974571,-33.3932990751,-65.8489590471,243.376372553,702.470933641,406.302529309,120.017490714,417.551714744,-7.11155759341
2567.12,362.746380263,177.725632224,-34.5821681078,-66.3630711224,243.137987391,702.470933641,406.302529309,119.773651968,417.55159601,-7.11155759341
2568.14,362.557691959,177.537850502,-35.1730552157,-66.6182804347,243.089783351,702.470933641,406.302529309,119.491545028,417.510290772,-7.11155759341
2569.16,362.080734165,177.315152485,-35.9814413146,-67.2579006324,242.916462814,702.470933641,406.313583935,118.658531686,417.052252044,-7.11155759341
2570.18,361.532167781,176.809056232,-37.3014254676,-67.9064171126,242.734696535,702.470933641,406.31676362,118.486523934,417.052267533,-7.11155759341
2571.2,361.512055848,177.527346667,-36.2160134101,-67.4748176605,243.187360602,702.470933641,406.31676362,118.470111291,417.052267533,-7.11155759341
2572.22,361.521870278,177.588328383,-36.1207795043,-67.3810114674,243.341436138,702.470933641,406.352241416,118.536313168,417.042436607,-7.11155759341
2573.24,361.61704019,177.986824186,-35.4311654135,-67.0760008688,243.662175954,702.478634313,406.488768051,118.91016192,417.042436711,-7.11155759341
2574.26,361.699766126,178.541649651,-34.6889011354,-66.7728136499,244.036052305,702.478634319,406.684182111,119.250709769,417.042436711,-7.11155759341
2575.28,361.631886841,178.649901766,-34.5893386134,-66.7312633646,244.234057061,702.478634319,406.916364551,119.384345967,416.998776713,-7.11155759341
2576.3,361.856796962,179.041011782,-33.7194678263,-66.4316741421,244.598217223,702.478634319,406.920934091,119.588618525,416.998802433,-7.11155759341
2577.32,361.716689854,178.851723368,-33.9225309078,-66.6437738391,244.628463642,702.478634319,406.928719159,119.58020354,416.998802433,-7.11155759341
2578.34,361.517123015,178.849173111,-33.716617536,-66.5661093988,244.806996299,702.478634319,407.055640448,119.736103042,416.863563202,-7.11155759341
2579.36,360.984523882,178.166151079,-34.8304013973,-67.386161226,244.444986405,702.478634319,407.055612476,119.344209355,416.425397663,-7.10192835691
2580.38,360.753324853,177.936941563,-35.4184974647,-67.6707340908,244.38242159,702.478634319,407.05257188,118.981234034,416.368028764,-7.10192946036
2581.4,360.215941786,177.632423904,-36.468160137,-68.4856811828,243.971281439,702.478634319,407.054792612,117.973193807,415.853921963,-7.10192946036
2582.42,359.590721343,177.118152546,-37.549212278,-69.1520409938,243.582515167,702.478634319,407.056924345,117.827691071,415.843701827,-7.10192946036
2583.44,359.53806851,178.055321781,-36.5781171772,-68.740185676,244.244302558,702.478634319,407.076296641,117.854776251,415.842419693,-7.10192946036
2584.46,359.333717749,178.069821008,-36.6877384318,-68.7429179647,244.372558528,702.478634319,407.169276616,117.736846501,415.700755913,-7.10192946036
2585.48,359.406624866,178.885253733,-35.4388924098,-68.3876240304,244.652231087,702.478634319,407.474673931,118.091979071,415.70075641,-7.10192946036
2586.5,359.595960646,179.515231025,-34.568753128,-68.0453989164,245.02559405,702.478634319,407.539332234,118.373461456,415.70075641,-7.10192946036
2587.52,359.67009062,180.302554423,-33.5381844023,-67.5535280323,245.852498299,702.478634319,408.216718665,118.824604299,415.641940659,-7.10192946036
2588.54,359.790999942,182.346170842,-30.7002309168,-66.5395511913,246.876411333,702.478634319,408.387918133,119.283379125,415.63442793,-7.10192946036
2589.56,359.667537515,183.490183132,-30.1411241221,-66.3180382541,247.498001249,702.478634319,408.406922691,119.28398753,415.634427937,-7.10192946036
2590.58,359.865353005,183.720238542,-29.666684118,-66.058721374,247.823773026,702.478634319,408.466322024,119.513065711,415.634427937,-7.10192946036
2591.6,359.918785126,183.774642597,-29.7498008585,-66.0615542864,248.109694701,702.478634319,408.51380949,119.470462069,415.518313354,-7.07359814852
2592.62,359.540454063,183.40359223,-30.3088506523,-66.4264334706,247.947654072,702.478634319,408.513524537,119.248092423,415.450442166,-7.07414336526
2593.64,359.171299948,183.209111884,-30.9855413502,-66.8339857058,247.729466931,702.478634319,408.513524537,118.653962711,415.27477355,-7.07414336526
2594.66,359.082156346,183.216425982,-30.9857227017,-66.9045285538,247.74104244,702.478634319,408.539676438,118.763084131,415.275311725,-7.07414336526
2595.68,359.128725015,184.726163435,-28.8657838165,-65.9170574112,248.828749899,702.478634319,408.613596811,118.907271057,415.275311725,-7.0669398157
2596.7,358.846987684,185.168488162,-28.6846448825,-65.9139208403,248.838466252,702.478634319,408.754546045,118.575831993,415.209460513,-7.06165253052
2597.72,359.088556944,185.876461638,-27.3528677387,-65.4410278546,249.26021214,702.478634319,408.99516156,119.196212035,415.209486101,-7.06165253052
2598.74,359.241484774,186.248464235,-26.7847026661,-65.1757379077,249.583430551,702.478634319,408.998284284,119.393491557,415.209486101,-7.06165253052
2599.76,359.397425852,187.009698745,-25.6485852663,-64.5764511175,250.357196307,702.478634319,409.520680948,119.915805492,415.209486101,-7.06165253052
2600.78,359.599411427,187.548477873,-24.7553967866,-64.250070828,250.914232153,702.478634319,409.610280211,120.198253251,415.193784607,-7.06165253052
2601.8,359.947549763,190.192732839,-21.9816981804,-63.1337816302,252.563077466,702.478634319,409.72600137,120.235799333,415.193784607,-7.06165253052
2602.82,359.858783229,190.017848615,-22.2934113814,-63.2649765397,252.594923101,702.478634319,409.734183552,120.11247885,415.193784607,-7.06165253052
2603.84,359.605937847,189.698587629,-22.9143940236,-63.6892897093,252.311290638,702.478634319,409.733978395,119.82410602,415.128166505,-7.06165253052
2604.86,359.451241717,189.627315402,-23.222952492,-63.9274920293,252.220743029,702.478634319,409.733978395,119.745982359,415.101693779,-7.06165253052
2605.88,358.851353281,189.224065856,-24.4237774768,-64.3759383303,252.158565168,702.478634319,409.733978395,118.860391372,414.788422591,-7.06165253052
2606.9,358.289368824,188.839011928,-25.7590038593,-65.6444450988,251.414400624,702.478634319,409.733978395,117.628889001,414.056001222,-7.06165253052
2607.92,357.943682376,188.808527805,-26.0944417203,-65.8201143805,251.497692269,702.478634319,409.733978395,117.522755094,414.056000792,-7.06165253052
2608.94,357.686600328,190.088475594,-25.0533141519,-65.1518300978,252.351054295,702.478634319,409.749740404,117.095465341,414.023748914,-7.06165253052
2609.96,357.23878136,190.04385035,-24.816134365,-65.3477313366,251.934231235,702.485338514,409.848281752,117.289062585,413.962823492,-7.06165253052
2610.98,357.287858008,190.261063087,-24.4263757068,-65.2760935516,252.216197711,702.399830238,409.906475502,117.180775454,413.959698688,-7.06165253052
2612.0,357.404065068,190.881018218,-23.5823400011,-64.8532747865,252.777738752,702.399830238,410.449171211,117.624027998,413.959698688,-7.06165253052
2613.02,357.274416624,190.920187765,-23.7050622814,-65.0001106128,252.893311338,702.399830238,410.559061076,117.480856796,413.83236614,-7.06165253052
2614.04,358.28132905,193.452872608,-20.6868438518,-63.4582274953,255.359135703,702.399830238,410.699880127,117.63689092,413.832366787,-7.06165253052
2615.06,357.900826284,192.946717659,-21.4370331162,-63.963477665,255.401148775,702.393194057,410.701193535,117.105606822,413.819594695,-7.06165253052
2616.08,357.186091219,192.108544567,-22.7521277958,-64.7190043686,255.110549734,702.39319406,410.71633693,116.501392034,413.549313835,-7.06165253052
2617.1,357.125465163,192.151009415,-22.7669663511,-64.6908315661,255.143127956,702.39319406,410.71633693,116.455577586,413.549414901,-7.06165253052
2618.12,356.890141565,191.90759673,-23.4897644969,-64.964600736,255.086866422,702.39319406,410.703357013,116.077977896,413.457799881,-7.06165253052
2619.14,356.425249645,191.639169359,-24.7544348476,-65.9782230366,254.55329064,702.39319406,410.705852384,114.572509995,412.604011209,-7.06165253052
2620.16,355.594960086,190.903054018,-26.5853968988,-67.0678269329,254.098803842,702.39319406,410.702475531,114.320602506,412.581604371,-7.06165253052
2621.18,355.478555005,191.551563784,-25.6264891126,-66.6391670617,254.557536103,702.39319406,410.70256291,114.257330497,412.574291669,-7.06165253052
2622.2,355.756690695,192.011302406,-24.6851454418,-66.162671795,255.040772073,702.39319406,410.87204473,114.695330763,412.566592995,-7.06165253052
2623.22,355.591844486,191.828161473,-25.2881085695,-66.3842187092,255.071768198,702.39319406,410.876974798,114.475187847,412.566592995,-7.06165253052
2624.24,355.631304225,192.141702783,-24.8475609559,-66.1481238355,255.360161038,702.39319406,410.953460755,114.631676137,412.566592995,-7.06165253052
2625.26,356.043670199,193.092400706,-23.6078529408,-65.3646712022,256.318393119,702.39319406,411.910652739,115.303591154,412.560181675,-7.06165253052
2626.28,356.427788401,194.775329969,-20.7003604094,-64.2166107494,257.908024309,702.39319406,411.968731113,115.857732649,412.560283319,-7.06165253052
2627.3,355.918659007,194.103000282,-21.9948905128,-64.7051888678,257.93571843,702.39319406,411.968782651,115.842827393,412.560283319,-7.06165253052
2628.32,357.210209947,195.729866103,-19.3323039838,-62.3187783348,260.885189249,702.39319406,413.054814792,116.74824874,412.560283319,-7.05636568466
2629.34,358.095955515,197.19587042,-18.4784892904,-61.5097708029,261.515090248,702.39319406,413.727386066,117.175111883,412.562152821,-6.58552839306
2630.36,357.824092049,196.969518787,-19.116694758,-61.8551568521,261.375389704,702.39319406,413.727363323,116.855305397,412.466384685,-6.58554404083
2631.38,357.863016416,197.368561956,-18.515024765,-61.5568735285,261.81015172,702.39319406,413.939068708,117.336124105,412.413188613,-6.58554404083
2632.4,357.707131404,197.479559214,-18.4706756211,-61.6116769446,261.771799486,702.39319406,414.034584164,117.460246688,412.413188842,-6.58554404083
2633.42,357.921673168,199.578779548,-15.8915025692,-60.1488941355,263.32789586,702.39319406,414.232865829,117.682197902,412.413035708,-6.52583630599
2634.44,357.403189167,199.152720714,-16.6208892931,-60.5386708873,263.158026403,702.39319406,414.236747283,117.164643518,412.243102569,-6.52584877435
2635.46,357.291738859,199.337046721,-16.4369429725,-60.4107851482,263.400263917,702.39319406,414.352463344,117.386368992,412.243115722,-6.52584877435
2636.48,357.370396042,199.502053713,-16.1883674903,-60.2762564109,263.553168861,702.39319406,414.355394524,117.457612115,412.239099019,-6.52584877435
2637.5,357.284901728,199.91073254,-15.6756294248,-60.0703889707,264.021847545,702.39319406,414.77451551,117.719399786,412.149693891,-6.52584877435
2638.52,357.417111376,201.86681734,-12.9651308027,-58.6703369185,265.91775689,702.39319406,414.872343431,118.105497581,412.071292974,-6.52584877435
2639.54,357.039668015,202.441461558,-13.1614951486,-59.0209047647,266.428356571,702.39319406,414.928995935,118.042488787,412.071292974,-6.52584877435
2640.56,357.497016895,202.865294749,-12.8002675088,-58.5074442391,267.238607287,702.39319406,414.999674149,118.230023942,412.071292974,-6.52584877435
2641.58,357.61885576,202.98338858,-12.9501595073,-58.468426787,267.610343993,702.39319406,415.019367358,118.185384821,412.058785733,-6.51230427896
2642.6,357.310980488,202.718458853,-13.4944009588,-58.8647576061,267.488901472,702.39319406,415.019367358,118.00581444,412.040739105,-6.51228281308
2643.62,356.467001004,202.143322692,-14.7695596058,-59.6580908619,267.002848547,702.39319406,415.019367358,116.996859355,411.645602205,-6.51228281308
2644.64,356.357058516,202.063473878,-15.1643846669,-60.0306642031,266.73280444,702.39319406,415.02691021,116.672376073,411.503588488,-6.51228281308
2645.66,355.885682962,202.160074966,-14.9629737585,-59.923403171,267.057036119,702.39319406,415.026910209,116.617310181,411.503588488,-6.51228281308
2646.68,355.281186653,202.269376882,-14.8691863229,-59.900988668,267.161457255,702.39319406,415.042742809,116.085502878,411.428458343,-6.51228281308
2647.7,355.422005986,202.882268932,-13.4174717657,-59.4313858411,267.244443697,702.3994946,415.351953648,116.834165215,411.415825809,-6.51228281308
2648.72,355.517958557,203.297373441,-12.980780868,-59.12516002,267.610845862,702.392624719,415.437218238,116.986229728,411.415825809,-6.51228281308
2649.74,355.784152958,204.328139019,-11.5794041066,-58.279174774,268.791474427,702.392624719,416.184406544,117.69078157,411.415825809,-6.51228281308
2650.76,355.330568527,203.954958709,-12.303932253,-58.7701788345,268.882905255,702.392624719,416.074064927,117.035092539,411.140101567,-6.51228281308
2651.78,354.691247895,203.402731856,-13.2077592374,-59.6074620807,269.713154013,702.373593489,416.074064927,116.727704816,410.999345213,-6.51228281308
2652.8,354.217094447,202.603364071,-15.2439491854,-61.4327865025,269.685543427,702.159692959,416.09050927,116.368301587,410.646498983,-6.51228281308
2653.82,352.963024631,201.274625996,-17.4530082401,-62.9359816926,269.033236306,702.159692959,416.089920083,115.638025501,410.304676235,-6.51228281308
2654.84,352.720136882,200.975481745,-18.1849390981,-63.2314814646,268.901096365,702.159692959,416.089920083,115.472212459,410.301334249,-6.51228281308
2655.86,351.920566601,200.309518728,-19.7221709384,-63.9848024545,268.855541215,702.159692959,416.089920083,114.585108418,409.941790315,-6.51228281308
2656.88,351.21297865,199.721221933,-21.923197657,-65.926168044,267.605883253,702.159692959,416.089920083,112.688497142,408.763323712,-6.51228281308
2657.9,349.140371419,197.838296556,-25.2498935024,-68.3534975296,267.136480419,702.159692959,416.089920083,112.366414421,408.705011321,-6.51228281308
2658.92,348.876859319,197.847147429,-25.1966335547,-68.3329340661,267.181303213,702.159692959,416.09328832,112.161332148,408.697663829,-6.51228281308
2659.94,348.999670704,198.188205356,-24.2961198833,-67.8365374928,267.570224194,702.149715412,416.233499398,112.515885827,408.695649595,-6.51228281308
2660.96,349.096009088,198.770688888,-23.5720643696,-67.3880907393,268.036127809,702.137664191,416.381034571,112.742855026,408.695649595,-6.51228281308
2661.98,349.237000929,199.755159717,-21.9889585756,-66.3887823653,269.299733944,702.137664191,416.887358387,113.216104267,408.695649595,-6.51228281308
2663.0,349.656239793,200.697869015,-20.8524326216,-65.6592216549,270.464019746,702.137664191,418.113507311,113.737023836,408.687928963,-6.51228281308
2664.02,349.992674973,202.304387248,-17.8959614151,-64.2592697384,272.311144362,702.137664191,418.170181279,114.194143796,408.688068692,-6.51228281308
2665.04,348.528355977,200.797180366,-20.4127710808,-66.075976924,272.403621111,702.137664191,418.180606965,114.116634993,408.688068692,-6.51228281308
2666.06,350.985740727,202.583966056,-18.5934798041,-63.749032852,275.832658434,702.137664191,418.889313866,114.619648552,408.683053835,-6.49295917562
2667.08,350.851552549,202.743796987,-18.6581952818,-63.7058653799,276.120807901,702.137664191,418.923190677,114.561509532,408.657146221,-6.42768838147
2668.1,350.144240399,202.25048709,-19.8500596741,-64.281906368,275.948471318,702.137664191,418.920450345,113.753836736,408.361101628,-6.42768849214
2669.12,349.322094928,201.568242519,-22.042873448,-66.3091812005,274.544223467,702.137664191,418.922138363,111.667286076,407.125839126,-6.42768849214
2670.14,348.086884111,200.733419124,-23.251138418,-67.3062817382,273.882559161,702.137664191,418.922135085,111.534105268,407.125838377,-6.42768849214
2671.16,348.067985843,203.250665458,-19.727857979,-64.9858584905,276.491552523,702.137664191,419.367161449,111.65630408,407.091089935,-6.34892903744
2672.18,347.529344283,203.65217508,-18.4958919709,-64.5654482032,276.636133609,702.137664191,419.565280725,112.0232099,406.924254178,-6.34893015542
2673.2,346.610286885,203.022206208,-19.7845252346,-65.5396233264,276.709996611,702.137664191,419.579003965,111.749058362,406.92425428,-6.34893015542
2674.22,346.712451921,203.63446208,-18.6950756442,-64.9665602011,277.353416351,702.137664191,419.78118776,112.035659149,406.92425428,-6.34893015542
2675.24,347.546101247,205.815619523,-16.2656202014,-63.3643119749,279.663102057,702.137664191,422.829767484,113.116226562,406.837595096,-6.34893015542
2676.26,347.921043718,208.525601115,-12.3542449828,-61.3656066517,281.943316281,702.137664191,422.968681346,113.639075669,406.83695814,-6.34893015542
2677.28,346.447424669,207.581739575,-14.0060512566,-62.6403898639,281.99702466,702.137664191,422.969410116,113.58653505,406.83695814,-6.34893015542
2678.3,346.950602595,207.95553743,-13.5011117511,-62.0603468381,282.84794163,702.137664191,423.060483495,113.786482117,406.819111356,-6.34893015542
2679.32,346.419358416,207.360902951,-14.2335765646,-62.5662477839,282.46500854,702.137664191,423.065963131,113.534475382,406.66033643,-6.33787030009
2680.34,345.982608131,206.99344847,-15.0741597978,-63.0777896881,282.334099408,702.137664191,423.06596304,113.246500103,406.585200937,-6.33787051448
2681.36,344.305800128,205.6400528,-18.3552106047,-65.8255418084,280.795800399,702.137664191,423.06596304,110.183000299,404.838866789,-6.33787051448
2682.38,342.586171869,204.248249806,-20.8749517365,-67.3199651378,280.099571097,702.137664191,423.06596304,109.410634719,404.730370355,-6.33787051448
2683.4,342.574462419,205.904140156,-18.6653680888,-66.2715034781,281.392581309,702.137664191,423.161793571,109.535383535,404.730370335,-6.33787051448
2684.42,340.550897439,204.384195697,-20.4175744371,-67.6626298396,279.931134528,702.137664191,423.178988994,108.454150133,404.382727244,-6.33787051448
2685.44,340.338362135,204.458614966,-20.7054166928,-67.8178686867,279.846041905,702.099585053,423.261326915,108.486803429,404.353638224,-6.33787051448
2686.46,340.612845918,205.149465585,-19.6479235732,-67.2398129652,280.324384081,702.099591804,423.390995082,108.880885787,404.355094496,-6.33787051448
2687.48,340.989173328,206.19219884,-18.4607488291,-66.4283669635,281.701657946,702.099591804,424.362361696,109.371660899,404.312122436,-6.33787051448
2688.5,341.232042622,206.996021146,-17.0300393275,-65.7587936514,282.534820987,702.099591804,424.408620091,109.572145757,404.286042831,-6.33787051448
2689.52,337.616805181,203.522039896,-21.5597445611,-69.0815669005,282.713606518,702.039965478,424.4174819,108.849399424,403.606955875,-6.33787051448
2690.54,336.519540425,202.655438769,-22.2733772238,-69.6892666469,282.008814448,702.039968948,424.414287864,108.468261289,403.494077367,-6.33787051448
2691.56,334.437157933,200.424048706,-25.3144664503,-72.10402179,281.618231523,702.039968948,424.414286362,107.852973394,402.800525787,-6.33787051448
2692.58,334.233282951,200.083064645,-26.2471614964,-72.4111801357,281.400332656,702.039968948,424.414286362,107.625411998,402.800525793,-6.33787051448
2693.6,331.60062588,197.524554534,-30.3695258617,-75.3863032978,280.94720484,702.039968948,424.414286362,105.044366603,399.708008787,-6.33787051448
2694.62,327.334223383,193.384702129,-39.1921432652,-85.2420888878,276.565600515,702.039968948,424.414286362,102.470252942,393.2129329,-6.3947264683
2695.64,325.326170847,192.028779153,-41.5315927724,-87.2932072065,276.519100594,702.039968948,424.414286362,102.430098752,393.109623407,-6.39472646832
2696.66,324.064239241,191.576340819,-41.7582292403,-87.5338220785,276.029008857,702.039968948,424.454086793,101.891811504,392.979569394,-6.39472646832
2697.68,322.73013134,190.546410222,-42.7235970508,-88.5850094619,275.387903108,701.964810693,424.465055319,101.304542116,392.920379862,-6.39472646832
2698.7,322.887387115,191.068070391,-42.111107054,-88.2697368948,275.678019546,701.9627158,424.532585245,101.57829441,392.920375723,-6.39472646832
2699.72,323.239045193,192.555886076,-39.6146997238,-86.2223180189,278.417728841,701.9627158,426.287724673,102.312003949,392.920375723,-6.39472646832
2700.74,324.578945615,194.190922489,-38.2294769896,-85.5217149225,279.457140099,701.9627158,427.316265331,102.961320761,392.913741476,-6.39472646832
2701.76,323.439454159,194.071587227,-39.0525800801,-86.0627072625,279.96134426,701.9627158,427.335969184,103.0113636,392.913741478,-6.39472646832
2702.78,323.328780525,194.015826763,-39.0987784495,-86.0345463372,280.244574114,701.9627158,427.393650829,103.153511834,392.913741478,-6.39472646832
2703.8,322.646061012,193.078243316,-40.3222121698,-86.6719994001,279.963997736,701.9627158,427.406876873,102.756179356,392.573549723,-6.39279718128
2704.82,322.092419048,192.71138486,-41.0392778441,-87.1209773337,279.854275866,701.9627158,427.425254657,102.507553967,392.486008168,-6.3513582679
2705.84,320.520358584,191.681038765,-42.925309867,-87.9556131674,279.569029243,701.9627158,427.416010015,101.069071846,391.75878107,-6.35135826792
2706.86,319.302340803,190.70442628,-45.8928675548,-91.047543786,277.742347874,701.9627158,427.416010014,98.9581207005,389.954361739,-6.35135826792
2707.88,318.057656856,190.556320642,-46.607029604,-91.6561010035,278.063559567,701.9627158,427.426293445,98.8354719517,389.94406814,-6.35135826792
2708.9,317.740925824,191.657117193,-45.4271879869,-90.8934584039,279.116519528,701.9627158,427.539682381,98.7145082363,389.910887726,-6.33971503054
2709.92,318.112123791,193.076463668,-43.0170676833,-89.5034165186,280.527975707,701.9627158,428.096418857,99.9224293483,389.912429286,-6.33971503054
2710.94,317.561658472,192.633895999,-43.8817500365,-89.9639649536,280.644311112,701.9627158,428.096249566,99.8839053327,389.912429286,-6.33971503054
2711.96,317.609726173,193.72971507,-42.2598236404,-88.8096218947,282.083546164,701.9627158,428.756914424,100.22097923,389.912429286,-6.33971503054
2712.98,318.849869201,196.061076159,-40.1009434952,-87.6059422822,283.950026611,701.9627158,431.268224481,101.466867316,389.91158172,-6.33971503054
2714.0,319.180773581,199.583876117,-35.806482107,-85.7251645114,285.806152248,701.9627158,431.430712962,102.035422735,389.911588602,-6.33971503054
2715.02,317.387127061,198.492289728,-37.3752228865,-86.8117355931,285.756618413,701.9627158,431.430530532,101.818588497,389.90751114,-6.33971503054
2716.04,317.324094037,198.351383615,-37.6095513361,-86.8144097344,285.789550284,701.9627158,431.432457526,101.75603621,389.885875476,-6.33971503054
2717.06,317.336830405,198.654269475,-37.1157253971,-86.5652376052,286.008679235,701.9627158,431.436712403,101.926078044,389.88714799,-6.32600009189
2718.08,316.711801874,198.155154611,-38.066236364,-86.981852501,285.942082292,701.9627158,431.436692529,101.387296858,389.779169396,-6.32600009191
2719.1,313.667754707,196.139305238,-42.0389266033,-90.9955154396,284.02815584,701.9627158,431.436692529,98.5051502331,387.510831248,-6.32600009191
2720.12,312.457389311,195.283263435,-43.8389281021,-91.8830350441,283.711821174,701.9627158,431.436692529,97.9685125643,387.476239383,-6.32600009191
2721.14,312.519983978,195.960280332,-42.8292228787,-91.5409725494,284.222397211,701.9627158,431.438135242,98.0734574342,387.476239383,-6.32600009191
2722.16,312.432764452,195.906741519,-42.5465078152,-91.3771712558,284.31635332,701.9627158,431.483596207,98.2507984972,387.467981775,-6.32600009191
2723.18,311.751423234,195.443535913,-43.4591430409,-91.5761840995,284.497572229,701.835812065,431.489105141,97.7313366556,387.467982626,-6.32600009191
2724.2,311.9240391,196.053286708,-42.5228506129,-91.1851278706,284.988442581,701.835812193,431.663916898,98.1628485682,387.467982626,-6.32600009191
2725.22,312.310739014,196.841627644,-41.593104407,-90.6313650985,285.925839306,701.835812193,432.419521162,98.7024810592,387.44655176,-6.32600009191
2726.24,312.790533428,197.979133836,-39.9005970092,-90.0100924911,286.759269362,701.835812193,432.446825114,98.9907117804,387.446598948,-6.32600009191
2727.26,309.107932301,195.700694115,-43.7037346025,-91.9278817008,286.636363148,701.835812193,432.446824865,98.0727650656,387.354634399,-6.32600009191
2728.28,306.010813114,193.280752265,-46.2569628925,-93.8487379057,285.771286368,701.835812193,432.446824865,97.3136519274,386.758322727,-6.32600009191
2729.3,305.761665192,192.956791244,-46.9976105236,-94.3255533987,285.663570718,701.835812193,432.446824865,97.1634275104,386.624522368,-6.32600009191
2730.32,305.646949932,192.89179645,-47.1830980795,-94.4253121007,285.629822566,701.835812193,432.446824865,97.0897376139,386.62299532,-6.32600009191
2731.34,304.17586799,191.941271923,-49.1670047244,-95.8317843674,285.082783482,701.835812193,432.446824865,95.404810406,385.988784307,-6.32600009191
2732.36,301.541009022,190.474580321,-51.5645581916,-97.4315797795,284.867047489,701.835812193,432.445762226,94.7658311254,385.890733495,-6.32600009191
2733.38,301.405408048,190.447009651,-51.8175108402,-97.5547800819,284.871480745,701.835812193,432.445762226,94.7402764568,385.890692273,-6.32600009191
2734.4,301.038170933,190.192720453,-52.0762264738,-97.7865340456,284.627928587,701.835812193,432.440056878,94.5845055019,385.886943293,-6.32600009191
2735.42,300.212950866,189.58396898,-52.9931371942,-98.3262937346,284.681971694,701.780423565,432.446338659,94.2366900884,385.886944051,-6.32600009191
2736.44,300.276981807,189.766177608,-52.7752774857,-98.2548281968,284.787128501,701.780411123,432.450200923,94.3522419451,385.886944051,-6.32600009191
2737.46,301.605420127,192.093110937,-50.1267998775,-96.5802033281,287.181658311,701.780411123,434.590343818,95.1695376353,385.886944051,-6.32600009191
2738.48,302.290702903,193.766421354,-47.7728310684,-95.5896493354,288.541514364,701.780411123,434.860243705,96.0125121062,385.886944051,-6.32600009191
2739.5,302.302981668,194.008098509,-47.4263026561,-95.503731617,288.717556695,701.780411123,434.865321543,96.0499431104,385.886944051,-6.32600009191
2740.52,301.663794072,193.687891943,-47.5749909687,-95.7387392863,288.502679683,701.780411123,434.851854286,95.8476743578,385.855369092,-6.32600009191
2741.54,300.092024941,192.658405818,-48.5229206804,-96.5047867482,288.007487192,701.780411123,434.873731841,95.4521227697,385.513476125,-6.28962583855
2742.56,300.095683726,192.820504019,-48.4419165232,-96.468686058,288.149785465,701.780411123,434.884394176,95.4728196302,385.513129151,-6.28269206393
2743.58,295.488130715,189.530847362,-51.8616856703,-98.5904859781,287.560561012,701.780411123,434.881444294,92.7816705319,382.889770071,-6.28269206393
2744.6,282.969083295,180.865354655,-60.5030151509,-110.83687649,283.954699368,701.780411123,434.881444294,91.6708421384,375.574346807,-6.53466096077
2745.62,282.10638754,180.991647739,-61.5366251385,-112.360509245,283.923746676,701.780411123,434.924189257,91.6465621684,375.296133106,-6.5346609608
2746.64,282.340710349,181.162283045,-61.3051032161,-112.162549058,284.173311005,701.780411123,434.96549033,91.8181192118,375.296133106,-6.5346609608
2747.66,282.030170175,182.287108266,-59.8644450837,-111.349799578,285.097402416,701.780411123,435.627243387,92.5433738757,375.296133106,-6.5346609608
2748.68,282.198544604,182.779128416,-59.152233432,-111.081545256,285.443048337,701.780411123,435.641133675,92.7821443248,375.296133106,-6.5346609608
2749.7,282.486975572,184.249905868,-56.688130277,-109.349903852,287.721534983,701.780411123,436.94696384,93.3045153559,375.296133106,-6.5346609608
2750.72,285.326991608,190.305978448,-50.5902702588,-105.124370473,293.223537326,701.780411123,441.430594826,94.6252572064,375.296133106,-6.5346609608
2751.74,285.627375984,195.304736897,-46.1195985543,-103.128380977,295.461195278,701.780411123,441.982538668,94.669532376,375.296133106,-6.5346609608
2752.76,285.746388797,195.693888187,-45.4224083852,-102.852849858,295.776864348,701.780411123,442.080259693,94.9635458153,375.296133106,-6.5346609608
2753.78,286.016490847,196.088602956,-44.9758367975,-102.577266316,296.184248339,701.780411123,442.178456468,95.2040952645,375.294181926,-6.51331475584
2754.8,285.88651493,195.950685502,-45.1871589013,-102.691702879,296.132844784,701.780411123,442.179631864,95.1009074233,375.294033757,-6.51201491423
