time,0,1,2,3,4,5,6,7,8,9,10,11,12,13,14,15,16,17,18,19,20,21,22,23,24,25,26,27,28,29,30,31,32,33,34,35,36,37,38,39,Simulation_reset
0.0,375.417415518,519.409984257,532.545822952,65.7227439806,93.4915357269,-123.771228362,338.028461207,486.788734421,376.858510263,-28.5881120712,52.3303385824,-64.4546621479
1.0,375.417415518,519.409984257,532.545822952,65.7227439806,93.4915357269,-123.771228362,338.028461207,486.788734421,376.858510263,-28.5881120712,52.3303385824,-64.4546621479
2.0,375.417415518,519.409984257,532.545822952,65.7227439806,93.4915357269,-123.771228362,338.028461207,486.788734421,376.858510263,-28.5881120712,52.3303385824,-64.4546621479
3.0,397.406747925,533.375841866,535.658047244,71.1167511339,109.495018941,-115.329083276,345.286305232,486.788734421,379.764705403,-27.0135599845,52.3303385824,-64.4546621479
4.0,427.545645181,557.34513863,544.408088383,80.8400642714,117.315339685,-106.242140652,355.306587423,488.952780537,390.73339038,-26.5890886487,53.3621996939,-58.8249871512
5.02,451.923589319,577.970492752,562.023219105,91.3189015694,121.508388986,-97.4556544815,365.105777793,502.933755349,396.060055008,-26.5888436039,53.7006630328,-56.3548028239
6.04,451.007738078,577.030056605,561.725543305,91.0433575135,121.407052688,-97.8015195296,364.582763094,502.23581795,395.894583638,-26.5888436026,53.7006651561,-56.3547736627
7.06,460.662408859,590.189830015,565.371101776,98.6825196565,125.64072313,-95.5862545219,367.395858044,503.459958414,398.127329897,-26.5888436026,53.7006651561,-56.3547736615
8.08,478.884383041,616.222351047,571.040423183,109.228059319,148.289084407,-84.8787813998,376.682629726,503.462494418,398.358634446,-25.6216920868,54.041137037,-56.3547736615
9.1,490.678484255,636.953120337,575.358602682,114.351056184,157.561120531,-69.7262132088,384.641498072,503.462494523,398.358644293,-24.7155920552,64.9745509477,-47.0837709134
10.12,495.374088481,642.934048227,579.280511534,117.308961097,158.971436708,-68.6933151169,386.736808538,503.462494523,398.358644293,-24.7155297863,65.4493125416,-44.3569998201
11.14,495.37413705,642.93410579,579.280558131,117.30898998,158.971445837,-68.6933116484,386.736833294,503.462494523,398.358644293,-24.7155297863,65.4493129343,-44.3569700374
12.16,498.576304681,646.653257112,580.223228647,118.930485856,161.941077461,-66.6728984508,387.271589129,503.462494523,398.358644293,-24.0519970464,65.5209200913,-44.3569699579
13.18,488.052933498,631.602148834,574.472859944,114.219968674,156.618180753,-75.6233107453,381.67429881,502.403304615,398.358644293,-27.5194798585,62.9760796765,-44.3569699579
14.2,473.743690483,617.060098229,569.481563377,110.135689436,153.349104813,-94.0735534885,361.877233669,500.358544381,398.358644293,-27.5256786231,56.3839216035,-46.6760937812
15.22,466.61276189,611.146721721,567.980021895,109.794504546,148.642135979,-100.926454239,358.236575644,500.357348365,398.358644293,-30.4077188091,53.358339366,-46.7301961607
16.24,436.036007896,581.416329629,559.343124252,94.0237912625,128.408591684,-105.818692565,352.086711764,500.357348297,396.356835125,-41.6189158319,53.2768073179,-46.7301992395
17.26,382.981240227,534.464106903,551.070332226,57.7031185251,97.9473444552,-126.516732204,328.307157613,500.357348297,394.997635164,-43.1062700071,53.2768019104,-46.7301992397
18.28,301.005196657,433.909714467,535.476673816,-17.3875821505,56.4520091983,-144.838043215,317.05947679,500.357348297,365.867919943,-46.4093320737,53.2768019101,-46.7301992397
19.3,246.096759174,357.914809165,512.544089524,-53.5080631013,16.5901889047,-162.900956388,297.496940987,500.357348297,352.364668748,-59.0717753664,53.2768019101,-46.7301992397
20.32,222.127691919,333.691917298,506.188959829,-62.3962047701,-10.6952079234,-184.63217823,292.002230913,500.357348297,352.363304098,-61.3186118429,51.5942206258,-46.7301992397
21.34,215.521555623,327.089551665,503.217278352,-64.818358719,-15.1921208124,-189.614069444,291.347440809,500.357348297,352.363304075,-61.4402713244,49.6567798799,-46.7301992397
22.36,216.205502379,327.292684888,502.991599677,-64.9860916415,-14.746083404,-188.607045954,291.991534751,500.357348297,352.363304075,-61.1330160938,50.5976009013,-46.7089421422
23.38,235.495886226,340.147326062,509.049142063,-59.3498129465,1.9579481728,-174.541075712,295.588322957,500.357348297,352.363304075,-60.2566053626,52.6384533454,-46.7082125771
24.4,268.378856864,366.949841513,513.50691095,-38.1744550347,29.0825043973,-167.465320424,304.099788664,500.357348297,353.275771038,-57.8682990696,52.6406766851,-46.7082125152
25.42,295.126321171,393.095170224,524.669346962,-25.3886083727,42.3815535799,-158.824816191,316.226698885,500.357348297,357.575511098,-54.1714936641,52.6406767812,-46.7082125152
26.44,317.94431747,416.448330682,528.466589548,-10.9649916778,59.8176210918,-152.564576299,319.155974867,500.357348297,363.942750843,-52.8230940758,52.6406767812,-46.7082125152
27.46,350.923462866,456.725030518,530.114942633,7.95777461776,86.605252534,-142.763091255,332.390638078,500.357348297,372.726007389,-41.9462738114,52.6406767812,-46.7082125152
28.48,369.156307229,479.901809605,535.779417432,12.3756521325,101.379254672,-134.067046135,339.765830869,500.357348297,372.964753557,-28.4488341936,54.4914020973,-46.7082125152
29.5,381.129333282,491.253153136,538.49696019,15.8512081516,114.40493121,-128.434108973,344.188198571,500.357348297,372.964758456,-24.3482058549,54.7217676866,-46.7082125152
30.52,378.293297482,487.916152843,537.799293716,13.937169145,111.292744226,-129.002757899,344.139214749,500.357348297,372.922700175,-24.6025741438,54.7217687092,-46.7082125152
31.54,372.160290381,480.020022742,535.328390312,11.2142748804,106.058767384,-131.764992065,340.897888339,500.357348297,372.602963832,-27.129992172,54.4598019872,-46.7082125152
32.54,363.591369726,470.576337647,533.197974331,7.3688191886,98.3521818864,-136.468630679,338.539429532,500.357348297,372.602794418,-29.152023574,53.8530979507,-46.7082125152
33.54,350.755267215,456.52794081,526.726280257,1.98756019191,86.5286424743,-142.4266162,336.996413489,500.357348297,372.602794408,-33.0618342251,53.4207602598,-46.7082125152
34.54,335.923346758,436.80059119,519.025706263,-2.71430858985,76.2042571544,-148.695252766,334.483108462,500.357348297,372.602794408,-43.9880684643,48.9299778604,-46.7082125152
35.54,327.205980499,429.696926149,516.598639776,-4.93972867301,70.232459086,-155.713148753,331.777900214,500.357348297,372.602794408,-45.8413356894,45.5309305883,-46.7082125152
36.54,328.879216579,431.107039423,516.623852048,-3.93795857311,71.878240885,-155.227264689,332.419105282,500.357348297,372.602794408,-45.7026384205,45.5273488118,-46.7082125152
37.54,328.031683895,429.856133774,515.846314358,-4.20652835836,71.922619074,-155.788351385,331.758891486,500.357348297,372.585549079,-46.5580014684,45.4930132627,-46.7082125152
38.54,326.950182293,428.877240372,515.474708797,-4.48450817703,71.1183335716,-156.354551409,331.314837478,500.357348297,372.574298565,-47.0775524116,45.4796208734,-46.7082125152
39.54,325.6469679,427.557724642,515.237834997,-5.16756093178,70.1982980624,-156.810806812,330.781490473,500.357348297,372.399018342,-47.2812990974,45.479620593,-46.7082125152
40.54,323.665964645,424.490151361,514.600736727,-6.23580776141,69.1211092219,-157.175397729,330.034567621,500.357348297,371.579333451,-48.6273851399,45.479620593,-46.7082125152
41.54,311.504539014,411.514578069,511.01639874,-10.5550017624,58.8128478424,-161.899152084,325.92363785,500.357348297,371.259139815,-54.0263763565,45.2706049399,-46.7082125152
42.54,289.667117388,388.03816094,503.612920295,-24.9746695245,38.6092176283,-166.805240121,319.684869537,500.357348297,371.259099556,-55.75380322,45.2703604981,-46.7082125152
43.54,276.206127943,373.673154622,500.528109923,-29.5761072536,24.4686845083,-172.904179461,316.633144525,500.357348297,371.259099554,-62.069905044,44.8799729626,-46.7082125152
44.54,273.676554893,370.318303425,498.519709699,-31.0083161404,23.4603319393,-173.936808073,315.772735255,500.357348297,371.259099554,-62.7838050468,44.6735258593,-46.7082125152
45.54,278.29914782,374.572864099,499.939043292,-29.0682483122,27.6841408525,-172.082377642,316.959556411,500.357348297,371.259099554,-61.4116531477,44.7234469103,-46.7082125152
46.54,282.0321199,378.91664531,501.544799586,-27.7327612046,30.4421807765,-171.031705403,317.117027852,500.357348297,371.259099554,-59.2629123894,45.0654471469,-46.7082125152
47.54,297.785350907,391.434197634,504.911130051,-25.1427680105,40.3547935776,-160.382749293,321.601540388,500.357348297,371.259099554,-51.5894923155,50.9867289664,-46.7082125152
48.54,345.664821949,426.460423562,520.121406981,-8.27791072918,84.0304553718,-138.843545509,334.167668874,500.357348297,371.259099554,-45.7965755561,51.9222195922,-46.7082125152
49.54,397.693262192,478.615504894,531.252899251,25.4407095537,128.894911067,-129.087587799,346.278819455,500.357348297,372.300119242,-32.3478476184,51.9223204846,-46.7082125152
50.54,441.625670078,521.111864133,541.884085467,44.2178989056,159.697452853,-113.365460762,365.261838583,500.357348297,377.19464759,-18.6693441697,51.9223204888,-46.7082125152
51.54,467.982375103,550.727915652,546.123467401,62.5330763481,184.189360979,-106.619932673,370.34957252,500.357348297,382.326155673,-16.5064621914,51.9223204888,-46.7082125152
52.54,472.710007453,556.899650401,546.80039174,66.1250097676,187.956142067,-105.108513556,372.352770617,500.357348297,383.778336012,-16.1574357718,51.9223204888,-46.7082125152
53.54,464.13939948,545.332186294,543.322872387,63.4679019359,181.236077456,-108.90283904,370.128278853,500.357348297,383.468132448,-22.5759494746,50.5259951296,-46.7082125152
54.54,434.448021271,517.42689666,536.674111467,56.2634217509,151.498680369,-125.351534785,356.511974649,500.357348297,383.468044717,-29.3186536444,49.8551186218,-46.7082125152
55.54,395.428556286,471.051789255,524.850924558,35.228598121,108.948166902,-136.771374766,352.530417437,500.357348297,383.46804471,-34.2775622375,49.8549835738,-46.7082125152
56.54,356.631990019,423.318974102,507.433274319,19.1583337818,77.8580684603,-154.597668241,335.335450449,500.357348297,383.313278924,-51.0222171687,48.0015349818,-46.7082125152
57.54,326.061520623,394.658266673,502.384542747,9.13040128041,50.154049295,-171.836490727,328.530065646,500.357348297,383.313264508,-58.0384329329,45.9749223005,-46.7082125152
58.54,305.536372955,373.242927023,493.254729847,1.38580532552,34.1766527401,-180.545060186,326.178145609,500.357348297,383.313264507,-62.5415816688,45.9089055826,-46.7082125152
59.54,284.289157142,346.911765997,483.734618455,-4.28783090362,19.0326077844,-188.066803551,324.712213501,500.357348297,383.313264507,-79.9488416204,39.823507245,-46.7082125152
60.54,276.583622858,341.05700789,482.403066197,-5.74096168394,14.8295426885,-194.263916363,322.717488148,500.357348297,383.313264507,-82.8952010488,36.4968196296,-46.7082125152
61.54,294.648019833,352.299518634,483.854758322,-0.168224080718,33.3097584118,-184.198253659,328.126084146,500.357348297,383.313264507,-81.8760527085,36.5274981396,-46.7082125152
62.54,320.162566499,378.483890192,493.860227218,12.5796554908,49.5478855683,-177.660495544,335.458234552,500.357348297,383.313264507,-72.3133010558,36.5275075508,-46.7082125152
63.54,342.763284165,399.355231055,499.199438565,21.6307288114,68.1545141285,-171.086704411,340.565530629,500.357348297,385.764659517,-64.4455248466,36.5275075512,-46.7082125152
64.56,362.990894906,419.730027485,502.537137521,31.4302955331,81.1670265537,-163.94090892,348.392906693,500.357348297,388.632518193,-62.437389887,36.5275075512,-46.7082125152
65.58,387.301025858,449.744214147,505.206521035,40.8963394598,99.4595147027,-157.659821358,358.402038931,500.357348297,393.736961238,-47.1240672993,36.5275075512,-46.7082125152
66.6,398.769530484,462.934216639,508.216430648,46.0701144625,107.840410349,-153.805210129,361.223352109,500.357348297,394.065734596,-41.4523784754,36.5855025551,-46.7082125152
67.62,393.56271714,456.091273483,506.127591575,41.0913045996,103.290066377,-154.589320223,360.683063417,500.357348297,394.019027975,-41.5716195834,36.5855027357,-46.7082125152
68.64,380.309321587,440.300602457,503.484271716,34.714249593,89.4953068056,-159.162131158,356.862181545,500.357348297,393.491900939,-46.7409933151,36.5543202107,-46.7082125152
69.66,370.422339301,429.259642092,499.550466266,30.5696111757,83.2535864198,-163.624878724,353.778011906,500.357348297,393.485209796,-48.9171798328,35.8548428428,-46.7082125152
70.68,354.619084235,412.468170725,493.5409515,23.6719884902,68.4772048661,-170.770606806,350.019820415,500.357348297,393.485209439,-54.9333654722,35.7014912019,-46.7082125152
71.7,339.904992921,394.003278121,486.162419441,18.6420397863,58.2702525707,-174.562641302,348.957988501,500.357348297,393.485209439,-64.6329035445,33.9241685883,-46.7082125152
72.72,330.970004903,386.389697202,483.935911289,16.7673801567,53.0064830945,-179.933532366,346.130713451,500.357348297,393.485209439,-68.9047996235,31.6391425519,-46.7082125152
73.74,337.374107518,391.288114024,484.848234224,19.4290757209,59.0854180863,-176.286150819,348.42426543,500.357348297,393.485209439,-68.6253214578,31.6366681886,-46.7082125152
74.76,346.293945969,400.964542174,486.909020312,24.1293160525,67.276477015,-174.363284378,350.251202015,500.357348297,393.495865748,-65.4107348261,31.6468155502,-46.7082125152
75.78,351.899528707,406.176839149,488.73092908,26.0353406871,71.454640007,-172.392845041,352.306333833,500.357348297,393.794072366,-63.5782448724,31.6513613855,-46.7082125152
76.8,356.571250868,411.252537086,489.672279917,28.3615487839,76.0302787931,-170.791034043,353.439124649,500.357348297,394.347488118,-62.6342576248,31.6513616499,-46.7082125152
77.82,359.222403775,414.256507959,489.777277461,29.2485601119,78.4182677732,-169.798273882,354.628840339,500.357348297,394.4463117,-61.0348526727,31.6513616499,-46.7082125152
78.84,351.81138277,405.968979885,487.776383246,26.7307528146,72.4154433995,-172.768180971,352.883067149,500.357348297,394.403279582,-65.1629988618,31.5065429177,-46.7082125152
79.86,329.588873307,382.020702022,481.116282982,14.6865135529,51.4484367526,-179.424249679,344.935383075,500.357348297,394.403262959,-67.5108990895,31.502527113,-46.7082125152
80.88,308.241629105,358.774800777,475.818786207,5.72435868732,28.0007153826,-187.021263282,341.519563142,500.357348297,394.403262959,-74.2627574294,31.3241761529,-46.7082125152
81.9,298.679322808,347.961892946,470.987429302,1.47359123842,22.7258581442,-191.051400299,338.129307948,500.357348297,394.403262959,-76.9083185727,30.6828904512,-46.7082125152
82.92,301.059202709,350.468840767,472.233728869,2.57107290941,24.6950642475,-190.079654847,338.517414065,500.357348297,394.403262959,-76.205633623,30.6975478502,-46.7082125152
83.94,305.626998206,355.2635937,474.257141596,4.01817781891,27.7786465061,-188.697451572,338.680190105,500.357348297,394.403262959,-74.3065898571,30.9757165059,-46.7082125152
84.96,322.98614958,369.630723344,477.629684626,6.64459284551,39.634921983,-179.884906386,343.907302702,500.357348297,394.403262959,-63.1772441073,34.412942968,-46.7082125152
85.98,365.397685331,404.916376145,493.550327907,20.1660991039,74.1901727389,-163.407623584,356.465725394,500.357348297,394.403262959,-56.4865255261,34.443365994,-46.7082125152
87.0,416.735221874,457.559049994,503.263140954,46.0918980972,119.848662952,-148.668724449,369.691577278,500.357348297,394.403262959,-41.1669588052,34.6051171296,-46.7082125152
88.02,462.318023788,502.211924973,516.200312733,62.6683462549,150.554773739,-131.904228718,387.534679953,500.357348297,397.166196753,-23.6629563057,34.608925486,-46.7082125152
89.04,487.115299483,531.14242844,521.249518849,81.1204759258,180.693720043,-125.517276382,391.695684187,500.357348297,400.004342107,-18.5869719504,34.6089255783,-46.7082125152
90.06,488.259030276,532.507828008,521.533245545,82.0069818915,181.735644435,-125.108302308,392.228360993,500.357348297,400.131075432,-18.8101250721,34.6087886224,-46.7082125152
91.08,478.509314105,520.59879006,517.750072037,78.707639846,175.171784295,-128.764650392,390.108186774,500.357348297,399.931956369,-23.9068202879,33.9978631028,-46.7082125152
92.1,445.34661536,484.953896908,510.066887399,64.9684048398,143.845753949,-142.910280785,375.052207685,500.357348297,399.931657635,-31.5434991565,33.9264018518,-46.7082125152
93.12,404.941138035,437.941850647,500.3747667,47.0520521323,99.3134851511,-156.621331425,370.539224437,500.357348297,399.931657617,-39.1287689536,33.9263975474,-46.7082125152
94.14,367.965251998,396.269107536,484.450531476,34.1713236086,74.2301446506,-172.988093032,355.692683759,500.357348297,399.931657617,-53.2368938955,32.6124696135,-46.7082125152
95.16,335.988068063,365.009806798,478.70595868,23.6760602011,43.2116663995,-187.72705302,348.412837067,500.357348297,399.931657617,-60.1149516823,31.2979189595,-46.7082125152
96.18,312.120121416,338.530507679,468.097969435,14.4043449212,25.4307314567,-195.949062399,346.135342307,500.357348297,399.931657617,-67.0668075032,31.165339088,-46.7082125152
97.2,291.391058273,317.157827351,459.395302212,9.28237588111,14.1482195603,-203.767022229,342.99832318,500.357348297,399.931657617,-79.2086786418,26.2421618996,-46.7082125152
98.22,282.825917839,309.867210142,456.861634341,7.0825776044,8.79571855728,-208.714727482,341.366974366,500.357348297,399.931657617,-82.2032307278,25.1569438932,-46.7082125152
99.24,299.422346046,322.218472882,458.137035721,11.6873936074,25.7850742759,-200.281681381,345.311310425,500.357348297,399.931657617,-79.9955142823,25.1575675153,-46.7082125152
100.26,320.135387003,341.950961471,467.603602442,19.8130826367,36.8092950475,-193.706055548,352.356141974,500.357348297,400.152372408,-73.5212360544,25.2288173815,-46.7082125152
101.28,339.65428051,360.927527001,472.815733515,28.3861614285,54.3344888572,-187.113743162,355.936270499,500.357348297,403.451549533,-67.9523821322,25.2288244146,-46.7082125152
102.3,363.603281512,390.561113299,474.481856269,40.3403141246,74.5813587996,-179.611448532,365.376159988,500.357348297,408.907227223,-58.7999019347,25.2288244148,-46.7082125152
103.32,379.527254028,409.083255496,478.814184646,46.4066461204,84.0941807045,-174.341399931,371.878149955,500.357348297,410.164760555,-50.8306743434,25.3480825483,-46.7082125152
104.34,390.42516597,421.167002425,481.821675395,50.9596039998,92.9948466491,-170.358744376,375.195798709,500.357348297,410.18277249,-45.7065984241,25.3610840028,-46.7082125152
105.36,388.535102262,419.032833422,481.216883268,50.0287371203,90.7063124254,-170.84258764,375.348165089,500.357348297,410.182772554,-46.0041203703,25.3610840487,-46.7082125152
106.38,384.164156516,414.411568553,480.199628486,48.5076337632,86.5009397357,-172.576957766,373.56203997,500.357348297,410.182772554,-48.1203301715,25.3553511185,-46.7082125152
107.4,378.764297536,408.589842187,479.058593545,46.3648319827,82.2144172072,-174.596990541,372.107315281,500.357348297,410.182772554,-49.7177520309,25.2553463491,-46.7082125152
108.42,370.126911788,399.60563649,475.278695951,42.9038247984,74.8865594545,-177.692823957,370.796315582,500.357348297,410.182772554,-52.874765769,25.2052317942,-46.7082125152
109.44,359.971822224,388.709146025,471.201502042,39.9992210681,68.7524334902,-181.061223568,369.192301586,500.357348297,410.182772554,-59.9043122486,23.7600469699,-46.7082125152
110.46,359.111247971,388.092696603,471.543580017,40.1919385346,68.1258665084,-181.812898797,368.802536961,500.357348297,410.182772554,-61.5979805837,23.4309302592,-46.7082125152
111.48,369.717704324,397.653435435,473.318474061,44.7870312633,78.039928528,-177.600451086,372.698061699,500.357348297,410.182772554,-60.9738892119,23.4309543778,-46.7082125152
112.5,375.072636637,403.745266167,474.873154751,47.4377078129,82.6569833225,-176.444206239,373.691830626,500.357348297,410.221853906,-58.6397041363,23.4309543789,-46.7082125152
113.52,375.189186481,403.730412531,474.971806883,47.3773765785,82.6478178429,-176.323255621,374.008419866,500.357348297,410.248842154,-58.4585751231,23.4309543789,-46.7082125152
114.54,368.894966572,396.523961122,473.978527191,44.4811931535,77.138386334,-178.548102359,371.705770219,500.357348297,409.700002493,-60.114768667,23.4309543789,-46.7082125152
115.56,360.401587336,385.658530759,472.444679577,41.3716723342,71.0416792185,-180.934663972,368.155970408,500.357348297,408.787216244,-64.9119801143,23.4309543789,-46.7082125152
116.58,332.052816925,355.150742846,463.732877494,31.092670313,49.1051271969,-191.355453688,360.044489137,500.357348297,408.657517342,-75.5794446456,23.0516598648,-46.7082125152
117.6,292.547476233,309.812795807,448.691367273,8.65163232692,12.5043092547,-203.682041933,350.531948287,500.357348297,408.65750992,-79.862118383,23.0514787064,-46.7082125152
118.62,267.926196189,287.116823878,444.025776044,2.40186538326,-9.58723667087,-215.741932537,342.786527958,500.357348297,408.65750992,-88.7976700704,22.9894484022,-46.7082125152
119.64,256.562516236,274.976192693,438.605515532,-2.60644720444,-16.123673039,-220.466915398,339.71149138,500.357348297,408.65750992,-91.5656906595,22.5975227529,-46.7082125152
120.66,254.92209837,273.304794392,438.252511825,-3.30845912569,-17.8364215033,-220.930637495,339.212880643,500.357348297,408.65750992,-91.8639234966,22.5966964635,-46.7082125152
121.68,254.60977592,272.897909976,438.180040599,-3.47015079269,-18.2694216981,-220.967563178,339.202650279,500.357348297,408.65750992,-91.8776945811,22.7245468077,-46.7082125152
122.7,266.145090608,283.469564857,441.031180131,0.0876474930907,-9.17020887734,-216.192504726,342.552613429,500.357348297,408.89877685,-86.7397560519,23.509340097,-46.7082125152
123.72,296.122488264,309.83580084,449.515081852,12.5024623192,17.1110404828,-204.062006344,352.627627498,500.357348297,408.899919883,-84.2429238655,23.5099198907,-46.7082125152
124.74,334.843057982,348.246696942,460.76256806,28.5866187755,49.8234380126,-192.47291386,360.295957186,500.357348297,409.06105369,-72.1330162998,23.5099199256,-46.7082125152
125.76,371.362245974,382.64753251,472.495768523,41.1742240299,75.7966178095,-179.483620341,373.805084911,500.357348297,412.27466173,-59.9285899641,23.5099199256,-46.7082125152
126.78,406.901973936,422.283452029,478.968041166,58.918825669,108.194995591,-167.034488418,384.502808969,500.357348297,414.369403374,-52.3768394497,23.5099199256,-46.7082125152
127.8,427.832809709,444.365155501,479.553500321,65.3197667822,124.863009777,-159.046914676,393.828482181,500.357348297,414.847982244,-42.9400695923,23.5099199256,-46.7082125152
128.8,438.958913407,459.742947566,483.476867577,70.6548622449,131.489200546,-156.437609825,397.347475006,500.357348297,416.731287027,-37.5293669969,23.6475472936,-46.7082125152
129.8,426.749742277,445.483103195,480.870929242,62.2537206089,119.447790095,-160.481992278,393.33562236,500.357348297,416.731226744,-38.2419814064,23.6474955467,-46.7082125152
130.8,390.80694732,397.569371611,474.203839345,39.9959704461,74.4775735982,-170.221799938,387.480614207,500.357348297,415.519507663,-50.1952058447,23.6474955156,-46.7082125152
131.8,366.080892514,369.504265016,461.402090194,30.2320998325,61.641223228,-181.0958014,377.091209509,500.357348297,415.444296064,-57.3607785173,22.6516437176,-46.7082125152
132.8,346.144170715,348.932343423,457.031130074,23.245049796,44.9033226775,-190.687300149,371.954317512,500.357348297,415.444292707,-60.9678309465,20.9443635426,-46.7082125152
133.8,329.319504923,331.926045564,450.250170567,17.8691542534,35.0316083815,-197.159495641,370.536434216,500.357348297,415.444292707,-65.4719680847,19.7999378689,-46.7082125152
134.8,314.615154914,318.38121879,445.88820874,14.6844950495,27.0898139932,-203.958362701,367.864752229,500.357348297,415.444292707,-75.1396682109,14.4099807239,-46.7082125152
135.8,317.581408866,321.181292974,447.629518752,16.004063042,29.0026683433,-203.008148172,368.386055012,500.357348297,415.444292707,-75.5455751849,14.2486078822,-46.7082125152
136.8,339.190180459,338.751725529,450.234364908,22.240203152,49.0734178508,-192.584631166,373.985771073,500.357348297,415.444292707,-72.0133628343,14.2486489405,-46.7082125152
137.8,362.507755003,361.10048108,460.15567742,30.730042453,61.8718390163,-185.175322054,382.43662874,500.357348297,415.743427813,-62.4905930226,14.318617111,-46.7082125152
138.8,384.663997496,383.145891365,463.972433846,39.1765241185,82.3658519045,-177.831544179,386.195127777,500.357348297,417.241832105,-57.4151045638,14.3186393887,-46.7082125152
139.8,403.235520016,404.540458718,465.503916838,47.2131686877,97.6308305204,-170.91621423,394.612762246,500.357348297,419.041178476,-51.5615017692,14.3186393895,-46.7082125152
140.8,412.366326424,415.569618093,467.266466262,50.3948087897,103.844541326,-168.390059637,398.49558157,500.357348297,419.844968549,-46.6633841368,14.3809355448,-46.7082125152
141.8,403.547257892,406.573517946,465.988954026,47.1283106271,95.4463651276,-171.901035944,394.513366094,500.357348297,419.846531253,-49.3027177616,14.3845337441,-46.7082125152
142.8,377.392818371,373.510438489,457.864160565,28.4966558372,63.6264108867,-177.159301772,391.634879313,500.357348297,419.846530646,-51.3115491903,14.3845263569,-46.7082125152
143.8,355.248286415,349.891868319,452.436543961,21.8678005986,44.4143060556,-185.907644265,383.437723809,500.357348297,419.846530646,-60.6850184441,14.078224091,-46.7082125152
144.8,340.655848475,334.336884595,447.781362049,16.3392001746,35.0695258889,-192.369490951,379.413375255,500.357348297,419.846530646,-64.1376013267,13.4442643201,-46.7082125152
145.8,327.557337824,321.341764278,442.845556845,10.864478748,22.7482196855,-198.469432055,376.606938468,500.357348297,419.846530646,-68.6383537139,12.5886428095,-46.7082125152
146.8,324.473566409,317.8128545,441.615109779,9.83357759192,20.5261518517,-199.098347229,376.517130668,500.357348297,419.846530646,-70.3126932511,12.4945242734,-46.7082125152
147.8,337.875858586,330.199978301,445.282502226,13.6429078554,30.0927982594,-193.982185533,379.596986022,500.357348297,419.846530646,-64.5964924065,12.9920997645,-46.7082125152
148.8,378.79935708,362.614182102,454.128538243,26.289330256,61.7200084795,-173.251414093,394.809964021,500.357348297,419.846530646,-61.760876692,12.9933113477,-46.7082125152
149.8,422.573256866,409.037143468,468.26563097,45.9036398865,92.7700852281,-162.277223983,406.087994813,500.357348297,420.15782654,-46.1037380013,12.9933114352,-46.7082125152
150.8,461.124565571,446.820236893,476.408396953,58.5063973301,123.442553378,-148.965626029,418.803500879,500.357348297,423.970511212,-32.692179419,12.9933114352,-46.7082125152
151.8,480.138840967,468.777841459,479.931174966,68.3692620764,145.566805087,-141.96444885,424.712992126,500.357348297,425.424498999,-28.7745438717,12.9933114352,-46.7082125152
152.8,480.133856349,468.760039752,479.932783155,68.7964147118,146.054405296,-141.977887083,424.595446516,500.357348297,425.349622899,-29.7394725459,12.9933114352,-46.7082125152
153.8,464.114932275,450.168397078,474.359000206,63.0563876338,135.9502655,-147.406103689,420.787270432,500.357348297,424.993573558,-37.810602588,12.7591188176,-46.7082125152
154.8,430.23512621,412.052101715,465.36347781,47.7989941877,103.862466711,-159.170474842,406.699879929,500.357348297,424.993437037,-42.3132271569,12.7582986517,-46.7082125152
155.8,384.653390072,359.009051802,455.392297805,28.8736000534,55.5134270508,-175.65310112,398.156601234,500.357348297,424.993437028,-55.1865298181,12.7582985957,-46.7082125152
156.8,351.13451596,320.93327046,439.38711683,14.02393464,39.6332178944,-188.951349321,385.569859755,500.357348297,424.868250294,-64.2371160393,12.1093579966,-46.7082125152
157.8,323.789528031,294.483956778,433.381715498,4.99154292339,16.2167467562,-201.739436018,380.619664965,500.357348297,424.868235824,-69.3220920147,11.0054278186,-46.7082125152
158.8,309.227624086,280.018090347,427.923028202,0.502907400091,6.88020622296,-206.534632526,379.107172024,500.357348297,424.868235823,-74.1471152556,10.3622915455,-46.7082125152
159.8,303.407252718,274.760639044,425.993097602,-0.788416695501,4.00992491008,-208.439984345,378.281244327,500.357348297,424.868235823,-77.5153222061,9.00471979766,-46.7082125152
160.8,320.334811829,290.140846699,433.065980682,5.03860605858,15.3712349836,-202.170145552,381.703191194,500.357348297,424.868235823,-74.7473691709,9.05932019663,-46.7082125152
161.8,357.081423132,320.841034647,436.843167708,15.3659331031,49.6694285097,-184.472524983,392.263237642,500.357348297,424.868235823,-68.8392966889,9.05933029559,-46.7082125152
162.8,394.884340538,356.503857934,452.187101621,29.4640784898,69.9543789467,-172.464566104,407.537147722,500.357348297,426.020972159,-55.9992211415,9.05933029617,-46.7082125152
163.8,426.93455266,390.298393587,457.760947891,43.598170184,99.4947060399,-162.453507991,412.079055105,500.357348297,429.315346845,-48.9965333104,9.05933029617,-46.7082125152
164.8,451.607892532,420.424269769,459.880825682,55.0522232009,120.982577084,-154.256417354,422.373357581,500.357348297,432.231416975,-40.7908830412,9.05933029617,-46.7082125152
165.8,460.595547659,430.843692674,460.881928703,57.8599256854,126.952857802,-151.228395669,426.655522797,500.357348297,433.332097043,-36.8525211958,9.05933029617,-46.7082125152
166.8,445.166591186,414.111121456,458.041132263,51.7049324049,112.841928434,-157.192318673,419.735507173,500.357348297,433.27859388,-40.4296359553,9.05933029617,-46.7082125152
167.8,405.967702183,361.180052085,446.660140972,23.6583294065,66.8528292758,-166.014487464,415.352314286,500.357348297,433.278553975,-44.1363211355,9.05933029617,-46.7082125152
168.8,369.076089793,322.664998252,438.235587832,13.052283444,36.875899115,-182.429821519,400.721375898,500.357348297,433.278553972,-59.7181455047,8.86453302221,-46.7082125152
169.8,345.681520807,297.594966686,431.081876634,4.61247735189,21.833652654,-192.377261686,394.367583237,500.357348297,433.278553972,-64.5980309748,7.48118660395,-46.7082125152
170.8,326.335783964,278.788090623,423.603976463,-2.55522809373,6.93426989106,-200.657302759,389.97804797,500.357348297,433.278553972,-69.0416940665,6.57267994606,-46.7082125152
171.8,318.673263275,270.654884769,420.575675148,-4.76306955389,2.14326538461,-202.37619748,389.597908219,500.357348297,433.278553972,-72.9170354416,5.84518937545,-46.7082125152
172.8,329.391738329,279.999941257,423.80651326,-1.84240867973,8.60157309769,-197.437502065,391.659560999,500.357348297,433.278553972,-69.2597667921,6.26991636695,-46.7082125152
173.8,367.376290607,310.491786393,431.400054572,9.99974985119,38.3553106408,-176.454684603,405.89255936,500.357348297,433.278553972,-67.1214407681,6.27479394013,-46.7082125152
174.8,415.141411438,357.276580646,446.20845083,27.2950991388,71.4751791805,-161.731510284,416.747941571,500.357348297,433.495657217,-50.5723658764,6.4202497418,-46.7082125152
175.8,457.244144872,397.762017427,455.055627974,41.2794506011,103.11848049,-147.64998468,431.197050591,500.357348297,436.073588532,-35.0535610063,6.42054257961,-46.7082125152
176.8,486.072921593,430.233433879,460.898849388,55.4502493657,128.626165591,-137.907388129,438.815464596,500.357348297,437.729357846,-28.7880192002,6.42054259008,-46.7082125152
177.8,495.830526062,442.381603177,461.19901731,59.667980042,136.969358731,-134.892613382,443.020052862,500.357348297,438.582626487,-24.8284863362,6.42054259008,-46.7082125152
178.8,478.048447047,418.180215131,454.971042577,50.0604768011,125.737868364,-139.249087779,438.628962611,500.357348297,436.024896371,-31.7451457886,6.42054259008,-46.7082125152
179.8,444.359450933,380.601292176,446.480500144,34.8596059348,95.7526781535,-150.248846672,424.678821769,500.357348297,436.017263719,-36.4282231951,6.42054259008,-46.7082125152
180.8,401.832263636,333.485268433,439.30894149,18.9172220183,54.9287379433,-166.314656542,417.192455745,500.357348297,436.017263202,-48.6833540592,6.42054259008,-46.7082125152
181.8,369.330137939,298.818531202,422.63941776,5.24258925408,41.2471309603,-177.461612344,404.208465542,500.357348297,436.017263202,-56.4034351456,6.25868236521,-46.7082125152
182.8,340.629042882,269.938738503,416.150501379,-5.3024160848,17.8907120299,-190.149856581,398.06418086,500.357348297,436.017263202,-63.0123152172,5.93746946996,-46.7082125152
183.8,326.655813231,256.26553263,410.749558305,-9.44208477495,9.65696410798,-194.707661895,396.687304358,500.357348297,436.017263202,-67.769940482,5.67999961017,-46.7082125152
184.8,321.460127442,251.618332449,408.944671291,-10.4462198591,7.43062631547,-196.19485752,396.011957614,500.357348297,436.017263202,-71.1430845401,4.4931530532,-46.7082125152
185.8,340.212879602,268.194880605,416.502886913,-4.34300968397,19.4311842852,-188.658442009,399.664450454,500.357348297,436.017263202,-68.3467465967,4.53594050893,-46.7082125152
186.8,382.257135877,303.289326637,420.045108739,6.87885025834,56.7739246746,-166.534546894,411.687792224,500.357348297,436.017263202,-61.3504056732,4.53689500231,-46.7082125152
187.8,425.290459955,343.264408135,436.138403815,22.0056426309,78.5506748917,-152.963114533,427.128680428,500.357348297,436.950117653,-45.4557674485,4.66228776668,-46.7082125152
188.8,458.783487322,378.895128077,441.133838025,35.3482296952,110.881956382,-142.555237733,432.062292141,500.357348297,439.664726596,-37.3963402716,4.6622935336,-46.7082125152
189.8,478.608945958,401.497675863,443.201837652,43.2186266699,125.568416737,-135.626377481,440.525456787,500.357348297,440.908182312,-31.5110146912,4.66229353379,-46.7082125152
190.8,483.85588024,407.025454286,443.187771247,44.5645215905,128.859380869,-133.651816607,443.146153557,500.357348297,441.663491698,-28.8144832556,4.66229353379,-46.7082125152
191.8,461.68548818,382.560359776,440.01406626,36.2535737001,108.34642358,-140.862663636,434.336077898,500.357348297,441.266628408,-35.2416019874,4.66229353379,-46.7082125152
192.8,422.196853833,331.953942584,428.707392271,11.044653065,64.4021627311,-149.983786958,429.86475075,500.357348297,441.266435311,-38.3183354909,4.66229353379,-46.7082125152
193.8,385.449298258,294.356103215,419.987411481,0.567468089832,37.8809938127,-164.846299336,414.4511992,500.357348297,441.266435299,-50.6490237677,4.54960376209,-46.7082125152
194.8,359.709576729,267.783779511,412.315816183,-7.96699216951,21.8997980726,-175.34187921,407.031188119,500.357348297,441.266435299,-56.4592684389,4.10703257879,-46.7082125152
195.8,339.805263334,248.605414193,405.461230694,-14.6853291865,6.61965872441,-183.264688635,403.116957577,500.357348297,441.266435299,-60.7200258042,3.99933981143,-46.7082125152
196.8,332.639987135,241.369878295,402.593900252,-16.5961296467,2.52922010559,-184.952355093,402.802320016,500.357348297,441.266435299,-63.9516134105,3.67901688528,-46.7082125152
197.8,344.018406029,251.759277268,406.271687551,-13.288409295,9.71511182534,-180.067078053,405.42233014,500.357348297,441.266435299,-59.6001729892,3.86320723749,-46.7082125152
198.8,384.098210369,285.222335681,413.708122747,0.0274381889394,42.3939305183,-158.657533632,418.063788286,500.357348297,441.266435299,-56.7694934818,3.86648691548,-46.7082125152
199.8,431.033406082,331.019572091,426.839851735,17.4797287423,75.2664875729,-142.939941747,428.191399185,500.357348297,441.945317991,-41.0434217747,4.40693474175,-46.7082125152
200.8,471.383094609,370.686476105,435.653688119,30.2982429582,101.933689469,-128.652159255,441.598213227,500.357348297,444.504396917,-28.9012282057,4.43054375059,-46.7082125152
201.8,498.207668207,400.781548744,440.742336029,41.6759249339,126.219911644,-119.527464253,448.793851461,500.357348297,444.887226237,-22.6054685221,4.43054460369,-46.7082125152
202.8,506.667865846,410.70973487,440.882510439,44.5995311798,132.686348154,-116.721155646,452.457703448,500.357348297,445.389359718,-18.2212139731,4.43054460371,-46.7082125152
203.8,490.185722075,389.803054403,435.90075835,36.8816864805,122.604672453,-121.317348367,448.358288368,500.357348297,444.363197102,-25.663902678,4.43054460371,-46.7082125152
204.8,451.363826555,346.738123993,426.241643976,19.6439421604,88.9049654481,-134.566651848,433.170814749,500.357348297,444.358658706,-31.1294281675,4.43054460371,-46.7082125152
205.8,409.098034642,299.160794514,419.391902443,4.60803268012,49.0453988879,-148.688459931,425.331755148,500.357348297,444.358658403,-44.0479031857,4.43054460371,-46.7082125152
206.8,377.051892426,265.111582327,404.367006925,-8.68532805075,36.0063728362,-159.849471298,411.990934851,500.357348297,444.358658403,-52.2461284833,4.39669968058,-46.7082125152
207.8,349.803383535,238.929594502,399.222735462,-16.3523418692,13.4884704287,-171.428781393,405.23399209,500.357348297,444.358658403,-59.0530948341,4.21006889414,-46.7082125152
208.8,336.019800846,225.63250819,394.490632469,-20.4024127088,5.42780885589,-176.060600865,404.163094902,500.357348297,444.358658403,-63.7311664143,3.79562754763,-46.7082125152
209.8,333.157304749,222.964194485,393.261250747,-21.0305813871,4.20973486681,-176.663289091,403.999111582,500.357348297,444.358658403,-65.6209084561,3.04502921868,-46.7082125152
210.8,356.171405198,243.043545208,401.180261483,-13.8756773073,19.5165891341,-166.79736747,409.490413079,500.357348297,444.358658403,-62.2318702985,3.07124643017,-46.7082125152
211.8,399.19637427,280.361764075,404.97898961,-1.33219635143,58.520688978,-146.164996715,421.828300275,500.357348297,444.358658403,-56.0057642445,3.19311029668,-46.7082125152
212.8,443.07224815,320.348263644,421.483837892,13.3993445499,81.6746556715,-132.354987302,439.004785489,500.357348297,446.723487595,-41.2694367836,3.30677955349,-46.7082125152
213.8,477.188393558,359.60631249,427.129429564,27.4861902243,111.75665959,-122.894397637,443.490393987,500.357348297,450.179640292,-33.6399218673,3.30678433545,-46.7082125152
214.8,497.746967392,383.306997574,428.717409586,35.7889309093,127.95834703,-115.525134083,452.100483137,500.357348297,451.189532572,-26.3313432124,3.3067843356,-46.7082125152
215.8,501.201441543,387.013784016,428.432595022,36.3793956047,130.231342878,-114.105508852,454.249649405,500.357348297,451.584529307,-24.938371807,3.3067843356,-46.7082125152
216.8,476.051336919,360.15327089,424.154491968,28.3088301839,109.370987983,-123.083382109,443.518901195,500.357348297,451.406604964,-32.492031631,3.3067843356,-46.7082125152
217.8,436.523303331,310.272774401,412.518271007,4.09684878708,74.0784726572,-134.287043862,437.123035268,500.357348297,451.406560418,-35.628512288,3.3067843356,-46.7082125152
218.8,396.24547156,268.795161569,403.884333851,-9.04943098044,44.370755019,-150.813086453,420.775855847,500.357348297,451.112195149,-52.1950746112,3.2094364284,-46.7082125152
219.8,370.217417822,242.578286846,396.574523807,-17.3837643045,28.9483532042,-161.239250206,413.238468848,500.357348297,451.112108147,-59.0856110225,2.41139983996,-46.7082125152
220.8,348.611762356,221.177023935,390.020691577,-25.0757001411,11.2358452125,-170.120076752,408.4799444,500.357348297,451.112108143,-66.0837860077,2.16183270009,-46.7082125152
221.8,341.518318607,213.774388444,387.260718194,-27.0781379715,7.15962263227,-171.442370078,408.036693506,500.357348297,451.112108143,-69.4734492263,1.81951330247,-46.7082125152
222.8,353.886173717,224.660084097,390.603782943,-23.9343996575,15.018072077,-166.319139321,410.971622158,500.357348297,451.112108143,-64.8112036543,2.08120000174,-46.7082125152
223.8,391.016632734,255.155379742,397.833154663,-12.8947070663,44.7635015159,-148.077047036,424.573431815,500.357348297,451.112108143,-62.7881892845,2.08152980612,-46.7082125152
224.8,436.456660851,299.253289958,410.302782907,3.60187847425,72.6822892325,-133.293886629,434.855374704,500.357348297,451.112108143,-48.7553516413,2.21693538702,-46.7082125152
225.8,483.929701415,345.018528345,420.974324996,19.650760882,107.940945325,-116.93044177,449.66798504,500.357348297,454.602928013,-32.9711191288,2.21837451793,-46.7082125152
226.8,518.985705768,385.940341926,427.353839305,36.8606051766,140.613075712,-105.4260073,458.731895943,500.357348297,455.780633116,-25.6924477384,2.21837457301,-46.7082125152
227.8,529.332106738,397.533966749,427.582862433,39.938949399,148.240411819,-101.682382861,463.452122709,500.357348297,456.127416644,-22.3700741223,2.21837457301,-46.7082125152
228.8,512.462459501,374.98248093,422.52675344,31.5356490622,138.159276747,-105.967204186,458.829214287,500.357348297,454.149078948,-30.1080070932,2.21837457301,-46.7082125152
229.8,476.444756438,335.892988357,413.824066209,16.698167163,109.917819475,-119.163433173,444.554262061,500.357348297,454.143828683,-35.0526562334,2.21837457301,-46.7082125152
230.8,430.665257302,284.448334824,406.305519981,-0.511682102951,62.7150530165,-135.241514905,436.23690129,500.357348297,454.143828318,-47.5747243795,2.21837457301,-46.7082125152
231.8,396.80994068,247.98872927,392.060389147,-13.9805492111,47.4273283184,-146.697863627,422.851591568,500.357348297,454.039846065,-57.5426035538,2.10482061597,-46.7082125152
232.8,369.432855079,222.323884884,386.406250013,-21.9162394019,27.5065734487,-159.325711936,417.434553128,500.357348297,454.03983903,-63.4248412643,1.42151293041,-46.7082125152
233.8,354.874162799,208.373105367,381.073956516,-26.1562908532,19.667854031,-163.908041526,416.314214606,500.357348297,454.039839029,-68.4130840754,1.1769767981,-46.7082125152
234.8,350.267342816,204.171466737,379.515488444,-27.1285428257,17.7335825952,-165.032289799,415.819901458,500.357348297,454.039839029,-71.591147218,0.366610237369,-46.7082125152
235.8,372.797485213,223.301035085,387.930785278,-20.8630197436,32.7421344666,-155.846215332,420.756808941,500.357348297,454.039839029,-68.4727104917,0.370130032972,-46.7082125152
236.8,417.040656787,263.149908185,391.780873647,-7.54568633835,73.0951088922,-135.335735846,433.140502246,500.357348297,454.039839029,-61.548376319,0.383808962564,-46.7082125152
237.8,462.260367852,304.685903587,408.097256478,7.78347007221,95.7328264173,-120.29574752,449.263525338,500.357348297,455.581038025,-44.8722445989,0.469286222239,-46.7082125152
238.8,497.818469757,343.882927401,414.350693058,22.1505856752,130.778695355,-110.005753934,453.902824217,500.357348297,458.319233121,-34.9610630833,0.469289845546,-46.7082125152
239.8,514.603064444,363.425604423,416.116162588,29.1660743423,143.524636928,-104.360769757,460.560654512,500.357348297,458.88449616,-29.5646965958,0.469289845659,-46.7082125152
240.8,517.083509712,366.126650499,415.580488626,29.4694942654,145.480530511,-103.301547653,462.209431777,500.357348297,459.300593148,-27.8135446931,0.469289845659,-46.7082125152
241.8,486.992638962,333.786392904,409.96970049,18.9171339671,121.102595028,-113.696607291,451.169720651,500.357348297,459.140382108,-37.1736469157,0.469289845659,-46.7082125152
242.8,445.880903521,282.751376717,398.436482635,-3.35679336982,83.2189676852,-125.000675005,446.077579159,500.357348297,459.140198339,-40.3991472968,0.469289845659,-46.7082125152
243.8,406.247233692,242.479851377,388.287265211,-15.533143665,59.8956128881,-140.321756027,430.512037245,500.357348297,459.140198328,-53.7911471279,0.41702025054,-46.7082125152
244.8,380.067043151,215.460276414,380.408848446,-24.0898213763,44.6764666898,-149.417512889,423.644919626,500.357348297,459.140198328,-60.1354835282,0.139873411231,-46.7082125152
245.8,358.212792589,194.553363073,373.1144648,-31.8475174102,29.4915622581,-158.038891803,418.899053403,500.357348297,459.140198328,-65.0001596267,-0.177201126905,-46.7082125152
246.8,350.495793072,186.857840306,370.429547277,-33.9593818227,25.3508928668,-159.798813042,418.513294711,500.357348297,459.140198328,-68.6523916135,-0.6335748253,-46.7082125152
247.8,361.907865173,197.317036601,373.660991002,-31.0406954111,32.7171016741,-155.716934613,421.404287912,500.357348297,459.140198328,-63.9639138015,-0.538810061702,-46.7082125152
248.8,400.451932269,229.412220517,381.245027958,-20.1486883667,61.8100015363,-135.922213909,434.940554998,500.357348297,459.140198328,-61.0814611618,-0.53810600375,-46.7082125152
249.8,445.755064247,273.528177996,393.312645115,-4.85607315095,92.153517877,-121.986497032,444.822500507,500.357348297,459.247969792,-46.1264210874,-0.289136680748,-46.7082125152
250.8,488.169777927,313.482590715,402.369899176,7.66346758067,120.153441556,-108.030789632,459.108888973,500.357348297,460.920348384,-31.828535414,-0.288034649518,-46.7082125152
251.8,517.978560841,346.336542158,407.867928661,19.8581400494,146.598816178,-98.2415061862,466.959901367,500.357348297,461.528628509,-26.0420129466,-0.288034609066,-46.7082125152
252.8,529.682840226,359.760763363,408.358597171,23.8411018708,156.099355902,-94.2386285958,471.883406748,500.357348297,462.127178861,-20.5238664868,-0.288034609065,-46.7082125152
253.8,516.252667388,342.029693101,404.146973488,17.1051557624,147.658388069,-97.0836415648,468.947401047,500.357348297,460.878188255,-26.3412574398,-0.288034609065,-46.7082125152
254.8,479.93143213,300.573280368,396.40128537,0.247503727635,117.70979935,-109.576645596,455.107100327,500.357348297,460.764489914,-30.6936871458,-0.288034609065,-46.7082125152
255.8,437.165725779,250.911671081,388.523483725,-17.0279294172,77.5470636466,-123.066107872,447.60326779,500.357348297,460.764482003,-42.5836297062,-0.288034609065,-46.7082125152
256.82,402.913556206,214.921921041,374.863351908,-29.972778939,63.1858158242,-134.942138542,434.600800321,500.357348297,460.764482003,-52.7313437016,-0.935110385223,-46.7082125152
257.84,375.482607367,188.691112144,369.61754872,-37.625578026,42.5548898027,-147.313651153,429.081393396,500.357348297,460.764482003,-60.2466368719,-1.6129016574,-46.7082125152
258.86,362.811714251,176.940048917,365.888375311,-40.8078242047,35.4921776,-151.528929936,428.17371634,500.357348297,460.764482003,-64.6110843715,-1.93661386597,-46.7082125152
259.88,363.67020338,177.585959493,365.635169312,-40.7551878429,36.3164049174,-150.897512375,428.897796203,500.357348297,460.764482003,-64.4363018096,-2.15995008166,-46.7082125152
260.9,390.791813948,201.172359696,374.637385196,-33.0371887952,52.8884491782,-139.936520239,436.667376433,500.357348297,460.764482003,-60.5558168549,-2.12658776358,-46.7082125152
261.92,441.783393146,246.040346116,380.519396868,-19.4944450433,96.3217635403,-116.727537351,449.983252322,500.357348297,460.764482003,-50.1242524433,-1.92610375712,-46.7082125152
262.94,489.805967771,292.079225561,397.120780519,-3.48405186125,121.09440166,-103.244269985,469.068621112,500.357348297,462.95275709,-33.5244993538,-1.88508823403,-46.7082125152
263.96,524.574682056,330.78716914,402.309733438,10.2090353212,154.471764139,-93.2301490852,474.748555418,500.357348297,463.709732159,-25.3294221289,-1.88508693574,-46.7082125152
264.98,542.894685217,351.254025551,403.549070367,17.2704608698,169.446746073,-86.697070581,482.180793047,500.357348297,463.990474714,-18.3790639418,-1.88508693571,-46.7082125152
266.0,537.159369102,342.391278184,400.780339966,13.5517478037,166.508817463,-87.3180456137,481.473855009,500.357348297,462.691094396,-20.5568332543,-1.88508693571,-46.7082125152
267.02,502.282140575,304.674310538,394.373448686,1.23343043365,139.837170389,-99.9609753689,465.397769717,500.357348297,462.310734709,-27.221252485,-1.88508693571,-46.7082125152
268.04,458.151135698,250.353778448,383.283395595,-21.8105040528,98.9879344791,-112.425430006,461.06738143,500.357348297,462.310632986,-33.7014041703,-1.88508693571,-46.7082125152
269.06,419.262751457,210.594821741,370.206109316,-34.1467268783,78.2918012839,-126.021822029,442.696692171,500.357348297,462.310632982,-47.0607355575,-1.9812136531,-46.7082125152
270.08,389.738269961,180.542986501,365.228760407,-43.2284045859,56.0223325574,-138.852014037,435.526203807,500.357348297,462.310632982,-54.5971445314,-2.78190930248,-46.7082125152
271.1,371.737423511,164.659641939,358.84543705,-48.6300008817,45.8225303428,-146.0288537,432.920217382,500.357348297,462.310632982,-58.2558227041,-3.38545912513,-46.7082125152
272.12,368.426829566,161.332232679,357.49433606,-49.5018066524,44.2702033629,-146.555552569,432.874123216,500.357348297,462.310632982,-60.0052791209,-3.58997027137,-46.7082125152
273.14,388.167580435,180.420964357,364.805591075,-42.8186948832,55.7158827262,-140.368766262,438.066129073,500.357348297,462.310632982,-55.1019171712,-3.56539662116,-46.7082125152
274.16,434.212293324,219.488386524,368.658311019,-32.104486969,97.2660041557,-118.319096528,452.22364859,500.357348297,462.310632982,-49.9704943393,-3.52145119452,-46.7082125152
275.18,484.88841694,266.290594337,386.319280666,-15.1364674022,122.970330736,-102.574673267,467.531934305,500.357348297,463.041216384,-33.1803390766,-3.03865368986,-46.7082125152
276.2,524.47994734,309.221300222,392.318766336,-0.631855460016,162.277748519,-91.2370055529,473.327735565,500.357348297,467.542813428,-20.4598451721,-3.03849944435,-46.7082125152
277.22,546.505228701,333.617426238,394.389548445,7.27426010908,178.427040898,-83.1546347806,482.071195747,500.357348297,468.498316278,-14.9476032454,-3.03849944043,-46.7082125152
278.24,549.268657542,335.994951092,393.586865692,7.50327084043,180.323653766,-81.5711807546,483.865403266,500.357348297,468.468629833,-13.6641369532,-3.03849944043,-46.7082125152
279.26,520.313477678,304.045799207,387.991651904,-2.82067402813,157.904847167,-90.8105833378,472.02361265,500.357348297,468.15594087,-22.2068540291,-3.03849944043,-46.7082125152
280.28,476.576131928,249.989290329,373.780642859,-28.1884953272,121.003684443,-101.821042622,465.277122044,500.357348297,468.155902666,-25.4520937493,-3.03849944043,-46.7082125152
281.3,431.911063624,204.475701414,363.783682167,-40.6549082172,91.878209621,-118.945432682,448.908352475,500.357348297,468.155902664,-40.9490861144,-3.05509726503,-46.7082125152
282.32,402.15701172,174.137516929,355.137137322,-49.7725954392,74.4406678696,-129.414954883,440.580096171,500.357348297,468.155902664,-48.3858999041,-3.20912863535,-46.7082125152
283.34,379.657660948,152.023163038,348.219817643,-57.4010770413,58.923452537,-138.215919719,435.683484393,500.357348297,468.155902664,-54.7484060775,-3.33892491055,-46.7082125152
284.36,372.502536258,144.750053166,345.608040856,-59.3167639629,55.2619830406,-139.740356008,435.276394106,500.357348297,468.155902664,-58.4027510168,-3.7236869946,-46.7082125152
285.38,388.186709404,159.436330376,350.459544088,-54.8732930802,65.4637875694,-134.031562682,439.229200873,500.357348297,468.155902664,-51.9747581076,-3.42441314001,-46.7082125152
286.4,429.630327565,194.180945251,356.716968175,-43.4891747399,93.5178281447,-112.100917517,455.334632777,500.357348297,468.155902664,-49.1992843752,-3.42413873146,-46.7082125152
287.42,479.345997294,241.232109365,372.432682762,-26.9615442787,120.3681341,-96.6964461849,466.128631394,500.357348297,468.27282621,-34.8496885839,-2.93968538393,-46.7082125152
288.44,525.336105825,289.352894939,381.2412802,-10.824880478,159.848800198,-83.9242739624,477.282255046,500.357348297,471.693897333,-19.0967593349,-2.9356034858,-46.7082125152
289.46,553.817127775,320.623953602,385.427130337,-0.777493528247,182.451935956,-74.2296056783,485.681346587,500.357348297,471.734418027,-11.2294384166,-2.9356033653,-46.7082125152
290.48,562.727372174,329.743559232,385.662167981,1.28342882054,188.330136469,-70.8999139724,489.710802254,500.357348297,472.11566449,-7.59246790784,-2.93560336529,-46.7082125152
291.5,542.225457344,304.898933101,380.913636762,-7.01069690865,174.631675879,-76.6893494235,483.235126626,500.357348297,470.161522713,-15.3161766967,-2.93560336529,-46.7082125152
292.52,502.946474631,256.693233666,370.046997705,-28.8465321273,139.503482977,-87.449002358,472.325091405,500.357348297,470.121137953,-17.1983247615,-2.93560336529,-46.7082125152
293.54,455.298537128,204.042776878,362.23428029,-42.7284437227,95.480424549,-103.337459706,460.010032313,500.357348297,470.121135741,-33.9999516335,-3.04270187613,-46.7082125152
294.56,425.133338706,172.443927721,351.103031856,-53.6050218104,83.5371588921,-114.339408723,448.954063305,500.357348297,470.12113574,-41.4066961183,-3.57962152106,-46.7082125152
295.58,399.503369296,149.208954142,345.624002846,-60.1185871166,65.566883277,-126.095586691,443.525271109,500.357348297,470.12113574,-46.372203804,-4.26681927827,-46.7082125152
296.6,388.823282092,138.594204351,341.964681963,-63.1601688239,60.2744079409,-128.86814273,442.897178915,500.357348297,470.12113574,-50.8571782265,-4.65961238233,-46.7082125152
297.62,395.255310863,144.4913405,343.111665005,-61.6551979648,64.2633237127,-126.253977998,444.674815888,500.357348297,470.135098073,-48.2242800007,-4.68090707815,-46.7082125152
298.64,435.094984578,177.019156333,353.072032553,-51.6146115937,89.7273199897,-106.012245071,457.598654192,500.357348297,470.135221327,-44.7177444978,-4.68071985739,-46.7082125152
299.66,483.382608018,223.77611582,361.365579334,-37.0582666858,124.540231406,-88.6159464328,466.916780101,500.357348297,470.135221335,-31.3242737078,-4.55096685169,-46.7082125152
300.68,532.156622067,269.908025367,373.70716008,-22.7807472557,153.285629331,-71.9574006779,482.654437432,500.357348297,473.714304032,-15.5184475777,-4.54630753055,-46.7082125152
301.7,562.075112841,303.088524913,378.684451475,-11.8272731713,177.799475441,-62.6514584668,489.408031589,500.357348297,474.124159126,-8.58761241398,-4.5463073918,-46.7082125152
302.72,575.819740603,318.735682159,378.913107496,-7.66523745067,187.796633051,-57.9217907219,494.664637166,500.357348297,474.510522729,-3.20788047479,-4.5463073918,-46.7082125152
303.74,561.896223187,300.535339374,374.772051853,-14.1058278751,179.122893748,-60.5340946438,491.748413632,500.357348297,473.232692037,-10.0762714252,-4.5463073918,-46.7082125152
304.76,522.979256612,256.867580067,366.716520683,-29.4709676508,151.086252932,-73.983797465,475.640413,500.357348297,473.10380551,-15.0295671762,-4.5463073918,-46.7082125152
305.78,472.784853961,200.064902807,357.78112418,-47.7631367397,104.602182088,-90.6445894266,467.629355283,500.357348297,473.103792898,-28.8961189587,-4.5463073918,-46.7082125152
306.8,436.902701544,164.00000535,343.181266878,-60.3407702443,91.4737263011,-103.136360178,452.720708175,500.357348297,473.103792898,-38.7795501908,-4.77871475784,-46.7082125152
307.82,408.56348679,136.902530159,337.828882158,-67.8126037088,70.9941144962,-115.327037215,445.742025608,500.357348297,473.103792898,-45.910935137,-5.10381955515,-46.7082125152
308.84,394.606988134,123.983909891,333.273501134,-71.5569803604,63.8353276385,-119.594944918,444.511459503,500.357348297,473.103792898,-50.3604302371,-5.21819860472,-46.7082125152
309.86,395.348428585,124.584327365,333.010323838,-71.4324319519,64.3965248463,-118.935243894,445.23117883,500.357348297,473.124846199,-50.3250623986,-5.45297723016,-46.7082125152
310.88,422.350201503,148.485345014,341.691037788,-64.0775057053,79.9300526255,-108.266243571,452.49763207,500.357348297,473.126617182,-45.8861182399,-5.41065559038,-46.7082125152
311.9,473.199248849,194.475434525,346.5467757,-49.811100821,119.46274453,-84.4503590892,467.393885279,500.357348297,473.126617322,-35.4372935169,-5.22714596307,-46.7082125152
312.92,523.50087108,240.897186471,362.145145159,-34.8795204951,144.572700291,-68.4638032784,485.450156749,500.357348297,474.808174289,-17.6838857418,-5.04369021857,-46.7082125152
313.94,559.411506796,280.655089861,368.489933888,-20.7597466547,176.631623439,-57.9932182103,491.322269411,500.357348297,477.026659079,-8.26638543557,-5.04368420859,-46.7082125152
314.96,581.598410046,306.564936459,369.96176937,-12.3720712246,192.538374807,-50.2860427785,500.66400611,500.357348297,478.586381495,-0.736476291944,-5.04368420844,-46.7082125152
315.98,580.283234122,304.520126271,368.682105974,-13.5376755018,191.921240921,-50.0710849757,501.276204649,500.357348297,478.599880507,-1.67208875263,-5.04368420844,-46.7082125152
317.0,543.709812982,263.90756339,362.473207035,-27.3213638316,164.860933836,-63.8213903138,484.906883685,500.357348297,478.471396208,-10.1730641434,-5.04368420844,-46.7082125152
318.02,497.9476661,209.162925205,352.074352948,-47.6163268963,124.039681299,-77.7872999476,480.288653271,500.357348297,478.471002519,-15.7142693806,-5.04368420844,-46.7082125152
319.04,455.290127692,167.654114342,339.629199746,-59.1225263352,104.158314981,-93.9687185158,462.042054626,500.357348297,478.471002502,-31.6242872772,-5.6164648015,-46.7082125152
320.06,424.344237194,136.483737652,334.508372572,-67.970849983,83.2296353487,-106.657925232,454.508691507,500.357348297,478.471002502,-39.9632798415,-5.95401901043,-46.7082125152
321.08,407.13825795,119.786154652,328.197461084,-73.8330082912,72.7693348663,-112.220401604,451.96814687,500.357348297,478.471002502,-45.094490016,-6.17851832259,-46.7082125152
322.1,403.893260552,116.255783679,326.704438736,-74.874780729,71.3217761363,-112.552714941,451.989930026,500.357348297,478.471002502,-46.7968404076,-6.36873343422,-46.7082125152
323.12,424.568037244,135.626480341,333.853140919,-69.0220680824,83.4406972043,-105.987833988,457.391325414,500.357348297,478.471002502,-41.7475034016,-6.29037350446,-46.7082125152
324.14,475.486573222,178.646363279,338.113991498,-58.3959981491,124.498196467,-80.1190738914,474.056036286,500.357348297,478.471002502,-36.4042885684,-6.29035067591,-46.7082125152
325.16,530.599365305,228.625799972,356.868528704,-41.6913401935,151.432421795,-62.9310378363,491.585648071,500.357348297,480.13187082,-17.3102336329,-6.29035067471,-46.7082125152
326.18,571.17738121,275.041132156,363.048534992,-27.3077716763,186.853605102,-51.8373618846,497.73074467,500.357348297,483.169134064,-6.69434917851,-6.29035067471,-46.7082125152
327.2,593.779465848,299.938892301,365.154257185,-20.0555757854,202.204697649,-43.9477961809,506.413890003,500.357348297,483.25025148,0.352794936455,-6.29035067471,-46.7082125152
328.22,595.613196412,300.803805632,364.335611008,-20.3229057223,203.421137601,-42.6595896963,507.856506562,500.357348297,482.803034961,0.586504361634,-6.29035067471,-46.7082125152
329.24,564.851191464,267.29151752,358.848175602,-29.8334989159,181.948486979,-53.0713396671,495.14993983,500.357348297,482.231371862,-8.37864953938,-6.29035067471,-46.7082125152
330.26,518.227847046,210.90711897,346.611285728,-53.0278884203,141.782783825,-66.3312364701,486.952055131,500.357348297,482.231162322,-11.6399875854,-6.29035067471,-46.7082125152
331.28,473.151667482,165.744901236,337.719554682,-64.7949645525,115.627820347,-83.6841914825,469.117797646,500.357348297,482.231162311,-26.7160391254,-6.29035067471,-46.7082125152
332.3,440.939499765,132.760012185,330.387592352,-75.0753264805,98.3246766584,-96.8559008239,460.19728749,500.357348297,482.231162311,-33.7048614515,-6.76946312807,-46.7082125152
333.32,418.516636227,111.222219346,324.267215949,-81.8547352081,83.7954423591,-104.969830003,454.949516089,500.357348297,482.231162311,-38.971015742,-7.07978226948,-46.7082125152
334.34,410.580696704,103.320597482,321.654351382,-84.118661214,80.3542751081,-106.812971035,454.498609649,500.357348297,482.231162311,-42.6513104972,-7.36246924969,-46.7082125152
335.36,424.665687291,116.296719012,325.845680226,-80.2910735204,88.0253863969,-101.942270781,457.73610124,500.357348297,482.231162311,-38.0940503564,-7.31736670222,-46.7082125152
336.38,469.285221462,153.788630388,332.161549049,-69.8742914162,122.792220277,-78.6719530878,474.114182946,500.357348297,482.231162311,-35.2986189254,-7.31734775259,-46.7082125152
337.4,523.928210022,205.325951963,346.289161349,-53.189899433,154.153326377,-60.1663724718,489.652470357,500.357348297,482.738374292,-19.4054155906,-7.04755538162,-46.7082125152
338.42,571.41143463,254.486030135,354.14214407,-37.9619499967,191.707228508,-45.9139723109,502.633904685,500.357348297,488.490751483,-2.85592493077,-7.04704880677,-46.7082125152
339.44,598.548111237,285.489260935,357.803424011,-28.2135187663,214.040222448,-36.6914505226,510.28411353,500.357348297,489.000761089,2.9698479535,-7.04704879273,-46.7082125152
340.46,606.101322173,293.455099129,357.704855011,-26.5960622646,219.037477718,-33.9225541431,513.684603994,500.357348297,489.071051537,5.84116612695,-7.04704879273,-46.7082125152
341.48,581.0224208,263.358005216,352.330401447,-36.3775923257,203.605459522,-40.9354897908,505.573778849,500.357348297,487.880213568,-5.18607161021,-7.04704879273,-46.7082125152
342.5,538.813316199,213.631120557,340.613247207,-56.9147970214,172.99652777,-53.7114914627,491.884919694,500.357348297,487.865516556,-8.47584264053,-7.04704879273,-46.7082125152
343.52,488.077999336,158.666823952,332.124490809,-73.7086373807,135.458921332,-72.8381639053,479.183769607,500.357348297,487.608094585,-24.4683543685,-7.04704879273,-46.7082125152
344.54,454.046323786,122.506064819,320.608836236,-86.031411466,121.589389088,-84.2200014273,466.990060381,500.357348297,487.603944206,-32.7661818387,-7.36555249182,-46.7082125152
345.56,428.381184251,98.5974251874,315.495109005,-92.9840058799,104.574805774,-95.1592135635,460.803207914,500.357348297,487.603944084,-38.1888573981,-7.89495388635,-46.7082125152
346.58,417.569993967,88.4685521535,312.02339478,-95.7642353803,99.5287748176,-98.1736105937,459.788491026,500.357348297,487.603944084,-41.6845186003,-8.33481701184,-46.7082125152
347.6,427.975298306,97.3035862347,313.799809715,-93.884812396,104.966025896,-94.1078633159,462.449931373,500.357348297,487.603944084,-36.9451988864,-7.98384300805,-46.7082125152
348.62,461.521438393,126.722732193,323.104513895,-84.987673865,123.81405295,-80.0575348477,473.690814339,500.357348297,487.603944084,-33.3924331359,-7.983124809,-46.7082125152
349.64,518.076968818,177.740214151,332.128004501,-70.8187946753,161.377490363,-57.9677259663,487.997843654,500.357348297,487.603944084,-19.1946236871,-7.359363748,-46.7082125152
350.66,567.365160977,222.955288239,342.462098995,-57.9301785186,187.190416395,-42.058709145,505.696288495,500.357348297,489.134603887,-2.68925102698,-7.33741028631,-46.7082125152
351.68,603.362572985,264.701994117,348.748767688,-42.3716877761,217.323170946,-32.3022969931,513.466702849,500.357348297,490.309045588,5.63027411528,-7.33740961855,-46.7082125152
352.7,621.27684354,284.229056631,349.04772776,-37.5306529904,229.472793903,-26.3530718073,520.384263871,500.357348297,490.756829013,12.323810879,-7.33740961853,-46.7082125152
353.72,612.372543421,273.385721109,346.654870377,-41.369011586,224.613276649,-28.447003811,518.21092823,500.357348297,490.021616907,7.99271254607,-7.33740961853,-46.7082125152
354.74,574.158196938,233.229237702,340.400431322,-54.1579513189,198.268070964,-42.8616826361,502.708538315,500.357348297,489.901961301,3.60436921191,-7.33740961853,-46.7082125152
355.76,520.523057035,166.883202473,330.09130861,-79.2804740258,145.503849482,-57.4983503866,495.403889126,500.357348297,489.650222487,-11.1760405879,-7.33740961853,-46.7082125152
356.78,480.655511626,127.309012776,314.834452345,-91.5197321152,130.328725947,-70.841639791,477.102563713,500.357348297,489.61977674,-22.9772478898,-7.45764960814,-46.7082125152
357.8,449.41786499,96.208906748,308.639787023,-100.822578552,109.640116322,-84.2143530334,468.886498124,500.357348297,489.619775821,-30.652608741,-7.82209918583,-46.7082125152
358.82,436.482458624,84.0977902055,304.683730159,-104.26318193,103.560367977,-88.1672830287,467.854640463,500.357348297,489.619775821,-34.6375505354,-8.13428506588,-46.7082125152
359.84,437.721084004,85.0382564071,304.384936477,-104.255968576,104.406952683,-87.3010773167,468.725851058,500.357348297,489.619775821,-33.8684180955,-8.19166401266,-46.7082125152
360.86,466.049929758,111.114111162,313.479488018,-96.1273649255,119.617190832,-77.0239352508,476.026380251,500.357348297,489.619775821,-29.5807102519,-8.17234684487,-46.7082125152
361.88,522.311546932,160.035973665,318.205761356,-84.3253106821,160.571662857,-48.5390028619,492.136471793,500.357348297,489.619775821,-20.4711122966,-7.8558591735,-46.7082125152
362.9,577.521246873,209.563639836,334.058719511,-70.1638753633,186.156730438,-31.3125824126,513.249553846,500.357348297,490.604963377,-1.90976070089,-7.20448834398,-46.7082125152
363.92,616.429352486,252.803889635,340.810763163,-55.2673002449,218.595500523,-19.7145493804,517.821596025,500.357348297,492.089236225,9.06689513484,-7.2044031353,-46.7082125152
364.94,638.192137546,277.475483816,341.907263553,-48.0772187781,233.066637416,-12.5933477154,526.815488424,500.357348297,492.50024996,17.2434671338,-7.20440313302,-46.7082125152
365.96,636.570387315,274.751895806,340.376642505,-49.4408495957,232.349952086,-12.3745513921,527.524123431,500.357348297,491.892473769,16.8272866938,-7.20440313302,-46.7082125152
366.98,598.011505581,232.971912587,334.889558148,-62.6206124384,206.836959751,-27.5152635065,510.385547652,500.357348297,490.879135607,10.0036725647,-7.20440313302,-46.7082125152
368.0,546.357644443,166.603609998,322.520433866,-90.1297386996,155.868753514,-40.3934117861,506.63859216,500.357348297,490.878772547,2.27779346283,-7.20440313302,-46.7082125152
369.02,500.073945962,119.080327908,310.400923803,-103.169444761,131.565186947,-57.5962869521,487.752979149,500.357348297,490.768427547,-15.5357948818,-7.20440313302,-46.7082125152
370.04,470.532009873,89.3164300966,305.602424003,-111.137191954,112.988661087,-70.3897789723,480.187819899,500.357348297,490.768320366,-22.4333867566,-7.83875377673,-46.7082125152
371.06,453.523617876,73.1854343205,299.67312814,-116.24562223,103.956997098,-76.5921831052,478.193017514,500.357348297,490.768320363,-26.2529214029,-8.14189520421,-46.7082125152
372.08,451.617565709,71.0034620779,298.56424854,-117.03119071,103.401470163,-76.7034787708,478.422761722,500.357348297,490.780212998,-26.7135470087,-7.95051679903,-46.7082125152
373.1,476.08092208,94.3112334879,306.429733994,-110.117633713,116.236816625,-68.0850831692,484.394297312,500.357348297,490.786123585,-20.4887091155,-7.85447693139,-46.7082125152
374.12,528.275173054,140.033998182,310.25078828,-99.7975934538,155.791982514,-40.5825557229,502.292718683,500.357348297,490.786124207,-15.3960303379,-7.81784858587,-46.7082125152
375.14,586.597694999,193.553924933,329.353002388,-82.6224199315,184.019347955,-22.2617257614,519.513094046,500.357348297,491.865801237,2.82913376026,-6.92191812685,-46.7082125152
376.16,629.171061055,239.84007861,336.289272633,-68.8698975098,217.677404262,-9.35517760109,526.735116719,500.357348297,495.270116581,14.577687881,-6.92164777921,-46.7082125152
377.18,653.804620085,267.880517333,338.644863896,-60.8161556116,234.137514207,-0.975679760815,536.431658759,500.357348297,495.702017446,22.0219834763,-6.92164777194,-46.7082125152
378.2,656.152872172,269.200094364,337.854353949,-61.0623811219,235.753446321,0.504711118454,538.066164337,500.357348297,495.152382425,22.7690391765,-6.92164777194,-46.7082125152
379.22,621.437284204,230.826040409,331.933744546,-70.9706811048,212.316564238,-10.9881556245,523.949468086,500.357348297,494.246279814,11.6785243648,-6.92164777194,-46.7082125152
380.24,572.539825447,170.852817912,319.246358593,-95.1983669264,167.321046415,-24.0388814343,515.571162328,500.357348297,494.242731886,7.72977554466,-6.92164777194,-46.7082125152
381.26,521.533133807,118.862724073,309.664680109,-107.599230585,136.924937407,-43.9624459727,496.743630814,500.357348297,494.242731704,-9.26769305324,-7.04280630798,-46.7082125152
382.28,489.175459822,85.2064415973,302.184330603,-117.116200399,121.540437961,-56.3516283466,486.352831442,500.357348297,494.242731704,-16.4327163783,-7.64200013764,-46.7082125152
383.3,462.586663335,59.8517500609,294.921578934,-125.154090897,104.217601214,-67.3405937404,480.45051818,500.357348297,494.242731704,-22.781464565,-8.08326265437,-46.7082125152
384.32,455.149011033,52.3662310525,292.242748803,-127.152397631,100.928565717,-68.8431760416,480.100097031,500.357348297,494.242731704,-25.7746721626,-8.26733614078,-46.7082125152
385.34,472.752230111,68.172750916,296.782594883,-123.158663049,110.570651814,-62.1628702631,484.239334149,500.357348297,494.242731704,-19.3992702567,-7.90689813359,-46.7082125152
386.36,517.036720233,105.869207228,303.829566359,-113.741780795,140.269459138,-39.2712426151,500.356023066,500.357348297,494.242731704,-17.278138108,-7.90658942384,-46.7082125152
387.38,567.942152027,155.113566782,318.207290468,-98.1562117625,166.959190361,-23.6619010736,511.112533299,500.357348297,494.242731704,-3.28746133577,-7.78448340347,-46.7082125152
388.4,618.599198046,206.894224605,330.371137224,-79.9771765241,205.717406712,-9.89565183177,523.519052458,500.357348297,497.21532517,14.862320055,-7.78387339826,-46.7082125152
389.42,652.875482954,244.68998305,335.784970635,-68.1017629651,230.399426585,1.16119937475,533.027856513,500.357348297,497.51301447,24.1082700588,-7.78387337874,-46.7082125152
390.44,665.683239739,258.303662656,336.035392179,-65.1903364447,237.273656636,5.74358765778,538.311532225,500.357348297,497.988545177,29.1717756964,-7.78387337874,-46.7082125152
391.46,647.756878798,237.814939754,332.588000641,-71.5696008708,225.956492012,0.585091763567,532.525939203,500.357348297,497.311656396,21.5328323921,-7.78387337874,-46.7082125152
392.48,603.575284748,183.860067911,321.879596306,-94.0775103521,192.523329489,-12.7827652278,518.73826971,500.357348297,497.222752157,18.1536928298,-7.78387337874,-46.7082125152
393.5,551.179285868,129.664914526,314.389132982,-107.019282085,155.601441938,-32.0256891742,506.650160354,500.357348297,497.222747493,3.17844157456,-7.78387337874,-46.7082125152
394.52,515.278902472,91.940641443,302.170613408,-119.775573871,142.550673991,-43.7389960539,494.061599079,500.357348297,497.222747493,-4.83555354339,-7.97031698434,-46.7082125152
395.54,489.937085197,67.2568524646,298.110334584,-126.231319861,126.051957463,-53.9665783594,488.674537129,500.357348297,497.222747493,-9.72448212748,-8.39512508584,-46.7082125152
396.56,475.826301108,53.9192613194,293.746694023,-129.921770808,119.784875418,-57.6666761606,487.501757493,500.357348297,497.222747493,-14.8575797112,-8.63066126227,-46.7082125152
397.58,478.630798633,56.6002416167,294.249799835,-129.193468289,121.240542222,-56.4692418783,488.234389101,500.357348297,497.189541373,-14.1314426445,-8.77500520428,-46.7082125152
398.6,517.738034505,89.0478034495,302.915313988,-120.587987608,144.00154599,-37.209689325,500.232325154,500.357348297,497.189746533,-11.4518345684,-8.77445414337,-46.7082125152
399.62,573.770549076,140.742733883,311.106698188,-106.540705567,181.272732,-14.8721300439,513.443024389,500.357348297,497.222810161,0.491706870644,-8.17013380056,-46.7082125152
400.64,626.025402427,189.235171644,324.17473989,-92.3047020188,209.267799805,2.1958508096,529.926938732,500.357348297,502.261533634,16.1487694631,-8.14208865845,-46.7082125152
401.66,660.246391167,227.785388666,330.732491186,-79.0765667379,234.569808981,11.9906894391,536.404848204,500.357348297,503.949206403,23.4628187675,-8.14208779903,-46.7082125152
402.68,679.584008383,251.050720456,331.343012065,-72.2238241224,248.754971941,17.9530465106,544.035700629,500.357348297,505.762585338,32.1723924707,-8.14208779901,-46.7082125152
403.7,670.259719309,239.955990806,328.57534586,-75.8444730817,243.677804424,16.1280835919,542.13938021,500.357348297,505.675609371,27.1075078977,-8.14208779901,-46.7082125152
404.72,623.397661571,188.268162423,320.240416372,-93.0096005604,211.728395805,-1.04151092467,523.700266437,500.357348297,505.672454847,20.3113184519,-8.14208779901,-46.7082125152
405.74,561.391627409,113.946295895,306.492623313,-120.012321024,152.945262389,-19.0714715443,515.351867736,500.357348297,505.672454651,4.09543549862,-8.14208779901,-46.7082125152
406.76,518.857000024,71.2535459745,291.35973844,-133.00631206,137.54892506,-33.3246547229,498.150346087,500.357348297,505.672454651,-7.82428740214,-8.52090575584,-46.7082125152
407.78,489.567597966,42.7184930457,286.910349135,-140.604142345,118.25554874,-46.453924178,492.235335768,500.357348297,505.672454651,-14.1481165505,-9.30456846762,-46.7082125152
408.8,478.814278971,33.1191527298,283.785367447,-143.389952373,113.877926196,-50.0719353741,491.299068665,500.357348297,505.672454651,-16.384066695,-9.62354139986,-46.7082125152
409.82,487.164916389,39.5251222792,284.521876041,-142.42438745,117.72692818,-46.5902148626,494.032114781,500.357348297,505.672454651,-11.7120354646,-8.50106681317,-46.7082125152
410.84,520.719608891,71.0613304951,296.112860357,-133.053958794,134.016974947,-36.215412123,504.378842076,500.357348297,505.672454651,-5.90578293258,-8.46235260307,-46.7082125152
411.86,585.053213425,127.486138239,301.768218777,-119.790808338,176.636841425,-4.95185848806,523.590519225,500.357348297,505.672454651,5.63282221169,-7.80115396282,-46.7082125152
412.88,648.027046813,183.969865092,320.414019067,-102.460489776,204.296180558,15.3271385054,546.525318952,500.357348297,507.680905205,24.2843754915,-7.12120807612,-46.7082125152
413.9,694.566895352,238.509662933,328.689554647,-83.391849958,248.131640404,27.4961651477,552.346367125,500.357348297,512.149794167,36.865365154,-7.12118527735,-46.7082125152
414.92,717.66269915,264.923726406,330.474771141,-75.9624417342,265.355079218,34.9125814342,561.638505754,500.357348297,512.423740963,45.2848257469,-7.12118527677,-46.7082125152
415.94,709.888283619,253.975917747,327.625944005,-79.5044111134,261.930684244,34.0070746017,560.415184299,500.357348297,511.177382086,40.8726502979,-7.12118527677,-46.7082125152
416.96,666.69750138,209.311889549,320.133431328,-90.3467776745,235.260818197,18.679097343,541.813295227,500.357348297,511.049367596,30.4440325051,-7.12118527677,-46.7082125152
417.98,613.532638244,144.579465543,306.198000517,-114.773381737,188.373088361,5.61057991663,537.115456563,500.357348297,511.049359999,22.8793508181,-7.12118527677,-46.7082125152
419.0,561.312311955,92.3407700582,292.557116133,-128.894008953,164.953100902,-13.0791453886,515.568174098,500.357348297,510.937560667,6.33292170971,-7.20579188039,-46.7082125152
420.02,526.095171901,54.9235524373,287.789390952,-139.297367886,143.092711825,-27.1922113697,505.439044014,500.357348297,510.937411058,-1.43022760686,-7.88755193186,-46.7082125152
421.04,504.445254385,35.318834997,281.288996616,-145.334505746,132.79172408,-34.7182566589,502.919032588,500.357348297,510.937411054,-4.7261074148,-8.8145421532,-46.7082125152
422.06,495.296142594,27.2998221178,278.909150794,-147.194252209,129.473423991,-37.124055405,501.939402002,500.357348297,510.935950254,-8.88446519984,-9.80989886387,-46.7082125152
423.08,512.711688542,43.3381762506,284.188225972,-142.269718237,138.222514836,-31.0756720226,505.859039002,500.357348297,510.939619259,-4.79726385892,-9.76958245078,-46.7082125152
424.1,565.492814012,88.4867623888,288.541035661,-132.188428334,178.068826913,-4.52988190016,523.356312702,500.357348297,510.939620738,-0.358541193102,-9.76956284821,-46.7082125152
425.12,615.769653844,134.955660488,304.294883483,-116.729255074,199.43543481,10.4869071623,537.991921292,500.357348297,511.392824543,12.9384564879,-9.39755935813,-46.7082125152
426.14,662.542457527,185.183030174,313.409244701,-99.8943848613,237.190130327,23.0710996824,544.861884557,500.357348297,516.806224546,27.8430456869,-9.3974892886,-46.7082125152
427.16,689.494853717,215.708857695,316.562519043,-90.8582889059,254.474108558,31.5941553886,554.848619001,500.357348297,517.486747919,34.8180386363,-9.39748928654,-46.7082125152
428.18,699.386121404,227.041606474,316.769079775,-88.3399721665,259.733459953,34.9258763701,559.771261978,500.357348297,518.415187479,38.8577937075,-9.39748928654,-46.7082125152
429.2,673.071007656,198.41349357,312.319385717,-96.2335991976,242.638558389,26.3416937166,549.741208968,500.357348297,518.129834401,30.6283959081,-9.39748928654,-46.7082125152
430.22,619.793390044,134.491501376,296.434139151,-122.77185595,197.113458149,12.2106449061,539.623635757,500.357348297,517.99025631,27.2280654683,-9.39748928654,-46.7082125152
431.24,561.5571228,69.6633185801,284.951511581,-140.237222624,156.276721933,-7.86984811835,520.229464951,500.357348297,517.555988111,4.60028544601,-9.39748928654,-46.7082125152
432.26,527.55270688,34.5450902917,276.566170731,-150.744796329,140.733024838,-21.6382616728,510.94978377,500.357348297,517.552737498,-1.381584568,-10.9478233948,-46.7082125152
433.28,508.288495386,16.0458028995,271.74345297,-156.179086605,130.101747042,-29.2522011523,506.67217426,500.357348297,517.552737414,-4.97508851695,-11.769376315,-46.7082125152
434.3,506.155708989,13.6540503437,270.861301511,-156.967899375,129.121520277,-29.7580528253,506.837870855,500.357348297,517.552737414,-5.27864257884,-11.4318659456,-46.7082125152
435.32,532.246800079,36.4472067072,276.2429528,-152.126820492,143.473354249,-20.410540815,513.521516793,500.357348297,517.552737414,6.34898058462,-10.1252344282,-46.7082125152
436.34,584.383361019,82.7827297247,285.064150914,-139.122774533,176.14867462,3.79370760173,533.534207793,500.357348297,517.552737414,9.8739140691,-10.1246995982,-46.7082125152
437.36,649.641849445,146.394650617,299.729827102,-120.896565889,214.094294694,23.6307601854,546.642344319,500.357348297,517.552737414,27.6820332923,-9.40456971733,-46.7082125152
438.38,704.820072529,201.522995201,309.972244139,-105.910179461,247.630837966,40.502214231,560.611654089,500.357348297,519.623135748,44.8070692402,-9.39623323091,-46.7082125152
439.4,738.975785612,238.572118406,315.836338368,-94.4856790043,272.857472748,51.271975326,569.098265415,500.357348297,520.085367044,52.4182400466,-9.39623299363,-46.7082125152
440.42,748.556299599,249.503630184,316.017217949,-91.6503176007,279.104296314,54.4139156523,572.733136926,500.357348297,520.264988721,56.3052592233,-9.39623299362,-46.7082125152
441.44,718.358766759,213.525506275,308.941233936,-102.290660262,263.324666489,46.1487905835,564.538505283,500.357348297,517.37239236,45.6211493768,-9.39623299362,-46.7082125152
442.46,668.028949922,159.445530426,297.564727596,-121.158541448,228.544559283,29.743934544,549.178408552,500.357348297,517.324337916,42.3696903375,-9.39623299362,-46.7082125152
443.48,606.684537403,87.6368372639,287.210924154,-143.699569132,179.056676218,9.75958904227,535.908587081,500.357348297,516.969946098,22.4364055966,-9.39623299362,-46.7082125152
444.5,568.083790588,46.9578622212,273.888807466,-156.879901654,165.621975269,-2.97456827242,522.580430429,500.357348297,516.92700221,15.35430816,-9.82638712443,-46.7082125152
445.52,537.760577027,18.5735717388,267.808575687,-164.290129803,148.257527506,-15.9002305897,515.635807912,500.357348297,516.927000965,9.68329745242,-10.4703308106,-46.7082125152
446.54,523.098096016,4.36967893451,263.487411175,-168.023594716,141.998868581,-19.7648373897,514.269890825,500.357348297,516.927000965,4.68917311167,-10.7665072309,-46.7082125152
447.56,526.648804924,7.793944788,264.000021757,-167.132762348,143.823140052,-18.1706668547,515.419127597,500.357348297,516.927000965,5.76487764811,-10.9291057793,-46.7082125152
448.58,561.80128356,39.6206996471,272.466196841,-158.433397166,161.622005477,-2.52326220482,526.347913554,500.357348297,516.927000965,8.49395892574,-10.9286937531,-46.7082125152
449.6,625.289506631,94.9476793455,281.598441567,-145.186357766,199.71522572,27.0996273586,541.386428254,500.357348297,516.927000965,20.5590369488,-10.6358285605,-46.7082125152
450.62,677.368493555,143.36689468,294.388172677,-130.743762554,224.921126218,43.1059242891,558.827574077,500.357348297,519.022129663,36.6926269905,-10.5651299325,-46.7082125152
451.64,714.569255272,185.577849586,301.011484962,-117.674321429,253.992752131,53.1557404147,565.858393645,500.357348297,520.013234737,45.5494019654,-10.5651277185,-46.7082125152
452.66,735.121294937,209.088755196,301.448212822,-112.269376042,267.516157204,59.2686621947,573.090481134,500.357348297,520.393006468,54.404427768,-10.5651277185,-46.7082125152
453.68,729.578317056,202.342037243,299.555980864,-114.795832703,264.78167785,58.2593237886,572.358325367,500.357348297,520.376664347,51.8597823179,-10.5651277185,-46.7082125152
454.7,680.68244567,150.94866684,291.616492087,-129.926409802,231.195608247,39.7981533771,553.325715093,500.357348297,520.150444386,46.0396464437,-10.5651277185,-46.7082125152
455.72,623.35087008,79.4216326746,279.18950127,-159.215436685,186.669718683,23.12940291,545.455468666,500.357348297,520.02877179,30.9758241511,-10.5651277185,-46.7082125152
456.74,581.628653132,37.5274981668,264.268511822,-171.829398648,172.580385344,9.59498957262,529.600653577,500.357348297,520.028763665,21.1100647361,-10.6141781357,-46.7082125152
457.76,552.452197113,9.18447849015,260.15475476,-178.883307405,154.290992755,-3.37459851907,522.276544709,500.357348297,520.028763664,16.0571422062,-12.3510468643,-46.7082125152
458.78,539.934355537,-1.9654882825,256.683155934,-181.654352589,148.615069035,-7.28737322245,520.829430528,500.357348297,520.028763664,13.3527649484,-12.7211962872,-46.7082125152
459.8,543.339745392,0.914561969732,256.770841762,-181.237793831,150.254137869,-5.82649439442,522.213770376,500.357348297,520.090753232,15.2056725519,-12.588525489,-46.7082125152
460.82,578.139129481,33.7437864066,268.737775343,-171.457063166,167.059618681,5.58474434324,532.008945019,500.357348297,520.095236498,20.2364804087,-12.5857571875,-46.7082125152
461.84,645.099880442,92.287900056,273.552841623,-159.390781449,212.103308345,40.3011441439,552.533671721,500.357348297,520.095236845,31.2261833876,-12.3782134525,-46.7082125152
462.86,708.882651523,151.70764076,292.449634807,-140.462736941,241.825940332,59.6603219093,576.144898359,500.357348297,523.018479623,52.3122520719,-12.1367477435,-46.7082125152
463.88,754.287515744,202.900488959,301.464482744,-125.085323423,279.182502746,72.2489207397,582.350885907,500.357348297,525.141948201,65.1672416574,-12.1367402254,-46.7082125152
464.9,778.289103089,229.516531078,303.110974252,-117.86517209,293.16621775,80.6669558475,592.69118728,500.357348297,525.22825915,72.3615359209,-12.1367402252,-46.7082125152
465.92,773.075162322,221.645667165,300.572347998,-121.077563725,291.141319902,80.1806697869,592.203853989,500.357348297,524.353237339,70.3842460335,-12.1367402252,-46.7082125152
466.94,724.763611044,170.909107569,291.991711335,-134.649543331,263.164896356,63.0861199659,571.386762457,500.357348297,523.748997293,59.2167099396,-12.1367402252,-46.7082125152
467.96,664.766390352,96.7036662823,275.440941266,-166.765311915,216.711113176,46.3847749911,566.053684388,500.357348297,523.748930188,50.5918506438,-12.1367402252,-46.7082125152
468.98,609.761034568,41.4531507838,261.871680291,-181.667900655,192.859234191,26.8733694988,543.279630973,500.357348297,523.636492775,33.5004461101,-12.1367402252,-46.7082125152
470.0,575.716715509,5.14869459437,256.92951161,-192.154390349,173.759794524,13.1772075031,533.982864552,500.357348297,523.636265584,26.757972189,-13.3889944141,-46.7082125152
471.02,553.898521867,-14.7228478345,251.156202778,-198.245249569,162.563317948,4.75053540864,530.587699262,500.357348297,523.636265579,21.677705407,-14.2519748435,-46.7082125152
472.04,547.206152956,-21.0456022645,248.819175363,-199.756108413,160.179522456,3.49531426162,529.928967977,500.357348297,523.634137487,18.6306875844,-14.5491616346,-46.7082125152
473.06,569.312139566,-0.667273840996,255.969920169,-193.564263754,170.313364732,11.7102163479,534.5129415,500.357348297,523.649684094,23.1944005963,-14.5321088818,-46.7082125152
474.08,628.592111137,50.2237409996,260.82174827,-183.261497316,211.094641211,42.529777791,554.406351522,500.357348297,523.649688408,27.3143015757,-14.5321041774,-46.7082125152
475.1,683.779016838,102.093538327,278.190979853,-166.618735685,234.30501015,58.1978097249,569.009957017,500.357348297,523.811397391,40.2644684918,-14.2835952279,-46.7082125152
476.12,729.524072229,149.194222257,286.222380198,-151.113169637,261.913297694,72.5287315507,577.349030641,500.357348297,525.951975379,56.8576779052,-14.2834885751,-46.7082125152
477.14,766.226855513,188.777253893,290.988972257,-138.819583112,285.306383582,84.9317586635,590.109951932,500.357348297,527.194893602,70.0514034986,-14.2834885718,-46.7082125152
478.16,778.602032552,202.310413925,291.277321325,-135.996854218,291.193742841,88.9632002386,595.536786272,500.357348297,528.155197077,74.2864988337,-14.2834885718,-46.7082125152
479.18,752.316919848,173.663498109,286.732838403,-143.827493252,273.8154243,80.0619345518,585.490534442,500.357348297,527.283362304,67.9271240575,-14.2834885718,-46.7082125152
480.2,696.912043568,106.707832996,269.416782949,-174.197731222,235.780051737,64.90634669,574.79769219,500.357348297,527.149750182,63.5743393451,-14.2834885718,-46.7082125152
481.22,640.403924838,47.6556015533,259.089302032,-189.351644874,203.497827853,44.9100907069,557.954515954,500.357348297,526.911409588,45.8033956156,-14.2834885718,-46.7082125152
482.24,607.029397506,13.0580954139,250.224568521,-198.641137765,190.353707605,34.1092803645,547.446577255,500.357348297,526.898822889,37.9816929333,-14.6554553355,-46.7082125152
483.26,582.436668743,-10.7265211554,244.332502681,-205.122287361,177.580265018,25.0059839378,540.773157431,500.357348297,526.898822519,33.1892300266,-15.1774715694,-46.7082125152
484.28,571.249674246,-20.7734485056,240.726639235,-207.5650584,173.561857983,22.222957748,539.861584892,500.357348297,526.898822519,29.6096614345,-15.7865881643,-46.7082125152
485.3,582.608730829,-10.1961799445,244.15340618,-204.709581475,178.550232186,25.9728953398,542.653806046,500.357348297,526.892293185,32.9352281873,-15.8015853426,-46.7082125152
486.32,637.842677481,35.3859033014,253.40161691,-194.955351842,210.616814095,55.501964221,562.432865886,500.357348297,526.892307237,36.200440982,-15.8014655432,-46.7082125152
487.34,697.000080521,93.6521810596,267.108735024,-178.407658375,244.230667711,73.3736140653,576.472699752,500.357348297,527.087542578,52.8527339255,-15.5684520696,-46.7082125152
488.36,749.73338635,146.71121904,278.336440326,-161.216220987,279.516313507,89.0466504111,590.441098758,500.357348297,532.564918727,71.2858652367,-15.5620556357,-46.7082125152
489.38,785.010241598,185.101961122,284.537775139,-149.682023243,301.9598685,100.832648787,599.614809637,500.357348297,532.952987624,81.3677870684,-15.5620554377,-46.7082125152
490.4,800.794043828,202.264474495,284.996917537,-146.00483732,310.430901221,106.014345236,605.47421172,500.357348297,533.659061922,87.6747142803,-15.5620554377,-46.7082125152
491.42,780.215497449,178.411088877,280.336235953,-153.181071394,299.66718843,100.540974845,599.284866856,500.357348297,533.160840114,79.2515537192,-15.5620554377,-46.7082125152
492.44,717.500332132,104.385335532,264.197656599,-181.381343896,251.829987016,81.5697087185,580.814581689,500.357348297,532.965351342,73.9879059182,-15.5620554377,-46.7082125152
493.46,650.693589175,33.8729269066,253.827883984,-198.844639216,205.725543062,57.1070721582,565.941335168,500.357348297,532.96534017,56.8662948985,-15.5620554377,-46.7082125152
494.48,609.73128826,-8.40496728815,240.626812323,-212.472286859,192.486846318,43.6513401324,550.685729958,500.357348297,532.96534017,49.5325170132,-15.8931837701,-46.7082125152
495.5,580.897826733,-35.3501358414,236.842518233,-219.52833175,175.328763728,30.131651453,544.237372859,500.357348297,532.96534017,45.0701414916,-17.8419769386,-46.7082125152
496.52,567.859911952,-46.6982946098,232.827198529,-222.053371776,169.852293799,26.4485657671,543.342565069,500.357348297,532.96534017,41.433289061,-18.2022886432,-46.7082125152
497.54,579.140488922,-36.8608683647,234.465497282,-220.166457061,174.808208748,30.6051933821,546.764276091,500.357348297,532.96534017,45.9465309034,-17.9096873827,-46.7082125152
498.56,627.866430526,5.69448280303,248.705694205,-208.473447608,199.772022578,49.51529005,560.285796231,500.357348297,532.96534017,51.3130343996,-17.9068194705,-46.7082125152
499.58,695.131135398,68.6998265825,257.759629037,-191.796461006,239.891004207,76.4469632506,574.696273297,500.357348297,532.96534017,65.0398715708,-17.3923590385,-46.7082125152
500.6,756.956900592,125.276239441,271.683911282,-176.895095185,268.070429593,96.4337887282,594.912143765,500.357348297,537.023554038,84.020700268,-17.3487016509,-46.7082125152
501.62,799.436245827,174.508009873,279.427009729,-161.938403453,299.986788385,107.605571593,601.876901164,500.357348297,538.232621883,94.7116751668,-17.3487003031,-46.7082125152
502.64,823.166947166,199.54931932,280.273580087,-155.61020911,313.273057472,115.668041966,609.904993838,500.357348297,538.972655811,102.877014424,-17.3487003031,-46.7082125152
503.66,812.357706507,184.304949607,276.668561301,-160.935600203,307.913370007,113.805453878,608.005664873,500.357348297,536.111979113,99.2051542564,-17.3487003031,-46.7082125152
504.68,757.763281298,126.437760824,268.092201449,-176.943049858,275.781258543,92.4631825421,586.721114115,500.357348297,534.507245442,92.195705845,-17.3487003031,-46.7082125152
505.7,694.640561764,47.5021184909,254.256022132,-206.100433594,220.586375142,76.0120149475,578.401630755,500.357348297,534.391627048,78.7362131177,-17.3487003031,-46.7082125152
506.72,646.99976844,0.550934191236,239.035303146,-218.815007848,205.217533056,60.8696514992,558.481221629,500.357348297,534.350528181,65.3308696761,-17.3487003031,-46.7082125152
507.74,612.965040064,-34.2283029504,233.71967805,-227.119516503,185.483346716,46.7312029399,550.064479932,500.357348297,534.350527042,57.0661562723,-17.6969143314,-46.7082125152
508.76,594.259106872,-52.5603468692,227.95134025,-232.090223544,177.419373455,41.4914804797,548.314495224,500.357348297,534.350527042,51.2400134243,-17.9509764334,-46.7082125152
509.78,589.790037259,-56.5983671743,226.625462537,-232.861235032,175.922611395,40.5622059258,547.79843472,500.357348297,534.339084107,49.0836129683,-18.4884467795,-46.7082125152
510.8,618.62110248,-28.6219949089,238.425991689,-223.964386284,188.062340951,49.29124839,554.950217729,500.357348297,534.342165004,52.8060177375,-18.4872868775,-46.7082125152
511.82,685.830983109,28.8392255966,242.593158102,-213.418597607,230.936973084,86.8875111694,577.221902548,500.357348297,534.342165434,61.1730587805,-18.2013502313,-46.7082125152
512.84,747.86460831,84.2772925304,262.009364868,-196.994767481,255.583476538,105.955079373,598.27674664,500.357348297,535.564135443,77.875802985,-17.5855075538,-46.7082125152
513.86,791.52896773,133.20444931,270.3262746,-180.988320895,286.409055123,118.479169904,603.871341076,500.357348297,539.546311331,91.9404393494,-17.5854495276,-46.7082125152
514.88,819.71757964,162.870453631,272.042253317,-174.527327719,301.012712572,127.45988544,615.081487641,500.357348297,539.711217161,99.4480981127,-17.5854495259,-46.7082125152
515.9,829.72775798,174.659400288,273.031861974,-172.012418913,304.966587363,130.272456922,619.017807217,500.357348297,540.889791205,103.496612969,-17.5854495259,-46.7082125152
516.92,795.970709094,139.09727168,268.145901539,-182.360750981,281.600908697,117.419851041,604.236936847,500.357348297,540.336411491,96.9647981755,-17.5854495259,-46.7082125152
517.94,740.257531049,69.1992508333,251.992700576,-212.512314223,230.825923579,103.501179315,599.577038383,500.357348297,540.3316276,90.5879438535,-17.5854495259,-46.7082125152
518.96,691.130210257,19.9188638807,240.239377292,-224.957335695,209.973254974,86.3136733978,578.649614362,500.357348297,540.233622958,76.0064451818,-17.5854495259,-46.7082125152
519.98,661.273427755,-11.7432930522,235.44212142,-233.031739129,194.32232744,74.8677020464,570.505527849,500.357348297,540.230995435,69.3860866139,-18.687868686,-46.7082125152
521.0,639.67496708,-31.5131453518,229.129316889,-238.339980815,184.068664401,67.0160861543,566.702491267,500.357348297,540.230995369,65.3392638625,-19.7243709954,-46.7082125152
522.02,630.522477339,-40.397118102,226.388070564,-240.344315663,180.515929669,64.8471488906,565.55648532,500.357348297,540.219000414,60.9953036146,-20.286351845,-46.7082125152
523.04,648.049765711,-23.8940084618,232.948164313,-235.589258543,188.209254376,70.4686689261,570.012437881,500.357348297,540.22237764,63.8247351275,-20.2834167946,-46.7082125152
524.06,701.0139843,21.6824153891,237.933195995,-227.163883575,221.605667614,98.654111207,589.070682614,500.357348297,540.222380111,67.092649168,-20.2834146002,-46.7082125152
525.08,750.661196946,70.1591536932,253.338033089,-211.603253384,243.090034329,113.256998269,603.024825379,500.357348297,540.314671379,81.0201644638,-20.1899276775,-46.7082125152
526.1,788.843936296,109.597857525,259.542789912,-200.432910917,269.101936761,125.026642732,610.185814646,500.357348297,541.835919059,94.8583734515,-20.1898925999,-46.7082125152
527.12,818.91510873,140.9606035,263.035247328,-191.08938089,285.301988499,136.812485941,620.50877224,500.357348297,541.903999782,105.902332668,-20.1898925989,-46.7082125152
528.14,827.969229041,150.25880767,263.122167474,-189.557511019,289.674196739,139.754655911,624.252683018,500.357348297,542.039846258,109.8708435,-20.1898925989,-46.7082125152
529.16,801.504454055,122.122059799,258.387172818,-197.275297208,273.89764023,131.245609545,614.80025107,500.357348297,541.942447024,101.472948902,-20.3176409993,-46.7082125152
530.18,743.72703439,57.1027104236,238.742327564,-223.100770694,232.249127975,115.863488083,604.131977273,500.357348297,541.942413635,98.2366349435,-20.3177550472,-46.7082125152
531.2,690.794888159,1.75712989168,229.472894901,-236.920676781,200.716985844,97.4427634202,587.895490818,500.357348297,541.84422681,82.487447757,-20.3177550525,-46.7082125152
532.22,660.304982947,-30.2637529289,221.813120666,-245.560111599,187.59734522,87.3352800834,578.642537477,500.357348297,541.770773291,76.0912321663,-20.6460670651,-46.7082125152
533.24,638.718184195,-51.2789429434,216.5569767,-251.641324263,175.639298586,79.0285357157,572.866881958,500.357348297,541.770771144,70.2619170625,-20.8570449993,-46.7082125152
534.26,637.017667137,-53.2050488304,215.752435277,-252.384741404,174.901975581,78.6708468649,573.099153924,500.357348297,541.770771144,70.3736795322,-20.5861164956,-46.7082125152
535.28,666.972245824,-26.2961248098,223.509784432,-246.192387237,187.715200008,88.8949605995,581.987595559,500.357348297,541.770771144,80.9207259494,-19.9081077364,-46.7082125152
536.3,734.319504376,32.939760513,236.123346309,-232.339792128,228.581743225,123.046444574,608.784951183,500.357348297,541.770771144,85.4765429171,-19.9079305475,-46.7082125152
537.32,802.481675801,100.59918055,252.323421458,-212.261543527,265.250828266,144.386521936,622.756173009,500.357348297,542.121357249,102.612402641,-19.7729792702,-46.7082125152
538.34,855.592752046,154.869659023,263.470122407,-197.059715621,294.359537989,160.671733887,637.154723972,500.357348297,546.637432954,118.56171339,-19.7725835151,-46.7082125152
539.36,887.017659576,188.672957208,269.412867429,-187.325089283,312.983738965,171.170462133,644.898898126,500.357348297,547.182152815,125.843653461,-19.7725835043,-46.7082125152
540.38,893.493981683,196.447697371,269.637102156,-184.98918739,318.19976066,173.108159803,647.223874258,500.357348297,547.390880287,128.915488108,-19.7725835043,-46.7082125152
541.4,854.33620696,148.729533236,258.34962664,-200.519278113,301.162231914,162.78429968,634.889542166,500.357348297,543.416450034,117.259549379,-19.7725835043,-46.7082125152
542.42,782.740402871,69.4165591383,234.939992646,-229.966985853,259.783493838,140.178528284,610.469356819,500.357348297,543.201636545,113.201067698,-19.7725835043,-46.7082125152
543.44,708.956549493,-11.6683030174,218.505109663,-254.570682665,203.99866882,115.835781831,594.838389449,500.357348297,543.04122461,93.6842018359,-19.7725835043,-46.7082125152
544.46,662.410748909,-60.8694479626,202.764504486,-269.952277116,188.295617403,101.587437521,578.261903382,500.357348297,542.916635137,83.8557900024,-19.8587302605,-46.7082125152
545.48,630.424921089,-90.7930351834,198.047902502,-276.740048872,169.849744328,87.6652210242,570.716486577,500.357348297,542.916614303,78.7609941779,-21.23922183,-46.7082125152
546.5,616.227773892,-103.776325131,193.802624226,-279.792111614,164.336527041,83.5727763244,569.089516286,500.357348297,542.916614303,74.7052490745,-21.7468862074,-46.7082125152
547.52,627.880130572,-93.5650112216,195.360307211,-277.872740618,169.231749739,87.950926525,572.665172317,500.357348297,542.935255054,79.1175535833,-21.2682642541,-46.7082125152
548.54,677.668846371,-48.4112230257,210.986665099,-264.815806567,192.351465483,107.710837661,589.232300641,500.357348297,542.935354469,83.679820387,-21.2470548889,-46.7082125152
549.56,755.219715251,23.2338669868,220.707844867,-246.484882795,242.356390637,146.286145687,609.494870236,500.357348297,542.935354475,96.7854986019,-20.5514236497,-46.7082125152
550.58,819.395437945,80.5152054874,237.741019336,-229.334703939,269.435166778,167.033670338,629.807323717,500.357348297,546.293278235,114.84822107,-20.4349658323,-46.7082125152
551.6,869.38386645,134.438784531,249.546949626,-212.137481765,298.786485113,182.513169368,639.102471182,500.357348297,548.22865967,127.718975232,-20.4349620859,-46.7082125152
552.62,904.377972929,172.954940071,251.133480814,-202.826004205,317.059093427,194.260972231,653.98248566,500.357348297,549.355594565,138.879047827,-20.4349620857,-46.7082125152
553.64,907.097576858,176.27452363,251.010966067,-202.630769422,317.87187084,195.156288321,655.563896939,500.357348297,550.211530491,139.295859412,-20.4349620857,-46.7082125152
554.66,860.558495321,127.209212519,242.741154079,-216.710184851,286.137396249,178.194170401,637.471852618,500.357348297,549.981593753,134.757959429,-20.4349620857,-46.7082125152
555.68,793.829175047,44.9903464367,220.371061713,-254.783325603,230.232654749,160.511881029,631.073424758,500.357348297,549.194696685,121.381094837,-20.4349620857,-46.7082125152
556.7,745.837579896,-7.78771249328,205.454292533,-271.505640105,212.443738207,145.032977068,611.986118832,500.357348297,549.187969966,108.915571428,-20.6314478876,-46.7082125152
557.72,706.996061576,-46.9364501837,201.087068805,-281.587434951,188.836220907,127.232961418,602.283337417,500.357348297,549.187969785,102.154537766,-23.0972451387,-46.7082125152
558.74,683.312163559,-68.6371972709,194.066640857,-287.053514979,179.705503738,119.941723893,599.415813192,500.357348297,549.187969785,96.9888726178,-24.0790978976,-46.7082125152
559.76,674.691194315,-76.528611453,191.52590416,-288.712276498,176.358127777,117.837756867,597.585434523,500.357348297,548.987188344,94.3908732935,-24.8009732699,-46.7082125152
560.78,701.295864904,-50.6367054899,203.071649934,-279.673632176,188.310213157,126.388694405,604.678793735,500.357348297,548.989573436,97.1837378045,-24.774420783,-46.7082125152
561.8,766.867398528,5.18034675183,205.78160718,-269.759212653,231.362036853,165.50570351,632.999176202,500.357348297,548.98957408,103.58736945,-24.7744135505,-46.7082125152
562.82,823.378819182,56.3372629386,227.381511653,-253.290979598,254.498987682,181.996677976,651.033055925,500.357348297,549.727300554,119.954691646,-24.4759347502,-46.7082125152
563.84,862.039505738,97.2642810725,235.906530538,-240.980671318,280.159985832,192.703410539,656.393410217,500.357348297,552.02157754,130.212209715,-24.4757200985,-46.7082125152
564.86,886.79370362,124.592619307,237.736615038,-234.487222239,293.516358636,200.317265835,666.418610642,500.357348297,552.614294116,136.709717288,-24.4757200924,-46.7082125152
565.88,890.275550489,127.489034269,237.222130484,-234.521494807,294.882838694,201.709256676,668.410115753,500.357348297,552.749345686,137.50742762,-24.4757200924,-46.7082125152
566.9,850.103740622,85.0432015174,230.096384426,-247.358525854,269.212654501,185.863056811,651.707282776,500.357348297,551.959496834,131.866447528,-24.4757200924,-46.7082125152
567.92,793.131985251,15.9120097984,206.914852252,-280.416650541,218.362692844,171.998113596,646.108189389,500.357348297,551.957438767,125.484170621,-24.4757200924,-46.7082125152
568.94,752.2325488,-23.110465032,195.432850459,-290.476824913,200.168804267,157.172593435,630.175482213,500.357348297,551.85559046,113.443897496,-24.4757200924,-46.7082125152
569.96,730.140765921,-47.3606809623,191.603009345,-297.55431979,188.052588559,148.785980619,623.421569928,500.357348297,551.855572378,109.53690991,-24.7362078144,-46.7082125152
