2074.46,-199.590387417,-206.365053014,-169.360870155,592.42286743,570.870123552,-174.831831015,-125.447884565,122.917354837,174.120720295,390.042491367
2075.48,-201.182708668,-209.27967285,-170.833774099,591.038663343,568.945138887,-176.185677349,-128.522684841,122.447341519,174.120720295,390.042491367
2076.5,-207.53281479,-226.729589904,-178.297706915,585.774399229,562.978622176,-176.185677353,-130.79167526,121.224936331,174.120720295,390.042491367
2077.52,-207.62000431,-227.304456884,-178.989856897,585.488632336,562.631085028,-176.185677353,-130.955329482,121.015266457,174.120720295,390.042491367
2078.54,-210.310079259,-231.418219783,-183.910673353,580.085220046,557.434622088,-177.741561848,-135.689291166,120.49163011,174.041807713,388.7470553
2079.56,-212.239200469,-234.236371312,-186.114180295,578.667625296,556.13632221,-177.983647579,-137.203019075,119.465800353,174.002166411,387.982539025
2080.58,-212.296484038,-234.703956894,-186.294106571,578.614932876,555.97632128,-177.983647579,-137.547681574,119.508666492,174.063847424,387.982534823
2081.6,-211.665463598,-234.40802435,-184.713429748,580.343753574,556.881761087,-177.983647579,-137.547680942,121.214610018,174.85239236,387.982534823
2082.62,-212.005639092,-235.184310963,-185.663193958,579.975575854,556.386377545,-177.983647579,-137.56865002,121.13384719,174.852390861,387.982534823
2083.64,-214.068753851,-241.608079972,-191.528513,577.049815704,554.070703758,-178.029042808,-139.778331719,120.529627467,174.852390861,386.73408129
2084.66,-214.619105885,-243.743050646,-195.037101482,575.369354523,552.060148566,-178.02904281,-141.236580011,118.509149332,174.852390861,386.734067063
2085.68,-214.682555704,-244.274232953,-195.589520097,575.259411311,551.760776094,-178.02904281,-141.325712311,118.161861153,174.852390861,386.734067063
2086.7,-215.21326701,-247.255965287,-198.958336532,573.825563838,550.263834149,-178.02904281,-142.635127422,117.32011763,174.852390861,386.734067063
2087.72,-215.834947752,-249.449278402,-200.931336191,572.518806673,548.523382002,-178.732768438,-145.864317206,116.564093083,174.859965378,386.734067063
2088.74,-217.350540347,-258.083226502,-207.160263903,569.650397265,544.967491855,-178.732768435,-147.263690454,115.71691923,174.861988094,386.734067063
2089.76,-218.407482466,-259.628188009,-207.389076023,568.99565528,544.280280861,-178.732768435,-147.391360103,115.675738666,174.861988094,386.734067063
2090.78,-219.034864559,-260.427038971,-208.219582737,568.428488507,543.441739334,-178.732768435,-147.613382935,115.2190677,174.861988094,386.734067063
2091.8,-219.484539561,-262.640508427,-209.941011452,567.728042764,542.774295987,-178.732768435,-148.115170591,114.661385366,174.863411906,386.487963602
2092.82,-219.172568438,-262.366091642,-209.146043072,568.148705858,542.872861641,-178.732768435,-148.118342826,115.120887693,174.938290932,386.487888574
2093.84,-216.678246125,-260.718075196,-205.665002656,572.471550008,544.654483892,-178.732768435,-148.118342826,117.731217921,180.955249423,386.989662902
2094.86,-213.116087652,-257.435378888,-197.45572183,584.802365528,548.339692792,-178.732768435,-148.118342826,118.688806182,187.731798961,387.178781788
2095.88,-214.952243792,-263.169690352,-202.532380096,582.795517148,545.890264781,-178.732768435,-149.026534209,118.672043675,187.777989454,386.761518781
2096.9,-215.15960676,-263.672764361,-202.868503356,582.642229366,545.616340718,-178.732768435,-149.207665107,118.480761978,187.811487915,386.761010188
2097.92,-215.346883751,-264.036909514,-203.60054156,582.281860235,545.053751605,-178.721047156,-149.43528123,117.76595996,187.811265495,386.761010188
2098.94,-215.599720175,-265.139297914,-205.645935474,581.659831522,544.28943088,-178.721016947,-149.781907989,116.713268294,187.811265612,386.761010188
2099.96,-215.878070548,-266.430872479,-207.045718212,581.050947713,543.274356369,-178.721016947,-151.124996982,115.686871677,187.811265612,386.761010188
2100.98,-216.290700431,-268.799211698,-210.114527016,580.09897014,541.986123076,-178.721016947,-151.407588727,115.058317017,187.811265612,386.761010188
2102.0,-217.33030829,-272.275769923,-211.966087714,578.822889051,540.431998049,-178.721016947,-152.066243936,115.083121522,187.817590307,386.761010188
2103.02,-217.282732366,-272.33194166,-212.151716757,578.810156579,540.429463892,-178.721016947,-152.115797785,115.003908027,187.82646089,386.761010188
2104.04,-218.005248683,-277.389722882,-214.393715425,578.009608126,539.474312723,-178.721016947,-152.420616928,115.21658992,187.952406259,386.27168038
2105.06,-219.407597286,-280.466444969,-215.089372441,577.432827706,538.628642371,-178.721016947,-153.170797026,115.241605335,187.952406202,386.250076236
2106.08,-217.591539862,-278.937466811,-212.119462524,580.565483131,539.018912574,-178.721016947,-153.170797024,118.339905487,193.077747317,386.340991208
2107.1,-213.728818696,-275.080324003,-205.385050888,592.745545948,546.219716509,-178.721016947,-153.170797024,118.854747852,206.963360956,388.666468383
2108.12,-209.711178125,-275.673273182,-200.221877211,607.312531765,547.173638425,-178.721016947,-153.170797024,118.854748065,210.17450682,388.666480757
2109.14,-210.313264179,-279.224246889,-201.425213623,606.818641112,546.538506795,-178.721016947,-153.781442593,119.318130503,210.244937644,388.666480757
2110.16,-208.205804399,-276.867352224,-198.19201528,610.59209645,548.428153072,-176.784133486,-153.686288829,122.561715915,215.115058008,388.695716772
2111.18,-204.945651197,-274.049772848,-194.866984783,616.555137888,553.003041938,-175.617050023,-153.670170959,123.330825657,219.416988528,388.825539783
2112.2,-204.520869167,-273.875725645,-193.374414857,618.787240478,553.518015765,-175.617050023,-153.715568335,124.706279715,221.003606355,388.825539785
2113.22,-204.646805025,-274.819699085,-194.448393343,618.546927749,553.105354028,-175.617050023,-153.820046229,124.517918923,221.015391888,388.825539785
2114.24,-206.581358594,-279.435068871,-197.899776357,616.479999619,550.73491252,-175.617050023,-154.640209663,124.436901404,221.015391887,388.825539785
2115.26,-206.909755585,-279.885742329,-198.642755899,616.070169866,550.171609582,-175.617050023,-154.931517038,123.97204513,221.015391887,388.825539785
2116.28,-207.002918542,-282.311940528,-200.871148634,615.358232715,549.145775568,-175.617050023,-155.115450434,123.745776223,221.024460617,388.715628666
2117.3,-210.856492027,-290.757975273,-204.361458295,612.806342048,546.975506858,-175.617050023,-156.509815601,123.650483119,221.024458718,388.125368702
2118.32,-210.45216783,-290.443862335,-203.510402915,613.28287829,547.084054859,-175.617050023,-156.516541585,124.626547699,221.390940599,388.125368702
2119.34,-208.149635426,-288.282250199,-196.939042605,624.021420266,550.769478995,-175.617050023,-156.516541585,128.96822824,233.653013193,388.892845784
2120.36,-207.0849499,-290.108030529,-197.23832068,625.305234671,549.698021726,-175.617050023,-156.634579808,129.645025586,234.188618525,388.892846553
2121.38,-207.98207265,-294.549763924,-200.232683791,624.142779674,548.417632448,-175.617050023,-157.242327422,129.620798643,234.192235136,388.892846553
2122.4,-208.424559006,-295.041564163,-201.431211046,623.499978354,547.740499248,-175.613383235,-157.55650317,128.901980911,234.191481628,388.892846553
2123.42,-208.885402701,-296.754092161,-203.772618303,622.488670312,546.561958252,-175.616797476,-158.354148457,128.247897043,234.191481628,388.892846553
2124.44,-209.177621954,-299.963448196,-207.266562962,620.639275463,544.325988354,-175.636917663,-161.088420584,127.263132101,234.191481628,388.892846553
2125.46,-209.803644696,-301.325628263,-208.428180926,619.655350969,543.059404098,-175.99675388,-162.565384663,126.741508269,234.191481628,388.892846553
2126.48,-210.798525582,-307.470118078,-214.663437761,617.377387689,540.159754625,-175.99675388,-163.454954089,126.203014984,234.191481628,388.892846553
2127.5,-210.887663732,-307.822940979,-215.297479188,617.073204198,539.924837005,-175.99675388,-163.530112444,125.96543002,234.191481628,388.892846553
2128.52,-212.506350322,-309.760290236,-216.884176262,615.622071838,537.73060552,-175.99675388,-164.901005393,125.412910336,234.191481628,388.844419489
2129.54,-212.905631209,-311.222784465,-217.920294399,615.150213606,537.188836355,-175.99675388,-165.141785086,125.065147976,234.191481628,388.688421921
2130.56,-212.452439185,-310.905621093,-216.315974013,616.005079064,537.340634255,-175.99675388,-165.140915875,126.830670277,234.916002422,388.68842201
2131.58,-210.170107496,-309.583750518,-210.683401419,626.786841158,540.72116009,-175.99675388,-165.140915875,131.049644718,248.116591426,389.229078572
2132.6,-208.537173246,-308.172203571,-206.048522592,632.519348007,541.785085246,-175.99675388,-165.140915875,132.314032187,250.268561017,389.229080142
2133.62,-208.818715149,-311.356950835,-208.926171817,631.415494389,540.595028465,-175.99675388,-165.697462772,131.955017453,250.273508687,389.118434853
2134.64,-209.122500392,-313.069665923,-212.136362395,630.11899771,539.488630493,-175.99675388,-166.564743669,130.39491547,250.283992838,389.118434879
2135.66,-209.274688162,-313.832400845,-213.175324602,629.772126027,538.942072631,-175.99675388,-166.749971353,129.993080149,250.283992837,389.118434879
2136.68,-209.952922504,-317.350059795,-217.105724408,628.194996289,537.260647529,-175.99675388,-168.265899871,129.385429613,250.283992837,389.118434879
2137.7,-210.348224385,-319.53352298,-219.116495039,626.974276355,535.739936924,-176.10813476,-171.36569785,128.469275049,250.289963825,389.118434879
2138.72,-211.099402358,-325.920538131,-224.965544486,624.47632475,532.822280453,-176.108134761,-172.348401823,127.402320607,250.289528023,389.118434879
2139.74,-211.62796214,-327.208873709,-225.748496639,624.088007435,532.282551985,-176.108134761,-172.431199755,127.329917795,250.289528023,389.118434879
2140.76,-213.06880011,-329.097417636,-227.862941084,622.394379528,530.051678968,-176.108134761,-173.527066986,126.713891791,250.289528023,389.118434879
2141.78,-213.511740355,-329.759048964,-228.275012537,622.067670331,529.60143644,-176.108134761,-173.760460454,126.534624275,250.289528023,389.077513496
2142.8,-213.348108942,-329.600477673,-227.77666095,622.312907628,529.677287379,-176.108134761,-173.76034121,126.829115984,250.316830351,389.077513805
2143.82,-211.742054007,-328.444308478,-224.895227757,626.108373233,530.917291025,-176.108134761,-173.76034121,129.623600853,255.172656593,389.077513805
2144.84,-210.660441503,-326.971979036,-219.872936072,632.339858307,532.608588704,-176.108134761,-173.76034121,132.258056518,258.942232065,389.077513805
2145.86,-210.896197822,-331.081214873,-223.929439003,630.85462679,531.035621917,-176.108134761,-174.1777205,132.126648501,258.942232244,388.947526561
2146.88,-210.751445723,-331.050524579,-223.694699823,630.962591947,531.023405015,-176.108134761,-174.216474022,132.342388858,258.997798649,388.947445535
2147.9,-211.006166702,-331.399825462,-224.61449055,630.547465106,530.494326191,-176.100911551,-174.468861578,131.656779775,258.997797876,388.947445535
2148.92,-211.384869242,-333.266317039,-227.675200115,629.390388351,528.989926094,-176.100959508,-175.215245347,130.445885675,258.997797876,388.947445535
2149.94,-211.594919955,-334.660806569,-229.282651393,628.534311392,527.747895674,-176.100959508,-176.774346721,129.646805385,258.997811247,388.947445535
2150.96,-211.841852825,-336.01155887,-231.226186139,627.979290151,526.888109012,-176.100959508,-176.885388457,129.229463239,259.016840792,388.947445535
2151.98,-212.403901869,-339.090671133,-233.750774238,626.86568495,525.457944241,-176.100959508,-177.314215754,129.15087901,259.016840789,388.947445535
2153.0,-212.584918081,-339.421807569,-234.270187588,626.613337688,525.175629275,-176.100959508,-177.405014534,128.865286755,259.016840789,388.947445535
2154.02,-212.133665722,-339.666729372,-234.422303961,626.89950171,525.066480067,-176.100959508,-177.404826656,129.075553345,259.112673911,388.937079989
2155.04,-211.985269858,-340.062608161,-234.28878931,627.138792558,525.032550253,-176.100959508,-177.426131708,129.22239103,259.116277795,388.936324834
2156.06,-210.104383513,-338.613517597,-230.807419281,629.906594501,525.288287647,-176.100959508,-177.426131708,132.453749568,263.642662095,389.011811826
2157.08,-206.31487285,-335.355464903,-224.008831175,642.189273923,529.660198431,-176.100959508,-177.426131708,133.503214732,274.749999898,389.764570663
2158.1,-203.871038622,-338.289831655,-221.949413869,648.567717516,528.389424456,-176.100959508,-177.564299085,133.722610094,276.039841304,389.764570678
2159.12,-203.685735548,-339.05021315,-222.177747536,648.598966527,528.338856104,-176.100959508,-177.776666889,134.138527498,276.089474356,389.764570678
2160.14,-203.869858365,-339.39123818,-223.030460163,648.257765421,528.045030759,-176.106175744,-177.865003224,133.520772619,276.09198099,389.764570678
2161.16,-204.442816812,-341.543465612,-225.892550511,646.953068593,526.6399064,-176.106483177,-178.766048739,132.303651804,276.09198099,389.764570678
2162.18,-204.55356742,-342.397452548,-227.079351681,646.271042968,525.781129663,-176.106483177,-179.698519778,131.348184123,276.09198099,389.764570678
2163.2,-204.802680543,-342.937199875,-227.88521524,646.026293577,525.436096139,-176.106483177,-179.896067041,130.819835822,276.0913321,389.764570678
2164.22,-205.493336949,-346.221990153,-231.407260608,644.606791103,523.615986258,-176.106483177,-180.183123941,130.533037858,276.091332079,389.764570678
2165.24,-205.589950414,-346.466823419,-231.868112356,644.509669477,523.146835572,-176.106483177,-180.364443809,130.314488285,276.091332079,389.764570678
2166.26,-205.931408785,-346.95799498,-232.215931841,644.280799216,522.625338702,-176.106483177,-180.667899595,130.040794283,276.141291789,389.753283696
2167.28,-206.031227415,-348.317141326,-233.061004281,643.949972524,522.195508247,-176.106483177,-180.903359634,129.795541423,276.150687125,389.573384275
2168.3,-205.236930552,-347.781752697,-231.753055355,644.921342763,522.358144712,-176.106483177,-180.903359686,131.437579801,277.23297918,389.573384275
2169.32,-202.595589025,-345.655410181,-225.029424219,657.395835304,526.737807862,-176.106483177,-180.903359686,134.827451483,289.716011205,390.063093532
2170.34,-201.673136799,-346.30463543,-224.028608251,659.172399864,526.226245071,-176.106483177,-181.051958929,135.322007633,290.234934239,390.063093537
2171.36,-201.832415202,-349.076300356,-226.334954556,658.117418194,525.330751152,-176.106483177,-181.774481254,135.285337538,290.260055005,389.788501051
2172.38,-202.383767186,-350.686271019,-229.504157043,656.71448108,524.003164711,-176.106483177,-182.797849242,133.51279671,290.259313096,389.788501051
2173.4,-202.408329197,-350.996270434,-230.015548512,656.678072178,523.697598169,-176.106483177,-182.838564874,133.349369937,290.259313096,389.788501051
2174.42,-202.439870858,-351.850284616,-231.32496684,656.0026065,522.881692277,-176.106483177,-183.512559134,132.740272408,290.259313096,389.788501051
2175.44,-202.674013675,-352.783296126,-232.334944567,655.433457172,522.050109702,-176.106483177,-184.954819764,132.042098871,290.277660034,389.788501051
2176.46,-203.348420364,-357.22658441,-237.498123385,653.605599477,519.674939327,-176.106483177,-185.576566322,131.401379287,290.277655427,389.788501051
2177.48,-203.316032454,-357.346251594,-237.439531753,653.619106486,519.539228852,-176.106483177,-185.610794255,131.229036438,290.277655427,389.788501051
2178.5,-203.159168105,-357.239193421,-237.2976957,653.723046036,519.500413259,-176.106483177,-185.689516779,131.241032275,290.325831008,389.788501051
2179.52,-203.084245947,-357.571089607,-237.763443709,653.626041725,519.349252275,-176.106483177,-185.69394752,131.108867105,290.327290514,389.781732103
2180.54,-202.834074177,-357.335354549,-236.842768272,654.096397804,519.44579316,-176.106483177,-185.693946628,131.729686658,290.399215941,389.781732103
2181.56,-200.844476797,-356.210216934,-233.096509993,658.969718393,521.486024788,-176.106483177,-185.693946628,135.303769231,295.280947619,389.781732103
2182.58,-199.952483859,-355.372493863,-230.217933848,661.732492926,522.27890252,-176.106483177,-185.693946628,136.985588637,296.544435837,389.781732103
2183.6,-199.960737307,-359.816117758,-233.514641505,660.247289334,520.477967364,-176.106483177,-185.934129739,136.951711294,296.544435839,389.781732103
2184.62,-199.292583979,-359.318970121,-232.71273063,660.774868858,520.899032759,-176.106483177,-185.933952513,137.649061265,296.705093633,389.781732103
2185.64,-199.430802477,-359.762549545,-233.795934479,660.330750782,520.632681268,-176.130256001,-186.151242943,136.759455813,296.705002787,389.781732103
2186.66,-199.646456478,-361.144342518,-235.785606316,659.458341363,519.609194341,-176.130257148,-187.212875782,135.542847129,296.705002787,389.781732103
2187.68,-199.462964119,-361.361883375,-235.408295903,659.822608129,519.193729016,-176.130257148,-187.776193186,135.605959915,297.016132528,389.781732103
2188.7,-200.046889656,-362.517952449,-236.719575967,659.318508772,518.304881563,-176.130257148,-187.776958136,135.503296501,297.035356151,389.781732103
2189.72,-199.98423937,-362.529399172,-236.471935172,659.585077929,518.205683159,-176.113054149,-187.787623202,135.732604013,297.048119847,389.781732103
2190.74,-199.344355011,-362.102592779,-235.976197294,659.933770416,518.284609619,-176.113253457,-187.841122435,136.006739574,297.174700399,389.781732103
2191.76,-199.051630196,-364.279182131,-237.366299267,659.892975185,517.316672857,-176.113253457,-187.878045422,136.229236642,297.289358768,389.781732103
2192.78,-199.082992739,-364.704960068,-237.259163319,659.961533527,517.251906187,-176.113253457,-187.919307581,136.363618975,297.298173484,389.781732103
2193.8,-197.526993721,-363.871369561,-234.985626301,662.167028521,517.752493766,-176.113253457,-187.919307581,138.849331554,299.799581994,389.781732103
2194.82,-195.798360357,-362.282977898,-228.507927883,670.507431784,520.141942809,-176.113253457,-187.919307581,141.991384003,305.760174488,389.781732103
2195.84,-195.431335165,-364.785309336,-230.63776085,670.097734851,519.174549434,-176.113253457,-187.955508993,141.96413976,305.760189665,389.781732103
2196.86,-195.274280624,-364.725723136,-230.398920694,670.232993315,519.245701754,-176.113253457,-187.964465278,142.208053973,305.787816488,389.781732103
2197.88,-195.460561996,-365.028309443,-231.119310471,669.961794206,518.95789806,-176.110138535,-188.059974785,141.786181707,305.787777806,389.781732103
2198.9,-195.640573856,-365.742199992,-232.379548192,669.479067161,518.400644702,-176.110151405,-188.264874708,141.204961769,305.787777806,389.781732103
2199.92,-195.793804549,-366.970263744,-233.719466586,668.524967817,517.104798836,-176.110151405,-189.783569772,140.262960991,305.78899377,389.781732103
2200.94,-195.962105665,-367.490028093,-234.640343691,668.250655204,516.75353105,-176.110151405,-189.811481149,140.041508491,305.794756749,389.781732103
2201.96,-196.206044334,-368.291408514,-235.609045318,667.969573591,516.203765856,-176.110151405,-189.854412273,139.998004098,305.794756749,389.781732103
2202.98,-196.479990785,-368.681227267,-236.322343489,667.591162078,515.55588131,-176.110151405,-190.133796389,139.670561593,305.794756749,389.781732103
2204.0,-196.142177,-368.722551341,-236.079543032,667.846933871,515.624929917,-176.110151405,-190.164389398,139.959982083,305.949950763,389.732990859
2205.02,-196.126191753,-369.309715825,-236.281854959,667.82958069,515.397211812,-176.110151405,-190.27038235,139.995092425,305.956323916,389.692930989
2206.04,-194.913245716,-368.544738015,-234.154314891,669.780549621,515.710555664,-176.110151405,-190.267870156,143.027060064,308.244907652,389.692930989
2207.06,-193.39954861,-367.091404246,-227.924262597,678.462663836,518.77398612,-176.110151405,-190.267870156,146.617945199,314.791045629,389.692930989
2208.08,-193.078396741,-368.897714064,-229.018262881,678.30773877,518.013012877,-176.110151405,-190.414699877,146.605159127,314.792298595,389.677549949
2209.1,-193.112608126,-368.983428855,-228.943141486,678.318570474,517.927731342,-176.110151405,-190.459800783,146.694504123,314.804429251,389.675561279
2210.12,-193.497657257,-370.358678067,-231.539852784,677.158924252,516.880648705,-176.110151405,-191.180780207,145.405181511,314.804428365,389.675561279
2211.14,-194.052520414,-372.02106752,-233.872537612,676.374381182,515.79929691,-176.110151405,-191.53702985,144.787275384,314.804428365,389.675561279
2212.16,-194.214210364,-373.505415267,-236.023249542,675.241702889,514.31580285,-176.110151405,-192.933188915,144.172913279,314.804428365,389.675561279
2213.18,-194.36463205,-374.125189231,-236.710611463,674.888849123,513.830034355,-176.110151405,-193.507861182,143.699504528,314.807221486,389.675561279
2214.2,-194.549465856,-378.511169382,-241.510853697,673.346024879,511.836390586,-176.110151405,-193.828988188,143.177941172,314.807198697,389.675561279
2215.22,-194.573957945,-378.691660169,-241.782664028,673.271484748,511.574131629,-176.110151405,-193.888621059,142.939958113,314.807198697,389.675561279
2216.24,-195.879709739,-380.000984415,-242.944813558,671.991425216,509.94493117,-176.110151405,-194.720473527,142.335695848,314.809103928,389.53550385
2217.26,-195.855724967,-380.276045631,-243.149652931,671.912220213,509.856979661,-176.110151405,-194.77678504,142.249019553,314.821187093,389.44452586
2218.28,-195.395476644,-379.978935464,-241.833890667,672.76865546,509.958106707,-176.110151405,-194.77678502,144.020645586,315.706008217,389.44452586
2219.3,-193.737842815,-378.761510233,-237.091119545,678.439336632,511.739574149,-176.110151405,-194.77678502,148.036356395,320.130187453,389.44452586
2220.32,-193.722091996,-379.421927496,-237.78745369,678.212641987,511.355893731,-176.110151405,-194.790364267,147.986912218,320.130206025,389.44452586
2221.34,-193.715728581,-381.806643091,-239.996611665,677.202306536,510.272848929,-176.110151405,-195.243415733,148.167384537,320.186246872,389.157540447
2222.36,-193.692648665,-382.234423162,-241.28089846,676.877293788,509.931857895,-176.110151405,-195.397809197,147.47425292,320.262967174,389.157540454
2223.38,-193.776467017,-382.855382097,-241.948021431,676.635730295,509.219497295,-176.110151405,-195.463756483,147.148668626,320.262967174,389.157540454
2224.4,-193.785317616,-383.526807686,-242.811699686,676.24538241,508.700980578,-176.110151405,-196.052513356,146.644191587,320.262967174,389.157540454
2225.42,-193.648801168,-383.691844644,-242.964782073,676.266654731,508.359877326,-176.110151405,-196.516306324,146.587710692,320.373751214,389.157540454
2226.44,-194.095846237,-388.26873001,-247.603956078,674.409477774,506.176016321,-176.110151405,-196.954711697,146.018741044,320.373561301,389.157540454
2227.46,-194.028640962,-388.222546401,-247.554538832,674.532987494,506.127261356,-176.110151405,-196.960305103,145.982228279,320.373561301,389.157540454
2228.48,-193.745367006,-387.94515801,-247.117322991,674.824591559,506.219718684,-176.110151405,-196.9642393,146.15143081,320.427682633,389.157540454
2229.5,-193.578335906,-388.094098898,-247.522166188,674.704748612,506.123807285,-176.110151405,-196.9642393,146.112059549,320.428765597,389.157540454
2230.52,-193.364346267,-387.891659558,-246.800447551,675.0217865,506.203633104,-176.110151405,-196.9642393,146.581092971,320.493502777,389.157540454
2231.54,-191.407773658,-386.145268856,-242.97670441,680.071774375,507.78479291,-176.110151405,-196.9642393,150.808940386,326.334818473,389.157540454
2232.56,-189.547179558,-384.370451028,-237.526572268,685.305097857,509.071642849,-176.110151405,-196.9642393,153.205736194,328.548879581,389.157540454
2233.58,-189.54980927,-387.21499333,-240.306230278,684.312413821,507.941882574,-176.110151405,-197.010510908,153.225556516,328.548879558,389.157540454
2234.6,-189.089612989,-386.92528251,-239.860778714,684.632357304,508.262049384,-176.110151405,-197.01050402,153.603626868,328.591421531,389.157540454
2235.62,-189.235745028,-387.22007716,-240.741012106,684.322705847,507.959277804,-176.105179862,-197.112176675,153.010761618,328.589969012,389.157540454
2236.64,-189.312075011,-387.645730116,-241.439020373,683.970748632,507.463500653,-176.105180454,-197.271029275,152.666556602,328.589969012,389.157540454
2237.66,-189.291331105,-387.824783298,-241.504494877,684.000479023,507.120898252,-176.105180454,-197.573330317,152.596667776,328.690277501,389.157540454
2238.68,-189.597518835,-388.519433059,-242.597408781,683.598583635,506.578298976,-176.105180454,-197.573329711,152.417901203,328.693042048,389.157540454
2239.7,-189.692307904,-388.710440988,-242.583135757,683.593756972,506.321691873,-176.105180454,-197.578642092,152.507220716,328.693042048,389.157540454
2240.72,-189.319513754,-388.512251925,-242.451260523,683.825089446,506.274673031,-176.105180454,-197.646286433,152.59022908,328.847545496,389.157540454
2241.74,-188.81026361,-388.288401502,-241.733569953,684.48215195,506.24215991,-176.105180454,-197.646285783,152.976192501,329.180400925,389.157540454
2242.76,-188.579517604,-388.011738033,-240.860347169,684.803648202,506.38121862,-176.105180454,-197.646285783,153.340935499,329.18881516,389.157540454
2243.78,-186.699726987,-387.042230312,-238.205870653,687.605568405,507.178975564,-176.105180454,-197.646285783,155.955673811,333.156544845,389.269232717
2244.8,-184.372326936,-384.884386454,-229.704341418,697.990887509,510.214765561,-176.105180454,-197.646285783,159.262241845,340.669639403,389.286353451
2245.82,-184.306670359,-387.433155905,-232.108415383,697.186519379,509.12271927,-176.105180454,-197.721738376,159.231452126,340.669688932,389.286353451
2246.84,-184.220947753,-387.284545982,-231.467172936,697.456617846,509.170053721,-176.105180454,-197.725935623,159.56939701,340.736546409,389.286353451
2247.86,-184.285085994,-387.552976074,-232.184228382,697.310160748,508.681020353,-176.098802713,-197.915992686,159.209458592,340.736545559,389.286353451
2248.88,-184.649149202,-389.073409871,-234.572024616,696.344322802,507.620709006,-176.098802699,-198.287915343,158.309075647,340.736545559,389.286353451
2249.9,-184.774656235,-390.010717085,-235.804127891,695.685770528,506.613448298,-176.098802699,-199.218767763,157.634771419,340.73684663,389.286353451
2250.92,-184.839990062,-390.765456258,-237.029946953,695.342823864,506.112774958,-176.098802699,-199.282357431,157.381650234,340.808066649,389.286353451
2251.94,-185.074299123,-392.667945676,-239.046647443,694.591101185,505.073438194,-176.098802699,-199.403961395,157.268912625,340.808066649,389.286353451
2252.96,-185.302745679,-393.126466698,-239.871830995,694.166329273,504.638239292,-176.098802699,-199.556502577,156.876249477,340.808066649,389.286353451
2253.98,-185.098455987,-393.052328353,-239.647275576,694.305580149,504.707402598,-176.098802699,-199.570967113,156.960387827,340.902282297,389.242840813
2255.0,-185.062702968,-393.19094124,-239.752098554,694.278127992,504.654667886,-176.098802699,-199.578250404,156.930955647,340.904459649,389.226549471
2256.02,-183.61205221,-392.20761805,-237.026000674,696.9863671,505.151085231,-176.098802699,-199.578239596,159.834325745,344.597924063,389.226549471
2257.04,-182.438631004,-390.964010109,-231.162607406,704.57372342,507.732921793,-176.098802699,-199.578239596,163.638032596,350.097213392,389.226549471
2258.06,-182.510380939,-392.541621636,-232.784261451,703.940679398,506.957536848,-176.098802699,-199.714027766,163.487666286,350.097221324,389.184738846
2259.08,-182.498833862,-392.779095471,-232.960587937,703.860491917,506.880515755,-176.098802699,-199.750584482,163.53522255,350.108764974,389.172980536
2260.1,-182.892212002,-393.932120874,-235.012802629,702.806048002,505.654208795,-176.098802699,-200.581863322,162.151093332,350.108516712,389.172980536
2261.12,-183.134500586,-394.902869206,-236.502363813,702.205247351,504.955581117,-176.098802699,-200.705503077,161.777590879,350.108516712,389.172980536
2262.14,-183.204838653,-395.657826733,-237.487637241,701.702939899,504.175251346,-176.098802699,-201.27903058,161.253418384,350.108516712,389.172980536
2263.16,-182.963619926,-395.751733062,-237.265192892,702.008829226,504.020676712,-176.098802699,-201.495801391,161.747118796,350.503846097,389.172980536
2264.18,-183.187781511,-399.496974875,-241.337936858,700.565971221,502.227697355,-176.098802699,-201.828784109,161.377896263,350.503835366,389.172980536
2265.2,-183.388363507,-399.875805912,-241.9678699,700.304896015,501.925203345,-176.098802699,-201.966756429,161.116345725,350.503835366,389.172980536
2266.22,-183.075900536,-399.585624066,-241.633494394,700.568455889,501.968170695,-176.098802699,-201.986297444,161.227110365,350.591921306,389.172980536
2267.24,-182.851930899,-399.527218839,-241.453679185,700.74278489,502.015152303,-176.098802699,-201.989856835,161.347231988,350.59551546,389.172980536
2268.26,-182.340108548,-399.101544438,-240.104829341,701.396717635,502.069873523,-176.098802699,-201.989856835,162.790851484,351.020777797,389.172980536
2269.28,-181.313129791,-398.437816434,-237.865294081,703.650660033,503.056939102,-176.098802699,-201.989856835,165.169261655,352.514058034,389.172980536
2270.3,-181.043670657,-398.226174478,-237.30052192,704.00281194,503.11165764,-176.098802699,-201.989856835,165.537053479,352.539980605,389.172980536
2271.32,-180.964525752,-399.495006399,-238.392487667,703.639313068,502.552702103,-176.098802699,-202.002357956,165.896673874,352.594914618,389.172980536
2272.34,-180.934802816,-399.532833137,-238.37193825,703.665460151,502.476301061,-176.101113756,-202.088830588,165.865308663,352.67310235,389.172980536
2273.36,-180.965707878,-399.705334924,-238.786664553,703.564131984,502.229326036,-176.054491672,-202.125963839,165.768206961,352.67407031,389.172980536
2274.38,-181.024334127,-400.089830232,-239.390566106,703.371410955,501.959273238,-176.054491689,-202.312451448,165.383863335,352.674070308,389.172980536
2275.4,-179.84595095,-399.188582375,-236.765741489,705.428209437,502.478840824,-176.054491689,-202.303448332,167.105381745,353.845364478,389.172980536
2276.42,-179.915802733,-399.463272772,-237.114707766,705.344690688,502.299766409,-176.054491689,-202.303448332,167.03784758,353.844508313,389.172980536
2277.44,-179.640666295,-399.161829638,-236.566636523,705.819199571,502.270269382,-176.033114023,-202.316618231,167.422954963,353.862293404,389.172980536
2278.46,-177.925566549,-397.628847761,-233.864754297,707.730673128,502.691243328,-176.033114238,-202.30457798,168.586398423,354.610969694,389.172980536
2279.48,-177.807941322,-398.529336202,-234.603758366,707.613082638,502.378447951,-176.033114238,-202.304577979,168.684018343,354.629883989,389.172980536
2280.5,-177.753326671,-398.549103775,-234.462937209,707.646736645,502.345270372,-176.033114238,-202.303433727,168.798124221,354.644030246,389.172980536
2281.52,-176.930827581,-398.073472145,-232.933997841,709.002488291,502.991654533,-176.033114238,-202.303433516,170.625118359,355.505658507,389.172980536
2282.54,-176.292852778,-397.600682054,-231.473503306,709.781699371,503.165548086,-176.033114238,-202.303433516,170.910153188,355.510568543,389.172980536
2283.56,-176.305975457,-399.448341249,-233.55310865,709.137804589,502.29736043,-176.033114238,-202.307950912,170.957288073,355.510568543,389.172980536
2284.58,-176.125166822,-399.320286377,-233.420518941,709.2270583,502.38414564,-176.033114238,-202.328543491,171.038165414,355.562587699,389.172980536
2285.6,-176.2873629,-399.820886882,-234.540023703,708.754025161,502.03043473,-176.026965729,-202.565245852,170.338016949,355.562581778,389.172980536
2286.62,-176.536146611,-401.19762842,-236.365243988,707.907186636,500.952661194,-176.026965765,-203.088690859,169.583162931,355.562581778,389.172980536
2287.64,-176.624316254,-401.755430359,-237.019670796,707.541313735,500.185507147,-176.026965765,-203.806636362,169.385316454,355.594478051,389.172980536
2288.66,-177.053133412,-402.9455698,-239.115923797,706.835916295,499.295606919,-176.026965765,-203.829945306,169.087006862,355.59454546,389.172980536
2289.68,-176.957471538,-402.943919965,-239.273582184,706.86064994,499.277173141,-176.026965765,-203.832806572,169.102119326,355.59454546,389.172980536
2290.7,-177.058764478,-403.057919496,-239.575910721,706.675572399,499.092434613,-176.026965765,-203.880370385,168.918985956,355.611729264,389.172980536
2291.72,-176.688013088,-402.947631269,-239.149569985,707.125385576,499.126092259,-176.026965765,-203.897001135,169.107357569,355.889825307,389.123178932
2292.74,-176.561457524,-402.799568347,-238.70748118,707.290276261,499.208008387,-176.026965765,-203.896927706,169.36518593,355.92258121,389.123230017
2293.76,-174.918439147,-402.064032992,-235.651386514,710.733826352,500.242086141,-176.026965765,-203.896927706,172.9559573,359.178849692,389.123230017
2294.78,-174.287686639,-401.187136995,-231.854077424,714.416959688,501.7047759,-176.026965765,-203.896927706,175.442276927,361.472022715,389.123230017
2295.8,-174.271182865,-402.043634509,-232.934910551,713.994183609,501.275016985,-176.026965765,-203.928841598,175.319327362,361.472022729,389.123230017
2296.82,-174.390130097,-402.145032595,-233.1511776,713.871419969,501.035049286,-176.026965765,-203.988529398,175.172612623,361.480256078,389.123230017
2297.84,-174.300494557,-402.538210328,-233.347728602,713.985144405,500.515128995,-176.026965765,-204.245993552,174.867200795,361.480255981,389.123230017
2298.86,-174.581472998,-403.613669538,-234.863696076,713.438458652,499.972852434,-176.026965765,-204.397413003,174.436461413,361.480255981,389.123230017
2299.88,-174.698981425,-404.952982765,-236.71803817,712.384946477,498.834695386,-176.026965765,-205.859253068,173.641575169,361.480255981,389.123230017
2300.9,-174.734156923,-406.328561734,-238.83620391,711.680265407,498.086418121,-176.026965765,-206.097373549,172.867254989,361.48503016,389.123230017
2301.92,-174.792398713,-409.252615224,-241.63594648,710.789383088,496.827197899,-176.026965765,-206.283958904,172.784109452,361.485030103,389.123230017
2302.94,-175.027003368,-409.714418571,-242.504389844,710.36653934,496.23700728,-176.026965765,-206.523628044,172.538818511,361.485030103,389.123230017
2303.96,-175.672935885,-410.338489978,-243.138778999,709.768086929,495.484917588,-176.026965765,-206.916611559,172.230409788,361.496404204,389.070842072
2304.98,-175.640153994,-410.310321826,-243.048166424,709.829938699,495.472904467,-176.026965765,-206.919236186,172.3065361,361.503655253,389.061992871
2306.0,-174.877193911,-409.902084658,-241.579002701,710.664447021,495.797709521,-176.026965765,-206.916695004,173.770709447,362.069100145,389.061992871
2307.02,-174.664581229,-409.814018576,-240.472709393,711.591531024,496.130838951,-176.026965765,-206.924839946,174.538408208,362.403871194,389.061992871
2308.04,-174.599131839,-410.309060297,-241.045091531,711.398838288,495.867653828,-176.026965765,-206.927988741,174.4720318,362.403987669,389.061992871
2309.06,-174.201811099,-410.575467518,-240.904412925,711.52048481,495.97386231,-176.026965765,-206.993658778,175.143488226,362.594439379,389.038535926
2310.08,-174.129078227,-410.912577294,-241.705305255,711.360357939,495.692590021,-176.026965765,-207.110646607,174.595189975,362.633177812,389.038535926
2311.1,-174.394505882,-412.015857686,-243.315048583,710.759743063,494.890307057,-176.026965765,-207.295648111,174.128066859,362.633177812,389.038535926
2312.12,-174.4335002,-413.069326674,-244.966020265,709.986603972,493.825480285,-176.026965765,-208.19379666,173.322527602,362.633177812,389.038535926
2313.14,-174.273632727,-413.085136028,-244.900222608,710.113745607,493.696274973,-176.026965765,-208.31132388,173.458674549,362.771707952,389.038535926
2314.16,-174.555220058,-416.120251013,-248.322004653,708.884634284,491.871928852,-176.026965765,-208.515119912,173.114427703,362.771697141,389.038535926
2315.18,-174.58702974,-416.242200467,-248.460325462,708.859335177,491.708577393,-176.026965765,-208.561406954,172.96920275,362.771697141,389.038535926
2316.2,-174.120700226,-415.903448056,-247.724023372,709.390835857,491.765325746,-176.026965765,-208.561220782,173.295686046,362.955068775,389.038535926
2317.22,-174.012005291,-416.187764711,-247.989233732,709.357089781,491.579450082,-176.026965765,-208.56451495,173.294049035,362.955057648,389.038535926
2318.24,-173.615596667,-415.859710871,-246.95809543,709.903231713,491.596700567,-176.026965765,-208.564514949,174.209402476,363.265629446,389.038535926
2319.26,-172.939847762,-415.494372379,-245.560322545,711.280371917,492.209500437,-176.026965765,-208.565442749,176.189624723,364.418003625,389.038535926
2320.28,-172.053777998,-414.858818737,-244.061761478,712.172600603,492.45589844,-176.026965765,-208.56544303,176.452992787,364.423066843,389.038535926
2321.3,-171.957851339,-416.168702558,-245.452208109,711.645935945,491.88667574,-176.026965765,-208.565889078,176.583201623,364.423066843,389.038535926
2322.32,-171.928724163,-416.310672379,-245.939850875,711.41492186,491.702477681,-176.026965765,-208.702170604,176.146219453,364.446196302,389.038535926
2323.34,-172.132860207,-416.915002548,-246.867228643,710.908039104,491.157805218,-176.021406658,-208.857811406,175.623833632,364.44619621,389.038535926
2324.36,-172.220000937,-417.223139803,-247.344941394,710.664828288,490.775770094,-176.021406659,-209.03754772,175.311585133,364.44619621,389.038535926
2325.38,-172.071161131,-417.22427527,-247.094520941,710.853583737,490.60869407,-176.021406659,-209.221341591,175.502408913,364.60902267,389.038535926
2326.4,-172.579346723,-418.255255057,-248.620677884,710.263777595,489.863936028,-176.021406659,-209.221341592,175.335559228,364.609016632,389.038535926
2327.42,-172.432489255,-418.109693618,-248.18041813,710.481574441,489.813951137,-176.021406659,-209.229178479,175.43333312,364.609558152,389.038535926
2328.44,-171.866885004,-417.579685901,-247.38762408,710.909542329,489.991615972,-176.021406659,-209.230056311,175.885484908,364.690605458,389.038535926
2329.46,-171.674632288,-417.54876675,-247.049165265,711.166567991,490.013349225,-176.021406659,-209.230056309,176.119736435,364.747290975,389.034567902
2330.48,-171.43032307,-417.312596672,-246.388774918,711.467802291,490.072998454,-176.021406659,-209.230056309,176.521155807,364.815361881,389.034567902
2331.5,-169.976345944,-416.543936244,-242.064414394,716.416545823,491.750947618,-176.021406659,-209.230056309,180.659682675,369.867314201,389.034567902
2332.52,-168.79105044,-415.430617916,-237.991218047,719.395813882,492.734991012,-176.021406659,-209.230056309,182.277764894,370.739057657,389.034567902
2333.54,-168.76329757,-417.008180085,-239.605962649,718.718882982,492.05730709,-176.021406659,-209.25550478,182.256473725,370.739427203,389.034567902
2334.56,-168.987062664,-417.232951566,-240.052252824,718.489422378,491.669522059,-176.021406659,-209.331891146,181.97162466,370.768008249,389.034567902
2335.58,-169.070803411,-417.621040501,-240.570741719,718.241901297,491.349756536,-176.021406659,-209.466912001,181.712382462,370.768008246,389.034567902
2336.6,-169.457001948,-419.015610426,-242.129687425,717.446720091,490.522511394,-176.021406659,-209.746203495,181.242779599,370.768008246,389.034567902
2337.62,-169.426095914,-419.526189722,-242.719301643,717.162747723,489.987421539,-176.021406659,-210.338761922,181.026525766,370.872207914,389.034567902
2338.64,-169.645449141,-420.167348639,-244.14893714,716.764849093,489.498536067,-176.021406659,-210.355673417,180.58357287,370.870577328,389.034567902
2339.66,-169.514103632,-420.107196006,-243.913215239,716.875867606,489.46956169,-176.021406659,-210.355674347,180.587199216,370.870577328,389.034567902
2340.68,-170.067117151,-420.623079101,-244.589718439,716.374880176,488.762880724,-176.021406659,-210.537168825,180.245392259,370.870577328,389.034567902
2341.7,-170.011245677,-420.625691686,-244.569723671,716.435052393,488.711793548,-176.021406659,-210.552040103,180.266948954,370.948205426,388.982928135
2342.72,-169.848988143,-420.469239547,-244.166914812,716.669409882,488.770781487,-176.021406659,-210.552269421,180.460281433,370.988808958,388.982911985
2343.74,-169.079860807,-420.006184023,-242.022972986,718.308888393,489.38355463,-176.021406659,-210.552269421,182.674994262,372.07975747,388.982911985
2344.76,-168.850193703,-419.74707771,-241.497276574,718.635654059,489.554918813,-176.021406659,-210.552269421,182.96814762,372.125252461,388.982911985
2345.78,-168.742706209,-420.327859463,-242.232187282,718.451763894,489.321292818,-176.021406659,-210.55490801,182.824834147,372.125252461,388.982911985
2346.8,-168.722701985,-420.323922617,-242.162364815,718.415445003,489.206883025,-176.021406659,-210.580623344,182.882044558,372.171013514,388.982911985
2347.82,-168.794560269,-420.970317736,-243.41990058,717.932254769,488.524057251,-176.021406659,-210.97016648,182.034473017,372.170989215,388.982911985
2348.84,-168.961437608,-421.466928389,-244.194478439,717.61489472,488.141285893,-176.021406659,-210.983249442,181.803516482,372.170989215,388.982911985
2349.86,-169.101133442,-422.229869793,-245.184067598,717.127995306,487.488322146,-176.021406659,-211.547725747,181.191559798,372.170989215,388.982911985
2350.88,-169.079869741,-423.092172701,-246.624717878,716.697592053,486.883765952,-176.021406659,-211.627125343,181.036753216,372.249354842,388.982911985
2351.9,-169.009363491,-424.990005653,-248.399225637,716.307255241,485.9303305,-176.021406659,-211.826897919,181.006451107,372.24935484,388.982911985
2352.92,-169.102157181,-425.168531394,-248.665424793,716.162018152,485.83211226,-176.021406659,-211.853376985,180.817258402,372.24511543,388.982911985
2353.94,-168.823321654,-425.04265942,-248.489500487,716.365802221,485.884163655,-176.021406659,-211.853496432,180.946496224,372.293159694,388.982911985
2354.96,-168.555342061,-424.784718328,-247.814592832,716.761533062,486.001723651,-176.021406659,-211.853496432,181.168334164,372.306012932,388.982911985
2355.98,-167.663161432,-424.060549686,-246.366935483,717.713992653,486.111897019,-176.021406659,-211.853496432,182.62697733,372.989894585,388.982911985
2357.0,-167.039530589,-423.542019637,-244.578192246,719.606905718,486.951702279,-176.021406659,-211.853496432,184.470779757,374.152913039,388.982911985
2358.02,-166.632367964,-423.700130122,-244.162076359,719.775379498,486.834354362,-176.021406659,-211.853496432,184.594901548,374.152914682,388.982911985
2359.04,-166.330035968,-423.595167193,-243.690417754,719.964723448,486.869500747,-176.021406659,-211.853496432,185.013639126,374.218701737,388.982911985
2360.06,-165.934274557,-423.580482836,-243.917547361,720.09131272,487.086330518,-176.01674907,-211.946400633,184.80917706,374.287002275,388.982911985
2361.08,-166.249237099,-424.598428564,-245.220017227,719.456682487,486.46170753,-176.035477438,-212.233139417,184.18426233,374.287002277,388.982911985
2362.1,-166.327107832,-424.854436009,-245.704676432,719.270477731,486.157385922,-176.035477438,-212.406887853,183.852702165,374.287002277,388.982911985
2363.12,-166.252476268,-424.88295219,-245.640232875,719.368456576,486.121973877,-176.035477438,-212.403891742,183.981801349,374.342692289,388.982911985
2364.14,-166.457171009,-425.421606767,-246.393846695,719.21722072,485.553776092,-176.035477438,-212.405253408,184.067357476,374.342692227,388.982911985
2365.16,-166.494880688,-425.595235391,-246.658367822,719.08155957,485.334586703,-176.034532081,-212.488254671,183.883385976,374.342692227,388.982911985
2366.18,-165.48480347,-424.684909304,-245.006668716,720.151137,485.752347528,-176.034532081,-212.477946176,184.674365321,374.690556017,388.982911985
2367.2,-165.383395821,-425.123364836,-245.356470674,720.044352702,485.550545724,-176.034532081,-212.477946176,184.724589275,374.689891234,388.982911985
2368.22,-165.031175023,-424.898137074,-244.426654327,720.480582259,485.556312192,-176.034532081,-212.475234709,185.535606096,374.947283307,388.982911985
2369.24,-163.443280717,-423.369890072,-239.384402666,726.092229064,487.735082043,-176.034532081,-212.475234704,189.914577899,379.706458755,388.982911985
2370.26,-162.839039404,-423.001288685,-237.684408605,726.932164042,487.8919457,-176.034532081,-212.475234704,190.430781805,379.798277367,388.982911985
2371.28,-162.736004953,-423.562484376,-238.122122739,726.783349282,487.625870832,-176.034532081,-212.474975117,190.589667717,379.810258464,388.982911985
2372.3,-162.96853169,-424.04293656,-239.150747526,726.312457623,487.103990846,-176.034532081,-212.685179421,189.979092436,379.819309839,388.982911985
2373.32,-163.179380794,-424.929509739,-240.479303163,725.647067236,486.264927648,-176.026655508,-212.871073498,189.510849674,379.819309839,388.982911985
2374.34,-163.256193884,-425.710970086,-241.659301031,725.182739205,485.702344234,-176.026655509,-213.200750129,189.038998481,379.819309839,388.982911985
2375.36,-163.315659669,-426.117912825,-242.158242742,724.939308384,485.172014083,-176.026655509,-213.761780517,188.85555281,379.874659225,388.982911985
2376.38,-163.728766426,-427.714451947,-244.777849678,723.988526483,484.13736942,-176.026655509,-213.791694275,188.509298453,379.874179282,388.982911985
2377.4,-163.610066176,-427.703487634,-244.367863571,724.21569384,484.08303837,-176.026655509,-213.793607281,188.529182214,379.874179282,388.982911985
2378.42,-163.698664054,-427.858906687,-244.631533603,724.068686239,483.803881344,-176.026655509,-213.837542035,188.360057602,379.890740877,388.982911985
2379.44,-163.560446793,-427.80486661,-244.377262877,724.30841673,483.887461074,-176.026655509,-213.853512011,188.471894606,380.010039126,388.96058566
2380.46,-163.26902829,-427.537061875,-243.789908646,724.613379957,483.943492632,-176.026655509,-213.853511334,188.855236337,380.111029705,388.960586695
2381.48,-161.907424615,-426.652765999,-239.190049542,729.357168891,485.706924765,-176.026655509,-213.853511334,192.722477877,384.198406749,388.960586695
2382.5,-161.714754202,-426.462297135,-238.486324016,729.722857634,485.860750363,-176.026655509,-213.853511334,193.017640891,384.260766204,388.960586695
2383.52,-161.836693225,-428.39088517,-240.661693094,728.885121724,484.86014372,-176.026655509,-213.99136175,192.899038609,384.260766204,388.933851555
2384.54,-162.233741313,-429.28158089,-242.279736621,728.057734226,483.884600793,-176.026655509,-214.522004146,191.945500798,384.273613734,388.93385162
2385.56,-162.235146332,-429.714833611,-242.53184765,727.911741014,483.692061276,-176.026655509,-214.70475865,191.82408126,384.273613732,388.93385162
2386.58,-162.428628353,-430.54610109,-243.780947027,727.455169093,483.116700101,-176.026655509,-214.822947957,191.44668784,384.273613732,388.93385162
2387.6,-162.496558263,-431.115597797,-244.530907966,727.058308124,482.573937333,-176.026655509,-215.377305122,191.059705526,384.296558608,388.93385162
2388.62,-162.690736066,-432.992465063,-247.358740863,726.084489517,481.549010981,-176.026655509,-215.491712497,190.631046427,384.30658951,388.93385162
2389.64,-162.621715054,-433.378570257,-247.595021107,726.133999789,481.367857874,-176.026655509,-215.505635731,190.600903751,384.30658951,388.93385162
2390.66,-162.691140322,-433.517403351,-247.863220379,726.01062504,481.239082364,-176.026655509,-215.522248888,190.441812888,384.30658951,388.93385162
2391.68,-162.543388439,-433.595743784,-247.959904272,726.063761108,481.204101523,-176.026655509,-215.524073172,190.432308334,384.341346394,388.929120275
2392.7,-162.416473406,-433.421221561,-247.561632576,726.260878603,481.273633664,-176.026655509,-215.52336734,190.601485868,384.343737696,388.929120553
2393.72,-161.379856717,-432.758385404,-245.643043848,727.795972185,481.837608199,-176.026655509,-215.523365144,192.50869497,385.600725807,388.929120553
2394.74,-161.221149516,-432.484487673,-244.532866501,728.70188957,482.180040063,-176.026655509,-215.524330599,193.545792537,385.97564611,388.929120553
2395.76,-161.059368634,-433.287621923,-245.281497327,728.477479991,481.735456304,-176.026655509,-215.524330598,193.577709025,385.975647798,388.929120553
2396.78,-160.70297025,-432.97077735,-244.42468277,728.835735656,481.898571156,-176.026655509,-215.52429936,194.089236411,386.057332244,388.929120553
2397.8,-160.884103929,-433.381674651,-245.401250515,728.394313244,481.542285921,-176.023370523,-215.767172222,193.317862592,386.057608037,388.929120553
2398.82,-161.040592528,-433.872621105,-246.213307537,728.00286389,481.063435747,-176.024174977,-215.868006644,192.953294218,386.057259397,388.929120553
2399.84,-160.994634916,-433.989138238,-246.337935308,727.970660638,480.901006044,-176.024174977,-215.979515889,192.925419912,386.116830236,388.929120553
2400.86,-161.114171564,-434.269967535,-246.857998048,727.783008587,480.603074616,-176.024174977,-215.97944053,192.868797241,386.144304696,388.929120553
2401.88,-161.030055452,-434.308503569,-246.807175498,727.978960643,480.540896653,-176.026820747,-215.980382702,192.987852719,386.144304695,388.929120553
2402.9,-160.814892749,-434.264952899,-246.75594614,728.095839953,480.639561,-176.026873342,-216.021168775,193.098729224,386.256467344,388.929120553
2403.92,-159.273081225,-432.530085846,-243.510428318,730.717991124,480.942566383,-176.026873342,-216.021162137,193.928805059,387.394459616,388.929120553
2404.94,-159.081369547,-432.435772521,-242.828886623,731.014043644,481.023760945,-176.026873342,-216.021162137,194.171527745,387.394459336,388.929120553
2405.96,-158.303506574,-431.936668993,-241.288240662,731.792109851,481.053331642,-176.026873342,-216.021162137,195.511833786,388.085552293,388.929120553
2406.98,-156.842994244,-430.918803297,-236.291585563,737.031613219,482.975452182,-176.026873342,-216.021162137,199.367760278,392.224311707,388.929120553
2408.0,-156.491100364,-430.960999533,-235.784972429,737.279391506,482.890273639,-176.026873342,-216.021162137,199.514949108,392.225610201,388.929120553
2409.02,-156.404340593,-431.397630507,-236.433301484,737.119868792,482.726695165,-176.026873342,-216.023190561,199.65116893,392.228897927,388.929120553
2410.04,-156.582513613,-431.643586391,-237.032976821,736.816130994,482.43310447,-176.023529095,-216.120315656,199.32724453,392.22908099,388.929120553
2411.06,-156.835109445,-432.71952374,-238.629102299,736.107516097,481.483650172,-175.999588917,-216.534905491,198.842816109,392.22908099,388.929120553
2412.08,-156.914155048,-433.17613411,-239.447636239,735.776838184,481.006259244,-175.999588917,-216.801408163,198.452718544,392.22908099,388.929120553
2413.1,-156.720625967,-433.048275196,-239.01986647,736.101856746,481.035389615,-175.999588917,-216.843357118,198.759199324,392.366373452,388.929120553
2414.12,-157.094412314,-433.889908832,-240.431893014,735.646653509,480.29994112,-175.999588917,-216.855786171,198.631062713,392.366370075,388.929120553
2415.14,-157.159638978,-434.100739637,-240.949779921,735.4928903,480.183434827,-175.999588917,-216.875756199,198.416602795,392.366370075,388.929120553
2416.16,-156.764791271,-433.671417456,-240.162354032,735.900561333,480.294380906,-175.999588917,-216.898275002,198.685310429,392.566972153,388.929120553
2417.18,-156.596272237,-433.733736855,-240.260055442,735.871284222,480.232732795,-175.999588917,-216.898275002,198.738539435,392.567342803,388.919888106
2418.2,-156.126902471,-433.434372469,-239.284254546,736.406886399,480.283999153,-175.999588917,-216.898275002,199.529261396,392.852507112,388.919888106
2419.22,-155.578674775,-433.167899643,-237.730588053,738.089492166,481.165128435,-175.999588917,-216.901348137,201.623336596,394.158600535,388.919888106
2420.24,-155.363659167,-433.103259376,-237.407383141,738.275603975,481.170469824,-175.999588917,-216.901354394,201.756225227,394.158598326,388.919888106
2421.26,-155.157462184,-434.008083004,-237.855921056,738.122688964,480.789660583,-175.999588917,-216.956945339,202.101472173,394.232622647,388.919888106
2422.28,-155.298103465,-434.731149458,-239.327600985,737.609453423,480.232324402,-175.999588917,-217.229771284,201.47289308,394.310730616,388.919888106
2423.3,-155.171486174,-434.560007415,-238.792203265,737.854956055,480.254423413,-175.999588917,-217.228451166,201.650404755,394.310730616,388.919888106
2424.32,-155.203666448,-435.055613433,-239.676406178,737.472706688,479.849414488,-175.999588917,-217.429426804,201.357401612,394.310730616,388.919888106
2425.34,-155.381894986,-435.740688836,-240.751800801,736.941768737,479.097404464,-175.999588917,-218.20118058,200.86814182,394.330363604,388.919888106
2426.36,-155.565271552,-438.126313589,-244.36349368,735.824832172,477.803396351,-175.999588917,-218.286376141,200.340368674,394.330341978,388.919888106
2427.38,-155.429413194,-438.057623757,-244.079212021,736.008114337,477.789537792,-175.999588917,-218.286458911,200.362431061,394.330341978,388.919888106
2428.4,-156.880167309,-439.729825702,-246.959616265,733.546897127,475.420523413,-175.999588917,-219.554197055,199.198520709,394.330341978,388.743444242
2429.42,-157.727305724,-441.221254031,-247.94690047,732.759081232,474.938383484,-175.999588917,-220.179295836,198.572123682,394.332192179,388.126612376
2430.44,-157.420369385,-440.986257839,-247.347581075,733.072345103,475.02471762,-175.999588917,-220.176040971,198.944276956,394.450789324,388.126627838
2431.46,-157.151006178,-440.968704558,-247.224770542,733.383860081,475.052228811,-175.999588917,-220.194180655,199.171088384,394.693235402,388.126627838
2432.48,-157.088772163,-440.960018699,-247.195280987,733.466722512,475.075791088,-175.999588917,-220.210557417,199.147539736,394.693235319,388.126627838
2433.5,-157.13165097,-442.287381158,-248.79334739,732.843364916,474.301445465,-175.999588917,-220.341176019,199.082847763,394.694634021,388.096839313
2434.52,-157.268401678,-442.69861722,-249.726436933,732.275278993,473.611797164,-175.999588917,-220.606325365,198.44100206,394.740160426,388.096841192
2435.54,-157.243440382,-443.141420566,-250.348057795,732.073261365,473.277613277,-175.999588917,-220.835839935,198.185424395,394.740160371,388.096841192
2436.56,-157.442579033,-443.911514447,-251.586565456,731.557423288,472.649861825,-175.999588917,-220.888763609,197.771421481,394.740160371,388.096841192
2437.58,-157.441614462,-444.434247083,-252.290377228,731.213322926,472.024065327,-175.999588917,-221.439742398,197.521667611,394.783702191,388.096841192
2438.6,-157.526358443,-445.633874318,-254.509977617,730.592488681,471.174580263,-175.999588917,-221.511625947,197.233746976,394.847795656,388.096841192
2439.62,-157.568405652,-446.044368328,-254.866106489,730.418209104,470.887240928,-175.999588917,-221.520347525,197.271950771,394.847795656,388.096841192
2440.64,-157.58122044,-446.132022607,-255.084375663,730.332545631,470.815026258,-175.999588917,-221.532489942,197.190880651,394.849566435,388.096841192
2441.66,-157.478645448,-446.230968923,-255.29096195,730.305620455,470.759371377,-175.999588917,-221.535694543,197.16540474,394.860513485,388.094893713
2442.68,-157.385020173,-446.136238654,-255.088459049,730.396177485,470.789230311,-175.999588917,-221.535694551,197.240300204,394.861360909,388.094893705
2443.7,-156.395480741,-445.544164174,-253.523649794,731.604237762,471.252889627,-175.999588917,-221.53324085,198.757777044,395.637611196,388.094893705
2444.72,-156.224774284,-445.325724394,-252.686408636,732.209976573,471.546548946,-175.999588917,-221.533066087,199.408475494,395.862904899,388.094893705
2445.74,-156.121321247,-445.845293661,-253.347280652,732.054629994,471.245594951,-175.999588917,-221.534055547,199.444143983,395.862904899,388.094893705
2446.76,-155.998267273,-445.777312892,-253.035562068,732.16589071,471.288156107,-175.999588917,-221.534246365,199.682558475,395.889725452,388.094893705
2447.78,-156.22484675,-445.932838349,-253.560492828,731.941798376,470.87604736,-175.945371386,-221.623007963,199.502797154,395.889707113,388.094893705
2448.8,-156.191860358,-446.161577745,-253.948009874,731.829440752,470.665922092,-175.930355243,-221.666121171,199.346715833,395.889707113,388.094893705
2449.82,-156.165436263,-446.25912377,-254.113858922,731.760792549,470.470079535,-175.930355243,-221.757026794,199.227201242,395.936098021,388.094893705
2450.84,-156.105095544,-446.36444701,-254.186296587,731.796027542,470.356649623,-175.930355243,-221.755962511,199.357182829,396.03155711,388.094893705
2451.86,-155.829336542,-446.10612514,-253.288084184,732.782620068,470.140792951,-175.881901654,-221.755962511,199.919483433,396.065570172,388.094893705
2452.88,-155.630326758,-446.018651354,-253.089598937,732.93971941,470.252969965,-175.881226506,-221.755496181,200.116640946,396.169016122,388.094893705
2453.9,-154.269624322,-444.589297405,-250.581931246,734.673315388,470.564388602,-175.881226506,-221.755256501,200.985678004,396.813865511,388.094893705
2454.92,-154.108018471,-444.511914838,-250.269145308,734.833475977,470.597815427,-175.881226506,-221.755256501,201.109799883,396.813865084,388.094893705
2455.94,-153.585534039,-444.036906531,-248.709784654,735.771884555,470.670009811,-175.881226506,-221.755256501,202.665030933,397.387432986,388.094893705
2456.96,-153.230221081,-443.87506945,-247.857556863,736.73786294,471.178690375,-175.881226506,-221.761036765,203.582633729,397.944360143,388.094893705
2457.98,-152.578869903,-443.586632189,-246.571521868,737.341352713,471.264458859,-175.881226506,-221.761035337,203.738861314,397.944360236,388.094893705
2459.0,-152.399871075,-443.596650904,-246.368337968,737.450174616,471.259043149,-175.881226506,-221.761035337,204.0259125,397.968289914,388.094893705
2460.02,-152.642938423,-443.928987679,-247.167270484,737.048188643,470.90121361,-175.877474751,-221.952396275,203.571193282,397.969462343,388.094893705
2461.04,-152.933412686,-445.022115255,-248.792239711,736.306924454,470.024898474,-175.877423858,-222.246530645,203.042425898,397.969462343,388.094893705
2462.06,-153.012476418,-445.452039055,-249.582603668,735.937274889,469.479930194,-175.877423858,-222.539259047,202.606400845,397.969462343,388.094893705
2463.08,-153.01677979,-445.548887067,-249.588972467,735.944463218,469.342180663,-175.877423858,-222.650187308,202.644353069,398.033682375,388.094893705
2464.1,-153.006964274,-445.449741993,-249.75000355,736.083128153,469.262722759,-175.877423858,-222.650187198,202.68055319,398.033682377,388.094893705
2465.12,-153.084626457,-445.635505736,-250.412318277,735.831564615,468.919102566,-175.877423858,-222.724858479,202.477680597,398.033682377,388.094893705
2466.14,-152.956980496,-445.506775389,-250.275208118,735.904385376,468.682088194,-175.877423858,-222.969394117,202.543171633,398.25836707,388.094893705
2467.16,-152.799216644,-445.545475595,-250.183674609,735.982572867,468.716593861,-175.877423858,-222.974078477,202.592918909,398.279550958,388.056876882
2468.18,-152.629228437,-445.386219441,-249.725816589,736.181577006,468.769259368,-175.877423858,-222.966484179,202.93978863,398.366900461,388.056876883
2469.2,-152.11765101,-445.255151031,-248.47139415,737.398603622,469.244339622,-175.877423858,-222.972256687,204.610641972,399.285233998,388.056876883
2470.22,-151.724727568,-445.071503883,-247.789610926,737.864839903,469.364591697,-175.877423858,-222.972255516,204.771623727,399.285234309,388.056876883
2471.24,-151.645488717,-445.605301528,-248.246992011,737.66835399,468.947393659,-175.877423858,-222.995812871,204.904885133,399.295536075,388.056876883
2472.26,-152.05248327,-446.647327596,-250.285326359,736.774017868,468.006310571,-175.877423858,-223.452799857,204.031232481,399.311649389,388.056876883
2473.28,-151.967711627,-446.784707519,-250.139499969,736.909229764,467.798298129,-175.877423858,-223.458061168,203.994544423,399.311649389,388.056876883
2474.3,-152.062400197,-447.459077181,-251.208681861,736.435827652,467.261263221,-175.877423858,-223.704235156,203.61712019,399.311649389,388.056876883
2475.32,-152.16618905,-448.143015905,-252.202561922,735.882104064,466.570849154,-175.877423858,-224.419914122,202.966195219,399.324677663,388.056876883
2476.34,-152.401189378,-451.506911141,-256.589272239,734.303486582,464.850914835,-175.877423858,-224.663437017,202.204726675,399.324655978,388.056876883
2477.36,-152.145337359,-451.423178031,-256.165055337,734.800648026,464.797671331,-175.877423858,-224.663677785,202.282584613,399.324655978,388.056876883
2478.38,-152.55004603,-451.913927054,-256.809420672,734.377190833,464.226006004,-175.877423858,-224.741363077,201.913159898,399.324655978,388.056876883
2479.4,-152.465838449,-451.834573877,-256.722987233,734.420335603,464.258846353,-175.877423858,-224.731544279,201.969952577,399.335651274,388.035869422
2480.42,-152.258671493,-451.626485386,-256.152764154,734.710228516,464.3244666,-175.877423858,-224.731544267,202.336083667,399.431278054,388.035869473
2481.44,-151.343891062,-451.122812753,-253.945858635,736.471156446,464.947146187,-175.877423858,-224.73795707,204.189583787,400.644877026,388.035869473
2482.46,-151.309818059,-451.163646233,-254.04390943,736.432065729,464.944052523,-175.877423858,-224.740565043,204.120860341,400.644647168,388.035869473
2483.48,-151.22967993,-452.120594197,-255.01888757,736.187696304,464.408422787,-175.877423858,-224.786610523,204.247743216,400.655591041,388.035869473
2484.5,-151.261848753,-452.141858471,-255.129519017,736.109584832,464.187521798,-175.877423858,-224.835843565,204.16189256,400.689725134,388.035869473
2485.52,-151.170939149,-452.371081217,-255.247586664,736.271005748,463.85435053,-175.810230051,-225.076749059,204.175432692,400.701715805,388.035869473
2486.54,-151.353239431,-453.009978715,-256.444918401,735.741706254,463.342047199,-175.810231689,-225.117055776,203.727975905,400.701715801,388.035869473
2487.56,-151.144994964,-453.093950919,-256.460220428,735.841734916,463.031788114,-175.810231689,-225.331293289,203.829193927,400.928385013,388.035869473
2488.58,-151.4897045,-454.92874759,-258.961892558,734.725734605,461.7992961,-175.810231689,-225.400054643,203.495967126,400.950786162,388.035869473
2489.6,-151.506464748,-455.32855182,-259.016548406,734.868762918,461.531961042,-175.810231689,-225.41858942,203.549015613,400.950786162,388.035869473
2490.62,-151.519953729,-455.42415123,-259.242249694,734.765234375,461.424633671,-175.810231689,-225.441179127,203.403652995,400.952993278,388.035869473
2491.64,-151.131755342,-455.449443776,-259.165013323,735.003097016,461.399401965,-175.810231689,-225.441178701,203.616697864,401.066790511,388.035869473
2492.66,-150.999773774,-455.31343486,-258.52035566,735.304482464,461.51139352,-175.810231689,-225.441178701,203.843437539,401.072509464,388.035869473
2493.68,-150.013144039,-454.47983015,-255.985806091,737.130434773,461.969002702,-175.810231689,-225.441178701,206.441825324,402.450407967,388.035869473
2494.7,-149.598320323,-454.105586265,-254.403722879,738.208621479,462.350997594,-175.810231689,-225.44195518,207.52035463,402.909355246,388.035869473
2495.72,-149.194626475,-454.291217634,-254.217420693,738.55182206,462.132087892,-175.810231689,-225.441955147,207.567926551,402.909516295,388.035869473
2496.74,-148.895242336,-454.004115963,-253.5821439,738.860078884,462.395774152,-175.810231689,-225.441955147,207.88990642,402.931125269,388.035869473
2497.76,-148.857298917,-454.038070746,-253.750609771,738.832860622,462.341573787,-175.787492159,-225.500701734,207.734781535,402.933284422,388.035869473
2498.78,-149.120707537,-454.920013211,-255.099278439,738.078193754,461.512195964,-175.788372969,-225.808940828,207.268194135,402.933272424,388.035869473
2499.8,-149.090762244,-455.072584545,-255.351433747,737.971709923,461.310646309,-175.788372969,-225.925905951,207.111047452,402.972352713,388.035869473
2500.82,-148.96061432,-455.055256669,-255.237161826,738.099613706,461.304909044,-175.788372969,-225.927340626,207.231412501,403.086711416,388.035869473
2501.84,-148.846521443,-454.995806586,-254.971805238,738.249306122,461.192641188,-175.788372969,-225.927340627,207.260773775,403.086711416,388.035869473
2502.86,-149.041486893,-455.421885559,-255.981484399,737.81685838,460.718085875,-175.788372969,-226.121519831,206.791325585,403.086711416,388.035869473
2503.88,-148.635472723,-455.080649023,-255.224150078,738.2988636,460.850714264,-175.788372969,-226.121656943,207.15057911,403.276233499,388.02164226
2504.9,-148.350971973,-454.732601304,-254.404668359,738.677321511,461.016297962,-175.788372969,-226.121656943,207.468458901,403.277746102,388.021599794
2505.92,-147.452712652,-454.136914082,-252.444896002,739.771622256,461.065789763,-175.788372969,-226.121771926,209.415624217,404.466647996,388.021599794
2506.94,-146.545861922,-453.558313985,-248.723373734,743.627531893,462.753642977,-175.788372969,-226.121771926,212.534586153,407.24093481,388.021599794
2507.96,-145.971114032,-453.627540891,-248.257062585,744.080629792,462.797230238,-175.788372969,-226.121771926,212.623281291,407.240939091,388.021599794
2508.98,-145.818384797,-453.573063649,-247.916759438,744.24459401,462.871889722,-175.788372969,-226.114115934,212.87825074,407.271435586,388.021599794
2510.0,-146.115657618,-454.144001167,-249.223210243,743.733941016,462.133373148,-175.775955659,-226.385077924,212.328365519,407.270563218,388.021599794
2511.02,-146.50541864,-455.480997297,-251.353509545,742.799728772,461.102125986,-175.776041555,-226.616374012,211.687456898,407.270563218,388.021599794
2512.04,-146.485890449,-456.130154365,-252.555417532,742.179950744,460.313393672,-175.776041555,-227.137879305,211.272805119,407.270563218,388.021599794
2513.06,-146.517219417,-456.532801412,-253.002945403,741.89822372,459.84551786,-175.776041555,-227.609348854,210.966446021,407.310164871,388.021599794
2514.08,-146.734490685,-458.949758835,-256.454295375,740.717023289,458.404536186,-175.776041555,-227.722672597,210.452163399,407.310164149,388.021599794
2515.1,-146.68112169,-459.061634679,-256.589462677,740.771446567,458.238627047,-175.776041555,-227.731359487,210.307176784,407.310164149,388.021599794
2516.12,-146.768528263,-459.128748383,-256.548334862,740.736330702,458.039828484,-175.776041555,-227.738400321,210.308526173,407.335431639,388.01294684
2517.14,-146.578453701,-459.034410039,-256.29355882,740.957382967,458.133124324,-175.776041555,-227.741886729,210.385745716,407.356942862,387.993940484
2518.16,-146.27409111,-458.796328285,-255.590953666,741.308008728,458.183719194,-175.776041555,-227.741088118,210.938962247,407.542054503,387.993940484
2519.18,-145.471481425,-458.385248587,-253.796750944,742.822800773,458.869321325,-175.776041555,-227.749300489,212.637661129,408.5057281,387.993940484
2520.2,-145.258306466,-458.16789394,-253.25472667,743.085192613,458.986415676,-175.776041555,-227.749234494,212.791081832,408.510149397,387.993940484
2521.22,-145.205825872,-458.661615951,-253.838223035,742.869777614,458.677533532,-175.776041555,-227.749234494,212.865094234,408.515502701,387.993940484
2522.24,-145.039785512,-458.779972277,-254.120763629,742.819024828,458.497955297,-175.776041555,-227.891019218,212.743163301,408.671746612,387.993940484
2523.26,-145.181831183,-459.257174537,-254.914133886,742.503746828,458.1436482,-175.763326081,-228.00461385,212.515390269,408.671746515,387.993940484
2524.28,-145.261029362,-459.849127075,-255.677405971,742.166050742,457.705858313,-175.763326124,-228.187943773,212.181833871,408.671746515,387.993940484
2525.3,-145.068852242,-459.788035904,-255.461839285,742.296829893,457.637420039,-175.763326124,-228.279122033,212.328577927,408.782526687,387.993940484
2526.32,-145.70656563,-461.398066951,-257.866812188,741.244024533,456.273182158,-175.763326124,-228.320218923,211.948428709,408.779049798,387.993940484
2527.34,-145.664190807,-461.455110019,-257.845674681,741.342505542,456.181019155,-175.763326124,-228.35248123,211.886109781,408.779049798,387.993940484
2528.36,-144.586866828,-460.543935811,-256.211252835,742.567295323,456.570050618,-175.763326124,-228.345047258,212.724497545,409.161478004,387.993940484
2529.38,-144.468441742,-460.294986825,-255.474381747,742.993455501,456.703958996,-175.763326124,-228.345047256,212.89201912,409.283769583,387.993940484
2530.4,-144.360302031,-460.157993148,-255.058119302,743.19722418,456.746839912,-175.763326124,-228.345047256,213.129709841,409.300541735,387.993940484
2531.42,-143.228380737,-459.371106924,-251.895443669,746.252956317,458.062606995,-175.763326124,-228.345047256,216.330229683,412.206220128,387.993940484
2532.44,-142.208176672,-458.36030283,-248.018087715,749.112026392,459.147278045,-175.763326124,-228.345047256,218.273675185,413.265897723,387.993940484
2533.46,-142.087441633,-458.640299771,-248.262326315,749.085082483,458.951594558,-175.763326124,-228.345047256,218.286332793,413.265897724,387.993940484
2534.48,-142.029793205,-458.569828532,-248.136976736,749.126461871,458.935088409,-175.763326124,-228.358748256,218.372889207,413.289839351,387.993940484
2535.5,-142.196864088,-458.788529598,-248.547366114,748.888972434,458.657164724,-175.751844308,-228.433217971,218.160916709,413.289838409,387.993940484
2536.52,-142.34924766,-459.748304643,-249.937532095,748.244963383,457.968312711,-175.751844862,-228.664766455,217.649329625,413.289838409,387.993940484
2537.54,-142.343072816,-460.082528881,-250.532539321,748.05897383,457.571495594,-175.751844862,-228.915400153,217.305737024,413.32645803,387.993940484
2538.56,-142.518264755,-460.456283316,-251.404066618,747.76105927,457.267575611,-175.751844862,-228.917495059,217.064605375,413.325503977,387.993940484
2539.58,-142.254699501,-460.156271085,-250.771738093,748.242242581,457.312983642,-175.751844862,-228.91749506,217.185049545,413.325503977,387.993940484
2540.6,-142.766944751,-460.765268494,-251.936885693,747.484894166,456.453896773,-175.751844862,-229.161179283,216.673158064,413.325503977,387.993940484
2541.62,-142.74408123,-460.534363231,-250.974670172,748.086198404,456.45084729,-175.751844862,-229.182978991,217.149656712,413.583502931,388.02965568
2542.64,-142.615499879,-460.382086845,-250.736058193,748.208000363,456.528409833,-175.751844862,-229.182148551,217.284230347,413.586990167,388.029630455
2543.66,-142.306099861,-460.214939336,-250.159548033,748.550772456,456.627372283,-175.751844862,-229.195978295,217.788497656,413.786102728,388.029630455
2544.68,-142.190236005,-460.441926845,-250.445121857,748.512114739,456.439904989,-175.751844862,-229.388696012,217.287453087,413.783961655,388.029630455
2545.7,-142.193437112,-461.326581717,-251.520779558,748.073615043,455.8489044,-175.751844862,-229.421941351,217.190190853,413.783961655,388.029547686
2546.72,-142.139239901,-461.215975288,-251.041784578,748.271163642,455.884214914,-175.751844862,-229.430803186,217.504565679,413.851428644,388.02961894
2547.74,-142.305864839,-461.98492261,-252.546101105,747.621348395,455.019159351,-175.751844862,-229.791730229,216.67944173,413.85140982,388.02961894
2548.76,-142.351862648,-462.327683146,-252.889352675,747.504331778,454.774635631,-175.751844862,-229.819028138,216.636855671,413.85141539,388.02961894
2549.78,-142.472918489,-463.247905494,-254.380424598,746.772354019,453.883696284,-175.751844862,-230.480159722,215.8910217,413.848638779,388.02961894
2550.8,-142.485879525,-463.844419926,-255.508586491,746.404221562,453.405822741,-175.751844862,-230.530814228,215.624193423,413.895161185,388.02961894
2551.82,-142.606952866,-466.29703273,-257.932272722,745.354565152,451.869377365,-175.751844862,-230.597896317,215.524009636,413.895161183,388.02961894
2552.84,-142.743753248,-466.534541476,-258.546457457,745.048821389,451.580072703,-175.751844862,-230.656913359,215.309813192,413.895161183,388.02961894
2553.86,-142.640654864,-466.578545762,-258.577711609,745.036075014,451.548382933,-175.751844862,-230.66456315,215.319603506,413.932748074,387.992628942
2554.88,-142.52583328,-466.470200099,-258.309051088,745.219567037,451.612755503,-175.751844862,-230.664591104,215.425893938,413.943856923,387.992324962
2555.9,-142.096934306,-466.15315089,-257.521262688,745.606095857,451.710810094,-175.751844862,-230.664591104,216.104322284,414.131178155,387.992324962
2556.92,-141.917661016,-466.150382518,-257.276262811,745.938016536,451.963887667,-175.751844862,-230.680794564,216.298696846,414.337827599,387.992324962
2557.94,-141.603717621,-466.252634146,-257.132143961,746.135191175,451.79963341,-175.751844862,-230.680794162,216.405765822,414.3378276,387.992324962
2558.96,-141.411278293,-466.497995471,-257.223950997,746.098597789,451.591381974,-175.751844862,-230.680794162,216.697576912,414.385388983,387.992324962
2559.98,-141.601023708,-466.798587545,-257.94472773,745.687703172,451.197923499,-175.742149273,-230.856120004,216.219695483,414.397155346,387.992324962
2561.0,-141.725451619,-467.445826395,-258.81744687,745.298314053,450.560814237,-175.725023553,-231.019119622,216.012816598,414.402850691,387.992324962
2562.02,-141.759386185,-467.689383251,-259.300683803,745.107856108,450.321682428,-175.725023553,-231.124669654,215.727592294,414.402850691,387.992324962
2563.04,-141.557781199,-467.599981097,-259.016781511,745.321039407,450.293879986,-175.725023553,-231.117543391,216.020988393,414.613814452,387.992324962
2564.06,-142.033360082,-468.749499551,-260.475620673,744.650197197,449.243859151,-175.725023553,-231.1174921,215.967697496,414.61381388,387.992324962
2565.08,-142.189708416,-469.067504916,-261.049289695,744.395889559,449.045586972,-175.725023553,-231.179589973,215.674763341,414.61381388,387.992324962
2566.1,-141.335154567,-468.157213735,-259.320534844,745.3668553,449.427178752,-175.725023553,-231.17588738,216.298016536,414.787410475,387.992324962
2567.12,-140.837003109,-467.636131675,-258.08070558,745.984329502,449.673020438,-175.725023553,-231.17588738,216.578028774,414.788020933,387.992324962
2568.14,-140.61954739,-467.423087796,-257.283418579,746.372983347,449.751832378,-175.725023553,-231.17588738,216.929130133,414.84161232,387.992324962
2569.16,-140.074952833,-467.194000312,-256.214602005,747.285955137,450.040549585,-175.725023553,-231.189617123,218.050325492,415.483261676,387.992324962
2570.18,-139.440031365,-466.63110585,-254.568275674,748.183491627,450.290887423,-175.725023553,-231.193035716,218.24287014,415.48323439,387.992324962
2571.2,-139.426228177,-467.558471142,-256.127682029,747.513831546,449.606191926,-175.725023553,-231.193035716,218.259621771,415.48323439,387.992324962
2572.22,-139.484444705,-467.681251971,-256.329084184,747.364713321,449.380474543,-175.725023553,-231.238746042,218.130983308,415.494910553,387.992324962
2573.24,-139.591760039,-468.158134864,-257.19306696,746.980887022,448.940015798,-175.731657076,-231.381772235,217.696854229,415.49491043,387.992324962
2574.26,-139.670970414,-468.686111666,-257.950317471,746.6319563,448.523707346,-175.731657081,-231.554306836,217.355568826,415.49491043,387.992324962
2575.28,-139.600438001,-468.759244394,-258.033122816,746.584175498,448.317798155,-175.731657081,-231.738561292,217.241792614,415.543618193,387.992324962
2576.3,-139.864935918,-469.176040172,-259.026943306,746.21606825,447.874893303,-175.731657081,-231.742400067,217.007075718,415.543587752,387.992324962
2577.32,-139.701262963,-468.983649354,-258.858258352,746.502157273,447.840102718,-175.731657081,-231.74617485,217.018156707,415.543587752,387.992324962
2578.34,-139.626300564,-469.101109285,-259.283818772,746.302399084,447.525157369,-175.731657081,-231.892391086,216.763986099,415.673781109,387.992324962
2579.36,-139.096148136,-468.360234482,-257.877153723,747.392668142,447.972205523,-175.731657081,-231.892378297,217.257156137,416.261891773,387.97607349
2580.38,-138.860231315,-468.106999042,-257.150722917,747.780306447,448.066484095,-175.731657081,-231.888629501,217.706973414,416.342482803,387.976074632
2581.4,-138.25286005,-467.791149178,-255.673226148,749.022532486,448.742362442,-175.731657081,-231.891383873,219.144768097,417.111825169,387.976074632
2582.42,-137.536499198,-467.218742469,-254.37370636,749.91163537,449.243857203,-175.731657081,-231.893633634,219.278125236,417.125904527,387.976074632
2583.44,-137.454209947,-468.351686394,-255.537174719,749.399791694,448.380551204,-175.731657081,-231.910603201,219.261589775,417.127469229,387.976074632
2584.46,-137.318895099,-468.449680643,-255.585818063,749.336051068,448.181718457,-175.731657081,-232.019248947,219.303151998,417.283866292,387.976074632
2585.48,-137.311903099,-468.888604227,-256.360441138,749.033520377,447.827273058,-175.731657081,-232.190970602,218.996481853,417.283865617,387.976074632
2586.5,-137.491586065,-469.489634834,-257.264200814,748.640014133,447.407046339,-175.731657081,-232.247386348,218.693287587,417.283865617,387.976074632
2587.52,-137.5197475,-470.197935816,-258.318022386,748.113241858,446.554886724,-175.731657081,-232.836719879,218.218684086,417.340473575,387.976074632
2588.54,-137.641602056,-472.10114713,-261.310407606,746.948808965,445.420973464,-175.731657081,-232.993371891,217.639342974,417.348215579,387.976074632
2589.56,-137.511121722,-473.021617813,-261.83236334,746.78945338,444.82934622,-175.731657081,-233.008529477,217.647402674,417.348215568,387.976074632
2590.58,-137.743207609,-473.301559553,-262.453727415,746.437989684,444.41412388,-175.731657081,-233.07395671,217.358402999,417.348215568,387.976074632
2591.6,-137.826883772,-473.388713528,-262.393627558,746.43893269,444.119157521,-175.731657081,-233.133204206,217.374103811,417.500040074,387.934671788
2592.62,-137.460882781,-473.026927149,-261.786502365,746.854391148,444.307680077,-175.731657081,-233.1328856,217.615365655,417.57511358,387.935288609
2593.64,-137.078193878,-472.839997506,-260.923517976,747.463952279,444.605850349,-175.731657081,-233.1328856,218.39300794,417.827943284,387.935288609
2594.66,-136.978816729,-472.846559809,-260.833421212,747.598703534,444.595408595,-175.731657081,-233.157932574,218.296342724,417.827021111,387.935288609
2595.68,-137.043309731,-474.819207447,-263.767328322,746.177364143,443.024990803,-175.731657081,-233.249957791,218.11391342,417.827021111,387.924782265
2596.7,-136.747532724,-474.918323077,-263.637884188,746.289300533,443.095645719,-175.731657081,-233.314574312,218.485444995,417.897923483,387.918814602
2597.72,-136.951095197,-475.399901115,-264.840003124,745.794847932,442.539373858,-175.731657081,-233.452287684,217.763355392,417.897888982,387.918814602
2598.74,-137.13732272,-475.82890332,-265.558674661,745.450045937,442.132290497,-175.731657081,-233.450359861,217.512621784,417.897888982,387.918814602
2599.76,-137.275764886,-476.617680393,-266.82115957,744.751774569,441.264341949,-175.731657081,-233.950074158,216.950693254,417.897888982,387.918814602
2600.78,-137.431918112,-477.169033599,-267.932026977,744.311124078,440.583318925,-175.731657081,-233.990374189,216.61709894,417.914152415,387.918814602
2601.8,-137.596187304,-479.545319172,-270.896040626,743.029351047,438.678868517,-175.731657081,-234.07851322,216.542872014,417.914152414,387.918814602
2602.82,-137.522930866,-479.433722487,-270.647673663,743.154430678,438.631405415,-175.731657081,-234.087182359,216.654621597,417.914152414,387.918814602
2603.84,-137.279798885,-479.071444269,-269.836546697,743.757139431,438.9843923,-175.731657081,-234.08695624,217.027018465,418.013540136,387.918814602
2604.86,-137.060679854,-478.946163433,-269.338798391,744.124013157,439.111228921,-175.731657081,-234.08695624,217.145390808,418.054801501,387.918814602
2605.88,-136.529208316,-478.579621099,-268.170566901,744.57364258,439.168211233,-175.731657081,-234.08695624,218.003773656,418.359937214,387.918814602
2606.9,-135.783447109,-478.059290017,-266.12288991,746.55766207,440.349043277,-175.731657081,-234.08695624,219.847207778,419.493922206,387.918814602
2607.92,-135.4359814,-478.106992028,-265.793675768,746.744187528,440.195159137,-175.731657081,-234.08695624,219.959454751,419.493922905,387.918814602
2608.94,-135.223247971,-479.593476445,-267.353110466,745.696351679,438.971225208,-175.731657081,-234.092524747,220.363624502,419.528055454,387.918814602
2609.96,-134.71015138,-479.482035441,-267.577276864,745.935441053,439.417726368,-175.733827318,-234.165261456,220.149304977,419.598913005,387.918814602
2610.98,-134.749057734,-479.725735655,-267.979717708,745.870110002,439.089225081,-175.654836385,-234.220730482,220.229114158,419.603792881,387.918814602
2612.0,-134.831739672,-480.266605626,-268.790011541,745.392321001,438.5055951,-175.654836385,-234.651876963,219.856244765,419.603792881,387.918814602
2613.02,-134.66301505,-480.284088003,-268.579010289,745.610955342,438.434104259,-175.654836385,-234.731042787,220.076013988,419.762342765,387.918814602
2614.04,-135.569546878,-482.575281098,-271.822826612,743.734817335,435.60543243,-175.654836385,-234.85005652,219.875414586,419.762341818,387.918814602
2615.06,-135.259024731,-482.246973789,-271.386871342,744.31268006,435.551298766,-175.643963185,-234.857333295,220.404873059,419.782521878,387.918814602
2616.08,-134.596169047,-481.370129754,-269.846118424,745.255594781,435.841737759,-175.64396319,-234.877035868,221.028985418,420.083285211,387.918814602
2617.1,-134.539630706,-481.449826014,-269.915445204,745.185724879,435.763189106,-175.64396319,-234.877035868,221.064154568,420.083063392,387.918814602
2618.12,-134.316576692,-481.258598026,-269.131978981,745.546073118,435.839466823,-175.64396319,-234.874136436,221.459735723,420.19991068,387.918814602
2619.14,-133.765855518,-480.967531486,-267.326810849,747.067274464,436.70843837,-175.64396319,-234.877392383,223.609671527,421.41628709,387.918814602
2620.16,-132.837490744,-480.167382093,-264.954039407,748.700618567,437.372337316,-175.64396319,-234.877684775,223.922552651,421.454050563,387.918814602
2621.18,-132.727946089,-481.079450747,-266.32059305,748.0667418,436.697008895,-175.64396319,-234.877727892,223.981973203,421.465866846,387.918814602
2622.2,-133.063198669,-481.564639927,-267.415934645,747.462321651,436.061118002,-175.64396319,-235.036500633,223.456118381,421.473999849,387.918814602
2623.22,-132.874833463,-481.381727816,-266.690512049,747.773294127,436.025973449,-175.64396319,-235.035630054,223.708346615,421.473999849,387.918814602
2624.24,-132.916110435,-481.769789787,-267.261287541,747.439177404,435.619840373,-175.64396319,-235.130156421,223.516165285,421.473999849,387.918814602
2625.26,-133.161045333,-482.508395667,-268.440770219,746.619469978,434.626764892,-175.64396319,-235.940692591,222.930119552,421.480320034,387.918814602
2626.28,-133.564680266,-484.335804864,-272.00187677,745.130246734,432.583856447,-175.64396319,-235.996298624,222.263060588,421.480196904,387.918814602
2627.3,-133.199454094,-483.974670195,-271.083782024,745.571293763,432.546693747,-175.64396319,-235.996305371,222.276172491,421.480196904,387.918814602
2628.32,-134.716348546,-485.904757732,-274.597221569,742.38211858,428.777595733,-175.64396319,-237.225124983,221.210705298,421.480196904,387.913924134
2629.34,-135.410280185,-486.936040539,-275.202268491,741.60868929,428.117728651,-175.64396319,-237.697958551,220.93681649,421.475650433,387.566467695
2630.36,-135.134004583,-486.703771747,-274.410283345,742.073368676,428.30290288,-175.64396319,-237.697932435,221.327360689,421.608974608,387.566484306
2631.38,-135.177188857,-487.167601006,-275.120378095,741.706061069,427.774307931,-175.64396319,-237.935408816,220.762664845,421.670630229,387.566484306
2632.4,-134.99425125,-487.220927659,-275.060786692,741.826511445,427.836782591,-175.64396319,-238.016417381,220.659475947,421.670629835,387.566484306
2633.42,-135.202914216,-489.488499714,-278.102767824,739.923214435,425.791911716,-175.64396319,-238.17281209,220.47622153,421.670793429,387.491692181
2634.44,-134.778160637,-489.145746201,-277.506785456,740.310513437,425.941631975,-175.64396319,-238.178244245,220.913069061,421.843392489,387.491698234
2635.46,-134.692723628,-489.414086745,-277.999635271,740.176514643,425.60518442,-175.64396319,-238.276196328,220.522881802,421.843376101,387.491698234
2636.48,-134.781786793,-489.60458539,-278.305614603,739.996207531,425.403355912,-175.64396319,-238.279909294,220.436311174,421.848498255,387.491698234
2637.5,-134.694179899,-489.932728407,-278.796680285,739.745596756,424.944927458,-175.64396319,-238.569149072,220.220268722,421.927138742,387.491698234
2638.52,-134.872366846,-492.368642027,-282.335180729,737.860369434,422.444857887,-175.64396319,-238.68472214,219.687573716,422.024436576,387.491698234
2639.54,-134.415060364,-492.303868919,-281.794593969,738.429768507,422.19007366,-175.64396319,-238.707631239,219.75646754,422.024436576,387.491698234
2640.56,-134.940368635,-492.781933371,-282.308882112,737.770544513,421.22537022,-175.64396319,-238.78676604,219.515607099,422.024436576,387.491698234
2641.58,-135.0757132,-492.938139442,-282.160753248,737.758876982,420.853990983,-175.64396319,-238.808368442,219.549059084,422.042105147,387.471251225
2642.6,-134.737112733,-492.653064499,-281.499971786,738.27546424,421.031487804,-175.64396319,-238.808368442,219.764343535,422.073108937,387.471227437
2643.62,-133.896926274,-492.097116696,-280.202074529,739.186483024,421.670726978,-175.64396319,-238.808368442,220.805490091,422.529522562,387.471227437
2644.64,-133.771689297,-492.05079623,-279.595961466,739.854415281,422.141525052,-175.64396319,-238.816894666,221.366078159,422.774821427,387.471227437
2645.66,-133.438844644,-492.441969926,-280.129320932,739.60629597,421.590293434,-175.64396319,-238.816894664,221.389489754,422.774821427,387.471227437
2646.68,-132.928969674,-492.705995215,-280.566835489,739.45067928,421.353718907,-175.64396319,-238.829162569,221.825357449,422.849136574,387.471227437
2647.7,-132.965586439,-493.075495989,-281.896104395,738.889911141,421.180366236,-175.644925536,-239.046628546,221.054547123,422.864303009,387.471227437
2648.72,-133.055334365,-493.55210254,-282.407031598,738.490889512,420.687808546,-175.63741365,-239.101910693,220.885462504,422.864303009,387.471227437
2649.74,-133.254051172,-494.436334876,-283.798697979,737.470243602,419.355193508,-175.63741365,-239.679147929,220.276742893,422.864303009,387.471227437
2650.76,-132.803336168,-494.147846595,-283.168383318,738.007722941,419.213427974,-175.63741365,-239.639764881,220.883199084,423.186923954,387.471227437
2651.78,-132.336089701,-493.734934724,-282.557626517,738.70790769,418.26619204,-175.632874972,-239.639764881,221.187621443,423.345630788,387.471227437
2652.8,-131.792315825,-492.741705016,-279.5080678,741.504498604,418.285663453,-175.359933259,-239.655735846,221.76875964,423.886384076,387.471227437
2653.82,-130.665980261,-491.3370336,-276.855270416,743.472725332,419.032571853,-175.359933259,-239.655068749,222.557421226,424.307651775,387.471227437
2654.84,-130.401149785,-491.048781084,-276.137246292,743.78234721,419.154857446,-175.359933259,-239.655068749,222.738959684,424.311659271,387.471227437
2655.86,-129.658074413,-490.461578698,-274.624833085,744.598124025,419.203682053,-175.359933259,-239.655068749,223.651674802,424.709961501,387.471227437
2656.88,-128.799798143,-489.738938355,-271.317586476,747.589046306,421.219470099,-175.359933259,-239.655068749,226.45931152,426.444035181,387.471227437
2657.9,-126.710200024,-487.816775466,-267.036912353,751.020822833,422.086235861,-175.359933259,-239.655068749,226.771405719,426.524215631,387.471227437
2658.92,-126.47587555,-487.962024987,-267.317417799,750.903749539,421.939684148,-175.359933259,-239.658160281,226.943412238,426.531193366,387.471227437
2659.94,-126.715707525,-488.49900197,-268.639976707,750.190922693,421.395895295,-175.350843056,-239.817628475,226.386601656,426.533505661,387.471227437
2660.96,-126.837765222,-489.252603921,-269.594519426,749.613919667,420.78435911,-175.334551107,-239.984280419,226.081722638,426.533505661,387.471227437
2661.98,-126.921766548,-490.356681551,-271.561943353,748.220586298,419.02783231,-175.334551107,-240.58325997,225.527581661,426.533505661,387.471227437
2663.0,-127.123080718,-490.899378071,-272.481373703,747.437400917,417.913589037,-175.334551107,-241.409032439,225.191879533,426.540080777,387.471227437
2664.02,-127.522792202,-492.715795072,-276.173282542,745.569605005,415.504474373,-175.334551107,-241.473567258,224.609540502,426.539931731,387.471227437
2665.04,-126.097773807,-491.371952786,-273.880626546,747.895071306,415.353734795,-175.334551107,-241.48627905,224.668615083,426.539931731,387.471227437
2666.06,-128.528729339,-493.174418245,-276.151438866,745.165831806,411.482771722,-175.334551107,-242.231760972,224.075204513,426.545534669,387.469522996
2667.08,-128.470864876,-493.469026221,-276.287334348,745.024968716,411.152065822,-175.334551107,-242.277845035,224.035701349,426.575207189,387.387628408
2668.1,-127.833980581,-493.020046103,-275.115583768,745.618798267,411.325880744,-175.334551107,-242.27496121,224.850761584,426.888319089,387.387628518
2669.12,-126.89582775,-492.214858228,-272.037982948,748.657966906,413.428160682,-175.334551107,-242.277023536,227.728431672,428.631625877,387.387628518
2670.14,-125.706649106,-491.458044974,-270.792561098,749.791424065,414.155026228,-175.334551107,-242.277019646,227.850571274,428.631627071,387.387628518
2671.16,-125.754748835,-494.413492931,-275.337674577,746.591729815,410.60511351,-175.334551107,-242.71496204,227.69337444,428.66269221,387.29145889
2672.18,-125.356868704,-495.033366561,-277.002454569,745.96925198,410.274924791,-175.334551107,-242.929012953,227.03340309,428.829153638,387.291459906
2673.2,-124.358782702,-494.374636434,-275.729854448,747.348496043,410.192987176,-175.334551107,-242.938359294,227.256482899,428.829153492,387.291459906
2674.22,-124.452481262,-495.072755025,-277.049117595,746.575994353,409.318329944,-175.334551107,-243.185405571,226.931046229,428.829153492,387.291459906
2675.24,-124.671560883,-496.429761511,-278.895880894,744.827946157,407.178013168,-175.334551107,-245.06134327,226.506542315,428.922620246,387.291459906
2676.26,-125.08155643,-499.40579133,-283.454097723,742.376622159,404.37054954,-175.334551107,-245.206327203,225.812835307,428.923292567,387.291459906
2677.28,-123.830193514,-498.500474944,-281.953311996,743.5791741,404.350294084,-175.334551107,-245.206811434,225.868587935,428.923292567,387.291459906
2678.3,-124.416354754,-498.980315618,-282.696104157,742.839034413,403.368039794,-175.334551107,-245.303688032,225.59005135,428.935712287,387.291459906
2679.32,-123.997624764,-498.514628032,-281.968050307,743.412370959,403.787106185,-175.334551107,-245.309650416,225.86586962,429.125924313,387.277207437
2680.34,-123.536501306,-498.133154004,-280.954605772,744.045321224,403.961617506,-175.334551107,-245.309650324,226.232643661,429.226028504,387.277207645
2681.36,-121.797121894,-496.733634353,-276.911833048,747.767189941,406.178416884,-175.334551107,-245.309650324,229.963704856,431.531914979,387.277207645
2682.38,-120.324133332,-495.490695931,-274.321420729,749.472914396,406.929582108,-175.334551107,-245.309650324,230.901145513,431.708442699,387.277207645
2683.4,-120.245962811,-497.300861631,-276.703663633,748.213034045,405.274505675,-175.334551107,-245.380014449,230.805927361,431.708442725,387.277207645
2684.42,-118.398735648,-495.986379551,-275.250249314,749.671382576,406.855472718,-175.334551107,-245.393392415,231.69072773,432.059126177,387.277207645
2685.44,-118.151273043,-496.075617125,-275.215160058,749.82156793,406.974876415,-175.305246632,-245.448950047,231.614083399,432.101402709,387.277207645
2686.46,-118.434963341,-496.814680451,-276.417335819,749.087109837,406.374435685,-175.30525467,-245.546678281,231.175839062,432.098978942,387.277207645
2687.48,-118.603022978,-497.63880285,-277.592948635,748.163717976,404.94684449,-175.30525467,-246.325891509,230.781996421,432.142819782,387.277207645
2688.5,-118.882233396,-498.579281445,-279.358617906,747.335531195,403.928474006,-175.30525467,-246.377436165,230.520620761,432.173649382,387.277207645
2689.52,-116.230234187,-495.900947799,-275.331548567,750.818728985,403.859391142,-175.24088189,-246.382626814,231.198791256,432.848554017,387.277207645
2690.54,-115.407416771,-495.255535811,-274.770677576,751.363814618,404.468424486,-175.240887751,-246.377571819,231.567532077,432.953697936,387.277207645
2691.56,-113.536839084,-492.949365575,-270.799711073,754.588521693,405.116483063,-175.240887751,-246.37757026,232.248759312,433.837748752,387.277207645
2692.58,-113.330106239,-492.638359986,-269.807196944,755.019215847,405.355384794,-175.240887751,-246.37757026,232.485555772,433.837748734,387.277207645
2693.6,-110.786709347,-490.122103299,-265.567137793,758.210330371,405.820828525,-175.240887751,-246.37757026,235.221948045,437.259433217,387.277207645
2694.62,-105.592159894,-484.907689376,-253.580853449,772.432071875,412.426618955,-175.240887751,-246.37757026,238.901309307,446.7745984,387.365383527
2695.64,-103.215229668,-483.262741787,-250.073198985,775.570272447,412.664523883,-175.240887751,-246.37757026,238.936046277,446.897368748,387.365383527
2696.66,-102.244085186,-483.133101491,-250.273335079,775.654992138,412.991141478,-175.240887751,-246.415019199,239.3396595,447.012434052,387.365383527
2697.68,-100.886158756,-482.317564192,-249.606253964,776.817609937,413.773667114,-175.177486525,-246.427985218,239.727569659,447.083672396,387.365383527
2698.7,-101.027499294,-482.872442692,-250.270864133,776.429675444,413.411159434,-175.175327846,-246.482311648,239.42215825,447.083676876,387.365383527
2699.72,-101.371193974,-484.694016633,-253.457357825,773.735513943,409.902336583,-175.175327846,-248.449762091,238.562187403,447.083676876,387.365383527
2700.74,-102.018177223,-485.47106773,-254.364023566,773.103631121,409.075310817,-175.175327846,-248.835300264,238.185712619,447.091302823,387.365383527
2701.76,-101.103394526,-485.412602327,-253.967014045,773.441906121,408.453113412,-175.175327846,-248.847716772,238.100557667,447.091302821,387.365383527
2702.78,-100.980485819,-485.390530492,-254.005328768,773.376764771,408.027569478,-175.175327846,-248.918225721,237.888531372,447.091302821,387.365383527
2703.8,-100.542923169,-484.622939184,-252.620357712,774.224319349,408.3307374,-175.175327846,-248.934952002,238.32873136,447.514084902,387.361878868
2704.82,-100.015853542,-484.377952849,-252.00854636,774.70062411,408.418295783,-175.175327846,-248.959242066,238.542706807,447.628991464,387.29885027
2705.84,-98.6704943485,-483.543499963,-250.22473774,775.530267065,408.703924609,-175.175327846,-248.948788155,239.965457948,448.345984918,387.29885027
2706.86,-97.1147471665,-482.214682908,-245.625905795,780.574679585,411.658442594,-175.175327846,-248.948788154,243.265451124,451.236534792,387.29885027
2707.88,-95.8577079983,-482.200884835,-244.766571736,781.374254024,411.230030122,-175.175327846,-248.961465665,243.397378339,451.251202978,387.29885027
2708.9,-95.6324423096,-483.543105409,-246.30685606,780.361109587,409.83184634,-175.175327846,-249.075911378,243.487331128,451.283168688,387.282519932
2709.92,-96.2272036589,-485.057453452,-249.239120145,778.586654489,408.002101385,-175.175327846,-249.632982983,241.872967482,451.281405497,387.282519932
2710.94,-95.7661155811,-484.700706838,-248.508675854,779.097976088,407.883045636,-175.175327846,-249.632967035,241.885511058,451.281405497,387.282519932
2711.96,-95.8282982297,-486.108368878,-250.61657746,777.507733909,405.957391365,-175.175327846,-250.447221529,241.476187919,451.281405497,387.282519932
2712.98,-96.348968614,-487.241858748,-252.048711302,776.355385524,404.379716215,-175.175327846,-251.578310602,240.850292391,451.282261677,387.282519932
2714.0,-96.5675561708,-490.485315117,-256.639845016,774.062837604,402.02704081,-175.175327846,-251.745072105,240.068176624,451.282254326,387.282519932
2715.02,-95.0580279972,-489.627415818,-255.378398703,775.086846643,402.074084531,-175.175327846,-251.745062854,240.279063462,451.286460073,387.282519932
2716.04,-95.0855867647,-489.568885034,-255.204890099,775.065599227,401.993733503,-175.175327846,-251.747246112,240.314007194,451.30901173,387.282519932
2717.06,-95.0877569632,-489.956103454,-255.935761708,774.618830728,401.631736218,-175.175327846,-251.752342963,240.043298581,451.30623047,387.261993377
2718.08,-94.5780227344,-489.554566922,-255.023885504,775.056819014,401.716913897,-175.175327846,-251.752330755,240.568722845,451.419898001,387.261993377
2719.1,-91.2236619825,-487.218761564,-249.568558477,781.016512184,404.511653101,-175.175327846,-251.752330755,244.325427375,454.561522697,387.261993377
2720.12,-90.026131566,-486.357568046,-247.572619979,782.075289683,404.849280449,-175.175327846,-251.752330755,244.912942653,454.608303137,387.261993377
2721.14,-90.0907383957,-487.072473287,-248.669878062,781.656193159,404.248279602,-175.175327846,-251.753556441,244.810813814,454.608303137,387.261993377
2722.16,-90.1409473862,-487.139196981,-249.189574535,781.363980689,404.040704345,-175.175327846,-251.810805947,244.466406068,454.614591695,387.261993377
2723.18,-89.8446062219,-487.039455391,-248.942358759,781.484406466,403.8259377,-175.096229237,-251.835490125,244.608947794,454.614590359,387.261993377
2724.2,-90.0125947827,-487.647051176,-249.967169199,780.997007795,403.240472867,-175.096229328,-251.986575656,244.177308018,454.614590359,387.261993377
2725.22,-90.2225006882,-488.170651062,-250.727195536,780.429138346,402.328938486,-175.096229328,-252.51472054,243.794457549,454.638362577,387.261993377
2726.24,-90.6937639905,-489.117423702,-252.335588353,779.735560052,401.454131211,-175.096229328,-252.534266573,243.497243536,454.638300027,387.261993377
2727.26,-88.0258823234,-487.369637122,-249.411177185,781.5101028,401.588013154,-175.096229328,-252.534266345,244.216959592,454.739288205,387.261993377
2728.28,-85.3643891163,-485.316089465,-247.019803381,783.39843872,402.351042894,-175.096229328,-252.534266345,244.987537287,455.316084738,387.261993377
2729.3,-85.034338362,-484.80847846,-245.688022324,784.315071726,402.561841583,-175.096229328,-252.534266345,245.249533499,455.548245971,387.261993377
2730.32,-84.8892570075,-484.734312013,-245.456898157,784.449762742,402.607877826,-175.096229328,-252.534266345,245.333792942,455.550650468,387.261993377
2731.34,-83.2380448815,-483.700832602,-243.010016392,786.414228066,403.506348718,-175.096229328,-252.534266345,247.46280823,456.440687176,387.261993377
2732.36,-80.7566605166,-482.245780929,-240.312436561,788.207634362,403.714189768,-175.096229328,-252.533149512,248.086273522,456.541601308,387.261993377
2733.38,-80.5446824237,-482.197753296,-239.897058824,788.418181536,403.721539895,-175.096229328,-252.533149512,248.125734396,456.541659962,387.261993377
2734.4,-80.1725838571,-481.936221475,-239.565506502,788.696912112,403.989784359,-175.096229328,-252.528138355,248.297919928,456.545463707,387.261993377
2735.42,-79.4317550609,-481.435347042,-238.766201125,789.264927559,403.912457135,-175.040333671,-252.538682509,248.548886354,456.545462938,387.261993377
2736.44,-79.4871746222,-481.629502487,-239.001083626,789.190958632,403.801135347,-175.040320793,-252.543056839,248.422471477,456.545462938,387.261993377
2737.46,-80.2169749851,-483.199162828,-241.39106753,787.404667806,401.262929017,-175.040320793,-254.065816316,247.865155249,456.545462938,387.261993377
2738.48,-80.9096463521,-484.814778786,-243.768204422,786.330067241,399.8307018,-175.040320793,-254.299579809,247.003204056,456.545462938,387.261993377
2739.5,-80.9115044269,-485.041676365,-244.173198683,786.186041044,399.634576953,-175.040320793,-254.306183687,246.951045084,456.545462938,387.261993377
2740.52,-80.4133015157,-484.794063166,-244.084397255,786.374236947,399.793757229,-175.040320793,-254.295834362,247.123874177,456.576710569,387.261993377
2741.54,-79.0921292456,-483.977128606,-243.13421,787.155233318,400.180403976,-175.040320793,-254.324237339,247.518612188,456.973205957,387.208797163
2742.56,-79.0860038094,-484.11845384,-243.188638798,787.128409123,400.048387229,-175.040320793,-254.333788949,247.505315338,456.973848089,387.201018508
2743.58,-75.2396638436,-481.335718192,-240.1547914,789.106188686,400.555342347,-175.040320793,-254.33202556,249.981443079,459.382871147,387.201018508
2744.6,-59.8850140815,-470.543955834,-229.295367243,804.607414823,405.166009854,-175.040320793,-254.33202556,251.389081944,468.566404388,387.555655012
2745.62,-58.1672870857,-470.172280897,-226.324425042,808.035815695,405.625833112,-175.040320793,-254.372452717,251.590058903,469.122687535,387.555655012
