time,0,1,2,3,4,5,6,7,8,9,10,11,12,13,14,15,16,17,18,19,20,21,22,23,24,25,26,27,28,29,30,31,32,33,34,35,36,37,38,39,Simulation_reset
0.0,283.868288435,34.0998978354,185.598528758,278.8789941,626.611546054,436.234585475,484.124804661,-175.587365031,-48.7939201295,405.637360737
1.0,283.868288435,34.0998978354,185.598528758,278.8789941,626.611546054,436.234585475,484.124804661,-175.587365031,-48.7939201295,405.637360737
2.0,283.868288435,34.0998978354,185.598528758,278.8789941,626.611546054,436.234585475,484.124804661,-175.587365031,-48.7939201295,405.637360737
3.0,219.08118709,-10.6437846828,116.204863633,99.1976990714,433.44128855,436.234585475,484.124804661,-175.587365031,-155.64590033,269.463535607
4.0,195.46308037,-38.2022810428,96.9027997594,69.8759591999,401.161140438,436.234585475,484.124804661,-175.587365031,-180.472838749,228.540478258
5.02,178.095709671,-56.6446401943,75.9953165372,33.7655207624,373.417575155,436.234585475,484.124804661,-177.106683264,-197.750212512,212.173002895
6.04,183.380613479,-48.3144268143,84.6280075355,37.7840958221,380.733341272,436.234585475,489.640436845,-173.718176886,-197.712902817,212.173004462
7.06,189.815443522,-31.2058176305,102.818538645,45.3078420191,390.24382862,436.234585475,493.535777596,-171.846230913,-197.712902817,212.173004462
8.08,198.413187829,-6.24914412401,128.674297681,59.9638002984,406.371314722,436.234585475,497.434778054,-170.285431607,-197.712902817,214.394805879
9.1,211.580554641,13.9450917301,150.037508751,76.7325128708,425.334082528,436.234585475,513.965293235,-166.484383143,-197.712902817,215.780106436
10.12,213.323655131,28.5166348326,170.007597317,91.8431737335,439.143661456,436.234585475,521.151723434,-166.109888364,-197.712902817,215.780106474
11.14,209.852171064,24.3065123497,147.717495024,76.7481666974,433.965254148,436.234585475,521.15172252,-167.724149703,-197.712902817,215.780106474
12.16,209.736238448,24.2529276159,145.880537929,75.6091277181,433.269820136,436.234585475,521.167982942,-168.073366603,-197.712902817,215.780106474
13.18,217.078093665,40.9708740512,164.245856887,83.0371711443,441.279498931,436.234585475,533.749499658,-160.105337218,-197.712902817,215.780106474
14.2,218.765984399,52.2509039576,180.235248819,90.3399904391,450.031927422,436.234585475,535.279713301,-159.599677968,-197.712902817,215.780106474
15.22,216.934891759,50.306583857,167.550049842,82.6814527034,447.264582703,436.234585475,535.279713301,-162.761174629,-197.846069135,215.780106474
16.24,218.097369709,53.1086317384,169.388920652,82.9296428462,447.719655092,436.234585475,536.273264381,-160.525889338,-197.847242962,217.197392106
17.26,226.085226181,66.408767361,175.905565044,88.3693979024,453.540833053,436.234585475,538.990323497,-157.862868746,-197.847242962,219.804562842
18.28,230.886532574,73.510925214,180.967201757,89.0069556454,456.405364601,436.234585475,542.139102807,-154.828651818,-197.847242962,219.804562868
19.3,231.076229975,74.2603504949,180.434615457,88.5788018712,457.420174637,436.234585475,543.266031261,-154.577680953,-197.859961903,219.804562868
20.32,225.658176358,70.3168644578,172.50848,81.8985533045,452.086041859,436.234585475,543.266031161,-155.543183482,-197.859962559,219.804562868
21.34,223.743852965,65.9158673343,156.238410227,67.6632668091,447.384478815,436.234585475,543.27251724,-159.389944987,-199.304222371,219.804562868
22.36,227.958845355,70.1342737531,166.387268089,74.3423057767,454.788331551,436.234585475,544.316777126,-153.757485567,-199.303547886,219.804562868
23.38,228.408392487,70.8158921574,166.134687058,75.0225540951,455.986859646,436.234585475,544.319389768,-153.295287348,-199.303547886,219.804562868
24.4,228.195511489,70.2354661545,159.970180541,71.8668034722,454.048558755,436.234585475,544.319326442,-155.703856523,-199.307488701,219.804562868
25.42,234.319437296,81.2889104323,171.278024224,74.9999525917,457.411713542,436.234585475,552.339036308,-148.555139078,-199.302456241,219.804562868
26.44,237.60903184,92.68123688,187.830131977,83.325275153,466.599921451,436.234585475,555.889491674,-147.54323107,-199.302456241,219.804562868
27.46,237.662127787,93.0079567502,188.399850115,83.4437256199,466.679332032,436.234585475,555.889491675,-147.415746445,-199.302456241,219.804562868
28.48,236.277629407,92.1767811412,186.859081663,81.9845885759,465.118815512,436.234585475,555.889491675,-148.472824475,-199.342040879,219.804562868
29.5,232.967281194,85.4064605529,166.691737167,69.2333104918,459.786551727,436.234585475,555.889491675,-150.855254184,-201.591418358,219.804562868
30.52,230.197763241,83.450634706,162.091752938,64.3623723283,458.649319387,436.234585475,556.062489073,-151.168288553,-201.997867526,219.804562868
31.54,233.016659449,86.9868204248,165.089072585,65.0151223428,460.741976773,436.234585475,557.786885344,-149.019783407,-201.997866587,219.804562868
32.54,230.669549219,84.7282885076,159.372741066,62.7575901117,459.210574933,436.234585475,557.786466603,-150.642252336,-201.997866587,219.804562868
33.54,229.586317536,79.8236265194,135.097659723,40.9035100471,450.178778871,436.234585475,557.786466603,-152.176090683,-202.486842492,219.804562868
34.54,231.949553534,81.6634720648,134.955450798,40.802615882,453.171363648,436.234585475,558.449556702,-151.636635968,-202.639678212,219.804562868
35.54,235.589814188,87.2664560107,145.006314403,45.4878930874,455.963535171,436.517354731,560.941838203,-147.698961899,-202.639678211,219.804562868
36.54,236.267917894,89.6028192883,147.916808588,47.4007893072,458.786788684,436.517446787,561.661052014,-146.768160578,-202.716425659,219.804562868
37.54,239.052168325,93.6504013751,152.001955784,47.9992090436,459.755531222,436.517446787,563.832810755,-142.410102541,-202.723905358,219.804562868
38.54,244.302226346,107.625009371,167.017736892,53.2506049112,465.938080357,436.517446787,567.634498438,-137.802051394,-202.723905358,219.804562868
39.54,243.477673994,106.966003103,165.848264456,52.6556547461,465.519671324,436.526175759,567.634498058,-137.978928847,-202.723905358,219.804562868
40.54,242.75019305,106.550459247,165.426857542,52.3371120271,464.957783479,436.52671479,567.628885662,-138.495591574,-202.754894777,219.804562868
41.54,243.341693909,106.131687738,157.935653962,46.6745815436,462.873284428,436.52671479,567.628885662,-138.495235908,-202.754851943,219.804562868
42.54,233.312745133,95.3508465907,127.621700405,21.1740953136,455.790559307,436.52671479,567.628885662,-142.167312008,-206.251659599,219.804562868
43.54,236.433336326,99.6990003041,131.969511487,21.7928185226,456.59999945,436.52671479,569.187166075,-139.459654191,-206.251630814,219.804562868
44.54,236.913472864,100.364773783,132.972264995,21.9638348848,457.001964389,436.52671479,569.443840415,-138.955917677,-206.256887731,219.804562868
45.54,236.470445267,99.2174195964,128.159107178,17.2377191351,454.513842452,436.52671479,569.443840438,-138.903687883,-206.256871144,219.804562868
46.54,237.869669958,99.8202385287,122.388684918,13.9640147176,454.581644989,436.52671479,569.825046852,-139.024716238,-206.256871144,219.804562868
47.54,242.593490216,104.950757977,129.196449631,19.355548731,460.533297646,436.52671479,571.222791725,-136.773396691,-206.256871144,219.804562868
48.54,245.987342169,111.891677479,140.312310803,23.8124596121,463.879395086,436.52671479,573.372002211,-132.136981702,-206.256871144,219.804562868
49.54,246.195546611,112.585792856,141.881733174,24.4111780303,464.577649482,436.52671479,573.584222185,-130.930753755,-206.256871144,219.804562868
50.54,250.935177742,122.724464496,153.621594885,27.7274675458,468.640388652,436.52671479,577.885308846,-124.240780238,-206.256871144,219.804562868
51.54,252.087093282,126.284158463,158.744904482,30.0523517576,471.503625659,436.52671479,578.521525894,-123.606339847,-206.256871144,219.804562868
52.54,252.175127826,126.724625198,159.480911865,30.3075740162,471.617590311,436.52671479,578.521525894,-123.362419332,-206.256871144,219.804562868
53.54,257.604350535,132.23165364,162.16237472,32.2867438843,475.946087838,436.52671479,579.259976758,-119.71910546,-206.256871144,219.862550834
54.54,253.678815968,129.568075985,152.871416649,27.5815700815,472.965540664,436.52671479,579.433536739,-123.334195627,-207.051906375,220.045966792
55.54,253.612836823,129.738311569,152.533722951,26.9408587876,472.90011,436.52671479,579.470926183,-123.260930547,-207.089338325,220.045966789
56.54,253.641380207,129.636848646,151.56708377,25.9691948658,472.200908512,436.52671479,579.519724598,-123.728429825,-207.125041468,220.045966789
57.54,249.694699613,126.869567869,145.32725544,22.2668753203,469.093593695,436.52671479,579.519724592,-125.818968061,-207.146421694,220.045966789
58.54,248.342238529,123.487871599,134.885066695,12.7708416854,463.880982277,436.52671479,579.519724592,-128.907119716,-207.442590033,220.045966789
59.54,250.865449533,125.977504782,140.136609138,15.8275218936,468.037286314,436.52671479,579.816624623,-126.357399565,-207.444677062,220.045966789
60.54,251.408368731,128.648754069,143.994284031,16.696816625,468.79381865,436.52671479,579.943892413,-124.742420639,-207.444677062,220.045966789
61.54,251.865825723,129.984617114,145.868587082,17.971385036,469.990828153,436.52671479,579.943892413,-123.928994367,-207.444677062,220.045966789
62.54,253.241876033,132.177820807,149.156970487,19.6692170322,473.265751161,436.52671479,581.00007928,-121.714441637,-207.444677062,220.045966789
63.54,258.766726297,146.950666458,171.00176591,29.3706549601,483.817231927,436.52671479,587.702854518,-113.861213378,-207.444677062,220.045966789
64.56,258.195575948,146.447770128,167.44211472,28.1281497699,484.324499443,436.52671479,587.70326103,-113.929156134,-207.444677062,220.045966789
65.58,257.729175487,146.092828789,166.645747632,27.2858125252,483.508190795,436.52671479,587.70326103,-114.574869072,-207.444677062,220.045966789
66.6,258.730535292,146.666920999,166.728524814,26.9579312302,483.745814608,436.52671479,587.731643522,-114.186568919,-207.444677062,220.061414902
67.62,255.972044478,143.94768383,162.157312138,24.4328566899,481.763831649,436.52671479,587.731643474,-115.612496388,-207.628348796,220.06057986
68.64,257.742873339,145.862050796,163.802996753,24.6590909861,482.738650991,436.52671479,588.054157683,-114.247224741,-207.628348796,220.06057986
69.66,256.012773157,144.108299183,160.127416202,22.6025589901,481.135491515,436.52671479,588.028463835,-115.778861682,-207.631053286,220.06057986
70.68,252.157083739,140.051371039,146.573387926,11.9771755982,474.541835907,436.52671479,588.028463834,-117.103181554,-207.631053286,220.06057986
71.7,254.933203397,142.128073314,145.190944969,11.0823299169,476.505127079,436.52671479,589.083955462,-116.503666247,-207.701510169,220.06057986
72.72,258.001505546,145.316068651,153.237099205,15.6927568134,481.328516405,436.52671479,589.987578597,-113.525104823,-207.701510165,220.06057986
73.74,259.213228053,146.856618659,155.941357238,17.6166641352,483.1351066,436.52671479,590.10571495,-112.530449061,-207.701510165,220.06057986
74.76,259.690934883,147.517114467,156.801892702,18.0427691641,483.875277505,436.52671479,590.367065756,-111.704681738,-207.701510165,220.06057986
75.78,266.480833868,159.808895681,173.168280753,23.8917322144,490.602143187,436.52671479,595.263818877,-103.519537605,-207.701510165,220.06057986
76.8,267.60502284,161.320426794,175.038346199,25.1205142451,492.28786161,436.52671479,595.314302013,-103.580498899,-207.701510165,220.06057986
77.82,266.599997417,160.960679369,174.247427552,24.2516147918,490.980345056,436.52671479,595.309926019,-104.481996915,-207.769494838,220.06057986
78.84,262.095404549,155.750872751,163.461260585,18.7955520962,487.889116354,436.52671479,595.309925947,-108.262327197,-208.067216147,220.06057986
79.86,255.489740169,147.153916559,138.542814795,2.24307848442,481.928281077,436.52671479,595.309925947,-111.079697438,-209.591969016,220.06057986
80.88,256.42998889,148.521968933,139.734355122,2.18789477766,482.041202032,436.52671479,595.632555059,-109.776229275,-209.592896802,220.06057986
81.9,256.741744238,148.897943868,139.828214259,1.93971496702,481.968968673,436.52671479,595.875531242,-109.360041017,-209.635566228,220.06057986
82.92,254.991318224,146.830447475,132.654689042,-2.94184565837,479.280987367,436.52671479,595.875531248,-109.600269806,-209.635565513,220.06057986
83.94,255.573550488,146.158380388,125.065490076,-8.71589218467,477.741726096,436.52671479,595.96718705,-110.033696708,-209.658555377,220.06057986
84.96,260.264436071,151.164553799,133.030995636,-3.64277815097,482.582237109,436.52671479,597.268463478,-107.150257149,-209.658555184,220.06057986
85.98,263.223088377,156.609475215,142.97401479,0.949985797815,486.793099282,436.52671479,598.651551405,-104.486388441,-209.658555184,220.06057986
87.0,263.244109848,156.556058055,142.819265768,0.806943382975,486.729502037,436.52671479,598.656523049,-104.578838144,-209.658555184,220.06057986
88.02,266.748947602,162.965956894,150.958804195,3.49643193411,489.819907214,436.52671479,601.08579562,-98.8900378047,-209.658555184,220.06057986
89.04,267.503734169,165.038136323,153.84158865,4.64003318291,491.378388719,436.52671479,601.341446575,-98.12455045,-209.658555184,220.06057986
90.06,267.141977429,164.599672164,152.29790261,3.99612577371,490.960764888,436.52671479,601.341446575,-98.6990006301,-209.658555184,220.06057986
91.08,266.822415625,164.627921703,151.884021508,3.27234618345,490.38181866,436.52671479,601.341446575,-98.8123525871,-209.688448124,220.068358731
92.1,263.621566382,161.132288516,145.985997247,0.477642322837,488.255962553,436.52671479,601.341446575,-101.74647174,-209.848242562,220.063321477
93.12,264.286150697,161.969659276,146.918546041,0.513008763671,488.441971808,436.52671479,601.442766073,-101.024905923,-209.848704992,220.063321477
94.14,264.550203826,162.355746047,147.384342157,0.55428427257,488.588402559,436.52671479,601.577864038,-100.450765766,-209.860752365,220.063321477
95.16,260.682257165,159.714431627,142.642393286,-3.23606244455,484.902873633,436.52671479,601.577774253,-101.332398527,-209.860753186,220.063321477
96.18,261.170602609,158.669162402,136.891928273,-8.90151937905,481.996927399,436.52671479,601.644353808,-102.434138404,-209.923632029,220.063321477
97.2,265.955187116,164.828837017,148.822736489,-2.10794997929,489.628965516,436.52671479,602.820504941,-96.5871321877,-209.923631482,220.063321477
98.22,266.089510194,165.944040384,149.420603267,-1.92261551826,489.855631978,436.52671479,602.929701922,-96.3127417147,-209.923631482,220.063321477
99.24,266.044817533,166.028077915,149.789917494,-1.91993561298,490.093561844,436.52671479,602.948127935,-96.1333507259,-209.923631482,220.063321477
100.26,268.145987436,169.102203806,153.892724571,-0.757706925907,491.947386759,436.52671479,604.482935779,-92.0090518719,-209.923631482,220.063321477
101.28,271.025208198,177.716567713,166.799201147,4.37558414705,497.74492624,436.52671479,607.516190854,-86.4785402388,-209.923631482,220.063321477
102.3,271.083509097,177.888378065,167.474290647,4.23435889553,497.849294618,436.52671479,607.516190855,-86.2202617731,-209.923631482,220.063321477
103.32,270.902662906,177.687992634,166.897907228,3.76857267052,497.485919697,436.52671479,607.516190855,-86.5743598385,-209.923631482,220.063321477
104.34,268.275087823,174.144898028,159.948111001,0.768166407647,494.703179885,436.52671479,607.516190855,-88.9129218735,-210.080165342,220.055487766
105.36,265.810195564,172.021146689,156.479998358,-1.60606641383,494.169597751,436.52671479,607.527242531,-89.9412151919,-210.321114678,220.055487759
106.38,267.092691404,173.564342003,157.738749805,-1.64789105936,494.565092486,436.52671479,607.898658304,-88.4664723475,-210.338268002,220.055487759
107.4,265.590993603,171.935109565,154.116477135,-3.38673605842,493.206237067,436.52671479,607.898630729,-90.234791898,-210.435131984,220.055487759
108.42,264.666549773,169.763794846,143.387379307,-11.4548534614,488.75447814,436.52671479,607.898630729,-91.3636419389,-210.435131984,220.055487759
109.44,267.814329405,172.56122149,145.013937094,-10.3297053837,491.571818855,436.52671479,608.285759486,-89.8716900999,-210.435131984,220.055487759
110.46,269.524481888,175.935522668,153.112177518,-8.19213524745,493.024859515,436.442673819,609.249313432,-85.9787204055,-210.435131984,220.055487759
111.48,270.102234977,177.168106121,155.06568951,-6.73328655983,494.663772527,436.442944194,609.321023862,-84.8036523577,-210.435131984,220.055487759
112.5,271.011371007,178.182189849,156.3408502,-6.37565025719,495.328783523,436.442944194,609.646292044,-83.6089244792,-210.435131984,220.055487759
113.52,275.242039222,185.812194647,168.048880306,-2.58823298164,499.36826655,436.442944194,611.707304521,-77.9462686787,-210.435131984,220.055487759
114.54,275.537551034,186.299847504,168.823533661,-2.28843680626,499.355070345,436.442944194,611.715687303,-77.5118357174,-210.435131984,220.055487759
115.56,274.231253673,185.421738987,167.7807052,-3.13212697205,498.013763166,436.442944194,611.724563767,-78.42083264,-210.481570952,220.055487759
116.58,271.783172445,182.115364918,156.962695656,-8.34761125559,495.846280409,436.442944194,611.724563767,-80.9166008901,-210.550521743,220.055487759
117.6,265.790066071,174.928823469,139.329261794,-20.8441148589,492.112214463,436.442944194,611.724563767,-83.3736298748,-211.457626864,220.055487759
118.62,265.923860988,175.145472028,139.574119601,-20.853854834,492.086042661,436.442944194,611.729037465,-83.1765841431,-211.457627106,220.055487759
119.64,266.147040596,175.589783904,140.290532379,-20.7399044389,492.201029382,436.442944194,611.726788189,-82.6284548039,-211.47439028,220.055487759
120.66,264.232650842,172.389113732,124.838460051,-33.2281438342,485.97565801,436.442944194,611.726788145,-82.9638989363,-211.47439028,220.055487759
121.68,266.403815748,173.686925986,121.444463407,-35.603084461,486.959713267,436.442944194,611.982504251,-82.8409389597,-211.557212538,220.055487759
122.7,270.01702572,178.933267597,131.289873638,-31.6143817694,490.333978582,436.442944194,613.698005361,-78.6731644423,-211.557212536,220.055487759
123.72,273.724921591,185.46904281,142.478155414,-26.4579272376,495.227752816,436.442944194,614.900120895,-75.3048226378,-211.557212536,220.055487759
124.74,273.815717193,185.567514513,141.398602973,-26.9388624374,495.083828804,436.442944194,614.949036689,-76.2002773997,-211.588482482,220.055487759
125.76,277.247985876,193.05225081,150.859291933,-23.2302905322,498.95027783,436.442944194,616.673864192,-71.409681143,-211.588480359,220.055487759
126.78,277.661984245,193.681155866,152.036442306,-22.6275692147,499.638947777,436.442944194,616.675038774,-71.2116007829,-211.588480359,220.055487759
127.8,277.715086272,194.250348919,153.173260357,-22.1979795141,499.757474435,436.442944194,616.675038774,-70.7792673873,-211.588480359,220.055487759
128.8,277.007478999,193.54738919,152.599440312,-22.6544156367,499.175887041,436.442944194,616.675038774,-71.1415597486,-211.588480359,220.048469888
129.8,274.157718315,190.528036134,146.974006853,-25.4409745029,497.295275192,436.442944194,616.675038774,-73.4638184826,-211.760402724,220.05034281
130.8,274.877925242,191.456082483,147.965859316,-25.3423869908,497.562993616,436.442944194,616.927842877,-72.593896329,-211.760400707,220.05034281
131.8,274.561600459,190.836711725,146.58827785,-26.2655638351,496.719716547,436.442944194,616.888548509,-73.851833006,-211.789103961,220.05034281
132.8,270.917295446,188.199789165,142.537522315,-30.1984493118,493.018457994,436.442944194,616.888548472,-74.3060811457,-211.789103964,220.05034281
133.8,271.876849781,187.903636679,139.580737854,-33.0312236554,491.475928465,436.442944194,617.004191397,-74.5027876906,-211.789103964,220.05034281
134.8,276.593904784,193.77041803,152.14063741,-25.9649581377,498.939103011,436.442944194,618.339952239,-68.8148617701,-211.789103964,220.05034281
135.8,277.477569751,196.940076667,154.948337565,-23.8719114451,501.425534012,436.442944194,618.389684682,-66.5667679757,-211.789103964,220.05034281
136.8,277.49545797,197.163802905,155.447385936,-23.6718927443,501.766355021,436.442944194,618.40595119,-66.2884034658,-211.789103964,220.05034281
137.8,279.235302335,199.834308492,158.911793224,-22.6449544562,503.149324731,436.442944194,619.432437986,-62.216662232,-211.789103964,220.05034281
138.8,282.239156314,206.143649703,170.544842401,-17.3425856039,509.3290427,436.442944194,620.840766082,-58.3442280482,-211.789103964,220.05034281
139.8,282.788539909,207.008254689,172.127688947,-16.8152301332,509.517371964,436.442944194,620.840766086,-58.1324180392,-211.789103964,220.05034281
140.8,282.46535563,206.71420078,171.00977724,-17.4994017496,508.846488678,436.442944194,620.840766086,-58.8519464851,-211.791235673,220.05034281
141.8,281.116948005,203.69882875,161.161329029,-22.2109826225,506.2029103,436.442944194,620.840766086,-61.3358373326,-211.910054493,220.05034281
142.8,278.990428764,202.009596836,157.283848284,-25.0783432631,505.50577279,436.442944194,620.847774276,-61.9733994353,-212.239509987,220.05034281
143.8,279.836605833,202.995534286,158.317969133,-25.0271358167,505.727884441,436.442944194,620.953801147,-60.9763263183,-212.239509984,220.05034281
144.8,278.308736119,201.156072112,153.721355054,-26.583190199,504.580052512,436.442944194,620.95253528,-63.0022210699,-212.246494962,220.05034281
145.8,276.253381566,198.325225286,143.658609493,-33.525852926,500.420485871,436.442944194,620.95253528,-63.532606708,-212.246494962,220.05034281
146.8,277.541209057,199.550715494,142.813058942,-33.7231037791,500.976018793,436.442944194,621.137502231,-62.6336832313,-212.246494962,220.05034281
147.8,279.362661968,202.057706822,147.409579852,-32.096645384,501.6924599,436.535814507,621.554316429,-58.709024735,-212.246494962,220.05034281
148.8,281.533413924,205.16558001,152.325238755,-29.4421033567,504.817591797,436.556853554,622.173981757,-56.1964321673,-212.246494962,220.05034281
149.8,281.734183643,205.392234749,152.663900238,-29.2157324048,505.269279823,436.556853554,622.202333244,-55.8921366243,-212.246494962,220.05034281
150.8,282.546061174,206.906651347,154.874998179,-28.7669958311,505.847834388,436.556853554,622.327373682,-54.4784634816,-212.246494962,220.05034281
151.8,281.644424991,206.205890487,153.270362115,-29.4990858136,505.450889423,436.556853554,622.327373686,-54.6471267424,-212.246494962,220.05034281
152.8,281.551393221,206.295094781,153.487967086,-29.4960143154,505.346738175,436.556853554,622.324060069,-54.6758222697,-212.256903378,220.05034281
153.8,280.311134287,203.938402942,147.054044224,-32.1172690704,503.987565261,436.556853554,622.324044723,-56.4851399244,-212.259384745,220.05034281
154.8,275.676604753,198.881203982,129.839727275,-39.0776859846,500.805721456,436.556853554,622.324044723,-60.2374040767,-212.507984148,220.05034281
155.8,276.241762909,199.63497354,130.820913595,-38.9628137156,500.894729202,436.556853554,622.365979662,-59.605399525,-212.507984759,220.05034281
156.8,276.124095829,199.30218582,130.244499149,-39.3149890489,500.624521481,436.556853554,622.347461395,-60.0370792571,-212.517747394,220.05034281
157.8,274.162730155,197.476960404,125.72851176,-41.3985833945,499.121177237,436.556853554,622.347461205,-60.4469661902,-212.517748463,220.05034281
158.8,274.670449014,196.887805761,119.709351762,-45.8465401731,496.891985398,436.556853554,622.403732,-60.4748069701,-212.517748463,220.05034281
159.8,277.941415066,200.132290609,123.507031105,-43.0351016045,500.499979745,436.556853554,622.802240203,-58.8020710485,-212.517748463,220.05034281
160.8,280.760789095,206.085364112,135.36316986,-38.8453643083,504.056191676,436.556853554,623.936887909,-54.7428874538,-212.517748463,220.05034281
161.8,280.937487271,207.124986548,137.475568413,-38.3791769227,504.485189326,436.556853554,624.10084019,-53.6416407343,-212.517748463,220.05034281
162.8,282.30608017,209.229364938,140.218964764,-37.5762597122,505.495959131,436.556853554,624.668642816,-51.0393632552,-212.517748463,220.05034281
163.8,284.02149204,212.847475295,146.065150559,-35.2904245293,508.308104607,436.556853554,624.967985778,-48.99494541,-212.517748463,220.05034281
164.8,284.07115152,213.075943923,146.704569223,-35.1189147098,508.281180335,436.556853554,624.967985777,-48.7274139525,-212.517748463,220.05034281
165.8,284.239522353,213.225671176,146.607299638,-35.1246569534,508.344006665,436.556853554,624.967188482,-48.7595635728,-212.517748463,220.05034281
166.8,283.385430252,210.641169104,141.754003851,-37.6540792884,506.298139839,436.556853554,624.967188482,-50.3184351814,-212.568780385,220.016449415
167.8,280.154802832,207.739396458,136.405051989,-40.2234940027,505.010432117,436.556853554,625.020806876,-52.6632496772,-213.00057706,220.01638931
168.8,280.447904322,208.015050591,136.623712468,-40.3102699396,504.973845219,436.556853554,625.074437053,-52.4187204886,-213.005026983,220.01638931
169.8,278.352123526,205.888230642,133.598748808,-41.7074406716,503.50407781,436.556853554,625.073980055,-53.3544821178,-213.005514633,220.01638931
170.8,276.785395415,203.991619408,127.996966429,-46.296078174,500.517125491,436.556853554,625.073980055,-54.2552347012,-213.005514633,220.01638931
171.8,279.559541176,206.170164746,131.121656851,-44.3483819716,503.540051591,436.556853554,625.338133817,-52.2634389795,-213.005514633,220.01638931
172.8,280.880162828,210.577265211,141.393304152,-40.4855664225,506.358491141,436.556853554,626.181144528,-48.7775080708,-213.005514633,220.01638931
173.8,280.977043527,210.688656707,141.162761196,-40.5568584909,506.67111788,436.556853554,626.181144446,-48.8284339064,-213.005514633,220.01638931
174.8,281.362794473,211.38765979,143.312988423,-39.5653287482,508.39863708,436.556853554,626.445620066,-47.1137286386,-213.005514633,220.01638931
175.8,283.897957838,215.810074516,150.346042487,-37.0091363929,510.89422987,436.556853554,627.224310676,-43.3957637871,-213.005514633,220.01638931
176.8,284.728724177,217.111208367,152.7037873,-35.8169448878,512.096613142,436.556853554,627.224315373,-43.132562486,-213.005514633,220.01638931
177.8,284.572390797,217.594134385,153.975031002,-35.7054678067,511.879953786,436.556853554,627.224315373,-42.9652536685,-213.009189133,220.01638931
178.8,282.91210047,215.891198763,151.589725463,-37.1242548887,510.434476279,436.556853554,627.224315373,-44.1548391759,-213.039939876,220.01638931
179.8,280.656670188,212.900553911,143.78316091,-40.742058073,508.532486067,436.556853554,627.224315373,-45.8649487514,-213.142034986,220.01638931
180.8,281.440279732,213.855401246,144.947129964,-40.7091824188,508.604269589,436.556853554,627.283378904,-45.0591999046,-213.142035085,220.01638931
181.8,281.406080052,213.705931325,144.640509021,-40.9320151248,508.443820143,436.556853554,627.298628436,-45.2326033352,-213.157471071,220.01638931
182.8,279.63071846,211.517463896,139.631299003,-42.7208894658,507.125211828,436.556853554,627.298628416,-45.8235946248,-213.157471837,220.01638931
183.8,280.035499884,211.057918514,135.469876077,-45.4504840428,505.835309398,436.556853554,627.314511199,-45.8461616906,-213.157471837,220.01638931
184.8,281.223895175,212.518000908,136.812476254,-44.9947597494,506.732121341,436.562151339,627.448456852,-44.6179034965,-213.157471837,220.01638931
185.8,283.690797019,216.059989634,143.069143882,-41.4488152223,510.185441328,436.670257511,627.863839689,-41.6624313012,-213.157471837,220.01638931
186.8,283.747296411,216.151119007,143.23847976,-41.3465902232,510.350050658,436.670257524,627.905492497,-41.4793362393,-213.157471837,220.01638931
187.8,285.136177444,218.348544762,146.151242095,-40.5272444341,511.201325343,436.670257524,628.294811223,-39.0369314222,-213.157471837,220.01638931
188.8,285.592318848,219.621197288,148.515855391,-39.7415227422,511.959027095,436.670257524,628.301981863,-38.0615032892,-213.157471837,220.01638931
189.8,284.870831332,219.344427732,147.986988629,-39.8179552511,512.106291852,436.670257524,628.351729633,-37.7739166611,-213.157471837,220.01638931
190.8,282.624000491,217.67512893,145.825876928,-40.6624773927,510.784201705,436.670257524,628.355396319,-39.4158988372,-213.222487238,220.01638931
191.8,281.769484745,215.419810014,136.618059576,-43.6962697961,509.538039267,436.670257524,628.355396319,-40.9198562282,-213.222491524,220.01638931
192.8,279.559240824,213.564122947,130.384908403,-46.1802430954,508.457110665,436.670257524,628.355396319,-42.6845760894,-213.222491524,220.01638931
193.8,279.625001401,213.732969117,130.425348375,-46.3547426436,508.227551072,436.670257524,628.317918529,-42.6562283807,-213.259741775,220.01638931
194.8,278.833196844,212.761116729,129.012181778,-46.8243693647,507.808666255,436.670257524,628.314624975,-43.1599117314,-213.265721279,220.01638931
195.8,277.503975119,210.596321825,119.733262708,-52.722337007,504.451865123,436.670257524,628.314624975,-43.5127479253,-213.265721279,220.01638931
196.8,280.333189761,213.094115023,120.911791736,-51.9007758386,506.369821066,436.670257524,628.514279023,-42.3466407792,-213.265721279,220.01638931
197.8,282.080663324,215.989260671,126.674608185,-49.2701229216,508.26016324,436.670257524,629.057057764,-40.0959559547,-213.265721279,220.01638931
198.8,283.276086779,217.988280312,130.534201391,-47.240818168,510.364659965,436.670257524,629.193196922,-39.0592169598,-213.265721279,220.01638931
199.8,283.583182818,218.255853125,130.667502144,-47.2296903462,510.721777932,436.670257524,629.27835935,-38.8057039692,-213.265721279,220.01638931
200.8,285.862644292,222.08517097,137.061621078,-44.9076671126,513.500544152,436.670257524,629.508346233,-35.9714196995,-213.265721279,220.01638931
201.8,285.954544583,222.217045569,137.442050372,-44.8773698974,513.51376083,436.670257524,629.508349544,-35.9960396831,-213.265721279,220.01638931
202.8,286.179885048,222.699824223,138.624187924,-44.3547204897,513.956132454,436.670257524,629.513718988,-35.4691722761,-213.265721279,220.01638931
203.8,286.455924287,222.6909384,138.312903341,-44.1815109678,514.322991117,436.670257524,629.515195062,-35.6184832494,-213.265721279,220.01072622
204.8,283.943430894,220.012420188,133.175532908,-46.619037737,512.675185254,436.670257524,629.515195066,-37.7073762451,-213.403571331,220.006430574
205.8,284.401002104,220.54140195,133.730066066,-46.5670620648,512.751696016,436.670257524,629.532684111,-37.2931456743,-213.403570581,220.006430574
206.8,283.869482391,219.840220306,132.383598799,-47.266485565,512.213862177,436.670257524,629.500076713,-38.1646027884,-213.438519298,220.006430574
207.8,281.218144613,217.865498763,128.153929104,-49.8470517871,510.117410215,436.670257524,629.500076567,-38.6843828335,-213.438519299,220.006430574
208.8,281.78959971,217.436613649,125.823806239,-51.626931558,509.122495711,436.670257524,629.5228653,-38.7690047508,-213.438519299,220.006430574
209.8,285.245017646,222.638022411,137.532796838,-45.7027951561,514.646154294,436.670257524,630.352560587,-34.3168945223,-213.438519299,220.006430574
210.8,286.141263927,225.265446158,141.478643536,-44.9595192495,515.512949683,436.670257524,630.456342941,-33.2503696742,-213.438519299,220.006430574
211.8,286.116811927,225.522290915,142.070230939,-44.7330297117,516.036825332,436.670257524,630.517042149,-32.7646963039,-213.438519299,220.006430574
212.8,286.910464266,226.632937391,143.496547037,-44.2580350388,516.882542866,436.670257524,630.797882012,-31.3239708639,-213.438519299,220.006430574
213.8,288.254281016,229.04689542,149.527512449,-41.717255665,519.941866137,436.670257524,630.871330262,-29.5898331444,-213.438519299,220.006430574
214.8,288.776767782,230.200189718,152.295717126,-40.8467898107,520.249610745,436.670257524,630.879922222,-28.9873717778,-213.438519299,220.006430574
215.8,287.738341844,229.495156922,152.106852003,-41.263106548,519.512193207,436.670257524,630.882296719,-29.2039008509,-213.438519299,220.006430574
216.8,285.939082953,226.457984428,144.753774483,-44.7053455235,516.983128824,436.670257524,630.882296718,-31.3741749598,-213.567782163,220.006430574
217.8,285.561818548,226.259331858,144.152474429,-45.4452783451,516.777286142,436.670257524,630.882296718,-31.3819215803,-213.58194129,220.006430574
218.8,286.497373978,227.465848519,145.238628447,-45.5843762276,516.765532269,436.670257524,630.996106475,-30.4508981288,-213.615457681,220.006430574
219.8,285.812382495,226.451751963,143.653483131,-46.2077241712,516.316500322,436.670257524,630.991660055,-31.2791689614,-213.616249602,220.006430574
220.8,284.533747885,224.001763603,136.012570944,-50.8863220688,513.491231225,436.670257524,630.991660055,-31.4898268734,-213.616249602,220.006430574
221.8,286.545834915,225.690139443,137.023109257,-50.5434372147,514.487657272,436.670257524,631.168204107,-30.2211793755,-213.616249602,220.006430574
222.8,287.129653811,226.75866724,139.317375133,-49.7736076334,514.943787144,436.745297647,631.292116654,-28.7423042979,-213.616249602,220.006430574
223.8,288.172590909,227.912042573,140.905904925,-48.6854865051,516.291097286,436.747804481,631.354409417,-28.2212212638,-213.616249602,220.006430574
224.8,288.551853712,228.419750364,141.666938668,-48.3767397972,516.760496379,436.747804481,631.524865127,-27.51330893,-213.577166642,220.006430574
225.8,289.944925038,230.564030051,145.568314674,-47.1720900866,517.969318691,436.747804481,631.570750652,-25.9269023633,-213.577280806,220.006430574
226.8,289.803434362,230.403028661,145.387854775,-47.2296483499,518.074399731,436.747804481,631.570750863,-25.9664091436,-213.577280806,220.006430574
227.8,289.915141343,231.140533404,146.996438217,-46.8220258014,518.354781266,436.747804481,631.744748104,-25.2853475498,-213.596342998,220.006430574
228.8,286.873759818,227.984117489,140.830615243,-48.6682942369,516.781056851,436.747804481,631.744747441,-27.8620330826,-213.756498906,220.006430574
229.8,281.769152251,222.805621098,124.274426074,-55.8319468858,513.509895611,436.747804481,631.744747441,-30.7586589757,-214.234349062,220.006430574
230.8,282.101630254,223.219966288,124.746331049,-55.8892759181,513.510577981,436.747804481,631.775634902,-30.3192291016,-214.235109316,220.006430574
231.8,281.958235404,222.980834313,124.280918096,-56.1640753438,513.257665182,436.747804481,631.723257149,-30.6644420532,-214.284394877,220.006430574
232.8,279.99687073,221.051661326,120.655114684,-57.749148162,512.150813627,436.747804481,631.723252603,-31.1569199066,-214.284395226,220.006430574
233.8,280.768020971,220.99466684,116.939762617,-60.1518980838,511.087072195,436.747804481,631.858276195,-30.7800366382,-214.284395226,220.006430574
234.8,283.992780031,223.812716959,119.780536477,-58.1760478206,514.061006101,436.747804481,632.173302586,-29.4636136567,-214.284395226,220.006430574
235.8,287.123620373,230.450352537,130.067988415,-53.9075262715,517.42603976,436.747804481,633.220281803,-24.0298317144,-214.284395226,220.006430574
236.8,286.726913465,230.306688625,127.573821881,-55.7612775884,516.339571615,436.747804481,633.234375496,-25.4209789744,-214.495341271,220.006430574
237.8,287.433301301,231.488805869,129.262001648,-55.3666231954,516.613719922,436.747804481,633.387434532,-23.935688863,-214.495840064,220.006430574
238.8,288.951551326,234.168856304,134.237869236,-53.6391980308,518.655522326,436.747804481,633.521298093,-22.1515034801,-214.495839778,220.006430574
239.8,289.3633363,234.961972469,135.884998773,-53.0673005945,518.845533484,436.747804481,633.521298093,-21.8192713106,-214.495839778,220.006430574
240.8,289.106029923,234.8591491,136.396041432,-52.8756580809,518.914644447,436.747804481,633.521298093,-21.6276100179,-214.495945072,220.006430574
241.8,288.040188425,233.872882966,134.680361805,-53.4812051543,518.216036918,436.747804481,633.521298093,-22.6953071467,-214.540230969,220.051545762
242.8,287.763195632,233.743657309,134.054934268,-53.7964661287,517.979672963,436.747804481,633.529004068,-22.8470184847,-214.557770908,220.051470503
243.8,287.919436021,233.866611817,134.102180103,-54.0290418988,517.798558227,436.747804481,633.516815383,-22.8328765337,-214.616246761,220.051470503
244.8,286.034310026,232.339167284,132.090213676,-55.1139644011,516.632034432,436.747804481,633.51624247,-23.1747798641,-214.616139983,220.051470503
245.8,284.091278913,230.348086108,127.091020722,-59.0813923774,513.342653278,436.747804481,633.516242467,-23.9053507526,-214.616139983,220.051470503
246.8,285.767515501,231.806173209,129.109776756,-58.0449838349,514.955115549,436.747804481,633.591755409,-22.6265916699,-214.616139983,220.051470503
247.8,287.316671819,236.62249436,139.592968788,-54.587765769,517.366165472,436.747804481,634.111090934,-19.2158120115,-214.616139983,220.051470503
248.8,287.807256877,237.73295687,142.055383769,-53.5351901163,518.81492736,436.747804481,634.111089238,-18.3692828584,-214.616139983,220.051470503
249.8,287.953773474,238.011541273,142.782397257,-53.1675508811,519.347728148,436.747804481,634.183177791,-17.9288142915,-214.613862156,220.051470503
250.8,290.367532463,243.266380486,152.630112638,-49.9401648584,523.095559445,436.747804481,635.130244132,-13.5626655658,-214.6066521,220.051470503
251.8,291.925358393,245.395296439,156.727857941,-48.1440552809,524.880992287,436.747804481,635.130809432,-13.3367901438,-214.6066521,220.051470503
252.8,291.978668429,246.398477731,159.19308592,-47.4485094221,525.289776296,436.747804481,635.162651542,-12.7326714242,-214.6066521,220.051470503
253.8,291.128408346,245.36412184,157.858680586,-48.0985960037,524.718192911,436.747804481,635.1626515,-13.4020822338,-214.6066521,220.051470503
254.8,288.531960181,241.859078557,148.564147884,-53.2724523708,521.445827818,436.747804481,635.1626515,-15.2190413876,-215.063057154,220.051470503
255.8,288.925419347,242.269408166,149.073076483,-53.2462615682,521.471576945,436.747804481,635.182774824,-14.8393091182,-215.063057154,220.051470503
256.82,288.336776599,241.392164971,146.918031468,-54.502849285,520.511885278,436.747804481,635.153557659,-16.3620609492,-215.148210589,220.051470503
257.84,286.804740607,239.577805648,142.602597981,-55.8959858354,519.266146457,436.747804481,635.153557658,-16.9661313691,-215.148353214,220.051470503
258.86,287.272629423,239.078800009,138.731599692,-58.2432421013,518.19844943,436.747804481,635.16699901,-16.8882141903,-215.148353214,220.051470503
259.88,288.080245983,240.030333277,139.725577924,-57.8479654981,518.719911523,436.7593848,635.24647101,-16.0104157553,-215.148353214,220.051470503
260.9,290.860964017,245.768242825,146.695386287,-53.762654621,522.752199333,436.798655911,636.191603956,-10.3773335735,-215.148353214,220.051470503
261.92,290.90594853,245.833408484,146.780902507,-53.6679134027,522.863512024,436.79865591,636.213307177,-10.2873193789,-215.142576685,220.051470503
262.94,291.126036523,246.185739837,147.648368429,-53.405268473,523.182163492,436.79865591,636.343333502,-9.75987419136,-215.153862245,220.051470503
263.96,290.809116393,246.060122458,147.81158938,-53.4867338714,523.260417585,436.79865591,636.343335314,-9.62656503572,-215.153859942,220.051470503
264.98,290.521352418,245.994567495,147.926440607,-53.388977732,523.514790695,436.794644129,636.349697692,-9.34739732927,-215.153859942,220.051470503
266.0,285.660603467,241.687817036,141.34608223,-55.8505140237,521.042424685,436.794644129,636.351638156,-12.6263755916,-215.4634982,220.051470503
267.02,283.206141477,238.039566524,126.894035923,-60.5282131686,519.003076111,436.794644129,636.351638156,-15.0016929311,-215.508207196,220.051470503
268.04,283.116944547,238.235433915,126.660230728,-60.8940593684,518.883928383,436.794644129,636.36371363,-14.870153535,-215.509731507,220.051470503
269.06,283.01695642,238.144189045,126.388214767,-61.3115275273,518.492865906,436.794644129,636.356099601,-15.1010436706,-215.577438532,220.051470503
270.08,281.349482301,236.729940885,123.398636474,-62.2035272011,517.778508603,436.794644129,636.356041462,-15.2961734195,-215.577507763,220.051470503
271.1,280.980131144,235.023428935,116.659860714,-66.5739613412,515.325057084,436.794644129,636.356041462,-15.9259129037,-215.577507763,220.051470503
272.12,284.025114282,237.764738576,119.247099127,-64.7455691112,518.065527657,436.794644129,636.557161214,-14.4315202228,-215.577507763,220.051470503
273.14,287.652229633,245.19055132,136.567743754,-59.6721492031,521.384851887,436.794644129,639.061681358,-7.03070177963,-215.577507763,220.051470503
274.16,287.805275238,246.775431165,138.460945564,-58.8530788794,522.395472726,436.794644129,639.199678588,-6.51641436439,-215.602009842,220.051470503
275.18,288.396033548,247.583238506,139.750509953,-58.3733693753,522.912224212,436.794644129,639.30279487,-5.12139637825,-215.602009831,220.051470503
276.2,289.56111316,250.523543039,144.307563639,-57.1919399249,524.340100711,436.794644129,639.490974942,-2.7802906991,-215.602009831,220.051470503
277.22,289.579655726,250.813656789,144.428630368,-57.3176297303,524.066111521,436.794644129,639.490974941,-2.67881800377,-215.602009831,220.051470503
278.24,288.824375258,250.278251768,144.074882034,-57.5833964347,523.49605609,436.794644129,639.489537329,-2.98906353027,-215.639092198,220.051470503
279.26,287.146142725,248.714806761,141.216059186,-58.8130452333,522.164139019,436.794644129,639.489537307,-4.26752623645,-215.726617874,220.162307124
280.28,284.07869778,245.929091866,135.587173387,-61.2810186656,520.983405835,436.794644129,639.489681792,-6.27164262576,-215.982491931,220.161949991
281.3,283.933538106,245.785977605,135.142562953,-61.6030180812,520.617664691,436.794644129,639.457521572,-6.57400274755,-216.050257723,220.161949991
282.32,281.800414292,243.707109345,131.925251438,-63.1582110391,519.108794386,436.794644129,639.447967022,-7.86553223394,-216.050347302,220.161949991
283.34,280.315869978,242.344329788,128.566219439,-66.094161716,516.760942348,436.794644129,639.447967022,-8.32450456102,-216.050347302,220.161949991
284.36,282.922811613,244.936849352,132.463387065,-63.6353938862,519.672244388,436.794644129,639.789725818,-5.89073261822,-216.050347302,220.161949991
285.38,283.908928183,248.75434376,142.074111078,-60.5866776795,522.317655379,436.794644129,640.610790548,-2.21572248131,-216.050347302,220.161949991
286.4,284.113063028,249.034351471,143.937245766,-60.4131086384,522.868934263,436.794644129,640.610790574,-2.95482659083,-216.050347302,220.161949991
287.42,284.727868251,250.24951159,146.338872152,-59.2982784459,524.544680137,436.794644129,641.008018962,-1.00935447399,-216.050347302,220.161949991
288.44,286.962667687,254.035457035,152.730390146,-57.4027742495,526.473369078,436.794644129,641.514625433,2.35607234048,-216.050347302,220.161949991
289.46,287.953916635,255.136259168,155.085274727,-56.4481453495,527.447157032,436.794644129,641.514626136,2.4319240753,-216.050347302,220.161949991
290.48,287.974569095,255.567085177,156.437231175,-56.1501185096,527.42958562,436.794644129,641.514626136,2.52755356846,-216.050347302,220.161949991
291.5,286.997104204,254.241606476,154.325417318,-57.1505568686,526.485428669,436.794644129,641.514626136,1.53336720173,-216.060437898,220.161949991
292.52,286.470316624,253.476226039,152.594885539,-58.0085608435,525.747986104,436.794644129,641.514626136,1.07602988963,-216.060437898,220.161949991
293.54,286.681809443,253.697594757,152.873140073,-57.9242498603,525.809495307,436.794644129,641.518816597,1.19529896592,-216.059186009,220.161949991
294.56,285.979149993,252.67677867,150.001986752,-59.2995689486,524.941110014,436.794644129,641.481903056,-0.514038956983,-216.159508932,220.161949991
295.58,284.505714801,250.620886094,144.053386135,-62.4933013991,522.809122236,436.794644129,641.481903056,-0.967111948454,-216.15950898,220.161949991
296.6,285.393801016,251.076891978,143.561500077,-63.0970369746,522.749102733,436.794644129,641.541963426,-0.312433799581,-216.15950898,220.161949991
297.62,284.927434853,251.269043864,144.753638598,-63.0814242148,522.249048951,436.809954502,641.537366681,0.375058215338,-216.15950898,220.161949991
298.64,286.060357105,252.956824543,146.906924646,-61.4435845037,523.858189437,436.80580509,641.541399053,1.09649487846,-216.15950898,220.161949991
299.66,286.420486355,253.447172998,147.094768564,-61.2073481294,524.597610929,436.80580509,641.855921463,1.39692445062,-216.195693967,220.161949991
300.68,287.939875,256.025734572,151.494887445,-59.9750572265,525.809132741,436.80580509,642.025665753,3.69915645728,-216.195693967,220.161949991
301.7,288.188172978,256.235380263,151.938158417,-59.6745883128,526.335131943,436.80580509,642.025665758,3.74025802828,-216.195693967,220.161949991
302.72,287.887766356,256.470670082,152.843020871,-59.4317291562,526.390762155,436.80580509,642.057470059,3.9003959244,-216.210616007,220.161949991
303.74,282.604242925,250.713424903,141.847769678,-63.8486468389,523.937346879,436.80580509,642.057465073,-0.113056345583,-216.669542924,220.161949991
304.76,278.862870675,246.599906101,124.936484735,-71.1961125833,521.407313053,436.80580509,642.057465073,-2.65636379444,-216.793495822,220.161949991
305.78,279.750487328,247.637855608,126.42326313,-71.0838632354,521.470212624,436.80580509,642.084649674,-1.77326925891,-216.793495067,220.161949991
306.8,279.720360996,247.671086919,126.416662134,-71.1736994161,521.338202234,436.80580509,642.068137318,-1.80168435043,-216.806056245,220.161949991
307.82,277.616288576,245.671854281,121.547302939,-73.4166944657,519.798190206,436.80580509,642.069374142,-1.84919184152,-216.806056236,220.161949991
308.84,278.464181579,246.011779178,118.2466693,-76.1559485604,518.632632732,436.80580509,642.092158619,-1.46956831567,-216.806056236,220.161949991
309.86,281.030259717,248.832279095,123.122632509,-73.8268982321,521.01450625,436.80580509,642.498390763,0.793038236766,-216.806056236,220.161949991
310.88,282.271410273,251.950526053,128.993438197,-71.5774766279,522.655346039,436.80580509,642.986254718,2.62295591263,-216.806056236,220.161949991
311.9,282.249195809,251.837929572,128.736354539,-71.8350228436,522.550606512,436.80580509,642.991822284,2.38642514308,-216.819686995,220.161949991
312.92,283.750126283,253.946381092,132.359177475,-70.8813005449,523.987717641,436.80580509,643.369042409,4.82704640209,-216.819686995,220.161949991
313.94,285.030238994,256.98133992,138.256263261,-69.0271988271,525.926869279,436.80580509,643.556655077,6.42040458209,-216.819686995,220.161949991
314.96,285.260745563,257.657799142,139.933752795,-68.5134807842,526.151501013,436.80580509,643.556655077,6.78445883583,-216.819686995,220.161949991
315.98,285.395478088,257.667788398,139.742388269,-68.3962267611,526.294161045,436.80580509,643.564321418,6.62890628184,-216.813780888,220.161949991
317.0,283.551814893,255.697960378,136.823487619,-69.7519681699,525.156922371,436.80580509,643.564321388,5.07016430711,-216.884474906,220.141589738
318.02,283.726782504,255.88221972,136.991122491,-69.8558910911,525.131004031,436.80580509,643.575959192,5.15275685697,-216.884606081,220.141589668
319.04,283.408111301,255.592878288,136.451634245,-70.337625937,524.624683133,436.80580509,643.526124684,4.65691874278,-216.982926328,220.141589668
320.06,281.199262514,253.985584202,133.669527844,-72.1122928096,523.006731385,436.80580509,643.528669811,4.25319501244,-216.982921917,220.141589668
321.08,281.1659332,253.286112853,131.940590103,-73.5607694706,521.929205437,436.80580509,643.528669811,3.95377728973,-216.982921917,220.141589668
322.1,284.906271234,256.975994386,140.060855877,-68.9883190639,527.652048564,436.80580509,644.076474782,7.80939053779,-216.982921917,220.141589668
323.12,286.034330799,262.078207674,147.371782813,-67.5023894609,528.202929194,436.80580509,644.770428231,10.3126135512,-216.982921917,220.141589668
324.14,286.219858122,262.913722869,148.702274643,-66.7962895418,529.024739879,436.80580509,644.783205702,11.0472630209,-216.982921917,220.141589668
325.16,286.916586015,263.905871321,150.550001635,-66.1259229098,530.116747177,436.80580509,645.011762128,12.6787553815,-216.982921917,220.141589668
326.18,288.617038621,268.190271761,161.099096713,-61.6278808211,534.431943912,436.80580509,645.047904734,15.9144153876,-216.982921917,220.141589668
327.2,288.90886228,268.86014461,162.516835499,-61.181032026,534.576115315,436.80580509,645.047904734,16.0755961272,-216.982921917,220.141589668
328.22,287.940973044,268.151763112,161.802094047,-61.973690316,533.648622423,436.80580509,645.047904734,15.5428896645,-217.010925911,220.141589668
329.24,286.327343494,265.485371994,156.239515895,-64.4647848244,531.598054758,436.80580509,645.047904734,13.6349838336,-217.075361864,220.141589668
330.26,285.612351679,265.033036134,155.288320039,-65.0762676114,531.184312012,436.80580509,645.05352655,13.4136217295,-217.0937331,220.141589668
331.28,285.108864612,264.83321172,155.072049172,-65.1621968526,530.978273858,436.80580509,645.091988313,13.2341480573,-217.130800067,220.141589668
332.3,283.544539585,262.972507603,150.804790732,-66.8287764921,529.883594048,436.80580509,645.084596107,11.5387922197,-217.155945953,220.141589668
333.32,282.45437825,260.89979598,144.184624105,-70.2669172629,527.373183921,436.80580509,645.084596107,11.2756506763,-217.155945953,220.141589668
334.34,282.903040746,261.30380551,143.654691314,-70.7545358069,527.400385864,436.80580509,645.140043466,11.5993959615,-217.155945953,220.141589668
335.36,283.182032942,261.842402287,145.041341575,-70.2624933352,527.517091707,436.7637832,645.151994402,12.1764545903,-217.155945953,220.141589668
336.38,283.930274556,263.158312091,146.925146508,-69.078150718,528.816708707,436.765308251,645.202151616,12.7903878011,-217.155257781,220.141589668
337.4,284.382207749,263.684733879,147.798614962,-68.7404704065,529.25519018,436.765308251,645.265624275,13.4130310684,-217.144216863,220.141589668
338.42,285.815286921,265.963952714,151.845057108,-67.3804800827,530.73175883,436.765308251,645.355843031,15.2149575091,-217.144215795,220.141589668
339.44,285.773158863,265.922257088,151.715993045,-67.3853360276,530.795658351,436.765113254,645.355843031,15.2340065728,-217.144215795,220.141589668
340.46,284.736036914,265.520911965,152.124189116,-67.6961678644,530.071137053,436.768832465,645.364822624,15.179510891,-217.192598148,220.141589668
341.48,280.950056496,260.587491364,140.685281347,-72.1918909069,528.15115038,436.768832465,645.364822623,11.9004961747,-217.424618715,220.141589668
342.5,276.566893595,255.77346012,126.873889661,-78.1076844069,525.22443789,436.768832465,645.364822623,10.1444452302,-217.594146855,220.141589668
343.52,276.678275648,255.919673328,127.030541577,-78.1155709525,525.173733548,436.768832465,645.358679304,10.2230628437,-217.601244845,220.141589668
344.54,276.379934962,255.333958138,125.68845912,-78.9482554998,524.578725803,436.768832465,645.337576258,9.23534712058,-217.71043183,220.141589668
345.56,274.769241285,253.211776972,118.691882352,-82.4410121409,522.415676323,436.768832465,645.337576258,8.96652206344,-217.710431882,220.141589668
346.58,276.206119701,254.144148903,118.095273216,-83.0222608307,522.975362877,436.768832465,645.45002071,9.45565381999,-217.710431882,220.141589668
347.6,277.610627432,256.996176297,124.042386781,-81.0862143921,524.355867183,436.768832465,645.994339703,12.1985625407,-217.710431882,220.141589668
348.62,279.296391933,259.73314872,128.901622267,-78.7050814955,526.639294528,436.768832465,646.344061078,13.8950907761,-217.710431882,220.141589668
349.64,279.349433892,259.828353229,129.24304019,-78.551808565,526.904232757,436.768832465,646.41848429,14.2420233567,-217.710431882,220.141589668
350.66,280.714508208,262.395326307,133.637630192,-77.2567077559,528.371029176,436.768832465,646.51653213,16.4218188335,-217.70505777,220.141589668
351.68,281.532208179,263.306952118,135.836939574,-76.437704366,529.282322445,436.768832465,646.516556863,16.7763085339,-217.70505777,220.141589668
352.7,281.979743942,264.773520855,139.452745157,-75.1645342457,530.112492242,436.768832465,646.567411414,17.9509767716,-217.70505777,220.141589668
353.72,281.78544881,264.404144126,138.919333946,-75.0835016694,530.079445853,436.768832465,646.618382668,17.5936429144,-217.716555023,220.132761183
354.74,279.762016046,262.219577411,134.613360576,-76.8286766309,528.412157856,436.768832465,646.618382668,15.9785939664,-217.775400478,220.131315381
355.76,279.91881524,262.464490972,134.82811591,-76.8571372835,528.38502726,436.768832465,646.63063273,16.1659919758,-217.775409281,220.131315381
356.78,279.811551252,262.40385253,134.731121224,-76.882422383,528.332712655,436.768832465,646.624828749,16.1041282403,-217.776491473,220.131315381
357.8,276.613415974,259.845844274,130.415813468,-79.4136621711,526.261250561,436.768832465,646.624828599,15.4662415063,-217.776491473,220.131315381
358.82,277.202824184,259.751329518,129.532347447,-80.5560496004,525.679398794,436.768832465,646.636248394,15.5941747126,-217.776491473,220.131315381
359.84,280.367447223,265.528106713,142.218213142,-74.7673640502,531.015471616,436.768832465,648.013220886,20.8690628198,-217.776491473,220.131315381
360.86,281.831066048,269.774995706,149.500479147,-71.9594770259,533.858656743,436.768832465,648.221875522,22.8432836111,-217.776491473,220.131315381
361.88,281.828507181,269.976600744,149.740112176,-71.8520302788,534.087741659,436.768832465,648.249892192,23.0923521468,-217.776491473,220.131315381
362.9,283.191662801,271.962010794,152.701116058,-71.0671625232,534.977028919,436.768832465,648.621760281,25.7531643829,-217.767681924,220.131315381
363.92,284.870916756,275.848895661,161.374919434,-67.3144249421,538.463062594,436.768832465,648.781860174,27.7101201551,-217.767681551,220.131315381
364.94,285.231838136,276.658584776,163.136140841,-66.9605020629,538.458940686,436.768832465,648.781860174,27.7888244358,-217.767681551,220.131315381
365.96,283.346314912,275.145462452,161.353338049,-68.2093942018,536.936026163,436.768832465,648.781860174,26.7149656111,-217.777281761,220.131315381
366.98,282.002274273,273.181644296,156.792824875,-70.3161666886,535.567055312,436.768832465,648.781860174,25.4617963635,-217.791160718,220.131315381
368.0,282.193808644,273.35025052,156.726790788,-70.4881199794,535.480170331,436.768832465,648.785831164,25.597988498,-217.791160718,220.131315381
369.02,281.966226215,272.963945367,156.008988026,-70.8849036885,535.106294862,436.768832465,648.749021243,24.8727378438,-217.823415289,220.131315381
370.04,279.650399233,270.757072068,150.526251179,-73.0853018338,533.81917644,436.768832465,648.748762489,23.1154517045,-217.828923176,220.131315381
371.06,279.119884083,269.282899877,145.043610628,-76.2775998717,532.117676492,436.768832465,648.748762489,22.7409566467,-217.828923176,220.131315381
372.08,278.814836368,269.230540385,145.519346025,-76.801648586,531.400295321,436.768832465,648.751939105,22.826814661,-217.828923176,220.131315381
373.1,279.943380716,271.296611624,149.797558147,-74.7650860164,532.62633763,436.77060197,649.018096984,24.8873626452,-217.828923176,220.131315381
374.12,280.150364796,272.376093779,151.718384554,-73.5210152971,533.871905042,436.770606359,649.090062399,25.8619010735,-217.828923176,220.131315381
375.14,280.68673242,273.011213916,152.838029276,-73.1533261357,534.301810127,436.770606359,649.202746226,26.7713825559,-217.813310134,220.131315381
376.16,281.843844191,274.955449698,156.849949375,-71.7714164229,535.620761633,436.770606359,649.248715086,28.2461348476,-217.813310125,220.131315381
377.18,281.407398407,274.618886452,156.452416497,-71.9571059454,535.613472893,436.767399164,649.248715086,28.2386248516,-217.813310125,220.131315381
378.2,277.687384183,271.464743415,152.920145698,-73.7877487611,533.437505617,436.767400524,649.248132703,26.3559617203,-218.179911521,220.131315381
379.22,275.535747037,267.065018446,142.271759804,-77.9319685332,532.113204703,436.767400524,649.248132703,23.5925528514,-218.365864637,220.131315381
380.24,271.736588496,262.666911003,130.698739966,-83.4354295915,529.648482792,436.767400524,649.248132703,21.3844459517,-218.560099062,220.131315381
381.26,271.72231217,262.809008199,130.885141544,-83.6812047951,529.303399462,436.767400524,649.193911692,21.4721901048,-218.64204833,220.131315381
382.28,270.838650887,261.571111042,128.432991483,-84.7222558042,528.526850224,436.767400524,649.193751186,20.2688807394,-218.6962096,220.131315381
383.3,269.612896097,259.316596879,121.217020389,-88.8167715578,525.862905858,436.767400524,649.193751186,19.9916638568,-218.696209604,220.131315381
384.32,271.592011309,261.400300005,122.928751314,-88.3041158427,527.05395639,436.767400524,649.397487709,21.1955333112,-218.696209604,220.131315381
385.34,273.175838829,264.758463156,129.657553403,-86.3333297362,528.149443819,436.767400524,649.812997793,23.9353984641,-218.696209604,220.131315381
386.36,274.879389754,268.693879996,136.031205573,-83.1996037114,530.998321986,436.767400524,650.088740197,26.3625273835,-218.696209604,220.131315381
387.38,274.81723465,268.663659305,135.859428855,-83.2540946782,530.977504806,436.767400524,650.096275852,26.3838604002,-218.713282575,220.131315381
388.4,276.681985711,272.65088985,143.19906111,-81.0651203039,533.213493353,436.767400524,650.208647378,29.6521005995,-218.712459814,220.131315381
389.42,277.043875287,272.964253011,143.942311615,-80.8228112568,533.466439239,436.767400524,650.208648266,29.6802264169,-218.712459814,220.131315381
390.44,277.157031096,273.24135541,144.807805208,-80.2797106116,533.899204743,436.767400524,650.208648266,30.0534180474,-218.712459814,220.131315381
391.46,276.23180356,272.52445645,144.237286649,-80.5695508098,533.444510528,436.767400524,650.208648266,29.6152372909,-218.755705992,220.192723873
392.48,274.15038024,270.889856062,141.686811402,-81.9236599064,532.463964181,436.767400524,650.208648266,28.6967676121,-218.776096213,220.2105924
393.5,273.943955102,270.80746659,141.541115842,-82.0744246916,532.252274244,436.767400524,650.198585947,28.4807156589,-218.812629491,220.2105924
394.52,273.796707129,270.586889086,141.258512203,-82.1954075237,532.143074813,436.767400524,650.178485636,28.3711962104,-218.835608066,220.2105924
395.54,271.821392234,267.591441669,135.828348448,-85.319147096,529.652877958,436.767400524,650.178485624,27.6732687139,-218.835608066,220.2105924
396.56,273.541652982,269.264409111,137.306437845,-84.7383177133,530.882805624,436.767400524,650.292621594,28.8846928049,-218.835608066,220.2105924
397.58,277.033931645,276.115869882,151.874607034,-79.2140962238,535.07342248,436.767400524,651.596034888,33.2392595955,-218.835608066,220.2105924
398.6,278.559464713,279.035674409,156.796049738,-76.6316159744,537.541796131,436.767400524,651.812589094,34.0387847543,-218.835608066,220.2105924
399.62,278.588936089,279.163851883,156.880571921,-76.5108314266,537.766562374,436.767400524,651.827059391,34.2849198412,-218.835608066,220.2105924
400.64,279.495246665,280.626154298,160.058194999,-75.4597878582,538.794177371,436.767400524,651.875027987,35.907274194,-218.838167791,220.2105924
401.66,280.93577854,282.584425438,165.1842854,-73.3614193877,540.965223893,436.767400524,651.875028057,36.3981766527,-218.83816779,220.2105924
402.68,280.985802184,283.17291917,166.490124937,-73.1437383873,540.872903525,436.767400524,651.875028057,36.5842913082,-218.83816779,220.2105924
403.7,278.706006883,280.476140822,162.376033549,-75.3038100059,538.947132166,436.767400524,651.875028057,34.956302508,-218.906837506,220.2105924
404.72,277.988822236,278.7389853,155.831221349,-80.0064744951,537.196777643,436.767400524,651.875028057,33.5586709363,-219.281286899,220.2105924
405.74,278.128227992,278.899326481,156.071084026,-80.0170575936,537.148338203,436.767400524,651.87757465,33.6439761979,-219.28128771,220.2105924
406.76,277.083409839,277.910255658,153.793134798,-81.1602878307,536.276651066,436.767400524,651.87496822,31.4551134138,-219.490076316,220.2105924
407.78,275.021982216,275.657044304,148.762085234,-82.8134560723,534.914713606,436.767400524,651.874968199,30.5436342335,-219.490081512,220.2105924
408.8,275.128032238,274.503402415,144.707997978,-85.0725743547,533.811797285,436.767400524,651.874968199,30.5657051561,-219.490081512,220.2105924
409.82,273.779835737,273.801495243,144.252390623,-86.1844552964,532.407515968,436.765807712,651.878319025,30.1826865852,-219.498177148,220.2105924
410.84,274.929195603,275.821351842,149.198723941,-83.9738186353,534.435138015,436.902972671,651.975109912,32.3182624577,-219.498177148,220.2105924
411.86,274.927937605,275.806838653,149.14516215,-83.9726731508,534.475447443,436.902972671,651.97210988,32.2859095775,-219.498177148,220.2105924
412.88,275.868408668,277.195379856,151.394388153,-83.3636764333,535.133199039,436.902972671,652.119622021,33.891467458,-219.498128178,220.2105924
413.9,276.325978856,277.823267506,153.086953598,-82.6132740497,536.045999929,436.902972671,652.119663419,34.3074461941,-219.498128177,220.2105924
414.92,276.400884196,278.152151735,153.951777351,-82.2786449078,536.338479186,436.902972671,652.128712329,34.8236699211,-219.498128177,220.2105924
415.94,273.201651305,275.085182246,149.156439644,-83.5680965678,534.578052318,436.902972671,652.128857618,32.0441317401,-219.570381083,220.2105924
416.96,270.831347689,271.017735173,137.025062607,-87.8016120278,532.450602391,436.902972671,652.128857618,29.3761973976,-219.626055142,220.2105924
417.98,270.084208808,270.582506759,135.582638971,-88.793464617,531.956317343,436.902972671,652.131023357,29.2926504894,-219.664900607,220.2105924
419.0,269.838571891,270.400470587,135.191348285,-89.0408064099,531.686097719,436.902972671,652.107105047,28.864150697,-219.71766252,220.2105924
420.02,267.78358052,268.391075179,131.266390257,-90.2266829616,530.696179768,436.902972671,652.107103888,28.0884462069,-219.717664311,220.2105924
421.04,267.421623597,266.721950127,125.821363776,-93.4226187191,528.887478276,436.902972671,652.107103888,27.6747519308,-219.717664311,220.2105924
422.06,271.168663226,270.342513768,129.495341379,-91.3759624956,531.905217419,436.902972671,652.31551449,29.3850996278,-219.717664311,220.2105924
423.08,272.493548006,273.078000513,135.951070366,-89.1163472877,533.136892986,436.902972671,652.7917165,31.6561904494,-219.717664311,220.2105924
424.1,272.605609673,273.326028705,136.215901617,-89.0724597576,533.247302978,436.902972671,652.791716579,31.6886564678,-219.717664311,220.2105924
425.12,272.895721168,273.631545004,137.155264775,-88.5671734022,533.965122202,436.902972671,652.884731669,32.4542608873,-219.718769695,220.2105924
426.14,274.438900745,276.295408985,143.349031028,-86.7394649363,535.964399196,436.902972671,652.97795685,34.540829545,-219.718565853,220.2105924
427.16,274.785365862,276.830951133,144.355796284,-86.3123826317,536.183295123,436.902972671,652.97795685,34.6002496217,-219.718565853,220.2105924
428.18,274.618286322,277.175052412,145.34982831,-86.2855761443,536.026605287,436.902972671,652.97795685,34.6805758795,-219.731187468,220.2105924
429.2,273.856595081,275.605796752,143.277148942,-87.4976911508,535.291956566,436.902972671,652.95540053,33.4668449054,-219.792143741,220.054857962
430.22,272.652415966,274.603330679,141.962905067,-88.3779166971,534.590916391,436.902972671,652.955383981,32.9519349212,-219.894289009,220.053244975
431.24,272.390944705,274.321378453,141.594574698,-88.6857614005,534.25735444,436.902972671,652.918447719,32.5995684858,-219.934209687,220.053244975
432.26,271.055914257,273.213987339,139.782852181,-89.5293784789,533.411834749,436.902972671,652.922015102,32.3071647381,-219.937814227,220.053244975
433.28,270.439215003,272.643942038,138.435552858,-90.3685775374,532.728154297,436.902972671,652.922015102,32.1634934165,-219.937814227,220.053244975
434.3,272.666058369,274.401901432,140.444503695,-88.8042737204,535.19269618,436.902972671,653.07119212,33.6266238705,-219.937814227,220.053244975
435.32,275.167384708,281.471090992,155.397108836,-83.7585180066,538.415960141,436.902972671,654.099783167,37.8880773106,-219.937814227,220.053244975
436.34,277.18619434,285.022912893,161.186489196,-80.3927394895,541.241089683,436.902972671,654.100794569,38.8595936088,-219.937814227,220.053244975
437.36,277.552101205,285.538265304,162.063141014,-80.0888295167,541.953136983,436.902972671,654.337947756,39.747734714,-219.936949937,220.053244975
438.38,278.655800034,287.312216789,165.846255802,-78.7182626834,543.255535424,436.902972671,654.377524248,41.338238393,-219.93329376,220.053244975
439.4,280.096056553,288.865106201,168.683717843,-77.5552541204,544.288689179,436.902972671,654.377524269,41.4170460231,-219.93329376,220.053244975
440.42,280.09886958,289.498626206,170.004075095,-77.5539738391,544.042475589,436.902972671,654.389100068,41.3410836397,-219.93329376,220.053244975
441.44,278.532188319,287.556098345,166.742521991,-78.9274760391,542.917837671,436.902972671,654.389100066,40.21278925,-219.978532668,220.053244975
442.46,277.711643528,286.494225914,163.822841343,-80.3932337939,541.765496404,436.902972671,654.389100066,39.4822479416,-219.988592646,220.053244975
443.48,277.265061491,286.155925051,163.247948704,-80.5832566102,541.535793472,436.902972671,654.389100066,38.8114072456,-220.063287593,220.053244975
444.5,276.275185436,284.898954993,160.506807823,-81.8675261642,540.68661187,436.902972671,654.390643774,37.2334635758,-220.097105044,220.053244975
445.52,274.268768425,282.679188084,153.799708205,-84.5608827074,538.945643047,436.902972671,654.390643774,36.518472469,-220.097105093,220.053244975
446.54,274.788044606,282.718604378,152.379526686,-85.3329078518,538.705722789,436.902972671,654.404634127,36.8219985729,-220.097105093,220.053244975
447.56,274.144616812,282.703063378,153.003149885,-85.7282865348,537.717187207,436.867006974,654.425652268,37.2945897733,-220.097105093,220.053244975
448.58,276.337363289,286.124221338,159.325070955,-82.2746727886,541.244487726,436.894573417,655.01459935,39.4389176822,-220.097105093,220.053244975
449.6,276.44258152,286.234548172,159.558891877,-82.1844210158,541.430034402,436.894573417,655.038703405,39.5832850515,-220.088846426,220.053244975
450.62,277.050016809,287.194608696,161.529029695,-81.5475931442,542.021116367,436.894573417,655.028910795,40.4783177226,-220.095753655,220.053244975
451.64,277.008520522,287.096084707,161.40904798,-81.3967216711,542.632886063,436.894573417,655.028910795,40.3919850841,-220.095753655,220.053244975
452.66,276.471627035,286.700784594,159.944865977,-82.1975111928,542.021714496,436.878355686,655.028910795,39.6424883438,-220.118447753,220.053244975
453.68,272.392586997,282.515746381,151.504298635,-85.0550914623,540.014824712,436.878355686,655.028910795,36.1009144394,-220.372378405,220.053244975
454.7,268.439112264,277.978904388,138.572340467,-90.0824969163,537.101766782,436.878355686,655.028910795,33.9713111717,-220.489593404,220.053244975
455.72,269.064884101,278.67888789,139.793784523,-89.9253226093,537.132232127,436.878355686,655.047733547,34.5122793399,-220.489577959,220.053244975
456.74,268.668896473,278.173832703,137.586506645,-91.2939452058,535.907968287,436.878355686,655.024141714,32.9070443932,-220.635201711,220.053244975
457.76,266.506769705,275.834269722,132.927854783,-93.0423612113,534.496948471,436.878355686,655.024141709,32.2804632997,-220.644161998,220.053244975
458.78,267.216160578,275.371078979,128.242674944,-96.3916620618,532.962639645,436.878355686,655.045583611,32.6763335745,-220.644161998,220.053244975
459.8,269.420122742,277.510211726,131.074019193,-94.7267330101,535.400606348,436.878355686,655.195486392,34.2144040657,-220.644161998,220.053244975
460.82,271.008631752,281.010549278,137.097956262,-91.5956806676,537.873569822,436.875651817,655.800837818,36.0880342294,-220.644161998,220.053244975
461.84,270.97258518,280.903034205,136.889386134,-91.6513513091,537.901642822,436.875651817,655.800103072,35.9085790727,-220.644161998,220.053244975
462.86,271.740003497,282.010448501,138.703755172,-91.1753984105,538.4179466,436.875651817,655.961220881,37.2328789393,-220.63726533,220.053244975
463.88,272.924788673,283.82199871,143.268825373,-89.6295537402,540.433120567,436.875651817,655.962440824,38.4587425459,-220.63726533,220.053244975
464.9,273.251122604,284.467176479,144.984525876,-89.1396401283,540.716155354,436.875651817,655.962440824,38.839937075,-220.63726533,220.053244975
465.92,271.768550457,283.403970461,144.068030162,-89.9720913836,539.390165278,436.875651817,655.960486309,38.1599896838,-220.652787319,220.053244975
466.94,269.652832723,281.234834905,140.972815364,-91.4499432217,538.03810511,436.875651817,655.960486309,37.1165266126,-220.721076846,220.05228686
467.96,269.876683868,281.913553293,141.598543693,-91.4979471885,538.095900183,436.875651817,656.044942846,37.4108508895,-220.745163492,220.052284061
468.98,269.675183001,281.679675562,140.934441876,-91.9436092866,537.610832619,436.875651817,656.008249638,36.8076752189,-220.797536391,220.052284061
470.0,267.117760678,279.630996693,137.718641609,-93.6586237306,535.670473166,436.875651817,656.008242396,36.225956539,-220.797537374,220.052284061
471.02,266.965989145,278.64361293,135.650642885,-94.9875391609,534.860673083,436.875651817,656.008242396,35.9514750167,-220.797537374,220.052284061
472.04,270.841138909,282.24205571,141.625765034,-91.5230287522,539.640263369,436.875651817,656.418966054,39.0922200943,-220.797537374,220.052284061
473.06,272.856832126,288.169832469,154.247367297,-88.178787762,541.011400569,436.875651817,657.082188987,41.7664804236,-220.797537374,220.052284061
474.08,274.323626796,291.821662907,158.689814436,-85.621905139,543.681330536,436.875651817,657.321453197,43.0239002017,-220.797537374,220.052284061
475.1,274.958272938,292.503519577,159.770947701,-85.2287875001,544.392485918,436.875651817,657.491817937,44.0278197466,-220.797537374,220.052284061
476.12,276.888880982,296.13872975,167.634985491,-82.6211917668,547.153975914,436.875651817,657.617411984,46.9778590034,-220.797537374,220.052284061
477.14,277.864707844,297.633611792,170.574027872,-81.8007471153,547.406744992,436.875651817,657.617411986,47.0976017228,-220.797537374,220.052284061
478.16,276.584927357,297.284532952,170.724724457,-82.4916739088,546.165860485,436.875651817,657.617411986,46.6956360912,-220.820215347,220.052284061
479.18,274.574486321,293.398540702,161.596700486,-87.7883454935,542.911049948,436.875651817,657.617411986,43.9994145005,-221.761185861,220.052284061
480.2,272.925416033,291.969976291,158.354239266,-89.1977028636,541.955567237,436.875651817,657.622119942,43.2509292234,-221.797371234,220.052284061
481.22,272.717351939,291.833708679,158.136071095,-89.3895297659,541.756458238,436.875651817,657.619585417,43.077773775,-221.799996586,220.052284061
482.24,271.519910703,290.431983492,155.109273083,-90.5523873758,540.862449003,436.875651817,657.614213166,41.6477980141,-221.800889371,220.052284061
483.26,270.704517677,289.133576013,151.795957967,-92.2537820219,539.413314203,436.875651817,657.614213166,41.4214690215,-221.800889371,220.052284061
484.28,271.046280287,289.264445241,151.15572608,-92.4421048435,539.545079947,436.875651817,657.640058107,41.6817775884,-221.800889371,220.052284061
485.3,271.462763749,290.234170442,153.486981924,-91.580909941,539.839833094,436.898497804,657.712986398,42.8191815962,-221.800889371,220.052284061
486.32,272.854397896,292.445209772,156.936249581,-89.4821028394,542.321032841,436.904943801,657.845010135,43.6356777477,-221.800889371,220.052284061
487.34,272.965114445,292.584451967,156.994246114,-89.5007070269,542.29154117,436.904943801,657.876864229,43.6540333132,-221.756397184,220.052284061
488.36,273.817750087,293.883951648,159.484717459,-88.3262233246,543.427197385,436.904943801,657.884726051,44.6598676617,-221.756398012,220.052284061
489.38,274.176526257,294.02157877,159.65491472,-87.8740572971,544.191441517,436.904943801,657.884726052,44.5547697836,-221.756398012,220.052284061
490.4,273.225375444,293.822469623,160.025503219,-88.3326922804,543.202569613,436.904943801,657.901576966,44.2717698546,-221.784506947,220.052284061
491.42,267.544298236,287.724400308,147.968621834,-92.9698329663,540.083783043,436.904943801,657.901576966,40.0100875216,-222.56909092,220.052284061
492.44,265.566440431,285.015779007,139.890372547,-96.342333534,538.265527317,436.904943801,657.901576966,38.4170850474,-222.600600669,220.052284061
493.46,266.238766362,285.746169038,140.993164554,-96.2480046113,538.298702433,436.904943801,657.926371552,39.0048340131,-222.610289346,220.052284061
494.48,265.581608078,284.635562156,138.442966062,-97.6389069256,537.211619776,436.904943801,657.894170772,37.17498915,-222.799138224,220.052284061
495.5,263.310005074,281.563827406,130.103644059,-102.135044723,534.515767631,436.904943801,657.894170772,36.6211942748,-222.799138694,220.052284061
496.52,265.17107646,283.610157494,131.837397146,-102.086547221,535.206362986,436.904943801,658.097281502,37.9214498476,-222.799138694,220.052284061
497.54,267.977838639,287.546774995,138.473306309,-98.9166318862,537.803209048,436.904943801,658.749232848,40.5230325453,-222.799138694,220.052284061
498.56,270.256874047,291.94961652,145.432890159,-95.8652986333,540.545784871,436.904943801,658.99067615,42.261192007,-222.799138694,220.052284061
499.58,270.307982392,292.025247275,145.745732749,-95.7023684392,540.837939609,436.904943801,659.005485994,42.570708892,-222.799138694,220.052284061
500.6,271.392995334,294.356685949,149.458097389,-94.3920706343,541.831760601,436.904943801,659.097088802,44.6074186918,-222.797485635,220.052284061
501.62,272.095237413,295.400252562,151.684869014,-93.7698222192,542.879180321,436.904943801,659.13045744,45.1319634781,-222.797485634,220.052284061
502.64,272.098856474,295.810180641,153.151877673,-93.4344761335,542.998911715,436.904943801,659.13045744,45.3319213619,-222.797485634,220.052284061
503.66,271.088870782,294.940186046,152.170364463,-94.1773597236,542.158435413,436.904943801,659.130550842,44.6471900357,-222.801725542,220.016426379
504.68,269.569764221,293.268414028,150.03623476,-95.7488412648,540.848625035,436.904943801,659.130550839,43.7795992098,-222.822902501,219.977794867
505.7,269.715729501,293.499835033,150.19080156,-95.798078813,540.813797555,436.904943801,659.176207322,43.7597969903,-222.845547736,219.977794865
506.72,269.380732971,293.177016342,149.627859641,-96.1325383104,540.465346389,436.904943801,659.193242698,43.4055128075,-222.922967612,219.977794865
507.74,267.356898162,291.500106954,147.025798772,-97.3130144187,539.253332403,436.904943801,659.193242321,42.9682469665,-222.922967613,219.977794865
508.76,267.808240156,291.005239855,146.133336423,-98.1860074168,538.776512446,436.904943801,659.223279814,43.1064903085,-222.922967613,219.977794865
509.78,271.238468346,296.786406186,158.546786948,-91.4826302241,544.824031138,436.904943801,660.466003199,48.5654730902,-222.922967613,219.977794865
510.8,272.834322736,301.512014184,167.622859242,-88.794504573,546.736755781,436.904943801,660.831552735,50.0440674438,-222.922967613,219.977794865
511.82,272.420263643,301.112929025,164.497559998,-90.2300756667,546.139301265,436.904943801,660.841372637,49.2249691597,-222.978221857,219.977794865
512.84,273.316941058,302.268466945,166.420522061,-89.5685358809,546.823683986,436.904943801,661.140550473,51.016900194,-222.975257307,219.977794865
513.86,275.176033663,305.555244328,174.019581961,-86.4656031954,549.975922164,436.904943801,661.391206195,52.7943331053,-222.97525722,219.977794865
514.88,276.549366856,307.690262816,177.337316392,-85.5280383491,550.182264867,436.904943801,661.391206195,53.1760345409,-222.97525722,219.977794865
515.9,276.15581541,307.224967173,176.360853153,-85.9653267439,549.730262826,436.904943801,661.391206195,52.6414648622,-222.97525722,219.977794865
516.92,274.552359101,304.409003575,169.030450786,-89.666962022,547.870111162,436.904943801,661.391206195,50.3896288108,-223.114710487,219.977794865
517.94,274.635845148,304.520442859,169.020251889,-89.7680645927,547.84602771,436.904943801,661.391206195,50.4463773604,-223.114710487,219.977794865
518.96,273.933483723,303.934724529,167.592800458,-90.781332938,546.721007731,436.904943801,661.385882526,49.2521845636,-223.265682481,219.977794865
519.98,271.956712664,301.673706247,162.240480875,-92.5648468376,545.300364945,436.904943801,661.385828294,47.5285082974,-223.265847974,219.977794865
521.0,271.554221499,299.676086793,156.598674575,-95.397772489,543.320207843,436.904943801,661.385828294,47.1989064621,-223.265847974,219.977794865
522.02,271.284295964,299.687207825,156.51175233,-95.9221620499,542.793528223,436.904943801,661.395156872,47.252441498,-223.283339085,219.977794865
523.04,271.847940755,301.228678326,159.932129495,-94.5127597977,543.312005702,437.029966726,661.728311167,49.0223933745,-223.283302727,219.977794865
524.06,271.981491564,301.463960089,160.296748679,-94.2625410326,543.583394421,437.030000816,661.728311277,49.2052065273,-223.283302727,219.977794865
525.08,272.122389659,301.7094453,160.850040739,-94.0406396201,543.856306224,437.030000816,661.774644406,49.5941291726,-223.284818631,219.977794865
526.1,273.922401649,304.133327449,165.751537218,-92.0412087871,545.781725503,437.030000816,661.78820377,51.009540627,-223.284782172,219.977794865
527.12,273.356195168,303.699320075,165.123531138,-92.3061050731,545.715115421,437.029118755,661.78820377,50.9632239201,-223.284782172,219.977794865
528.14,270.778464658,301.618827369,163.411168532,-93.2653457767,544.236131338,437.029160773,661.788379398,49.8774909291,-223.510623568,219.977794865
529.16,268.223180318,298.153103122,155.084981443,-95.6395263626,543.421365808,437.029160773,661.788379398,47.3452435949,-223.588920857,219.977794865
530.18,266.120561124,296.124715705,148.859244414,-97.7994943129,542.298032571,437.029160773,661.788379398,45.8734686486,-223.588920857,219.977794865
531.2,265.974418923,296.131220006,148.874834727,-97.9337865157,542.039207404,437.029160773,661.775219263,45.8014650654,-223.613248853,219.977794865
532.22,264.728204446,294.40581195,145.450364898,-99.3607798657,541.100167476,437.029160773,661.77519412,44.1823144244,-223.646533612,219.977794865
533.24,262.744900902,291.337262497,131.270437594,-109.988633718,533.705928728,437.029160773,661.77519412,43.7182194248,-223.646533612,219.977794865
534.26,264.32441821,292.243432256,130.864137285,-110.135785223,534.562440541,437.029160773,661.847257605,44.3280839462,-223.646533612,219.977794865
535.28,265.501252636,294.045589328,134.265961755,-108.699060231,535.801953623,437.029160773,661.903160601,45.6715852217,-223.646533612,219.977794865
536.3,266.81644034,296.434774724,137.158891748,-106.920401305,538.096285795,437.029160773,662.043352407,45.9321132301,-223.735624553,219.977794865
537.32,266.975530252,296.546694735,137.061996877,-106.897044413,538.390903434,437.029160773,662.133391273,46.0092222398,-223.756867152,219.977794865
538.34,269.105052647,300.69207148,145.056851944,-104.155613692,541.276798354,437.029160773,662.396317905,49.4060186542,-223.711470344,219.977794865
539.36,269.836039565,301.900815294,147.846415897,-103.154032436,542.464641799,437.029160773,662.396323438,49.5833677983,-223.711470344,219.977794865
540.38,269.587179022,301.90250535,147.691276213,-103.340176495,542.211958427,437.029160773,662.396323438,49.3156736205,-223.731876733,219.977794865
541.4,268.642785464,300.696814,146.012659618,-104.047180993,541.410944093,437.029160773,662.396323438,48.3791729493,-223.88671489,219.820811072
542.42,267.269515735,299.98359123,145.095873015,-105.231059243,539.992093509,437.029160773,662.527538976,48.2649173609,-223.903730435,219.779754554
543.44,267.187842351,299.957853974,145.076856797,-105.279292908,539.91034563,437.029160773,662.516394599,48.1814966624,-223.908322965,219.779754554
544.46,267.022443533,299.897450977,145.130432486,-105.236560869,539.898275249,437.029160773,662.549413508,48.32585941,-223.905571991,219.779754554
545.48,264.345479902,297.228623458,140.545564942,-108.148367131,536.770718346,437.029160773,662.549413437,47.8965529385,-223.905571991,219.779754554
546.5,265.63362538,298.288483977,141.679515409,-107.814845026,537.587896229,437.029160773,662.646112165,48.7380779567,-223.905571991,219.779754554
547.52,270.730686572,307.636919197,161.570918265,-98.8392909467,545.031990671,437.029160773,665.764656544,54.6219378945,-223.905571991,219.779754554
548.54,274.06885778,313.60232794,170.909844038,-94.0471550999,548.811062126,437.029160773,666.052137503,56.2120182436,-223.905571991,219.779754554
549.56,274.104991296,313.590557886,170.597354508,-94.1399029409,548.86906106,437.029160773,666.060019297,56.3817389589,-223.900051838,219.779754554
550.58,275.172715164,315.080589283,173.675641831,-93.255991169,549.890537855,437.029160773,666.1747225,58.2344026646,-223.886432379,219.779754554
551.6,277.070109468,317.602691101,179.315791293,-91.0670586564,552.156610186,437.029160773,666.174722502,58.8273641524,-223.886432165,219.779754554
552.62,277.384454215,318.196663954,180.978570745,-90.7175242838,552.162729923,437.029160773,666.174722502,58.8379029165,-223.886950963,219.779754554
553.64,274.577771672,315.182499324,176.503815141,-92.9507905379,549.501945829,437.029160773,666.174722502,57.2117087418,-224.027968787,219.779754554
554.66,272.486096472,312.109412665,169.955107599,-96.7980201488,546.826367995,437.029160773,666.174722502,55.5770830796,-224.232819974,219.779754554
555.68,272.192713454,311.766318265,169.447810009,-96.9003435577,546.767782843,437.029160773,666.174722502,55.2645179571,-224.23938921,219.779754554
556.7,271.368482093,310.799430742,167.301751239,-98.0253377561,545.986489024,437.029160773,666.156864244,53.804676799,-224.338549849,219.779754554
557.72,268.724095952,307.970691097,160.972177382,-100.362047037,543.939269951,437.029160773,666.156862005,52.4172183989,-224.338549858,219.779754554
558.74,268.826567671,306.924514963,156.780511366,-103.45892948,541.61781074,437.029160773,666.156862005,52.3795449391,-224.338549858,219.779754554
559.76,268.998273382,307.245296433,157.931772688,-103.345836313,541.696557006,437.029160773,666.174762164,52.9622288756,-224.338549858,219.779754554
560.78,272.549024364,312.860351172,167.677076498,-98.4629468666,546.109152933,437.213060948,666.526969653,57.0875397111,-224.338549858,219.779754554
561.8,272.640508972,313.078605955,167.675796566,-98.2718173647,546.524192537,437.21306096,666.530877859,57.095526601,-224.338549858,219.779754554
562.82,273.491505965,314.096429437,169.491430563,-97.677901959,547.207635755,437.21306096,666.554010729,58.3292219241,-224.339197433,219.779754554
563.84,274.971065864,315.648392522,172.515162317,-95.7583092724,549.708355362,437.21306096,666.55401074,58.8767547303,-224.339197387,219.779754554
564.86,274.774693339,316.154405737,174.366381835,-94.8147597713,550.375905813,437.21306096,666.57662362,59.8840615464,-224.339197387,219.779754554
565.88,269.304182385,311.507799652,168.012621435,-97.4933094886,547.256685339,437.21306096,666.575451175,56.9567882699,-224.869472184,219.779754554
566.9,266.452804703,306.222456477,151.66232936,-104.888585494,544.185665701,437.21306096,666.575451173,53.6919412845,-225.465794976,219.779754554
567.92,264.564728932,304.745998111,147.230196276,-107.248052288,543.085894239,437.21306096,666.575451173,52.641786527,-225.592930761,219.779754554
568.94,264.215026306,304.411808973,146.36299492,-107.923541761,542.351995314,437.21306096,666.559151013,52.1071864879,-225.709405196,219.779754554
569.96,261.196021422,301.01091823,138.976895307,-111.027695329,539.984134906,437.21306096,666.559150316,49.2789967291,-225.81486979,219.779754554
570.98,260.449377581,298.637941655,131.27684317,-117.490770517,535.156465681,437.21306096,666.559150316,48.8469293194,-225.81486979,219.779754554
572.0,263.179274237,301.351482985,134.364447316,-115.995863044,537.432927367,437.21306096,666.691730956,50.4893662976,-225.81486979,219.779754554
573.02,265.709509055,306.243383133,143.307640321,-112.679132998,539.008898724,437.21306096,667.450538141,53.3303764904,-225.81486979,219.779754554
574.04,265.985769626,307.546703618,144.539924799,-111.839108512,539.978415119,437.21306096,667.483404049,53.575668689,-225.81486979,219.779754554
575.06,266.359814766,308.094259894,145.731857127,-111.268937294,540.713363549,437.21306096,667.600851536,54.5025084317,-225.81486979,219.779754554
576.08,269.715132559,314.675894388,160.005320019,-105.190026199,548.192782836,437.21306096,668.471336283,59.1617787256,-225.81486979,219.779754554
577.1,269.962175638,315.05995691,161.125369283,-104.806641027,548.467922245,437.21306096,668.471341367,59.2054011226,-225.81486979,219.779754554
578.12,270.704091259,316.555719935,165.551630952,-102.850766083,550.079496746,437.21306096,668.479403502,60.5872621015,-225.81486979,219.779754554
579.14,270.71394677,316.566939433,165.460394064,-102.736239153,550.272624476,437.21306096,668.508164715,60.4901806912,-225.827742225,219.805035509
580.16,269.919443101,315.733543355,164.711699017,-103.376566498,549.491584661,437.21306096,668.507923094,60.1314564498,-225.833707215,219.80335126
581.18,269.277834156,315.212134806,164.00704635,-103.756222699,548.967921903,437.21306096,668.462687762,59.4659788697,-226.030852031,219.80335126
582.2,267.801337205,313.702309028,161.430416061,-105.190148117,547.609478187,437.21306096,668.501304951,58.7441865129,-226.030636997,219.80335126
583.22,266.698699436,313.153863284,160.469410297,-105.654885574,547.181989325,437.21306096,668.501304951,58.6946631936,-226.030636997,219.80335126
584.24,268.195530458,314.053883745,161.260045431,-105.113077544,548.338430989,437.21306096,668.531042575,59.7316411617,-226.030636997,219.80335126
585.26,270.086534042,317.423964139,172.330372608,-100.340898701,551.419217094,437.21306096,668.874423945,63.7790397869,-226.030636997,219.80335126
586.28,272.03477556,320.52683074,177.240930254,-98.0986055814,553.72086458,437.21306096,668.923353277,64.6118721811,-226.030636997,219.80335126
587.3,272.331249852,320.732137651,177.080635764,-98.3313304245,553.812630402,437.21306096,669.002785134,64.7875281907,-226.024641475,219.80335126
588.32,274.457116561,323.927982327,184.717984939,-94.5442745481,558.445238241,437.21306096,669.093400298,67.9864689078,-226.018308371,219.80335126
589.34,276.968448588,326.631049643,190.425214924,-91.7455162699,561.156485056,437.21306096,669.093400332,68.2230173951,-226.018308371,219.80335126
590.36,276.197817042,326.508751366,190.60046845,-92.4504192992,559.762106808,437.21306096,669.093400332,67.7276245342,-226.070448551,219.80335126
591.38,272.42317103,321.466174429,181.198004591,-99.2124217953,554.6873089,437.21306096,669.093400332,64.9151155208,-226.823169525,219.80335126
592.4,268.178222167,317.065618819,172.121377955,-104.448659089,550.086721701,437.21306096,669.093400332,63.3845832939,-227.116439337,219.80335126
593.42,267.95045428,316.878125626,171.682330274,-104.508423447,549.89044083,437.21306096,669.100336844,62.8804826384,-227.150744674,219.80335126
594.44,266.54471752,315.497107423,167.903004003,-107.153111584,547.830838041,437.21306096,669.056914857,60.990290334,-227.278911648,219.80335126
595.46,264.180465801,312.353612529,160.99554038,-109.975731053,545.191468527,437.21306096,669.056914817,60.2669294583,-227.278911648,219.80335126
596.48,265.120529554,312.849829474,160.744833792,-110.648010081,544.706676316,437.21306096,669.088050851,61.0088982547,-227.278911648,219.80335126
597.5,265.427793577,313.984007562,163.398067261,-109.362841251,545.139224336,437.232452941,669.180941161,62.4952252508,-227.278911648,219.80335126
598.52,269.257953646,322.146824182,175.853845261,-102.005100835,551.537939079,437.500871846,670.528051223,67.8321712115,-227.278911648,219.80335126
599.54,269.245912774,322.064706497,174.852440643,-102.587368807,551.085715737,437.500871846,670.53302647,67.225659316,-227.305252243,219.80335126
600.56,269.934790469,323.467049315,177.589543436,-101.309113435,552.288719947,437.500871846,670.549420469,68.3237874288,-227.329058705,219.80335126
601.58,270.467378085,324.023313299,178.936498722,-99.9327001276,554.214222433,437.500871846,670.549420469,68.4369220706,-227.329058705,219.80335126
602.6,269.782730995,323.333375543,177.710582234,-100.167383789,554.408170629,437.500871846,670.557409951,68.1549162802,-227.329058705,219.80335126
603.62,263.176788665,314.973213541,164.757238992,-106.378839227,548.524368243,437.500871846,670.557409648,62.8032935347,-228.014809615,219.80335126
604.64,259.872376901,310.262183596,149.957960225,-111.893430254,545.223213354,437.500871846,670.557409648,60.3295172054,-228.147779284,219.80335126
605.66,260.923029458,311.642500117,152.199436065,-111.43615517,545.350270046,437.500871846,670.576240233,61.2061321074,-228.148585434,219.80335126
606.68,259.846699968,310.643211487,149.483308546,-113.699933324,542.980588862,437.500871846,670.561496116,59.4209245319,-228.42498434,219.80335126
607.7,254.781952234,305.318472998,138.842182242,-118.446991655,539.540312181,437.500871846,670.561496116,57.4034163553,-228.45249179,219.80335126
608.72,255.348150118,304.211088503,132.317729368,-123.698003733,535.253785173,437.500871846,670.578605845,57.4492583119,-228.45249179,219.80335126
609.74,262.222959695,310.652675658,141.197254916,-115.002408488,543.999554592,437.500871846,671.420957783,60.3659714112,-228.45249179,219.80335126
610.76,265.836666099,319.451499308,155.196887765,-110.194514062,545.721013486,437.500871846,673.358213466,63.7339875218,-228.45249179,219.80335126
611.78,265.880256512,319.62967857,155.13026834,-110.374606514,545.394694562,437.500871846,673.358343638,63.5151432085,-228.45249179,219.80335126
612.8,266.154639502,320.073982272,156.045736946,-110.034441378,545.547371795,437.500871846,673.33049762,64.2087382451,-228.480055884,219.80335126
613.82,269.788789192,325.956844105,169.333094255,-102.477801607,553.801570595,437.500871846,673.389138998,67.4502075853,-228.480055423,219.80335126
614.84,270.062685944,326.604689875,171.555725172,-101.858102671,553.94353655,437.500871846,673.389138998,67.7509248186,-228.480055423,219.80335126
615.86,270.348041457,327.07069414,172.457930655,-101.167371785,554.577511399,437.500871846,673.392896442,68.0448668563,-228.480055423,219.80335126
616.88,269.212028352,325.414621383,170.366648407,-102.67184478,553.07849513,437.500871846,673.392888465,66.9472132101,-228.569234832,219.670281761
617.9,268.85555769,325.052574438,169.94065905,-102.83192367,552.908358663,437.500871846,673.392888465,66.6757165234,-228.577071087,219.670279795
618.92,268.001960383,324.68256093,169.532537926,-102.983267131,552.547647072,437.500871846,673.425685052,66.3868481193,-228.616852324,219.670279795
619.94,263.470683754,320.823349176,164.567537893,-105.553191052,550.009265755,437.500871846,673.42560567,65.6727750813,-228.616853768,219.670279795
620.96,262.707758121,319.637586127,161.600180078,-107.033370509,548.80255395,437.500871846,673.42560567,65.0683727099,-228.616853768,219.670279795
621.98,265.022341839,321.000467939,164.667547862,-104.263626049,552.303393394,437.500871846,673.463725787,66.7478172486,-228.616853768,219.670279795
623.0,265.86368462,323.44032362,172.670129701,-101.013246728,553.868155718,437.500871846,673.687834436,69.0127338382,-228.616853768,219.670279795
624.02,266.132387255,324.081925567,172.859295693,-101.751139221,554.248868212,437.500871846,673.760173475,67.5239322572,-228.88586252,219.670279795
625.04,267.161216552,325.025146141,174.291278071,-100.755767858,555.911237742,437.500871846,674.099326822,68.6875728127,-228.887700166,219.670279795
626.06,270.953952878,331.30182308,189.515493673,-92.1482426409,565.025351689,437.500871846,674.245528119,72.5203028657,-228.887700166,219.670279795
627.08,276.171762935,336.78096593,195.563066392,-90.4111219488,566.669647999,437.500871846,674.245528577,72.7580174154,-228.887700166,219.670279795
628.1,273.768900301,334.656161901,194.516711677,-92.5667917937,563.418081598,437.500871846,674.245528577,72.1831737946,-228.962574377,219.670279795
629.12,268.651742213,325.653400424,180.484657167,-100.49973452,558.722174394,437.500871846,674.245528577,68.9171363794,-229.626892792,219.670279795
630.14,266.552202791,322.716934472,174.541710086,-102.682463962,556.647754828,437.500871846,674.245528577,67.9063158937,-229.692588718,219.670279795
631.16,264.785749932,321.632158801,172.620748441,-104.002180269,554.982816232,437.500871846,674.245528577,66.0786279087,-230.145555645,219.670279795
632.18,260.030711438,317.213301075,162.702755665,-109.2260535,551.790996229,437.500871846,674.245528577,62.1640792535,-230.329911921,219.670279795
633.2,255.446553434,312.824592774,151.970535454,-114.869249404,547.654141478,437.500871846,674.245528577,61.7281484455,-230.329911922,219.670279795
634.22,255.874908694,313.456399275,152.88777969,-114.99095406,547.365677506,437.500871846,674.248252318,62.1561736908,-230.329911922,219.670279795
635.24,257.32121648,319.711916742,159.52216561,-113.081485376,546.29800826,438.056228455,675.710929105,67.6752009449,-230.329911922,219.670279795
636.26,258.631150599,322.297450488,164.878757882,-109.484304887,548.81658062,438.060084664,675.756790773,68.9454647393,-230.329911922,219.670279795
637.28,258.73716954,322.326945229,164.574451477,-109.673267969,548.70501713,438.060084664,675.80664891,69.0244215362,-230.33273295,219.670279795
638.3,261.52250868,326.488993839,171.066984674,-106.639047209,551.87749835,438.060084664,675.841678014,71.5646599379,-230.342176457,219.670279795
639.32,262.791832563,327.519008586,172.956335847,-105.658100549,553.050649922,438.060084664,675.84167806,71.6840114426,-230.342176457,219.670279795
640.34,262.83486571,327.98670818,174.660190339,-104.958476348,553.229937193,438.060084664,675.83953661,72.1662083647,-230.367824978,219.670279795
641.36,256.471995823,318.329900505,160.79638008,-111.714392572,547.13083927,438.060084664,675.839462863,67.8656186903,-231.083091631,219.670279795
642.38,251.439655662,311.526880293,147.667483167,-117.483478583,542.776296748,438.060084664,675.839462863,64.9157389489,-231.409246429,219.670279795
643.4,252.610613153,312.912067351,149.346172796,-117.308739354,542.751932714,438.060084664,675.864998081,65.4857899013,-231.421160941,219.670279795
644.42,251.046542786,310.896310489,145.286010275,-120.133846829,540.490028269,438.060084664,675.845592518,63.1577466202,-231.524933038,219.670279795
645.44,246.910166856,307.022051918,137.96313144,-124.942390762,535.685349114,438.060084664,675.845592334,62.4227786134,-231.524933174,219.670279795
646.46,248.94698745,309.235689254,140.083767078,-124.575161775,536.396245845,438.060084664,675.931538384,63.565017373,-231.524933174,219.670279795
647.48,255.522303449,318.568371788,157.852853588,-113.614454252,546.898892914,438.060084664,676.991502926,69.2750798335,-231.524933174,219.670279795
648.5,256.934239584,321.576988056,162.847163685,-111.390451961,548.636205739,438.060084664,677.073404798,70.7253367215,-231.524933174,219.670279795
649.52,257.203992867,322.751998263,166.952608206,-108.117914775,552.650185272,438.060084664,677.393615511,72.3077237589,-231.524933174,219.670279795
650.54,267.829138977,335.929746005,181.034081536,-101.329150139,560.569167211,438.060084664,681.234185987,78.5400192143,-231.524933174,219.670279795
651.56,273.922515892,347.070831779,202.554902438,-88.7669767272,575.971510656,438.060084664,681.960354278,80.412429095,-231.524933174,219.670279795
652.58,275.915260296,349.40256507,202.860340566,-90.4682667404,574.66452433,438.060084664,681.960354278,79.1699224382,-231.524933174,219.670279795
653.6,265.092120583,339.591698236,195.177140064,-97.3892074087,566.631090223,438.060084664,681.960354278,76.7818089685,-232.013243072,219.670279795
654.62,261.515944005,333.656621255,182.764748191,-104.010953195,561.656035496,438.060084664,681.960354278,74.4907873678,-232.218599672,219.670279795
655.64,261.121130494,333.309814103,182.393157625,-104.200255937,561.611366829,438.060084664,681.960354278,74.2611368245,-232.226136054,219.670279795
656.66,258.055532422,330.348653411,176.238939577,-108.674816646,557.908099294,438.060084664,681.960354278,70.2655819198,-232.881685896,219.670279795
657.68,249.790096678,323.179486887,163.893042512,-112.989889483,555.678862371,438.060084664,681.960354278,67.5069763538,-232.882513878,219.670279795
658.7,249.916643803,321.597959898,158.750164374,-116.642705231,552.537154142,438.060084664,681.960354278,67.3489844648,-232.882513878,219.670279795
659.72,251.079763368,322.839339165,161.13900082,-116.004201008,552.963743128,438.060084664,681.966622974,68.4704376097,-232.882513878,219.670279795
660.74,252.486427706,325.883373476,165.517075251,-114.129166046,553.852731376,438.131506405,682.247080095,70.8414724247,-232.882513878,219.670279795
661.76,252.613561506,326.509690042,167.02931333,-113.042786283,554.953148333,438.131506406,682.247080097,71.6093827818,-232.882513878,219.670279795
662.78,253.815771264,327.762080887,169.122624172,-111.839129187,556.234113318,438.131506406,682.336366907,72.8114337785,-232.883749542,219.670279795
663.8,256.377337095,331.089285985,176.725969714,-108.108614096,560.535478354,438.131506406,682.338349737,74.5469728304,-232.883749326,219.670279795
664.82,257.483093941,332.514235347,178.797363182,-107.448272854,560.77075039,438.131506406,682.338349737,75.0349052547,-232.883749326,219.670279795
665.84,255.731856442,330.932287967,176.506800448,-108.807279986,559.086421885,438.131506406,682.337430282,73.7475532962,-232.884575623,219.670279795
666.86,252.160737583,324.862014374,164.387210148,-113.28033897,554.415050997,438.131506406,682.337430265,70.7406756591,-232.884575639,219.670279795
667.88,249.054522117,321.317762453,158.224286806,-118.003430139,552.327893981,438.131506406,682.448406859,69.9760584446,-233.284916485,219.670279795
668.9,249.176894022,321.501297867,157.397277752,-119.539139478,550.62657105,438.131506406,682.551251335,69.3947031652,-233.552627194,219.670279795
669.92,243.451013427,316.433632888,149.329575477,-122.695156564,548.743211982,438.131506406,682.550932586,67.1116205917,-233.554062737,219.670279795
670.94,243.10040125,316.107884826,149.019386314,-123.231375647,548.013309637,438.131506406,682.550932586,67.1888577862,-233.554062737,219.670279795
671.96,248.238442481,319.793477253,154.069789187,-118.175060004,554.449405732,438.131506406,682.698869984,69.5096430143,-233.554062737,219.670279795
672.98,250.279704352,326.865873395,169.186188631,-113.167693641,556.995292441,438.131506406,683.646256377,73.2676033545,-233.554062737,219.670279795
674.0,252.117558854,331.179019758,176.759041968,-110.480540557,559.742188055,438.131506406,683.779700398,74.8931881517,-233.554062737,219.670279795
675.02,254.258570617,334.653497976,182.378897262,-106.732833286,564.77651488,438.131506406,684.669783164,78.4853663438,-233.554062737,219.670279795
676.04,258.998835252,343.316997366,197.393258046,-99.3153554611,572.391103965,438.131506406,685.143770226,83.7336161962,-233.554062737,219.670279795
677.06,265.971798146,349.172254407,207.510611962,-97.3724110567,573.632806409,438.131506406,685.143773905,84.2869248984,-233.554062737,219.670279795
678.08,267.62429088,354.181852582,216.626002998,-95.0082924767,574.297637371,438.131506406,685.588315915,86.3727485375,-233.566618829,219.670279795
679.1,262.827959168,348.026117509,206.738994675,-99.9890375036,569.863805858,438.131506406,685.588315898,83.5593211088,-234.120387001,219.670279795
680.12,259.556141479,344.122963169,197.897984109,-104.684301733,565.990549304,438.131506406,685.588315898,82.143799167,-234.31797309,219.670279795
681.14,257.208227066,342.754658361,195.873652451,-106.008239574,564.578214249,438.131506406,685.588315898,80.4549513311,-234.622716087,219.670279795
682.16,249.618706931,336.40925201,186.045984955,-110.217858923,562.720481468,438.131506406,685.588315898,76.6108281061,-234.68172067,219.670279795
683.18,245.958416509,332.821053051,176.80229606,-114.169059728,560.177075021,438.131506406,685.588315898,75.6495113537,-234.681720672,219.670279795
684.2,247.563964441,333.218650707,173.643945447,-115.057104846,560.267497283,438.131506406,685.588315898,75.6106629521,-234.681720672,219.670279795
685.22,249.561044739,335.728450114,178.153316446,-113.281279352,561.527998656,438.195312128,685.757285366,77.7575191519,-234.681720672,219.670279795
