time,0,1,2,3,4,5,6,7,8,9,10,11,12,13,14,15,16,17,18,19,20,21,22,23,24,25,26,27,28,29,30,31,32,33,34,35,36,37,38,39,Simulation_reset
0.0,133.475209586,-100.756287482,-124.352894723,-139.313355554,194.609218836,405.523834564,-199.715360627,38.7575948611,-191.679761652,539.945559017
1.0,133.475209586,-100.756287482,-124.352894723,-139.313355554,194.609218836,405.523834564,-199.715360627,38.7575948611,-191.679761652,539.945559017
2.0,133.475209586,-100.756287482,-124.352894723,-139.313355554,194.609218836,405.523834564,-199.715360627,38.7575948611,-191.679761652,539.945559017
3.0,140.301384463,-92.8994958845,-121.641591584,-135.462470558,199.326608556,412.904041071,-197.636599774,38.7579517677,-191.679761652,539.945559017
4.0,140.301384157,-92.8994960316,-121.641591713,-135.462470743,199.326608376,412.904040911,-197.636599787,38.7579517677,-191.679761652,539.945559017
5.02,140.301384157,-92.8994960316,-121.641591713,-135.462470743,199.326608376,412.904040911,-197.636599787,38.7579517677,-191.679761652,539.945559017
6.04,149.920987595,-84.3558179638,-118.266940916,-129.873605835,205.915087851,430.301086192,-194.036851003,38.7607995565,-191.679761652,539.945559017
7.06,149.920987619,-84.3558179593,-118.266940904,-129.873605819,205.915087872,430.301086241,-194.036851003,38.7607995565,-191.679761652,539.945559017
8.08,149.995838506,-84.1500862926,-118.088501663,-129.814259279,205.968163417,430.301086241,-193.988127063,38.7978206987,-191.679761652,539.945559017
9.1,164.630839441,-70.5037961162,-113.140107265,-122.085744019,215.018262689,447.466341018,-186.789641266,38.8337163691,-191.679761652,539.945559017
10.12,198.185956961,-49.0758462093,-105.585801567,-118.004008786,216.946240902,470.110082536,-174.842146206,38.8337163691,-191.679761652,539.945559017
11.14,231.384324516,-20.7082183624,-98.5284202499,-109.703269956,226.179496236,498.626887062,-167.927079285,38.8337163691,-191.679761652,539.945559017
12.16,231.384323475,-20.7082188239,-98.5284204995,-109.703270471,226.17949563,498.626886419,-167.927079298,38.8337163691,-191.679761652,539.945559017
13.18,231.713888867,-20.2872178622,-98.3960559592,-109.639125638,226.17949563,498.78007494,-167.368114446,38.8345339145,-191.679761652,539.945559017
14.2,241.250622632,-9.9590605079,-92.039015487,-100.102880701,236.413853744,515.554395808,-162.960338786,38.835899721,-191.679761652,540.113854538
15.22,258.653767245,0.804068591153,-89.4309383161,-94.3023190405,239.930271025,523.08544515,-161.835236898,38.835899721,-191.297078206,546.295803504
16.24,265.217547768,6.36880522309,-88.5741717727,-93.7225038982,241.969936927,524.333701231,-159.526890309,38.835899721,-191.297076272,546.297311678
17.26,270.70095,11.4881977425,-87.3920128201,-90.9589469344,246.460252186,529.212540969,-155.620367799,38.835899721,-191.297076272,546.297311678
18.28,276.445806608,18.727337946,-85.7087767485,-88.6488367857,249.864306458,530.164308505,-153.88581755,38.835899721,-191.297076272,546.297311678
19.3,277.934226967,24.7542662724,-82.7789112955,-87.1845647124,251.836602915,530.16430851,-153.422720813,38.835899721,-191.297076272,546.398445985
20.32,284.621756556,30.4946310443,-80.0905340618,-83.4523199045,257.322446415,532.474347703,-149.816790207,38.835899721,-191.297076272,546.399408373
21.34,292.007520552,38.562244659,-76.2248800277,-80.7787729246,258.485870078,537.470954095,-141.79573737,38.835899721,-191.297076272,546.399408373
22.36,296.434167365,45.0885375728,-73.4176236746,-77.3540203226,261.868516848,538.356457706,-138.217067932,38.835899721,-191.297076272,546.399408373
23.38,300.253414935,49.5006775294,-72.0226907828,-74.7727449576,266.370363711,543.23673793,-134.253553822,38.835899721,-191.297076272,546.399408373
24.4,308.866819804,59.5829492398,-68.6068851109,-70.8552897921,270.660695201,546.135069676,-130.794625484,38.835899721,-191.297076272,546.399408373
25.42,311.325224827,64.669944967,-65.4953422907,-69.4182996644,271.961367452,546.135069819,-129.687228422,39.322321015,-191.297076272,546.399408373
26.44,316.187458283,71.2329736646,-62.8210545736,-66.0029443929,276.399054055,547.892087211,-124.082190683,39.533886238,-191.297076272,546.399408373
27.46,319.207463405,76.3253844097,-61.2845030097,-64.7521412996,278.364915833,547.971066319,-121.775580114,39.5427666212,-191.297076272,546.399408373
28.48,318.884047633,76.1151820831,-62.1855703994,-65.5300259382,278.161003571,547.971066319,-121.775580078,39.3624474947,-191.36048287,546.399408373
29.5,318.296558336,75.7197025482,-63.3481303609,-66.413830305,278.030602702,547.971066319,-121.775580078,38.5322614187,-191.923301147,546.399408373
30.52,319.625849465,78.732210194,-60.3156167372,-65.5795986972,279.16591297,547.971066319,-119.654136562,39.9033577766,-191.943592625,546.399408373
31.54,319.488456225,78.6060105411,-62.0497245352,-67.1926034,278.765787764,547.971066319,-119.620189734,39.9087426665,-191.943592625,546.399408373
32.54,319.361340568,78.4493116328,-62.3594616727,-67.3636556263,278.650106825,547.971066319,-119.620189734,39.7705910417,-191.945097823,546.399408373
33.54,319.245893388,78.8320240141,-61.5522552654,-67.4123946034,278.358505574,547.980031807,-119.341963278,40.2424632645,-191.951468253,546.399408373
34.54,321.267099587,82.9092335039,-58.7335137819,-65.5529668804,280.192860599,548.502012996,-115.775859391,40.6414298486,-191.951466852,546.399408373
35.54,322.782424547,85.6591370061,-56.830232359,-63.3608108713,283.311737048,549.457951933,-113.679022139,40.6639022901,-191.951466852,546.399408373
36.54,329.126057801,92.1881887637,-54.0471211663,-61.1991912333,286.04917469,551.378129338,-108.764261852,40.7360984405,-191.951466852,546.399408373
37.54,330.085060042,95.3405062069,-51.4592725228,-60.1177511907,288.371361042,551.378473727,-108.20832699,40.6464408052,-191.979735487,546.399408373
38.54,329.017759084,94.2369541698,-54.2665118056,-64.5446990133,286.938561606,550.996250854,-108.208332277,40.0643042259,-193.753253957,546.399408373
39.54,326.633971437,91.6482930769,-57.4645422139,-67.7175812695,285.125548543,550.996250716,-108.208332277,39.200222352,-196.012233127,546.118886634
40.54,326.60277235,91.6751885891,-57.5142483761,-67.8179698913,285.134841563,550.996250716,-108.208332277,39.1853891942,-196.041174552,546.118729766
41.54,326.516196642,91.6011004661,-57.6912371532,-67.9016100428,285.111169591,550.996250716,-108.208332277,39.0454314021,-196.054369523,546.118729766
42.54,326.810092398,92.7200432786,-56.2099607765,-67.4439603207,285.602915335,550.996250716,-107.408977933,40.0982123241,-196.061112898,546.118729766
43.54,327.23417206,94.0902749416,-56.5171937736,-68.4785935227,285.934455935,550.996250716,-106.678333385,40.2054513277,-196.199349011,546.118729766
44.54,326.951016257,93.428823894,-58.9716810326,-71.1080822517,284.785744242,550.996250716,-106.67833352,39.8043253551,-196.725373578,546.118729766
45.54,326.094171881,92.9921282447,-59.7960639676,-72.3368507783,283.988821026,550.996250716,-106.67833352,39.2329535678,-196.951712737,546.118729766
46.54,325.826363259,92.8441932071,-60.4941143436,-73.1466768424,283.83984505,550.996250716,-106.67833352,39.0371704064,-196.976843961,546.118729766
47.54,325.897179198,93.1445331901,-60.0724254416,-72.9171013722,284.125230802,550.996250716,-106.656220729,39.25061727,-196.976615419,546.118729766
48.54,329.050913262,97.399310506,-57.8203384626,-70.7720579954,286.858906835,554.16317146,-100.611297989,40.0265423763,-196.976615419,546.118729766
49.54,336.088961573,107.847384809,-52.4003511468,-66.743847324,291.930646131,556.013787026,-93.6408105475,40.1352999588,-196.976615419,546.118729766
50.54,335.233434497,108.125293585,-54.9397529712,-71.3464743345,290.620965991,556.013792249,-93.4732269392,40.1352999589,-197.504715435,546.118729766
51.54,332.537121023,106.584944947,-57.6701755928,-75.9248891832,287.563730681,556.013792249,-93.4732269392,39.4595686622,-201.479610145,545.95798382
52.54,331.116861195,103.963845331,-60.3786852811,-80.4620942256,283.843119675,556.013792249,-93.4732269392,39.3512526743,-204.600836059,543.097647463
53.54,326.705586006,100.24827447,-63.3909229538,-88.1929927378,277.76847379,556.013792249,-93.4732269392,39.3512526743,-208.374816191,538.405058307
54.54,319.283370048,94.4495324791,-66.6856424741,-94.0728125649,271.657988814,556.013792249,-93.4732269392,39.3512526743,-215.374447376,525.798760228
55.54,317.894947854,93.3239307473,-68.9798016679,-97.7704538846,265.018088027,556.013792249,-93.4732269392,39.3512526743,-215.447959544,518.489126008
56.54,317.894946671,93.3239299012,-68.979802765,-97.7704549632,265.018085655,556.013792249,-93.4732269392,39.3512526743,-215.447959544,518.489123582
57.54,317.835373665,93.2420130529,-69.1991133053,-97.8902775926,264.973202898,556.013792249,-93.4732269392,39.2820101318,-215.447959544,518.489123582
58.54,317.823872738,93.240074209,-69.1924218001,-97.8930719647,264.970806011,556.013792249,-93.4732269392,39.2826113672,-215.447959544,518.489123582
59.54,318.47872979,95.5487120843,-65.892201864,-97.0607647391,265.49956085,556.013792249,-92.6933530666,40.0384358184,-215.447959544,518.489123582
60.54,319.392380289,98.6209846201,-63.8945550639,-95.7727442163,267.286752584,556.069933406,-90.8616053111,40.2086872945,-215.447959544,518.489123582
61.54,323.932886484,102.896834565,-62.62435364,-93.5733535444,270.666566575,558.926284946,-87.8332556207,40.2089903325,-215.447959544,518.489123582
62.54,328.051900423,111.695937803,-58.5678877545,-89.6838596811,275.258345273,558.933924398,-84.9502135062,40.2304390395,-215.447959544,518.489123582
63.54,327.919757164,113.077858682,-59.8501801454,-91.8665534425,275.655757833,558.8415156,-84.8644291648,40.0244528002,-215.834209416,518.489123582
64.56,327.535375203,112.787345907,-60.1642237531,-92.0549748687,275.578743204,558.841517408,-84.8581872572,39.9352602421,-215.889237555,518.489123582
65.58,327.240771927,112.516330223,-60.6674126143,-92.590860976,275.490084553,558.841517408,-84.8581872583,39.8210224433,-216.024476367,518.489123582
66.6,326.670394209,111.974177815,-62.2157447162,-93.659842668,275.153991001,558.841517408,-84.8581872583,39.4857600055,-216.171138759,518.489123582
67.62,326.270987042,111.738508362,-62.7270490997,-94.1386421344,275.187003886,558.841517408,-84.7699821458,39.2631759772,-216.446178887,518.489123582
68.64,327.367681108,114.788879644,-60.0462291828,-93.4546399048,276.347816837,558.841517408,-82.6182836887,40.3090693463,-216.446108072,518.489123582
69.66,326.144317442,113.302618681,-64.5324527351,-105.453468651,265.49339217,558.841517408,-82.6186399252,40.2961785094,-216.584279112,518.489123582
70.68,322.777031956,110.08391466,-68.7463240325,-111.245835474,262.355109874,558.841517408,-82.6186399252,40.0144587711,-221.246695582,517.731438341
71.7,320.554729651,105.69267493,-70.4570585111,-116.689324094,254.323408167,555.43821096,-82.916998693,40.0143813623,-225.876711234,515.741519191
72.72,317.728459278,103.767054697,-71.3730236952,-120.672024243,249.577024406,555.238720524,-82.9144879995,40.0158998451,-228.413255579,515.121535304
73.74,319.812186087,106.760370553,-69.705681591,-118.919003255,252.292568114,556.945577079,-79.0162349821,40.6499897888,-228.413020174,515.121535355
74.76,323.147796207,112.611962782,-65.7818784577,-116.998638225,254.47974684,557.724727197,-76.1114776299,40.6499897934,-228.413020174,515.121535355
75.78,322.878812444,113.944751769,-66.1126578828,-118.608209343,255.00480284,557.677551368,-75.9117400649,40.5392562896,-229.044584457,515.121535355
76.8,322.647714036,113.443213451,-67.2824998177,-120.079351975,254.080954329,557.271909036,-75.9089010295,40.2493187641,-230.208463688,515.121535355
77.82,322.344737053,113.318313472,-67.4281461642,-120.167199178,254.001456948,557.271909036,-75.9095256977,40.0996698989,-230.238612611,515.128515627
78.84,322.272770027,113.392265819,-67.4235200862,-120.217716429,254.032093965,557.271909036,-75.9084761543,40.0604454156,-230.240271086,515.128555787
79.86,322.238892074,113.408847443,-67.4447750025,-120.225775351,254.026299415,557.271909036,-75.9062306248,39.9794889035,-230.252520107,515.128555787
80.88,323.577738205,117.30602373,-64.1234306775,-118.970817758,255.806954236,557.271909036,-73.1117978033,41.5937965621,-230.251078712,515.128555787
81.9,323.749015341,117.695720956,-64.5648067201,-119.429675053,255.963537233,557.271909036,-72.9797726982,41.5512672215,-230.260539212,515.128555787
82.92,323.697821991,117.608849114,-64.7200172881,-119.506787087,255.929573089,557.271909036,-72.9795838791,41.4591933641,-230.260539384,515.128555787
83.94,323.871792287,118.504720645,-63.120270164,-119.23474897,256.00180415,557.271909036,-72.6962296818,42.073636521,-230.260539384,515.128555787
84.96,323.944988082,118.864736264,-62.5795718017,-118.983565828,256.326166624,557.271909036,-72.6511502903,42.2255638342,-230.260539384,515.128555787
85.98,324.857664646,121.266333856,-60.8232512439,-117.424976605,258.374660173,558.054285987,-69.9948964959,42.6460428814,-230.260539384,515.128555787
87.0,330.334381583,128.803983005,-58.1042497256,-115.081763412,261.766150907,560.50377562,-63.7554467253,42.9645464432,-230.260539384,515.128555787
88.02,334.219927157,137.699522455,-52.9430927484,-111.497079836,265.977330755,560.645599206,-61.47315886,42.9645524755,-230.260539384,515.128555787
89.04,333.008664341,136.54986521,-56.2399330127,-116.890588898,264.64683255,560.645599206,-61.4731953505,42.8027755331,-230.878428833,515.128555787
90.06,332.262559431,135.920313779,-57.0459968807,-117.597535477,264.078444019,560.645599206,-61.4731953505,42.4622950401,-231.096653167,515.128169589
91.08,332.136951954,136.114312628,-57.0214562303,-117.732494949,264.222007652,560.645599206,-61.4479862979,42.4170718333,-231.137683541,515.203215683
92.1,332.182383284,136.260282845,-56.8744494546,-117.788329818,264.227022244,560.645599206,-61.4124435854,42.571383969,-231.161234731,515.203215682
93.12,332.894990202,138.6146382,-54.1492764394,-116.85669771,265.275205739,560.645599206,-59.2758076732,44.0552537244,-231.161234731,515.203215682
94.14,332.220120401,138.098752316,-56.2041132949,-118.491403281,264.283499393,560.645599206,-59.18007001,44.0225194663,-231.41431534,515.203215682
95.16,332.062751059,137.766358671,-57.7707868635,-120.132812764,263.436504796,560.645599206,-59.18007001,43.7666713713,-231.651993606,515.203215682
96.18,331.972272601,138.050410832,-57.0666648284,-120.052598588,263.440971257,560.645599206,-59.0431372235,44.2050593627,-231.681958127,515.203215682
97.2,331.752282008,138.249742714,-57.3330679034,-120.846562272,263.177098507,560.645599206,-58.9030872275,44.1438913432,-231.744663265,515.203215682
98.22,331.778231599,138.906771082,-56.5521906214,-120.543164104,263.568453302,560.647417653,-57.8660154809,44.6199506074,-231.744661274,515.203215682
99.24,336.290226332,144.361042252,-53.8025731542,-118.730687231,266.566421989,563.908428637,-52.2518517227,45.2050352953,-231.744661274,515.203215682
100.26,341.534574844,154.216101879,-47.3626053534,-114.199150597,271.56322273,563.942037872,-48.5470310577,45.2587160319,-231.744661274,515.203215682
101.28,340.71629577,153.509777318,-50.0229817983,-117.029258066,271.419191744,563.904146185,-48.5222028642,44.8526105326,-232.334501336,515.203215682
102.3,339.622028016,152.377168507,-51.7233162608,-118.439714369,270.84314967,563.904146185,-48.5222028642,44.3026567732,-232.838559188,515.203215682
103.32,339.369759354,152.068297114,-52.6998472621,-119.083212345,270.596638732,563.904146185,-48.5222028642,44.05257988,-233.005763606,515.203215682
104.34,338.492243051,151.286812021,-54.6650671033,-120.542986547,270.280422629,563.904146185,-48.5222028642,43.4387329196,-233.501439007,515.203215682
105.36,337.952103761,150.968139483,-55.131880443,-121.113465984,270.159568374,563.904146185,-48.5011707611,43.0063318293,-233.938932953,515.203215682
106.38,336.338679717,149.924665983,-57.1652301769,-124.369375666,268.655918962,563.904146185,-48.3221201237,43.261642772,-234.26399017,515.203215682
107.4,335.444357784,148.343998013,-60.4564482897,-134.136202986,255.544958298,563.904146185,-48.3221201334,43.179590204,-235.083093327,514.724608613
108.42,333.462898087,146.655283417,-62.6200851862,-136.384018954,254.391664188,563.900574434,-48.3221201334,41.9418278122,-236.350911747,514.724608606
109.44,333.750153416,147.232338674,-61.7514668448,-136.215234249,254.465965893,563.903301551,-48.1521013758,42.4267705936,-236.435976111,514.724608606
110.46,334.200283186,149.124792296,-59.8219411284,-135.302352946,255.916135547,564.063458975,-46.3015575244,42.9631297667,-236.435976111,514.724608606
111.48,337.097470619,152.53246877,-57.981407203,-133.044514795,259.132452959,565.841706133,-43.6054122404,43.1324975178,-236.435976111,514.724608606
112.5,338.063988248,154.742596721,-55.2276387966,-131.823262871,260.421994808,565.841997396,-42.9296911132,43.5004960089,-236.435976111,514.724608606
113.52,336.83342982,153.377384638,-58.5340697884,-136.42805624,259.196361574,565.469317491,-42.9295889594,43.2758402542,-237.794869272,514.724608606
114.54,335.013381822,151.943721682,-60.1746829115,-138.256479128,258.055652147,565.464481336,-42.9295889594,42.3890741977,-238.705542454,514.724608606
115.56,334.214062955,150.937276043,-61.675138963,-139.768158815,257.500573196,565.464481336,-42.9295889594,42.1651051903,-239.759000541,514.663434767
116.58,334.100520218,150.815039044,-61.9533501944,-139.9090596,257.430458827,565.464481336,-42.9295889594,42.0384630134,-239.76333379,514.66343473
117.6,334.018709529,150.886872371,-61.7957582344,-139.89406719,257.501880007,565.464481336,-42.7787616276,42.2829641241,-239.787015119,514.66343473
118.62,334.544669579,153.647609095,-59.5130436836,-139.340929102,258.373067098,565.464481336,-40.7943216591,43.6556813048,-239.786906803,514.66343473
119.64,334.095535578,153.232779753,-60.9782572245,-140.928927898,257.93300492,565.464481336,-40.7943586847,43.5645801568,-239.889041475,514.66343473
120.66,333.791592848,153.023185922,-61.401668322,-141.178552289,257.764981051,565.464481336,-40.7943586847,43.2862823605,-239.911650426,514.66343473
121.68,333.755730508,153.290454776,-60.8755264476,-141.327535839,257.838615355,565.464481336,-40.724616177,43.5615577222,-239.920844289,514.66343473
122.7,333.511664403,153.239137306,-61.2719709688,-142.254014454,257.522906795,565.464481336,-40.7157289154,43.4505439034,-239.988792735,514.66343473
123.72,334.875919482,155.891887969,-59.5938681717,-140.77075428,259.527852954,566.868947689,-37.2038331851,44.1140163155,-239.988792735,514.66343473
124.74,339.167525123,163.703078863,-54.684537029,-138.071290031,262.523222216,567.877632461,-31.4695266646,44.597725005,-239.988792735,514.66343473
125.76,338.656305233,167.511462343,-54.530265106,-139.256823333,263.344910695,567.877825505,-30.7405678141,44.5978998927,-240.208035636,514.66343473
126.78,338.551310162,167.427613918,-55.1009320665,-139.929381052,263.148575531,567.877825505,-30.7380403364,44.5406238145,-240.370593657,514.66343473
127.8,338.189328322,167.183030424,-55.3833926379,-140.215192562,262.937393155,567.877825505,-30.7328854479,44.4483249666,-240.482077387,514.677540086
128.8,337.611747666,166.78307117,-56.4507997267,-141.058095858,262.643653902,567.877825505,-30.73098732,44.0710202145,-240.733662718,514.692931058
129.8,337.445516113,166.660033626,-56.7949559417,-141.269534416,262.588771498,567.877825505,-30.73098732,43.8109480157,-240.82202929,514.692931058
130.8,337.735059794,167.608089078,-55.4817629285,-140.846370262,263.100534668,567.877825505,-30.0958077516,44.7377827066,-240.820452468,514.692931058
131.8,336.521831822,166.442057789,-58.4546114297,-144.430765296,262.163900394,567.877825505,-30.0958488745,44.6030776816,-241.174453342,514.692931058
132.8,336.370651142,166.270234865,-58.9089578488,-144.71446341,262.015401303,567.877825505,-30.0958488745,44.3595210098,-241.198636138,514.692931058
133.8,336.526091649,166.805440157,-57.7146125412,-144.39575571,262.146824873,567.877825505,-29.852526913,45.0482708284,-241.200667169,514.692931058
134.8,336.553946548,167.00065568,-57.4326671447,-144.407091288,262.245255504,567.877825505,-29.8215406508,45.1822965194,-241.202380518,514.692931058
135.8,336.764513846,168.433494408,-56.1176639211,-143.859195986,262.974645642,568.117714754,-27.3139903649,45.978574012,-241.202380482,514.692931058
136.8,341.942643847,173.495474225,-53.7003818762,-142.030440244,266.117527419,571.880977025,-22.1302900499,46.3345639679,-241.202380482,514.692931058
137.8,342.494129966,177.378149604,-50.5182296788,-140.54596091,268.330380978,571.880989669,-21.0628847445,46.4666529479,-241.202989902,514.692931058
138.8,342.024431661,177.191815189,-51.4086130614,-141.788613137,268.446809339,571.873063787,-21.0093725772,46.5369750997,-241.387959547,514.692931058
139.8,341.33869046,176.500895138,-52.4161708438,-142.786270112,268.153427303,571.873063789,-20.9840001499,46.2399705936,-241.61147406,514.692931058
140.8,340.904617743,176.164644525,-53.3558458135,-143.462023503,267.917850192,571.873063789,-20.9840001502,45.9856048336,-241.679453495,514.692931058
141.8,339.767768069,175.206978968,-55.9022289909,-145.904741572,267.310213403,571.873063789,-20.9840001502,45.3928403255,-242.326220808,514.692931058
142.8,339.241623005,174.950148901,-56.4118981774,-146.53995168,267.280686598,571.873063789,-20.8794466918,45.1792084677,-242.839520897,514.692931058
143.8,338.180913982,174.279960963,-58.7570732536,-149.31123172,266.299989986,571.873063789,-20.7022930442,45.2226101145,-243.273710019,514.692931058
144.8,336.827977345,172.524487891,-61.8679152834,-160.534433447,253.759830557,571.873063789,-20.7022930822,45.2005724135,-243.801311426,514.641387924
145.8,334.698601927,170.610464349,-64.5207499347,-163.007174239,252.658734352,571.873063789,-20.7022930822,43.736448952,-244.728117186,514.641387919
146.8,334.294714105,169.95076511,-65.3784080695,-164.392387097,252.053108732,571.542835185,-20.7022930822,43.1089693721,-245.213801204,514.641387919
147.8,334.491150549,170.896704162,-64.1115375167,-163.9545745,252.644197352,571.542833402,-20.111586389,43.7125187135,-245.213801306,514.641387919
148.8,336.439463801,173.643987709,-62.0115465638,-162.248929498,255.360268362,572.553672959,-17.3922834878,44.1641437785,-245.213801306,514.641387919
149.8,337.554890859,178.945449589,-57.757603185,-160.567458384,257.479310463,572.555982617,-14.9232986366,44.679437923,-245.213801306,514.641387919
150.8,337.02716683,178.997996318,-59.4129529327,-161.983778759,257.562026311,572.534475996,-14.8789480823,44.4719447048,-245.600212221,514.641387919
151.8,336.947973713,178.921928562,-59.7270556762,-162.408026412,257.501357033,572.498851779,-14.8728406913,44.3244464005,-245.699959838,514.641387919
152.8,336.396825314,178.495875006,-60.2662008503,-162.818704544,257.359795599,572.498851779,-14.8738685026,44.0233782942,-245.810358443,514.641387919
153.8,336.054425899,178.246040187,-60.9416942211,-163.308758189,257.210345495,572.498851779,-14.8738685026,43.7451808413,-245.871463008,514.641387919
154.8,336.012815126,178.231512361,-60.9852264214,-163.318566073,257.214107072,572.498851779,-14.8762468892,43.6607438834,-245.881328555,514.641387919
155.8,336.413487035,179.742315733,-59.1322382594,-162.712966615,257.908250906,572.498851779,-13.7716265716,44.9572933849,-245.880758456,514.641387919
156.8,335.718906979,178.992984694,-61.6693140606,-164.902167081,257.449197553,572.498851779,-13.7721280362,44.7676891285,-245.982348422,514.641387919
157.8,335.519537912,178.757935387,-62.1525554278,-165.134583722,257.318726823,572.498851779,-13.7721280362,44.4829046176,-245.998205836,514.641387919
158.8,335.482162718,179.219216525,-61.1005793587,-165.094891638,257.265907221,572.498851779,-13.6342854705,44.8754557724,-246.005883594,514.641387919
159.8,335.35447332,179.187176487,-61.3689549136,-165.427956491,257.270614301,572.498851779,-13.6355724935,44.8287256708,-246.010867576,514.641387919
160.8,335.367825019,179.629531636,-60.7282236453,-165.135442329,257.66199881,572.498851779,-13.2186309366,45.0781570642,-246.010867575,514.641387919
161.8,337.452117326,183.344672047,-58.0574842096,-163.769796652,259.710265546,573.168609227,-9.35516972424,45.9809265012,-246.010867575,514.641387919
162.8,338.399186696,190.400137818,-52.3651044865,-161.248017471,262.934761377,573.168609916,-7.4609158003,46.1464418339,-246.010867575,514.641387919
163.8,336.828399774,188.938241832,-56.1773770344,-165.992965627,261.687895475,573.168609916,-7.46091078187,46.0209768299,-246.423900998,514.641387919
164.8,336.392930357,188.619118853,-56.5307331104,-166.281262709,261.473575216,573.168609916,-7.46091078187,45.8194716218,-246.514757683,514.641387919
165.8,336.251762209,188.442074854,-56.8465492692,-166.571905764,261.337274726,573.168609916,-7.45937957104,45.6832806175,-246.593365667,514.644544969
166.8,336.033966693,188.266340077,-57.3747098118,-166.904597466,261.262557242,573.168609916,-7.45937957707,45.4556610517,-246.7062784,514.644544927
167.8,336.133665685,188.796065332,-56.6589086616,-166.681857272,261.579066984,573.168609916,-7.03035814745,45.9575791197,-246.723209368,514.644544927
168.8,334.892671072,188.138402277,-58.2057236874,-168.301923322,261.1498844,573.168609916,-6.88274089972,45.8795118205,-246.782076321,514.644544927
169.8,334.48988712,187.585580599,-60.0473043001,-169.908827472,260.65246124,573.168609916,-6.88274090107,45.8029566706,-246.96614209,514.644544927
170.8,334.065208162,187.323334297,-60.5010436461,-170.310402379,260.321597577,573.168609916,-6.88274090107,45.4425572326,-247.006386446,514.644544927
171.8,334.011632108,187.47968471,-60.3142801123,-170.427264033,260.280169845,573.168609916,-6.85060377754,45.594240381,-247.00769927,514.644544927
172.8,334.123708828,187.950794637,-59.6870680078,-170.121619252,260.631852442,573.168609916,-6.81791230372,46.0855846009,-247.00769927,514.644544927
173.8,336.11353294,191.173375505,-57.5174177054,-168.816172111,263.207110278,574.538753748,-2.12029678807,47.3251193628,-247.00769927,514.644544927
174.8,337.973230198,196.647445073,-52.7005620295,-167.073403305,265.448297022,574.792758204,0.918641778001,48.2233523524,-247.00769927,514.644544927
175.8,337.642901956,198.411106562,-53.0794015974,-168.334905382,266.570689229,574.779081385,1.20395080755,48.1215948468,-247.354307543,514.644544927
176.8,337.314500568,198.163229357,-53.6351247036,-168.874110745,266.295144102,574.779053086,1.20395079688,47.8586239846,-247.445294658,514.644544927
177.8,336.088735262,196.85965696,-55.4154850037,-170.470608422,265.533922796,574.779053086,1.20395079688,47.3255337499,-248.138923827,514.644544927
178.8,335.62871549,196.421940453,-56.5458455789,-171.148538643,265.247349301,574.779053086,1.20395079688,47.0106864372,-248.238329171,514.644544927
179.8,335.373176465,196.21909057,-57.0669384295,-171.442647911,265.176758762,574.779053086,1.20395079688,46.6696486171,-248.312633697,514.644544927
180.8,335.532325775,196.849392709,-56.0190145819,-171.14885772,265.546176813,574.779053086,1.76411445399,47.5507590619,-248.304169107,514.644544927
181.8,334.029861932,195.110632113,-60.483275218,-177.965334666,260.610136212,574.779053086,1.76396737923,47.3524577329,-248.994121805,514.644544927
182.8,333.835151652,194.889735824,-61.4493149126,-178.937915403,259.937572951,574.779053086,1.76396737923,47.0610380799,-249.050075132,514.644544927
183.8,333.060929782,194.436279707,-61.8461983867,-179.704241964,259.262258331,574.741791793,1.7665968628,46.5332931182,-249.146587475,514.644544927
184.8,332.992302411,194.532674961,-61.7725966361,-179.773591762,259.32896793,574.731368919,1.79562763922,46.5903756178,-249.146035427,514.644544927
185.8,333.038552759,195.072794495,-61.0546557209,-179.417507095,259.900335115,574.731368919,2.41965440722,46.8681967274,-249.146035427,514.644544927
186.8,335.630760929,199.159540577,-58.3590296875,-178.154778245,261.722654213,575.299873637,6.42825318425,47.684091888,-249.146035427,514.644544927
187.8,336.282317839,201.031720597,-56.1855586027,-177.311197863,263.03655224,575.29987368,6.67830667252,47.863476414,-249.146035427,514.644544927
188.8,335.885466382,200.734289778,-57.496700134,-178.328647005,263.130413509,575.29987368,6.6911406895,47.8914648766,-249.247293998,514.644544927
189.8,335.316816143,200.201810244,-58.2020895937,-178.847652448,262.847235312,575.29987368,6.69625051526,47.600772921,-249.414180773,514.644544927
190.8,335.070803513,199.998818383,-58.6732975832,-179.119570133,262.749154437,575.29987368,6.69625051323,47.4432871,-249.439568857,514.644544927
191.8,334.18279209,199.21048873,-60.5111568142,-180.817677328,262.346205941,575.29987368,6.69625051323,46.8714769695,-249.818581591,514.644544927
192.8,334.017113149,199.405888759,-60.312769596,-180.891069476,262.56251487,575.29987368,7.04583206575,47.1836374949,-250.01868595,514.644544927
193.8,332.723580342,198.62399348,-62.4150641518,-183.344338863,262.13048304,575.29987368,7.30814954493,47.0930959911,-250.254209989,514.644544927
194.8,331.573964596,197.098866635,-65.0918251093,-189.171290342,255.449858359,575.29987368,7.30814950156,47.0539796141,-250.70437448,514.644544927
195.8,331.232761858,196.831043577,-65.6039759055,-189.547442735,255.203175795,575.29987368,7.30814950156,46.767035855,-250.740368011,514.644544927
196.8,331.465839872,197.70041367,-63.9963575109,-189.231370812,255.240674236,575.29987368,7.64853504138,47.5368852044,-250.741480158,514.644544927
197.8,331.620308334,198.339845601,-63.0616156515,-188.819470392,255.70803195,575.29987368,7.91384236616,47.8705475867,-250.741480158,514.644544927
198.8,332.977882074,200.927629922,-61.0562996395,-187.63306222,257.728817758,575.82102005,10.9841104569,48.4454155841,-250.741480158,514.644544927
199.8,334.103633705,203.450128511,-58.1779937275,-186.614210178,258.810532469,575.825276576,11.8890177802,49.0845585239,-250.741480158,514.644544927
200.8,334.075386534,203.880635152,-58.3027396362,-186.845353672,259.290645293,575.825276576,11.9089131865,49.0673487898,-250.767110537,514.644544927
201.8,334.286585683,204.133719297,-57.8750906241,-186.614410078,259.657514583,575.825276576,11.9669744049,49.20658759,-250.767118359,514.644544927
202.8,333.857896399,203.85370779,-58.1318151334,-186.959359742,259.587157163,575.825276576,11.9700801008,49.1231411175,-250.8868585,514.655685497
203.8,333.361349955,203.337304241,-59.2650478704,-187.636852598,259.311994848,575.825276576,11.9700539739,48.6887118992,-250.91929958,514.653398148
204.8,333.017313087,203.082896371,-59.8754733946,-188.049675029,259.264965517,575.825276576,11.9700539739,48.3224298057,-251.090958829,514.653398148
205.8,333.201868809,203.879782278,-58.6800993674,-187.618569489,259.769407284,575.825276576,12.655419426,49.2599982161,-251.088331075,514.653398148
206.8,331.759558707,202.701910208,-62.1250524462,-191.040644209,258.313988286,575.825276576,12.6552259956,49.0671109092,-251.397026428,514.653398148
207.8,331.61129148,202.531681788,-62.4642899148,-191.200710042,258.217011866,575.825276576,12.6554335825,48.8832906703,-251.403889673,514.653398148
208.8,331.877759149,204.221540164,-60.1877530591,-190.899384461,258.323568119,575.825276576,13.2501405247,49.537674083,-251.403905777,514.653398148
209.8,331.942887923,204.631486023,-59.5749906874,-190.876838125,258.498600706,575.825276576,13.3112926589,49.7320365529,-251.403905777,514.653398148
210.8,331.973233334,205.081618146,-58.8823652565,-190.541573929,258.876903787,575.825276576,13.6428341882,50.0125637502,-251.403905777,514.653398148
211.8,334.533887545,209.145006288,-55.9247475198,-189.089753704,260.69270928,576.94789262,18.6182007291,51.1418121955,-251.403905777,514.653398148
212.8,335.159441678,212.119907113,-52.1237433533,-187.618760022,262.317619652,576.947893231,19.216117932,51.4158332736,-251.403905777,514.653398148
213.8,334.3734754,211.256490776,-54.4880234607,-189.513856722,262.296949933,576.947893231,19.2161178711,51.2993192129,-251.435470864,514.653398148
214.8,334.197042446,211.085737579,-54.6227377925,-189.62365299,262.301443383,576.947893231,19.2179481233,51.2416026271,-251.512303635,514.653398148
215.8,333.948757955,210.806656192,-55.0833612655,-189.9770491,262.160579024,576.947893231,19.2179478859,51.0623356461,-251.57701151,514.66283364
216.8,333.685147154,210.579650546,-55.6367795558,-190.373566568,262.067240246,576.947893231,19.2170381725,50.8377859969,-251.694546546,514.662833637
217.8,333.714066848,210.896501147,-55.1781999564,-190.234411087,262.306495193,576.947893231,19.4140814872,51.2756425677,-251.732323883,514.662833637
218.8,333.09892422,210.37506292,-56.3997417785,-191.187326953,262.00237386,576.947893231,19.4506047158,51.1155281248,-251.750121586,514.662833637
219.8,332.739002273,209.849899397,-58.2090978971,-192.861153772,261.406557271,576.947893231,19.4506047157,51.0329518434,-251.893095349,514.662833637
220.8,332.295242293,209.575517547,-58.7697748759,-193.249394595,261.115804504,576.947893231,19.4506047157,50.6717867783,-251.938886787,514.662833637
221.8,332.302514727,209.73067414,-58.5887748638,-193.253693606,261.158720163,576.943926966,19.4950584179,50.8516766975,-251.93888904,514.662833637
222.8,332.355737548,210.186289641,-57.7956933339,-192.930919314,261.565183169,576.943926967,19.5953275858,51.10635401,-251.93888904,514.662833637
223.8,333.525605063,212.329079042,-56.1752709444,-191.609006452,263.472086484,577.871255481,22.4034711938,51.5221848781,-251.93888904,514.662833637
224.8,335.362661941,218.329420453,-51.2378617109,-189.627289148,265.695606772,578.049532782,25.7913959727,52.3238416696,-251.93888904,514.662833637
225.8,335.460015729,221.118569912,-49.731003699,-189.915909779,267.043712978,578.049532782,26.0711517746,52.2990922257,-252.007181587,514.662833637
226.8,335.345364743,221.035129346,-49.9602102568,-190.199337771,266.982327811,578.049532782,26.0712499412,52.2232195956,-252.022799685,514.662833637
227.8,334.715649526,220.562409659,-50.6072398441,-190.73457472,266.698969412,578.049532782,26.0712447445,52.0065311062,-252.212590029,514.664990099
228.8,333.857660712,219.797916872,-52.205720188,-191.859072255,266.337447392,578.049532782,26.0712447445,51.5326344128,-252.463672333,514.667068565
229.8,333.206341468,219.353457698,-53.205962883,-192.647066667,266.25371433,578.049532782,26.0712447445,50.9539296287,-252.861520435,514.667068565
230.8,333.286005051,219.688582264,-52.6646239353,-192.490339849,266.487609464,578.049532782,26.2298501747,51.291002175,-252.866055697,514.667068565
231.8,332.418898366,218.807827709,-54.5990145176,-194.176663487,266.065811947,578.049532782,26.2298027492,51.101316097,-252.899259355,514.667068565
232.8,332.170063823,218.551903316,-55.2905013772,-194.406535231,265.960917726,578.049532782,26.2298027492,50.7873253647,-252.931845008,514.667068565
233.8,331.583388072,218.155562227,-55.7230818311,-195.037393643,265.402061635,578.034929388,26.2298027492,50.4342784034,-252.989529598,514.667068565
234.8,331.680210873,218.570874215,-54.8765092209,-194.818133056,265.604615895,578.044355023,26.307976716,50.836895062,-252.989054384,514.667068565
235.8,331.708020658,219.081325303,-54.1842846969,-194.504605358,266.080813784,578.044355023,26.8361283708,51.1558294342,-252.989054384,514.667068565
236.8,333.882877872,223.234519218,-51.1086122844,-193.2284498,267.669666165,578.498367246,31.263177438,52.4748986602,-252.989054384,514.667068565
237.8,334.457554375,225.562644645,-48.310297368,-192.159547932,269.237333038,578.498367398,31.5481144881,52.6389210961,-252.989054384,514.667068565
238.8,334.094819955,225.299280807,-49.4068745394,-193.016289765,269.336125845,578.498367398,31.5761647008,52.6919239063,-253.034997282,514.667068565
239.8,333.060768858,224.354807355,-50.7100788108,-194.107467448,268.899938773,578.498367398,31.575982297,52.261926561,-253.361392565,514.667068565
240.8,332.836719159,224.116232157,-51.2135991089,-194.36522069,268.806443589,578.498367398,31.575982297,52.1240450871,-253.369341011,514.667068565
241.8,331.834438934,223.176181274,-53.6058760038,-196.560382832,268.315348044,578.498367398,31.575982297,51.5771269295,-253.871488237,514.667068565
242.8,331.374591526,223.043550501,-53.9044644098,-196.970713056,268.327013622,578.498367398,31.708473222,51.4537645072,-254.193763977,514.667068565
243.8,330.372036833,222.378488872,-56.0516611929,-199.027965566,268.13502275,578.498367398,31.8776708407,51.408134898,-254.332270899,514.667068565
244.8,329.579059469,221.381093362,-58.5951466266,-203.828079885,263.127474345,578.498367398,31.8776708322,51.3664465694,-254.390492427,514.667068565
245.8,329.103219976,221.021108053,-59.0481561989,-204.161524991,262.813581694,578.498367398,31.8776708322,50.9786808887,-254.422482567,514.667068565
246.8,329.131218524,221.653055955,-57.9449792863,-204.001796017,262.761650537,578.503630304,32.2600961514,51.7353439101,-254.426747105,514.667068565
247.8,329.18435609,221.851860615,-57.5930080083,-203.887114998,262.920660783,578.50363025,32.3114572682,51.946107859,-254.426747105,514.667068565
248.8,330.239361019,224.074950492,-56.0426408535,-203.180374653,264.283417555,578.667057802,35.6930694562,52.716242129,-254.426747105,514.667068565
249.8,331.462321213,226.826442864,-53.0622770207,-202.293190936,265.318244113,578.671432276,36.936331554,53.4029444291,-254.426747105,514.667068565
250.8,331.055076496,226.489444407,-54.1940582205,-203.225310173,265.278461775,578.671432276,36.9364662154,53.3068508536,-254.452526423,514.667068565
251.8,331.221446936,226.799135256,-53.5950396217,-202.992371669,265.558925698,578.671432276,37.0016918966,53.5772393397,-254.452525057,514.667068565
252.8,330.731105207,226.35322578,-54.1380645961,-203.384061104,265.329443208,578.671432276,36.9992020006,53.313444037,-254.565858573,514.66881418
253.8,330.392873503,226.001372033,-55.1279139668,-203.927177333,265.11318684,578.671432276,36.9992020006,52.9866306971,-254.610081942,514.668819311
254.8,330.254543856,225.875385079,-55.4570057358,-204.106538818,265.067053023,578.671432276,36.9865985287,52.7513452094,-254.665972718,514.668819311
255.8,330.192535875,226.095833585,-55.1733948823,-204.092840613,265.206694303,578.671432276,37.1584894513,53.1631629292,-254.66971285,514.668819311
256.82,328.636501609,224.799047954,-58.4725862466,-207.139286421,263.682730475,578.671432276,37.1584884198,53.0048691418,-254.98087674,514.668819311
257.84,328.468225933,224.640475457,-58.8061840473,-207.247365911,263.610757414,578.671432276,37.1584884198,52.8064867854,-254.993820463,514.668819311
258.86,328.516441926,225.094860493,-57.7463700347,-207.035734956,263.727005924,578.671432276,37.3009298748,53.3081388673,-254.993818019,514.668819311
259.88,328.415842018,225.201025536,-57.6790298981,-207.154978516,263.868184879,578.671432276,37.3062546641,53.3086168531,-254.993818019,514.668819311
260.9,328.49654566,225.897686952,-56.6826111334,-206.648260339,264.514389072,578.671432276,37.7885291674,53.6065319763,-254.993818019,514.668819311
261.92,330.078959176,229.195196265,-54.0570201764,-205.706428582,265.835011467,578.671432276,40.9663368203,54.8123313949,-254.993818019,514.668819311
262.94,330.566121069,233.288265503,-50.1808602491,-204.195762048,267.847871695,578.671432276,41.5396245591,55.2083185409,-254.993818019,514.668819311
263.96,330.113263367,233.131278961,-51.1770933635,-205.349807964,267.986827407,578.671432276,41.5514506007,55.3743260743,-254.993818019,514.668819311
264.98,330.078104095,233.113247339,-51.1636493274,-205.344225317,268.120941164,578.671432276,41.6058713092,55.4000678598,-255.044943154,514.668481833
266.0,329.456346696,232.548509207,-52.172773472,-205.968794263,267.880118005,578.671432276,41.6058713114,55.0625683231,-255.169886101,514.670927848
267.02,329.084642716,232.236840523,-52.8925031608,-206.408550526,267.776573333,578.671432276,41.6058713114,54.6992669363,-255.288625618,514.670927848
268.04,329.192859007,232.702171345,-52.1802397369,-206.171431211,268.047436917,578.671432276,41.8675792278,55.249044654,-255.287364801,514.670927848
269.06,328.266127636,231.719164965,-54.8500724402,-208.561294908,267.17920707,578.671432276,41.8653744735,55.0652271074,-255.388443294,514.670927848
270.08,328.1669676,231.52319977,-55.5975508265,-209.160029431,266.678796082,578.671432276,41.8653744735,54.9060060139,-255.4351239,514.670927848
271.1,328.072716285,231.589754299,-55.268218566,-209.160193161,266.640924464,578.671432276,41.9152773984,55.1109573589,-255.447600186,514.670927848
272.12,327.847216111,231.592264198,-55.5214216715,-209.697159644,266.623780772,578.659113761,41.94092513,55.1032244354,-255.462767835,514.670927848
273.14,327.868802162,231.95249874,-55.0163840398,-209.4551399,266.945557506,578.659113762,42.1433203357,55.3008881708,-255.462767563,514.670927848
274.16,330.184675852,235.868457315,-52.1439252785,-208.420003088,268.823962625,579.572236561,46.5151252484,56.237725575,-255.462767563,514.670927848
275.18,330.951171918,238.441310375,-48.7631240399,-206.966880707,270.550211663,579.57224664,46.9587978658,56.6235504686,-255.462767563,514.670927848
276.2,330.346328817,237.89572859,-50.2411807691,-208.031244609,270.568223794,579.57224664,46.9589196592,56.5686659637,-255.484251502,514.670927848
277.22,329.704837444,237.392448689,-50.7993750202,-208.540634559,270.325456799,579.57224664,46.9687944473,56.4170438797,-255.619279458,514.670927848
278.24,329.485827907,237.124030997,-51.4066046058,-208.895123307,270.195894705,579.57224664,46.9687944458,56.2647680116,-255.682232477,514.670927848
279.26,328.825602004,236.64058979,-52.6826782726,-209.973650381,269.941549631,579.57224664,46.9687944458,55.9483596272,-255.886878628,514.670927848
280.28,328.553256101,236.545367594,-52.9451831223,-210.129487355,269.963441379,579.57224664,47.0394942478,55.6947268833,-256.017568801,514.670927848
281.3,327.489365342,235.544336676,-55.264981662,-211.982659784,269.644109484,579.57224664,47.040544122,55.4368102806,-256.139836713,514.670927848
282.32,326.706633795,234.39370954,-57.7407153399,-217.830988539,263.140370499,579.57224664,47.040544122,55.4167883437,-256.424267182,514.670927848
283.34,326.017438728,233.888557274,-58.4116400529,-218.354706174,262.671852302,579.57224664,47.040544122,54.9875823223,-256.472620639,514.670927848
284.36,326.003605318,234.076928449,-57.9374742295,-218.293581436,262.631372456,579.572264303,47.0770912242,55.3025706975,-256.481525253,514.670927848
285.38,326.061625905,234.550154539,-57.2070830347,-218.063901997,262.960049586,579.572264767,47.2029507428,55.602404605,-256.481525253,514.670927848
286.4,326.746151322,236.25005852,-55.7635375517,-217.462677034,263.87815509,579.572264767,48.9438084327,56.3476594788,-256.481525253,514.670927848
287.42,327.659944486,239.532735545,-51.7309812845,-215.982324058,265.58880175,579.572264767,49.7365356623,57.1293758113,-256.481525253,514.670927848
288.44,327.829529213,241.071541193,-50.8651537042,-215.858851164,266.252152739,579.572264767,49.7697594329,57.0691040618,-256.483680147,514.670927848
289.46,327.688956943,241.131001875,-50.6304723773,-215.860834508,266.201047069,579.572264767,49.7970948227,57.1638784913,-256.51171005,514.670927848
290.48,327.288260864,240.802781425,-51.0765056289,-216.328112555,266.135244533,579.572264767,49.7970942558,57.0010227465,-256.623080512,514.670927848
291.5,327.069442479,240.578302792,-51.6687682842,-216.694984861,266.018953601,579.572264767,49.7952801234,56.8491284993,-256.654513306,514.670927848
292.52,326.81534109,240.387411363,-52.1556907616,-216.901358281,265.994875005,579.572264767,49.7954298645,56.5103893611,-256.729680627,514.670927848
293.54,326.456378001,240.216306675,-52.6730215279,-217.5015912,266.056859924,579.572264767,49.9413080745,56.6132416773,-256.782903473,514.670927848
294.56,325.856529576,239.654734978,-54.2462416735,-219.009303805,265.839936191,579.572264767,49.9413080401,56.5528977544,-256.795580118,514.670927848
295.58,325.509385498,239.340732406,-54.812049391,-219.313076224,265.603360852,579.572264767,49.9413080401,56.2710223549,-256.815438183,514.670927848
296.6,325.445462078,239.527555841,-54.331400639,-219.300178128,265.519936181,579.573126976,49.9908733793,56.5398357577,-256.82319389,514.670927848
297.62,325.578984199,240.40843631,-53.1571901387,-218.960329337,265.969044488,579.57309367,50.3206194051,57.0226822643,-256.82319389,514.670927848
298.64,325.808264515,241.59811025,-51.7541241338,-218.196674878,267.21426057,579.57309367,51.6324472531,57.4757663262,-256.82319389,514.670927848
299.66,327.250229326,244.898809952,-48.6640720976,-217.185219647,268.314817702,579.57309367,53.6709185354,58.3697412723,-256.82319389,514.670927848
300.68,327.119514965,245.787356469,-48.2241296216,-217.459362193,269.043044298,579.57309367,53.7355863897,58.4248487798,-256.82319389,514.670927848
301.7,327.195706195,245.982076295,-47.877863095,-217.446055377,269.27210244,579.57309367,53.7874779939,58.6378743265,-256.836556816,514.670927848
302.72,326.904012865,245.716460586,-48.1721175507,-217.666073776,269.14397342,579.57309367,53.7912193917,58.5105486704,-256.925677502,514.674194035
303.74,326.618110256,245.457021979,-48.6511879533,-218.058650574,269.031496364,579.57309367,53.7930328682,58.3183125596,-256.959309878,514.67699765
304.76,326.436645672,245.301323154,-49.0468988463,-218.204137109,268.992767999,579.57309367,53.7930317954,58.0271622289,-257.006849786,514.67699765
305.78,326.380515938,245.515109068,-48.7841559892,-218.155985223,269.137751859,579.57309367,53.9420685852,58.3234158367,-257.008123686,514.67699765
306.8,324.911426985,244.214833086,-51.8885377808,-221.222670469,268.091481689,579.57309367,53.9420647889,58.2018582185,-257.308703732,514.67699765
307.82,324.735091925,243.964203523,-52.4522322556,-221.495030947,267.966449274,579.57309367,53.9420647889,57.9093277828,-257.328168905,514.67699765
308.84,324.782505279,244.246384149,-51.7697885766,-221.283341244,268.126710518,579.57309367,54.0182471585,58.2265609481,-257.328179678,514.67699765
309.86,324.715168909,244.412765131,-51.6091558995,-221.301266075,268.352219891,579.57309367,54.0231617217,58.3155909683,-257.3296102,514.67699765
310.88,324.754623109,244.797600543,-50.9859479089,-220.981881776,268.804531356,579.57309367,54.428601713,58.5300209314,-257.3296102,514.67699765
311.9,326.027321941,247.959353506,-48.2495836702,-220.108573328,270.051076541,579.57309367,57.8349963576,59.7104148948,-257.3296102,514.67699765
312.92,326.373904906,252.244338918,-43.8334097583,-218.494987199,272.317689086,579.57309367,58.5419978266,60.2028410964,-257.3296102,514.67699765
313.94,326.158795988,252.156655237,-44.1319364559,-218.833183748,272.446082994,579.57309367,58.568200079,60.2533123797,-257.3296102,514.67699765
314.96,326.523951059,252.494135513,-43.7311041859,-218.478470706,273.079068394,579.57309367,58.6724138983,60.4104131882,-257.34094446,514.67699765
315.98,326.38286917,252.396346432,-43.9254514639,-218.628558466,272.980501675,579.57309367,58.6715045062,60.3246701946,-257.364485281,514.686930952
317.0,326.304849809,252.328870622,-44.0759269001,-218.703287382,272.950584972,579.57309367,58.671504506,60.2359117138,-257.376827328,514.686930951
318.02,326.371309115,252.768877574,-43.3988012798,-218.47949307,273.205885385,579.57309367,58.9476082786,60.657221266,-257.387653288,514.686930951
319.04,324.029006168,250.46289042,-46.3052368178,-222.093923494,270.612073336,579.57309367,58.9446895177,60.4334934324,-257.493455705,514.650802542
320.06,323.940990748,249.968291404,-47.7485221933,-225.088087311,266.991081625,579.57309367,58.9446895177,60.3450050776,-257.948023562,514.613321887
321.08,323.980052663,250.440705476,-46.6937548759,-224.734080091,267.237493063,579.57309367,59.212407855,60.9870400543,-257.948943181,514.613321887
322.1,324.087175994,250.847683855,-46.1711469011,-224.592307524,267.406791573,579.558575691,59.3437477478,61.0756538897,-257.948943181,514.613321887
323.12,324.177450094,251.465500175,-45.1664571215,-224.251271398,267.843509852,579.558575691,59.6421426196,61.4671289721,-257.948943181,514.613321887
324.14,326.11652876,255.151298621,-42.0145871861,-223.234054884,269.788934666,580.013556561,64.1575755636,62.9641162922,-257.948943181,514.613321887
325.16,326.73467851,257.329943283,-39.2172435916,-222.177248173,270.994608487,580.013559062,64.6249750527,63.3876255258,-257.948943181,514.613321887
326.18,326.582862477,257.35585077,-39.3351229831,-222.486278501,271.094576759,580.013559062,64.6591473657,63.4139487998,-257.948943181,514.613321887
327.2,326.373346046,257.250712235,-39.4012197024,-222.600481068,271.25198859,580.013559062,64.7753259271,63.4196362279,-258.001524272,514.613321887
328.22,326.228774149,257.054047004,-39.8675266725,-222.834937006,271.165403718,580.013559062,64.7753257855,63.3024115775,-258.03522322,514.613321887
329.24,325.84292542,256.696725839,-40.6945910452,-223.403928727,271.050209724,580.013559062,64.7753257855,63.0309858989,-258.061951466,514.613321887
330.26,325.737159248,256.65631538,-40.8015308355,-223.442126246,271.091259135,580.013559062,64.8100924051,62.9483899589,-258.102276565,514.613321887
331.28,324.510668803,255.633666762,-43.0137183016,-225.586543043,270.840772796,580.013559062,64.8252243703,62.6231623824,-258.212127663,514.613321887
332.3,323.732462431,254.491480314,-45.5659031418,-228.307836049,268.784730368,580.013559062,64.8252243703,62.5469653471,-258.418653859,514.613321887
333.32,323.286864143,254.147777691,-46.2174410691,-228.703384788,268.496542147,580.013559062,64.8252243703,62.1819631496,-258.466033644,514.613321887
334.34,323.466419035,254.844090984,-45.000678165,-228.540710103,268.513155002,580.01688737,65.1711664494,62.7822733533,-258.469040676,514.613321887
335.36,323.543082347,255.300046877,-44.3315869256,-228.253190015,268.846668638,580.016887395,65.2389682619,63.1041761892,-258.469028657,514.613321887
336.38,324.155591394,256.712579657,-43.0417754212,-227.724476139,269.774914918,580.016887395,66.6107238325,63.8246616431,-258.469028657,514.613321887
337.4,324.750826883,258.594020149,-40.3032268166,-226.955530845,270.650018292,580.016887395,66.9726223826,64.5835854939,-258.469028657,514.613321887
338.42,324.58882384,258.451736953,-40.6271142857,-227.245873018,270.700221816,580.016887395,66.9770747862,64.5315375201,-258.469028657,514.613321887
339.44,324.817339827,258.708215529,-40.1934031783,-227.009823961,270.990984378,580.016887395,67.0227409276,64.6954010802,-258.469028657,514.613321887
340.46,324.475631873,258.438876056,-40.62271337,-227.318607537,270.867468703,580.016887395,67.0225884776,64.5408184015,-258.551981948,514.615083031
341.48,324.213484123,258.192430901,-41.232829299,-227.697635973,270.724909953,580.016887395,67.0225884776,64.3451590025,-258.586292293,514.61508303
342.5,323.974892052,258.039744354,-41.7371796234,-227.882835582,270.729657606,580.016887395,67.0425449278,63.9205091647,-258.701796408,514.61508303
343.52,323.480124037,257.631126413,-42.5632837699,-228.526077302,270.684894319,580.016887395,67.0965463186,63.8224473195,-258.733303684,514.61508303
344.54,322.614836783,256.834558247,-44.6310891395,-230.701673621,270.204735638,580.016887395,67.0965463181,63.7761026048,-258.836518188,514.61508303
345.56,322.306562284,256.578185025,-45.0432690745,-230.940883045,269.984676867,580.016887395,67.0965463181,63.5546162901,-258.838708491,514.61508303
346.58,322.232479393,256.627306273,-44.8078320218,-230.986406164,269.936250927,580.016887395,67.1080826001,63.6682761344,-258.839655315,514.61508303
347.6,322.291660603,256.918847603,-44.3558065673,-230.826024727,270.151208893,580.016887395,67.1158940104,63.8537514285,-258.839655315,514.61508303
348.62,322.457245384,257.838490215,-43.3281482756,-230.208083331,271.114964583,580.016887395,68.3119567385,64.3820690645,-258.839655315,514.61508303
349.64,323.578086202,261.079939229,-39.9938161558,-229.167737856,272.443048251,580.016887395,70.1137198559,65.7834681413,-258.839655315,514.61508303
350.66,323.391555069,262.795377217,-39.0748457811,-229.084550561,273.4397065,580.016887395,70.2568443259,65.9265654813,-258.839655315,514.61508303
351.68,323.478749747,262.908241299,-38.8761079688,-229.047174822,273.626086335,580.016887395,70.2806155428,66.0545845573,-258.839655315,514.61508303
352.7,323.227960683,262.672617572,-39.2058478776,-229.250855458,273.570561189,580.016887395,70.2923986115,65.9179040297,-258.931128232,514.614762249
353.72,322.652634009,262.297760357,-39.9937490451,-229.866646587,273.408200437,580.016887395,70.2924643353,65.6592998629,-259.025103838,514.622610861
354.74,322.433801324,262.10775453,-40.4367441947,-230.051852183,273.348578503,580.016887395,70.2924643353,65.3246911111,-259.10147497,514.622610861
355.76,322.360750769,262.204279381,-40.3449150257,-230.056173581,273.432498575,580.016887395,70.3695107834,65.5278060991,-259.115756366,514.622610861
356.78,320.938828537,261.066446391,-43.239888982,-232.829208055,272.758527449,580.016887395,70.3695082549,65.3522240122,-259.226930185,514.622610861
357.8,320.804237178,260.911169877,-43.5570469007,-232.939102614,272.70571533,580.016887395,70.3703734564,65.1801644953,-259.232572649,514.622610861
358.82,320.919941738,261.211478607,-42.8891281036,-232.747134669,272.876555059,580.016887395,70.4096988606,65.4170891916,-259.232321222,514.622610861
359.84,320.966511046,261.423290985,-42.4893540828,-232.59041609,273.116528285,580.016887395,70.4251783198,65.551274586,-259.232321222,514.622610861
360.86,321.009238163,261.970925469,-41.6355441122,-232.147854932,273.633989741,580.016887395,70.9257598552,65.8555086464,-259.232321222,514.622610861
361.88,322.288321168,264.507810482,-39.4045441817,-231.4035947,274.666523121,580.016887395,73.0663059904,66.8800651296,-259.232321222,514.622610861
362.9,322.405075809,266.390412192,-37.1984080213,-230.668931184,275.941811689,580.016887395,73.2956773365,67.3606629879,-259.232321222,514.622610861
363.92,322.270456832,266.397953475,-37.2685384522,-230.923311078,276.058777533,580.016887395,73.3027882872,67.4719854959,-259.232321222,514.622610861
364.94,322.090970646,266.234470951,-37.4346672665,-231.049654218,276.047421883,580.016887395,73.3212251989,67.4191174459,-259.294609681,514.622610861
365.96,321.84041047,265.982613767,-37.9098697431,-231.294926453,275.916822777,580.016887395,73.3197965147,67.2490159018,-259.316104598,514.62019818
366.98,321.715898485,265.866445095,-38.2044041988,-231.416473385,275.889782525,580.016887395,73.3176498259,67.0797466944,-259.345219226,514.62019818
368.0,321.7033096,265.951086445,-38.1176483291,-231.378870535,275.983694002,580.016887395,73.4130753386,67.1984918815,-259.367880253,514.62019818
369.02,320.7205171,265.096102326,-40.5159772791,-233.127513985,275.333932623,580.016887395,73.413070612,66.8984812222,-259.413183005,514.62019818
370.04,320.6382475,264.933163127,-40.9492704208,-233.359055206,275.234902393,580.016887395,73.413070612,66.7623504844,-259.413385062,514.62019818
371.06,320.502178759,264.944051895,-40.742745367,-233.367092662,275.192946081,580.016887395,73.4482469955,66.8978887787,-259.419144744,514.62019818
372.08,320.691192128,265.637747267,-39.4563456165,-233.03041836,275.466555109,580.01622374,73.6313140823,67.4800327855,-259.419144702,514.62019818
373.1,320.756171734,266.124220164,-38.6353002607,-232.738110404,275.822960889,580.016223743,73.8495589246,67.7699211662,-259.419144702,514.62019818
374.12,321.652418236,267.912694033,-36.9101962392,-232.130525202,276.765719202,580.016223743,75.2868348013,68.606997156,-259.419144702,514.62019818
375.14,322.09583441,269.036160869,-35.0191088374,-231.428811822,277.587720724,580.016223743,75.3679703015,68.9379902099,-259.419144702,514.62019818
376.16,321.760908468,268.86780951,-35.7093575367,-231.958938253,277.599001,580.016223743,75.3692931206,68.9358465317,-259.423805117,514.62019818
377.18,321.06194703,268.193870523,-36.4721444555,-232.735851004,277.42291751,580.016223743,75.3707131979,68.6952022027,-259.606440858,514.62019818
378.2,320.938879836,267.981798654,-36.8186281496,-233.041641888,277.370674449,580.016223743,75.3707131929,68.5907139811,-259.691983836,514.62019818
379.22,320.46647998,267.579337493,-37.8571652133,-233.763838189,277.207909282,580.016223743,75.3707131929,68.3513631139,-259.730763273,514.62019818
380.24,320.266093935,267.536269257,-38.0362070364,-233.82541528,277.30817083,580.016223743,75.4477130819,68.2728448026,-259.816862365,514.62019818
381.26,319.236468089,266.515403623,-39.7895901983,-235.725416558,277.25016101,580.016223743,75.4915888588,68.1088861399,-259.858282302,514.62019818
382.28,318.488923676,265.469321837,-41.9486886005,-238.455912727,275.019469302,580.016223743,75.4915888571,68.0834779158,-259.979933982,514.62019818
383.3,318.078265357,265.162205468,-42.4822220262,-238.768964819,274.744486156,580.016223743,75.4915888571,67.8177015815,-260.001331174,514.62019818
384.32,318.063497675,265.413398273,-42.0162483874,-238.706704246,274.755597437,580.016223743,75.6190385544,68.1583050508,-260.000348364,514.62019818
385.34,318.280828633,266.47551881,-40.3848645116,-238.195582207,275.357487127,580.016223743,76.0126772763,68.9721399641,-260.000348364,514.62019818
386.36,318.853582793,267.808775555,-39.1493969919,-237.641841729,276.202286769,580.016223743,77.1981033284,69.6725886771,-260.000348364,514.62019818
387.38,319.301796385,269.116286266,-37.0461148294,-237.042681834,276.860148771,580.016223743,77.3901915892,70.1985839861,-260.000348364,514.62019818
388.4,319.0697618,268.989025733,-37.7705902397,-237.422847239,276.998158428,580.016223743,77.3902138289,70.0735035018,-260.005491823,514.62019818
389.42,319.191318932,269.214322416,-37.3227102011,-237.247856286,277.197292416,580.016223743,77.4184740629,70.2817117384,-260.00500942,514.62019818
390.44,318.81585161,268.915126032,-37.8107929994,-237.589507632,276.998783043,580.016223743,77.4183109451,70.1011634792,-260.121335427,514.62019818
391.46,318.436087186,268.540327408,-38.8286762433,-238.215572332,276.811204386,580.016223743,77.4183109451,69.8130597961,-260.172290642,514.62019818
392.48,318.196512744,268.42330394,-39.2371216366,-238.411115065,276.839300231,580.016223743,77.4600499546,69.5032496275,-260.302427867,514.62019818
393.5,317.924752869,268.311625437,-39.582460711,-238.680948416,276.844447981,580.016223743,77.5374381815,69.5341366311,-260.302177328,514.62019818
394.52,317.205604775,267.68641743,-40.8843591881,-240.025219475,276.701734222,580.016223743,77.5374381647,69.5195857434,-260.356817213,514.62019818
395.54,317.019766177,267.42381861,-41.3833260094,-240.249483177,276.527565319,580.016223743,77.5374381647,69.3105874472,-260.359707559,514.62019818
396.56,317.071096138,267.60821128,-40.9380141559,-240.147689125,276.592820624,580.016223743,77.5681496209,69.5632358678,-260.360844672,514.62019818
397.58,317.230853478,268.149204851,-40.0659422559,-239.768283514,276.961979121,580.016223743,77.6611615956,69.8633131761,-260.360844672,514.62019818
398.6,317.33927143,269.078858315,-38.7297539268,-238.974126376,277.938264637,580.016223743,78.5763962758,70.3282025829,-260.360844672,514.62019818
399.62,318.669154776,272.007808155,-35.5787359732,-238.131116298,278.874385249,580.016223743,80.5505858815,71.5381806852,-260.360844672,514.62019818
400.64,318.658626954,273.639802978,-33.8248305251,-237.780223249,279.970568522,580.016223743,80.5893482586,71.6451262885,-260.360844672,514.62019818
401.66,318.72335936,273.806989433,-33.5482650323,-237.687453987,280.121951845,580.016223743,80.6054391579,71.8055946037,-260.360844672,514.62019818
402.68,318.413256347,273.519453171,-33.9351055098,-237.927075038,279.967842658,580.016223743,80.6051656344,71.6741151118,-260.464238006,514.615778935
403.7,317.997696256,273.236249478,-34.6072975125,-238.495498805,279.805349727,580.016223743,80.6051656344,71.4427234363,-260.581072098,514.642069947
404.72,317.817289207,273.080423493,-34.9659745125,-238.680437873,279.758741722,580.016223743,80.6051656344,71.193996727,-260.629016131,514.642069947
405.74,317.76022238,273.025222583,-35.1137128694,-238.749145169,279.745915795,580.016223743,80.6170187207,71.1279637057,-260.644908553,514.642069947
406.76,316.719988984,272.015177301,-37.7566945951,-241.222926296,279.217589831,580.016223743,80.6170186655,70.9446015223,-260.731364464,514.642069947
407.78,316.59043305,271.86214759,-38.088697108,-241.373523742,279.159217509,580.016223743,80.6182467406,70.7717295547,-260.739280646,514.642069947
408.8,316.777042657,272.376039718,-37.1026557662,-241.073147094,279.376665141,580.016223743,80.7068429631,71.1695128869,-260.738948034,514.642069947
409.82,316.720969833,272.725238605,-36.978981798,-241.044622146,279.684198479,580.016223743,80.7332945438,71.3798500392,-260.738948034,514.642069947
410.84,316.754842545,273.485586616,-35.7643965848,-240.538654077,280.363991815,580.016223743,81.4540900254,71.7628404537,-260.738948034,514.642069947
411.86,318.811917072,277.077653972,-32.7176893081,-239.480751775,282.011268588,580.330188999,84.813682022,73.1305065438,-260.738948034,514.642069947
412.88,319.04126415,279.225586231,-29.9688055341,-238.336096945,283.393699272,580.330189024,85.1992974112,73.4962503474,-260.738948034,514.642069947
413.9,318.789904557,279.062209426,-30.5060158514,-238.809143431,283.464325347,580.330189024,85.2053294229,73.5553015253,-260.738948034,514.642069947
414.92,318.380722346,278.698940715,-30.894039463,-239.095522547,283.367084817,580.330189024,85.2281763746,73.4492181096,-260.879197973,514.642069947
415.94,318.096831217,278.429806071,-31.3591826579,-239.39434152,283.304694067,580.330189024,85.2281763746,73.2979920466,-260.895420176,514.644071576
416.96,317.840068627,278.209203866,-31.8809416175,-239.739827402,283.239198361,580.330189024,85.2281763746,73.0712580612,-260.960773786,514.644071576
417.98,317.767668307,278.169790448,-31.9757964994,-239.78817285,283.220227831,580.330189024,85.226731019,72.9913819855,-260.997716871,514.644071576
419.0,315.899112551,276.67905476,-35.5591414298,-243.378890557,282.127808921,580.330189024,85.2266970313,72.7388923656,-261.316066221,514.644071576
420.02,315.755226318,276.420191898,-36.2709963825,-243.710785439,282.008353988,580.330189024,85.2266970313,72.539853082,-261.324980914,514.644071576
421.04,315.710012984,276.543016309,-35.852738739,-243.584389568,282.108492391,580.330189024,85.3097739986,72.8007771169,-261.335730191,514.644071576
422.06,315.810414168,276.959250185,-35.1194909185,-243.388480611,282.200465098,580.330718805,85.4310485367,73.1199785533,-261.335730165,514.644071576
423.08,315.844969166,277.260825066,-34.6056870619,-243.172860282,282.46170933,580.330718807,85.5526395639,73.2869612671,-261.335730165,514.644071576
424.1,316.766706926,279.278088965,-32.7146908443,-242.586265661,283.439356986,580.330718807,87.4554921419,74.1829640956,-261.335730165,514.644071576
425.12,317.248927797,280.958476234,-30.2162013354,-241.689646672,284.472393304,580.330718807,87.601730671,74.7572344468,-261.335730165,514.644071576
426.14,316.867771576,280.650079726,-30.9412527063,-242.325036525,284.486371693,580.330718807,87.6017306706,74.7448279146,-261.33802006,514.644071576
427.16,316.490055347,280.358939163,-31.1440125234,-242.542039568,284.450771167,580.330718807,87.6130546017,74.6684244853,-261.425734381,514.644071576
428.18,316.252241158,280.032583597,-31.7848733756,-242.978527134,284.307634748,580.330718807,87.6130544441,74.5037377319,-261.522787513,514.644071576
429.2,315.752083252,279.587591546,-32.8379080967,-243.886747744,284.093633705,580.330718807,87.6130544441,74.2214618286,-261.658684954,514.644071576
430.22,315.561423991,279.503538934,-33.065908124,-243.989885786,284.105300097,580.330718807,87.6354149824,74.0518533564,-261.724787722,514.644071576
431.24,314.729385718,278.746608382,-34.6372836978,-245.423792877,283.951048687,580.330718807,87.637454961,73.7818718626,-261.781002904,514.644071576
432.26,314.285097294,278.271836873,-35.8945583139,-246.600827776,283.688443265,580.330718807,87.637454961,73.7168877764,-261.830693412,514.644071576
433.28,314.062374814,278.063259626,-36.2549354841,-246.800332182,283.550828899,580.330718807,87.637454961,73.4844635665,-261.841539072,514.644071576
434.3,314.056514882,278.178743857,-35.9299337322,-246.778697502,283.636921572,580.330718807,87.6919827128,73.6971440214,-261.84150872,514.644071576
435.32,314.11854039,278.46419129,-35.417841298,-246.576213266,283.887395671,580.330718807,87.697446786,73.9285989169,-261.84150872,514.644071576
436.34,314.602720921,279.732680939,-33.9919261707,-245.971659968,284.743579026,580.330718807,88.9915929923,74.4467851561,-261.84150872,514.644071576
437.36,315.190840485,281.57585442,-31.2937189574,-245.084370364,285.704808933,580.330718807,89.2848472732,75.1572929372,-261.84150872,514.644071576
438.38,314.94947991,282.241563274,-31.3761633451,-245.541149554,286.085704204,580.330718807,89.3138455563,75.1082049026,-261.84150872,514.644071576
439.4,315.233357881,282.706459159,-30.5952863211,-245.186751676,286.466326466,580.330718807,89.3857963575,75.4267838331,-261.84150872,514.644071576
440.42,314.892749102,282.523095853,-30.8368108762,-245.40101729,286.328792654,580.330718807,89.3863611866,75.3094979036,-261.892681099,514.645284083
441.44,314.499346672,282.118340939,-31.7207603009,-246.006145153,286.129823334,580.330718807,89.3863380199,75.0469544687,-261.959971904,514.645283896
442.46,314.262815802,281.977503384,-32.1421489837,-246.160784669,286.115693608,580.330718807,89.4022518853,74.7767052356,-262.060849565,514.645283896
443.48,313.813214941,281.699891687,-32.5500096608,-246.650400601,286.132393236,580.330718807,89.4969728642,74.8985149149,-262.070464035,514.645283896
444.5,312.91787142,280.93792727,-34.4758372824,-248.775279879,285.751332445,580.330718807,89.4969728415,74.8384171143,-262.154528901,514.645283896
445.52,312.786540006,280.766614186,-34.8598264742,-248.914013374,285.669500642,580.330718807,89.4997926851,74.6849058726,-262.158673506,514.645283896
446.54,312.825843437,280.851411248,-34.6301311425,-248.865262154,285.758739547,580.329144694,89.5179870236,74.8029654659,-262.158675973,514.645283896
447.56,312.95692981,281.226950257,-33.9861856536,-248.621797496,285.993990112,580.329143693,89.5281211076,74.9948690057,-262.158675973,514.645283896
448.58,313.073866923,281.93598163,-32.9403883872,-248.134728889,286.752878516,580.329143693,90.2877311098,75.4642168571,-262.158675973,514.645283896
449.6,313.98583833,284.044859053,-30.4391097834,-247.337835675,287.673424119,580.329143693,91.2653573081,76.574012709,-262.158675973,514.645283896
450.62,313.967970923,285.229438758,-28.9935104867,-246.823168193,288.614061268,580.329143693,91.324762605,76.6830611852,-262.158675973,514.645283896
451.64,314.085967979,285.561836219,-28.4324412573,-246.634130051,288.824334064,580.329143693,91.360633964,76.9442923659,-262.158675973,514.645283896
452.66,313.704259382,285.200539305,-28.9315059937,-246.973849906,288.57567679,580.329143693,91.3636724216,76.8089708664,-262.24526399,514.651023588
453.68,313.343392965,284.822976758,-29.6769909709,-247.511037614,288.41309793,580.329143693,91.3636724216,76.5967826368,-262.31176711,514.651747351
454.7,313.011112836,284.561256092,-30.2636094053,-247.787592321,288.368802403,580.329143693,91.3636724216,76.1895119781,-262.446516457,514.651747351
455.72,313.021537754,284.765770523,-29.9201954751,-247.723133165,288.530984634,580.329143693,91.5197753901,76.5240782794,-262.463021623,514.651747351
456.74,311.770995828,283.821513177,-32.3388493587,-249.775044253,288.101215033,580.329143693,91.5196958845,76.3536499628,-262.51093806,514.651747351
457.76,311.502612754,283.550329207,-33.0451992988,-250.04942362,287.992439919,580.329143693,91.5196958845,76.0755513067,-262.560110678,514.651747351
458.78,311.608116377,283.987505813,-32.4533257593,-249.882017338,288.038419941,580.329143693,91.6521178362,76.5337713173,-262.565479643,514.651747351
459.8,311.725878635,284.503862957,-31.677418753,-249.545307789,288.419882532,580.329143693,91.729065642,76.851500078,-262.565479643,514.651747351
460.82,311.727815982,285.092298121,-30.6847828576,-249.076381569,289.06971332,580.329143693,92.4355209601,77.1463508804,-262.565479643,514.651747351
461.84,313.106921694,288.023570334,-28.031405766,-248.193904335,290.308546215,580.329143693,95.1141057951,78.5312126226,-262.565479643,514.651747351
462.86,313.38342417,289.881435573,-25.8141085504,-247.36304783,291.573812288,580.329143693,95.2198569736,78.8322448867,-262.565479643,514.651747351
463.88,313.341602739,289.930828133,-25.8773342115,-247.425622899,291.655074951,580.329143693,95.2227315756,78.9155118114,-262.565479643,514.651747351
464.9,312.942286855,289.643114899,-26.332895245,-247.805831253,291.60835058,580.329143693,95.2881169988,78.7900775685,-262.662520751,514.651747351
465.92,312.838064657,289.479505815,-26.6027507483,-247.932675493,291.524571902,580.329143693,95.2881169988,78.7129278066,-262.662987473,514.651747351
466.94,312.514889454,289.153736332,-27.4159708888,-248.323130706,291.452282877,580.329143693,95.2838449854,78.2499256623,-262.743612362,514.651747351
467.96,312.446903667,289.247507139,-27.2647913991,-248.27342634,291.547758775,580.329143693,95.3777343376,78.3812100594,-262.785770453,514.651747351
468.98,311.342676116,288.340071226,-29.3358410881,-250.125909432,291.226182012,580.329143693,95.3775648263,78.1684960402,-262.810492928,514.651747351
470.0,311.240028637,288.190246862,-29.7998114194,-250.354623252,291.146897501,580.329143693,95.3775648263,78.0308685936,-262.816742717,514.651747351
471.02,311.039231191,288.28572077,-29.3126956612,-250.289081108,291.236411437,580.329143693,95.5072864406,78.3580319449,-262.846769226,514.651747351
472.04,311.097578833,288.483805773,-28.9406613135,-250.276957568,291.392110734,580.325413781,95.5626596115,78.4590665798,-262.846768673,514.651747351
473.06,311.13007746,288.700774212,-28.5947170456,-250.114507113,291.611249446,580.325413784,95.6166508929,78.6127626224,-262.846768673,514.651747351
474.08,311.475821629,289.559114368,-27.6183099757,-249.708012079,292.192431507,580.325413784,96.34254218,79.1956371471,-262.847157165,514.651747351
475.1,311.996143561,292.09764821,-24.2796821515,-248.671918832,293.512876266,580.325413784,96.6071241697,79.8682963499,-262.846859792,514.651747351
476.12,311.71672658,291.820321043,-24.9633980314,-249.083394504,293.514974482,580.325413784,96.6119975578,79.9256780514,-262.846859792,514.651747351
477.14,311.469081984,291.678791089,-24.9402706242,-249.156683312,293.493110848,580.325413784,96.6222466535,79.9771267277,-262.89621202,514.651747351
478.16,311.267613989,291.643831498,-25.0540837979,-249.324407355,293.45569055,580.325413784,96.6266990666,79.9064057662,-262.977978961,514.66876788
479.18,310.839736554,291.284068459,-25.9776425342,-249.939481376,293.304286417,580.325413784,96.6266990185,79.6529342697,-263.063674225,514.668767579
480.2,310.620844095,291.159037165,-26.3374612982,-250.100557618,293.302558375,580.325413784,96.6612265905,79.3537319834,-263.201928944,514.668767579
481.22,309.817416301,290.558300329,-27.8084176301,-251.317121327,293.111982496,580.325413784,96.6907032569,79.2173737035,-263.25055736,514.668767579
482.24,309.442446349,290.121653274,-28.8364627674,-252.28203774,292.859650884,580.325413784,96.6907032566,79.1703603215,-263.258204357,514.668767579
483.26,309.117346748,289.873070282,-29.2241626477,-252.555773448,292.650686223,580.325413784,96.6907032566,78.9366383323,-263.262327922,514.668767579
484.28,309.229337398,290.091409367,-28.7529170809,-252.397727842,292.824502817,580.324195964,96.7744481487,79.2755687358,-263.261265739,514.668767579
485.3,309.337098589,290.583121407,-28.0196957536,-252.047520138,293.201583015,580.324196046,96.8214934903,79.5878219872,-263.261265739,514.668767579
486.32,309.703742585,291.772534365,-26.7093058303,-251.509653039,294.130056336,580.324196046,98.0869660503,80.2840560395,-263.261265739,514.668767579
487.34,310.201561785,293.271304094,-24.4887378622,-250.805844808,294.931270417,580.324196046,98.3422089717,80.8786091182,-263.261265739,514.668767579
488.36,309.843645412,293.227456999,-25.0603121241,-251.263698195,295.36826038,580.324196046,98.343037823,80.8554173247,-263.261265739,514.668767579
489.38,309.918499629,293.403349048,-24.6319420515,-251.124175214,295.555563606,580.324196046,98.368824123,81.0373649419,-263.261265739,514.668767579
490.4,309.453872637,293.09285431,-25.0133247616,-251.452187979,295.358668209,580.324196046,98.370600394,80.9044363671,-263.375595353,514.673630493
491.42,309.058343455,292.721055596,-25.9471311216,-252.056874832,295.163051876,580.324196046,98.3706003751,80.632835632,-263.479429296,514.67363002
492.44,308.870551596,292.554772445,-26.3725474592,-252.220886483,295.144021142,580.324196046,98.3747423977,80.3339582989,-263.551098256,514.67363002
493.46,308.661572579,292.413349808,-26.7031315933,-252.507722115,295.122392384,580.324196046,98.4232777068,80.3246552,-263.560114324,514.67363002
494.48,307.819126175,291.767816508,-28.3980465273,-254.11335628,294.700875819,580.324196046,98.4232776986,80.2635278285,-263.590625879,514.67363002
495.5,307.61047541,291.540557592,-28.813319928,-254.285668776,294.579418124,580.324196046,98.4217068546,80.0440774946,-263.593659922,514.67363002
496.52,307.620019589,291.679536651,-28.3187059305,-254.285047695,294.752005595,580.316045471,98.4748624354,80.2020495959,-263.593687609,514.67363002
497.54,307.723945758,292.088663323,-27.6164057449,-254.031746524,295.019690494,580.31604945,98.4940827026,80.4402029429,-263.593687609,514.67363002
498.56,307.762528915,292.867551401,-26.6257686976,-253.484408511,295.702785032,580.31604945,99.1761157172,80.924699431,-263.593687609,514.67363002
499.58,308.2866258,294.082381078,-25.2385430706,-253.118039268,296.145666034,580.31604945,99.7681096524,81.5833193795,-263.593687609,514.67363002
500.6,308.133060185,294.743096118,-24.7727173055,-253.176490247,296.804364175,580.31604945,99.8040024351,81.6713683202,-263.593687609,514.67363002
501.62,308.268345421,294.995663574,-24.2590428963,-253.016037153,297.079322765,580.31604945,99.8663223659,81.9039210947,-263.593687609,514.67363002
502.64,307.761384926,294.496572935,-24.9260172855,-253.455707221,296.805228535,580.31604945,99.8688315086,81.6696387003,-263.727235298,514.67363002
503.66,307.557374603,294.23170644,-25.4527729612,-253.769120306,296.668669594,580.31604945,99.8688315086,81.5127970156,-263.739322608,514.67363002
504.68,307.31689688,294.000105622,-26.0192133974,-253.998135007,296.623795565,580.31604945,99.8688315086,81.1321774029,-263.802642259,514.67363002
505.7,307.286909665,294.242531377,-25.6688516666,-253.950860229,296.764949499,580.31604945,100.039432231,81.3981811045,-263.85302877,514.67363002
506.72,305.921096991,293.121764021,-28.3526272116,-256.612741055,296.301925526,580.31604945,100.039158835,81.195124116,-263.920269923,514.67363002
507.74,305.759293757,292.896925334,-28.875740272,-256.84177008,296.198034747,580.31604945,100.039158835,80.9926595612,-263.924503857,514.67363002
508.76,305.742436806,292.993645589,-28.5825197668,-256.761892585,296.222440477,580.31604945,100.072938474,81.0987028488,-263.924692181,514.67363002
509.78,305.772156627,293.309152384,-28.2403832116,-256.567797996,296.536979823,580.316176106,100.0969566,81.2706609916,-263.924692181,514.67363002
510.8,305.808972844,293.724741456,-27.5506512004,-256.295337804,296.945875207,580.316176106,100.268638033,81.5468866339,-263.924692181,514.67363002
511.82,306.582718976,295.21620085,-25.9597193173,-255.806720297,297.599105386,580.316176106,101.487940291,82.3637471228,-263.924692181,514.67363002
512.84,306.825218168,297.195019523,-23.4674515582,-255.02667181,299.014938926,580.316176106,101.589712115,82.7444850219,-263.924692181,514.67363002
513.86,306.717684838,297.063137418,-23.7926155849,-255.204976395,299.098415797,580.316176106,101.591166574,82.757743106,-263.924692181,514.67363002
514.88,306.42644915,296.754757271,-24.2053022549,-255.436361212,299.020907669,580.316176106,101.612505081,82.5852004657,-263.999438641,514.67363002
515.9,306.255663941,296.726584301,-24.4777105892,-255.616669116,298.989488726,580.316176106,101.612505078,82.4864805043,-264.017360497,514.678862328
516.92,306.036874488,296.543693021,-24.9724067016,-255.888294891,298.933436149,580.316176106,101.612505078,82.2340916205,-264.060639406,514.678862328
517.94,306.031696151,296.804580335,-24.5682940162,-255.730858443,299.188168785,580.316176106,101.752706371,82.5764977695,-264.084666718,514.678862328
518.96,305.084962338,295.928918645,-26.9730747366,-257.45440046,298.84282456,580.316176106,101.74978398,82.2854788239,-264.120741911,514.678862328
519.98,304.985633028,295.724641153,-27.5525143872,-257.788685919,298.694979513,580.316176106,101.74978398,82.1688872626,-264.124475868,514.678862328
521.0,304.914190569,295.68839223,-27.5127327431,-257.802937344,298.699145429,580.316176106,101.759878166,82.1723298832,-264.127847785,514.678862328
522.02,304.882901242,295.75178066,-27.3333830669,-257.843723017,298.770848505,580.317294741,101.761366579,82.2031018302,-264.127847779,514.678862328
523.04,304.921005217,296.00494727,-26.9268496257,-257.641464949,299.010258369,580.317294741,101.800964656,82.3419764404,-264.128297657,514.678862328
524.06,305.457999309,297.054521174,-25.7913280696,-257.250109771,299.729883857,580.317294741,102.610927611,82.908271154,-264.128297423,514.678862328
525.08,305.907151198,299.0942872,-22.7209309669,-256.058728794,301.147483146,580.317294741,102.679411798,83.5315755846,-264.128297423,514.678862328
526.1,305.485065847,298.794425966,-24.0219336826,-256.686879034,301.236291992,580.317294741,102.679411907,83.5498975468,-264.128297423,514.678862328
527.12,305.528042067,298.912367384,-23.6482249761,-256.520609892,301.428580681,580.317294741,102.709828836,83.6780220159,-264.133662812,514.678862328
528.14,305.205603599,298.577699766,-24.1012565405,-256.781844224,301.258392407,580.317294741,102.709819653,83.5255232824,-264.19853279,514.681513766
529.16,304.88762536,298.270778005,-24.932359492,-257.262318683,301.131245562,580.317294741,102.709819653,83.2095403245,-264.26989146,514.681513179
530.18,304.715510542,298.174867884,-25.1787331309,-257.33918516,301.126662286,580.317294741,102.719800746,83.0457142951,-264.334414922,514.681513179
531.2,303.87362217,297.554086057,-26.4759147959,-258.603214554,300.972679547,580.317294741,102.762682808,83.0130489612,-264.383730907,514.681513179
532.22,303.4188135,297.127225591,-27.8886787593,-259.749059511,300.481181678,580.317294741,102.762682808,82.9689833169,-264.402000168,514.681513179
533.24,303.215129433,296.92499231,-28.2322883737,-259.945656385,300.357138409,580.317294741,102.764092271,82.7869404822,-264.418688389,514.681513179
534.26,303.301021214,297.198129226,-27.6463593376,-259.828601862,300.553695647,580.310684925,102.886699339,83.0571447808,-264.418687586,514.681513179
535.28,303.416071442,297.597483233,-27.0076929638,-259.517197656,300.897125919,580.310687895,102.894247492,83.3014204044,-264.418687586,514.681513179
536.3,303.826967302,298.887375218,-25.4430048649,-258.889256888,301.885295348,580.310687895,104.14476274,84.053582407,-264.418687586,514.681513179
537.32,304.378628656,300.416337786,-23.0328893686,-258.20402432,302.625744866,580.310687895,104.586689955,84.7178410876,-264.418687586,514.681513179
538.34,304.253500235,300.403659078,-22.9758460138,-258.289091936,303.042819237,580.310687895,104.587276537,84.717808226,-264.418687586,514.681513179
539.36,304.383688884,300.592532352,-22.5882409198,-258.090276887,303.290749295,580.310687895,104.61758331,84.8744247771,-264.418687586,514.681513179
540.38,303.932836388,300.125520971,-23.1800303044,-258.428597975,302.994235264,580.310687895,104.617486006,84.642815596,-264.52873082,514.676492957
541.4,303.532061895,299.808969894,-23.8175008834,-258.924569327,302.880332699,580.310687895,104.617486006,84.4200633717,-264.554002303,514.67648837
542.42,303.208734258,299.578100764,-24.3942034925,-259.132476608,302.812152896,580.310687895,104.617479724,83.9411529923,-264.640229851,514.67648837
543.44,302.962491728,299.410377254,-24.7930981292,-259.397175734,302.808107506,580.310687895,104.672649183,84.0269696256,-264.640909747,514.67648837
544.46,302.058855678,298.632546655,-27.1316759745,-261.307785367,302.190394325,580.310687895,104.672649073,83.9096291094,-264.669774901,514.67648837
545.48,301.808669336,298.302093065,-27.8664611547,-261.635457558,301.992954338,580.310687895,104.671306791,83.6046133663,-264.693518445,514.67648837
546.5,301.842356946,298.66204508,-27.182639675,-261.526913682,301.984110029,580.307495963,104.810834846,83.9566261717,-264.696304131,514.67648837
547.52,301.900921469,298.939613442,-26.7226394458,-261.343829668,302.240168941,580.306970366,104.821018656,84.1161187038,-264.696304131,514.67648837
548.54,301.954285674,299.422811712,-25.9982325301,-260.973858558,302.79722363,580.306970366,105.271995175,84.3863270975,-264.696304131,514.67648837
549.56,302.364913439,300.673529072,-24.4483614995,-260.541322357,303.353310864,580.306970366,105.744146153,85.0324078616,-264.69635369,514.67648837
550.58,302.248149205,302.116046477,-23.1167702157,-260.399004832,304.785268197,580.306970366,105.804737544,85.1165821962,-264.696581688,514.67648837
551.6,302.436112604,302.480116081,-22.3986625479,-260.106066444,305.16734703,580.306970366,105.886661805,85.3822437236,-264.699969816,514.67648837
552.62,302.184767252,302.177594095,-22.9813357971,-260.449058049,305.065198294,580.306970366,105.916224967,85.1934392171,-264.7724182,514.67648837
553.64,301.837059126,301.886495984,-23.6715093125,-261.071754522,304.928564217,580.306970366,105.916224967,85.0093995497,-264.832552937,514.67648837
554.66,301.606929881,301.705596227,-24.1336539164,-261.281302652,304.899960962,580.306970366,105.916224967,84.7022204235,-264.889244256,514.67648837
555.68,301.522916656,301.684079372,-24.190111151,-261.313791997,304.910560926,580.306970366,105.940220606,84.6989040046,-264.907543109,514.67648837
556.7,300.677983554,300.966984373,-26.4915639756,-262.77800427,304.424335455,580.306970366,105.940215426,84.416223845,-264.907543109,514.67648837
557.72,300.505233193,300.726843864,-26.9719293943,-262.947754898,304.323754296,580.306970366,105.940215426,84.200029188,-264.918379743,514.67648837
558.74,300.405984854,300.672792724,-26.8482325256,-262.953583195,304.326819389,580.306970366,105.97497434,84.2746266731,-264.922317923,514.67648837
559.76,300.433994908,300.816173157,-26.5912252589,-262.861407316,304.456805317,580.308943455,105.980901986,84.3522260701,-264.922317923,514.67648837
560.78,300.446005214,301.149691204,-25.9500197459,-262.504397345,304.85510905,580.308943455,106.173010331,84.5824952194,-264.922317923,514.67648837
561.8,301.176168757,302.796075262,-24.1856814179,-261.843129726,305.684457915,580.308943455,107.358335512,85.568413688,-264.922317923,514.67648837
562.82,301.87390165,305.879053741,-20.2916246265,-260.255407205,307.738789016,580.308943455,107.532618882,85.9776055412,-264.922317923,514.67648837
563.84,301.730210023,305.761989548,-20.5816348204,-260.448560204,307.837158651,580.308943455,107.536736193,86.0189834185,-264.922317923,514.67648837
564.86,301.406474989,305.470397698,-20.8358850626,-260.679539739,307.846391998,580.308943455,107.601665147,86.0162248937,-265.05359794,514.67648837
565.88,301.210395872,305.166033896,-21.4274134353,-260.997303602,307.62219296,580.308943455,107.601665146,85.817627541,-265.093268735,514.676301656
566.9,301.010418854,304.984376921,-21.8816907515,-261.250384771,307.571416827,580.308943455,107.601548206,85.6004377495,-265.131113564,514.676301655
567.92,301.018298294,305.132490725,-21.6390582195,-261.142109104,307.692922544,580.308943455,107.687181098,85.8501042977,-265.142287597,514.676301655
568.94,299.950753039,304.17508829,-23.8260632299,-262.658846747,307.167733342,580.308943455,107.684444009,85.539735513,-265.191382557,514.676301655
569.96,299.830343716,303.971730943,-24.5396758811,-263.220083729,306.823562575,580.308943455,107.684444009,85.4316019442,-265.194261011,514.676301655
570.98,299.621777844,303.867174801,-24.5483925989,-263.330781634,306.727919632,580.308943455,107.693360043,85.4088814111,-265.203778812,514.676301655
572.0,299.657912417,304.072251798,-24.164348839,-263.239266815,306.838009936,580.306334598,107.728257276,85.5322909982,-265.203778718,514.676301655
573.02,299.707469943,304.407320047,-23.6462756383,-262.998008365,307.101969318,580.306334598,107.788707307,85.7303568664,-265.203778718,514.676301655
574.04,300.230861016,305.640056089,-22.4307770003,-262.545522467,307.856435116,580.306334598,108.77170584,86.3852655935,-265.203778718,514.676301655
575.06,300.717186793,307.630599319,-19.2794755291,-261.22385076,309.415563676,580.306334598,108.920449503,87.0430640328,-265.203778718,514.676301655
576.08,300.46305554,307.375896272,-19.7348586537,-261.595938586,309.49322244,580.306334598,108.920463826,87.0442923012,-265.203778718,514.676301655
577.1,300.420706142,307.443424915,-19.4213221959,-261.516221397,309.567490248,580.306334598,108.944957239,87.1596003647,-265.226038296,514.676301655
578.12,300.082333178,307.014001699,-20.1142967362,-261.879172439,309.277249098,580.306334598,108.944957202,86.9164923133,-265.299407542,514.672594011
579.14,299.768317729,306.731692827,-20.8047323599,-262.287148765,309.143026409,580.306334598,108.944749131,86.6703863773,-265.346636717,514.672593664
580.16,299.569933033,306.609859929,-21.0940059225,-262.416367084,309.121470153,580.306334598,108.952416663,86.4757180136,-265.417713809,514.672593664
581.18,298.730877973,305.923758465,-22.71527495,-263.548912173,308.817154061,580.306334598,108.960687388,86.1736229101,-265.467497501,514.672593664
582.2,298.188199979,305.379738312,-24.2446739683,-265.04789524,308.233809165,580.306334598,108.960687388,86.1580313559,-265.489879551,514.672593664
583.22,297.913860057,305.125994124,-24.7026566801,-265.239112361,308.059755162,580.306334598,108.959057271,85.8863565124,-265.504723656,514.672593664
584.24,298.084052908,305.537720939,-23.8291180259,-264.966506423,308.193202575,580.306334598,109.067834785,86.2794193367,-265.50472231,514.672593664
585.26,298.25883402,306.038733212,-22.8160412781,-264.589595028,308.644994436,580.306334598,109.099422306,86.5929413952,-265.50472231,514.672593664
586.28,298.70114761,307.123677856,-21.5887299291,-264.089698511,309.461179461,580.306334598,110.066102139,87.266081342,-265.50472231,514.672593664
587.3,299.151124902,308.023458599,-19.8477325959,-263.255230404,310.42392576,580.306334598,110.205876634,87.7301359792,-265.50472231,514.672593664
588.32,298.556305418,308.260333296,-20.6323634462,-263.739499039,310.986212063,580.306334598,110.216925568,87.6711692364,-265.508890841,514.672593664
589.34,298.516762351,308.261879375,-20.5044765892,-263.687722869,311.015040398,580.306334598,110.226827938,87.743933641,-265.511982505,514.672593664
590.36,297.926952887,307.626094988,-21.2240912594,-264.371975725,310.537823728,580.306334598,110.226822239,87.4169010436,-265.657862002,514.672593664
591.38,297.747419268,307.383488647,-21.7924924921,-264.699082245,310.383130972,580.306334598,110.226822239,87.2520406963,-265.660938954,514.672593664
592.4,297.344232617,307.046217171,-22.5232028192,-265.041750758,310.283950867,580.306334598,110.226822239,86.6331023429,-265.799722535,514.672593664
593.42,297.054967012,306.973948132,-22.737678537,-265.325468805,310.437038584,580.306334598,110.381973705,86.9182175535,-265.805481345,514.672593664
594.44,296.072754909,306.049810604,-25.1543899422,-267.346741592,309.882638649,580.306334598,110.381973435,86.7764300467,-265.813648023,514.672593664
595.46,295.797105108,305.743029158,-25.7696802372,-267.621404921,309.719260648,580.306334598,110.381973435,86.52678358,-265.820655595,514.672593664
596.48,295.867532222,305.925374197,-25.3029755727,-267.477598387,309.796085956,580.307044174,110.406862817,86.7703483221,-265.822079594,514.672593664
597.5,295.884377015,306.010972332,-25.2265497237,-267.434256007,309.863092335,580.307031996,110.409511847,86.8127772372,-265.822079594,514.672593664
598.52,295.95222876,306.57111942,-24.3163619838,-266.981565813,310.487392504,580.307031996,110.824116667,87.18555581,-265.822079594,514.672593664
599.54,296.571381924,307.913578311,-22.6022256144,-266.314656868,311.297143759,580.307031996,111.262067693,88.052805279,-265.822079594,514.672593664
600.56,296.50245715,311.596418069,-19.7490471084,-264.566954937,314.402462066,580.307031996,111.505405752,88.4140728863,-265.822079594,514.672593664
601.58,296.448406502,311.54215274,-19.9444609547,-264.717269338,314.467348614,580.307031996,111.507340838,88.4414788942,-265.822079594,514.672593664
602.6,296.211521829,311.271478473,-20.2994961587,-264.966482613,314.294524701,580.307031996,111.510446526,88.2796862975,-265.904269912,514.690205379
603.62,295.945784615,310.917648878,-21.02460181,-265.434662754,314.011301038,580.307031996,111.511471206,88.0286157963,-265.942549033,514.689668747
604.64,295.694946737,310.734183475,-21.5587813065,-265.704811938,313.927504796,580.307031996,111.511220817,87.7093327156,-266.008682988,514.689668747
605.66,295.707315799,310.922256855,-21.196872283,-265.563201194,314.126247679,580.307031996,111.573020403,87.9538233197,-266.029694393,514.689668747
606.68,293.750714556,308.879039606,-25.5549724006,-269.511479485,312.726259076,580.307031996,111.573011137,87.7668435663,-266.160777394,514.689668747
607.7,293.538393034,308.558323502,-26.5576140018,-270.362601479,312.159328756,580.307031996,111.573011137,87.5100081562,-266.209329619,514.689668747
608.72,293.75173743,309.055909658,-25.3905450223,-269.915218756,312.450466334,580.307031996,111.672431661,88.0424488814,-266.208450092,514.689668747
609.74,293.774451059,309.462718816,-24.8195944245,-269.632663031,312.907533812,580.307031996,111.722130244,88.333760606,-266.208450092,514.689668747
610.76,293.787142362,309.824867002,-24.2719272648,-269.340250639,313.290483362,580.307031996,111.846259246,88.5762349833,-266.208450092,514.689668747
611.78,294.610948458,311.460022525,-22.7694995718,-268.867976722,314.094607078,580.307031996,113.29081063,89.3325974347,-266.208450092,514.689668747
612.8,294.975338495,313.27323566,-19.888878156,-267.349480943,315.850241865,580.307031996,113.312210149,89.6717939921,-266.208450092,514.689668747
613.82,294.269055286,312.507441,-21.3636752052,-267.888681782,315.982368624,580.307031996,113.31840471,89.8157778168,-266.208450092,514.689668747
614.84,295.037685177,313.087357789,-20.7877608305,-266.947749244,317.417979142,580.307031996,113.535295327,89.8958422906,-266.215617361,514.689668747
615.86,294.893951066,312.896928752,-21.2504430789,-267.192019114,317.249393966,580.307031996,113.535270039,89.7403236024,-266.22761532,514.689668747
616.88,294.433328102,312.500537905,-22.158897681,-267.828914885,317.067190536,580.307031996,113.535270039,89.3981089996,-266.297993055,514.689668747
617.9,294.366092684,312.725773633,-21.9348664604,-267.623644915,317.43511509,580.307031996,113.633095903,89.5152299587,-266.368427812,514.689668747
618.92,292.725480422,311.128948038,-25.0436745748,-270.222213121,316.986905305,580.307031996,113.6384446,89.3317331738,-266.443996951,514.689668747
619.94,292.534556968,310.697316882,-26.6517590335,-271.677985065,316.182438558,580.307031996,113.6384446,89.1400824913,-266.468826082,514.689668747
620.96,292.217968315,310.456160299,-27.0271852897,-271.83882982,316.086648574,580.307031996,113.641382484,88.9779218333,-266.498114343,514.689668747
621.98,292.299289415,310.773332754,-26.4048662878,-271.575970994,316.242805578,580.295328164,113.712777661,89.2394298159,-266.498114307,514.689668747
623.0,292.413392424,311.457635868,-25.3089031452,-270.965033565,316.893668995,580.295328173,113.812751265,89.6026998889,-266.498114307,514.689668747
624.02,293.501738146,313.662914475,-23.2313676105,-269.912324983,318.358875437,580.295328173,115.820879986,90.6527128612,-266.498114307,514.689668747
625.04,294.628383379,316.858632781,-18.7220213858,-267.298601453,321.254665626,580.295328173,116.040713319,91.5168036444,-266.498114307,514.689668747
626.06,293.693373488,316.145863706,-20.2054177405,-268.318659722,321.304736265,580.295328173,116.040732933,91.4650398435,-266.50044338,514.689668747
627.08,293.747554822,316.263288186,-19.8281984224,-267.959283821,321.664558835,580.295328173,116.078382365,91.5883310862,-266.505618099,514.689668747
628.1,293.387349145,315.68451484,-20.9261118455,-268.872801502,321.258805726,580.295328173,116.078381277,91.3122037202,-266.683575754,514.689668747
629.12,292.587678503,314.800919747,-22.4702836181,-270.061507724,320.821248052,580.295328173,116.078381277,90.9102563385,-266.775819714,514.689668747
630.14,291.903305028,314.403592374,-23.6980074332,-270.709966279,320.66310747,580.295328173,116.085828613,90.0250008843,-267.190444759,514.689668747
631.16,290.319629573,313.102889528,-25.6954427655,-272.317026624,320.479037385,580.295328173,116.099869219,89.7293895979,-267.221338939,514.689668747
632.18,289.586644617,312.478871174,-27.4470652756,-274.090373882,319.901169901,580.295328173,116.099869218,89.6983782574,-267.264209849,514.689668747
633.2,288.868593136,311.903540081,-28.3440817179,-274.672596898,319.402002889,580.295328173,116.099869218,89.2706497149,-267.306568624,514.689668747
634.22,288.976427291,312.221812336,-27.5669259708,-274.397945975,319.554642332,580.295328173,116.175942056,89.5844493065,-267.306561432,514.689668747
635.24,289.111986687,312.619428586,-26.9938881215,-274.005841548,319.826668946,580.295328173,116.182047567,89.8049506114,-267.306561432,514.689668747
636.26,289.777724527,314.092902498,-25.3411000846,-272.986616962,321.361844109,580.295328173,117.371629048,90.538851735,-267.306561432,514.689668747
637.28,290.779407011,317.573578712,-20.7131393648,-270.517302997,324.083123005,580.295328173,117.835979222,91.6745708831,-267.306561432,514.689668747
638.3,289.977857485,318.086610689,-21.0860947361,-271.014404018,324.968509581,580.295328173,117.901662163,91.6438088631,-267.306561432,514.689668747
639.32,290.133438555,318.208141214,-20.8321121271,-270.765113519,325.336404642,580.295328173,117.915255325,91.7905780768,-267.306561432,514.689668747
640.34,289.555327509,317.501386255,-21.7733406969,-271.360480289,324.941102974,580.295328173,117.914838689,91.5188232949,-267.451872617,514.686891422
641.36,288.89686442,316.769473222,-22.9754011372,-272.193341664,324.505966055,580.295328173,117.914838689,91.1775316493,-267.525132101,514.686910809
642.38,288.338183627,316.315448648,-23.8929231076,-272.624591577,324.303671209,580.295328173,117.914838689,90.4787080965,-267.723317278,514.686910809
643.4,287.83712542,315.976603308,-24.7646253844,-272.995700866,324.329642136,580.295328173,117.942450164,90.3574784326,-267.742012442,514.686910809
644.42,286.220117477,314.584821164,-27.8723174379,-275.409353762,323.524898351,580.295328173,117.942449956,90.1537886246,-267.755968756,514.686910809
645.44,285.113709362,313.673429359,-29.3371989559,-276.211209621,323.037260654,580.295328173,117.942449956,89.3944556876,-267.98656215,514.686910809
646.46,284.86275227,313.821639846,-28.5898364997,-276.199996198,322.841782673,580.295328173,118.012606286,89.6511188227,-268.005757374,514.686910809
647.48,284.764944222,313.928693056,-28.4236299853,-276.137421464,323.001899507,580.295328173,118.012570896,89.7017631934,-268.005757374,514.686910809
648.5,284.812681104,315.028155425,-26.778768614,-274.9121518,324.792580709,580.295328173,119.244147806,90.2494706661,-268.005757374,514.686910809
649.52,287.380891907,319.081505123,-22.8830365048,-273.218696165,326.919917326,580.295328173,121.244173162,91.9680315724,-268.005757374,514.686910809
650.54,287.221593,320.462726419,-21.1790695857,-272.279562704,328.637747144,580.295328173,121.31529892,92.101820821,-268.005757374,514.686910809
651.56,287.15263583,320.41555736,-21.2079620226,-272.298333283,328.834759713,580.295328173,121.327587863,92.1768840839,-268.005757374,514.686910809
652.58,286.38062157,319.448971992,-22.386332112,-273.080265018,328.404612687,580.295328173,121.331624478,91.885634351,-268.206044354,514.686910809
653.6,285.834602424,318.668329327,-23.9107424708,-273.971006793,327.887974745,580.295328173,121.331624478,91.4836643644,-268.248847658,514.686910809
654.62,284.511194344,317.551250645,-25.8364409042,-275.245708734,327.693728322,580.295328173,121.331624478,90.5932081204,-268.689930629,514.686910809
655.64,284.121362345,317.268312634,-26.4373041121,-275.816403619,327.386413805,580.295328173,121.33259043,90.1220272922,-268.9834528,514.686910809
656.66,280.446928649,314.337384962,-31.045095474,-280.022041456,326.220723122,580.295328173,121.332590288,89.7907627756,-269.196831355,514.686910809
657.68,280.068084126,313.961696766,-31.9090147384,-280.480286467,325.787330262,580.295328173,121.332590288,89.4473304348,-269.228345156,514.686910809
658.7,279.857478751,314.232079197,-31.2482791506,-280.37582011,325.690463829,580.295328173,121.388140813,89.7188618777,-269.296703126,514.686910809
659.72,279.555443684,314.443522179,-31.0878003713,-280.470010394,325.970203482,580.295328173,121.412147747,89.7608578233,-269.30285544,514.686910809
660.74,279.598374079,314.879388381,-30.2380487937,-279.842135496,326.800703628,580.295328173,121.772544433,90.0078766581,-269.30285544,514.686910809
661.76,281.658241404,318.57469379,-26.6677804829,-278.028900187,328.880870712,580.295328173,124.329983239,91.3814593207,-269.30285544,514.686910809
662.78,282.239583707,321.297380145,-22.5517004734,-275.859552199,331.35735454,580.295328173,124.497207634,91.9600625853,-269.30285544,514.686910809
663.8,280.067561881,319.493825198,-25.8206418807,-277.676354254,331.37097388,580.295328173,124.49761191,91.8195138739,-269.323119487,514.686910809
664.82,278.939799145,318.351920997,-26.8575881488,-278.443096105,330.961196003,580.295328173,124.500991638,91.5304100721,-269.454233688,514.686910809
665.84,278.480973793,317.689945667,-28.3736428844,-279.382246552,330.416192457,580.295328173,124.500991638,91.2871163048,-269.540396914,514.686910809
666.86,277.468776898,316.812296253,-30.1741436524,-280.566678967,330.096394374,580.295328173,124.500991638,90.5737375645,-269.754107355,514.686910809
667.88,276.441391853,316.078005061,-31.4741889697,-281.603307775,329.538826055,580.295328173,124.499964616,89.4394481641,-270.340496885,514.686910809
668.9,273.708179362,314.088901349,-34.9834698111,-284.382173996,328.925507423,580.295328173,124.499818824,88.9517319471,-270.472245937,514.686910809
669.92,273.587256275,313.916630374,-35.5391841521,-284.809057141,328.744831679,580.295328173,124.499818824,88.8900773457,-270.478332676,514.686910809
670.94,272.936839978,313.582678916,-35.6937382836,-285.112578858,328.335201178,580.295328173,124.540438907,88.879769431,-270.503768105,514.686910809
671.96,273.013696854,313.978351455,-35.0781832268,-285.042574421,328.406073376,580.295328173,124.63575456,89.140714412,-270.503765923,514.686910809
672.98,273.07135864,314.254954437,-34.5501514734,-284.789565367,328.722964033,580.295328173,124.663975346,89.2777377894,-270.503765923,514.686910809
674.0,274.691241002,316.861330432,-32.1355930791,-283.273813128,330.848647141,580.295328173,126.640021391,90.2942876865,-270.503765923,514.686910809
675.02,275.418053648,321.304454638,-26.6884457394,-280.739663387,333.652984672,580.295328173,127.044818938,91.2836832502,-270.503765923,514.686910809
676.04,273.287481675,320.430342,-29.301989966,-282.611118132,333.813744063,580.295328173,127.05552156,91.1861403515,-270.540754761,514.686910809
677.06,273.198799211,320.37236578,-29.2620239365,-282.55421405,333.85396151,580.295328173,127.067300111,91.1807535256,-270.56423403,514.686910809
678.08,272.798669788,319.982089536,-29.8089571758,-282.864327278,333.606494752,580.295328173,127.067300055,91.0121041496,-270.615653973,514.68821266
679.1,272.40173732,319.542679241,-30.7263491364,-283.339874494,333.408550877,580.295328173,127.067300055,90.6349604726,-270.667913813,514.688212656
680.12,271.288057488,318.682940933,-32.2165756354,-284.208279827,332.953189702,580.295328173,127.067300055,89.3663963701,-271.046993268,514.688212656
681.14,269.6564221,317.47000349,-34.5815197787,-285.557713487,332.610284527,580.295328173,127.065871431,88.8385069007,-271.123519746,514.688212656
