time,0,1,2,3,4,5,6,7,8,9,10,11,12,13,14,15,16,17,18,19,20,21,22,23,24,25,26,27,28,29,30,31,32,33,34,35,36,37,38,39,Simulation_reset
8.44,695.019564498,571.824399382,130.443265662,354.599475395,601.624571346,136.683249753,416.295459401,105.636323337,-138.93436864,-63.2666505873
9.46,695.401798603,571.927439654,130.751018888,355.051113287,602.048659369,136.683249753,416.295459401,105.870228631,-138.932167268,-63.2666505873
10.48,695.640485121,571.983499435,131.684530055,355.719478062,602.30048933,136.683249753,416.295459401,106.079458891,-138.932167094,-63.2666505873
11.5,695.752002542,572.151910027,132.640897529,356.279431715,602.745824132,136.683249753,416.295459401,106.361049692,-138.932167094,-63.2666505873
12.52,695.630712307,572.053922517,132.683136281,356.363780956,602.769274766,136.683249753,416.295459401,106.341776002,-138.932167094,-63.2666505873
13.54,694.989559521,570.256136391,128.886546785,354.697068339,600.793981507,136.683249753,416.054367941,105.533249333,-138.932167094,-63.2666505873
14.56,693.814435954,568.084610015,125.937566583,353.329102513,599.808857211,136.683249753,415.848142206,105.533232192,-138.932167094,-63.2666505873
15.58,692.17817532,562.386373561,120.939035252,349.185432954,595.6025787,136.683249753,413.137718785,105.302792768,-138.932167094,-63.2666505873
16.6,689.604670068,557.115360281,119.288567606,347.552953223,593.659218361,136.683249753,411.440839597,105.284798696,-138.932167094,-63.8581911269
17.62,686.417949623,551.78636779,117.224252329,346.480415495,591.484890549,136.683249753,410.081888305,105.198584306,-138.932167094,-63.8862870317
18.64,683.27335117,548.082070444,114.860521497,345.460708098,588.758594134,136.683249753,406.362280226,105.061552278,-138.932167094,-63.8862870317
19.66,681.203068369,544.097729689,111.280207731,343.468669468,585.988936586,136.683249753,404.689174245,104.808652612,-138.932167094,-63.8862870317
20.68,679.501187386,539.072863161,107.811639637,341.906557978,583.074848383,136.683249753,404.509258592,104.807533899,-138.932167094,-63.8862870317
21.7,676.41482509,534.082733969,103.637478217,340.509301623,580.995783438,136.683249753,402.660596773,104.059044071,-138.932167094,-63.8862870317
22.72,675.004589877,533.070061155,101.549681583,338.321887481,578.815264977,136.683249753,401.932036264,103.958808644,-138.932167094,-63.8862870317
23.74,673.78316992,530.582603922,98.0633477118,335.560803303,576.201738209,136.683249753,400.266743819,103.833692041,-138.932167094,-63.8862870317
24.76,673.334685413,528.707770603,95.9944818685,333.74924969,573.586762315,136.683249753,398.357457861,103.400727971,-138.932167094,-63.8862870317
25.78,666.746367847,516.914346721,91.6626320893,329.584254727,568.534595163,136.630557992,390.680615014,103.31613558,-138.932167094,-63.8862870317
26.8,660.726561137,512.369300959,88.303959517,324.149820819,563.127907978,135.580753697,390.355725565,103.31613558,-138.932167094,-63.8862870317
27.82,652.366634636,500.789048268,82.6373786586,317.049150932,556.521017846,126.421155713,387.262605595,103.31613558,-138.932167094,-63.8862870317
28.84,631.722217528,486.056776941,81.4354781273,311.185867177,547.2956108,116.976811638,382.870689023,103.31613558,-138.932167094,-64.8283654907
29.86,610.994548302,470.637588045,79.8335075896,306.953974147,541.761581965,114.095201113,381.901078238,103.31613558,-138.932167094,-65.81091428
30.88,599.905468003,459.532633264,78.8626835002,306.231950664,537.378254027,101.007781734,380.191154525,103.31613558,-138.932167094,-65.8109142812
31.9,594.00754561,453.85765072,75.8917236458,301.110141062,531.419535361,94.2004025574,377.359525116,103.31613558,-138.932167094,-65.8109142812
32.9,569.330528066,429.527804644,73.8834472928,294.593088707,521.059523975,86.6814983519,372.131974184,103.31613558,-138.932167094,-65.8109142812
33.9,546.888631393,402.952829539,69.2088856191,290.83898178,515.319231107,80.396082522,367.55742891,103.31613558,-138.932167094,-65.8109142812
34.9,539.383106443,397.07701355,66.2496171153,283.705682877,506.380549914,65.3004065224,361.404257427,103.31613558,-138.932167094,-65.8109142812
35.9,534.987391667,392.34989428,63.04756725,278.903653225,501.819003793,59.039799164,357.959559051,103.31613558,-138.932167094,-65.8109142812
36.9,533.057001747,390.045209115,61.7400832258,276.064894743,497.616952992,56.2688732695,357.474586114,103.31613558,-138.932167094,-65.8109142812
37.9,519.054077287,379.552683246,59.5670314128,273.110769623,493.452681034,42.5871816151,353.146204831,103.31613558,-138.932167094,-65.8109142812
38.9,513.503612733,375.230380518,56.5463481893,268.227959455,488.108093426,39.9858785394,352.95283146,103.31613558,-138.932167094,-65.8109142812
39.9,513.503612742,375.230380527,56.5463482203,268.227959492,488.108093477,39.9858785435,352.95283146,103.31613558,-138.932167094,-65.8109142812
40.9,514.28015351,376.210172707,58.0361414186,269.352166237,488.244782546,39.9858785435,352.95283146,103.849861483,-138.849665794,-65.8109142812
41.9,514.986065772,376.597652629,58.665871084,269.98494942,488.80691717,39.9858785435,352.95283146,104.190579467,-138.794192286,-65.8109142812
42.9,514.74092486,376.231731709,57.7115747049,269.575305076,488.4797227,39.9858785435,352.95283146,103.98517637,-138.794192286,-65.8109142812
43.9,514.72338619,376.04381077,57.1816926646,269.330922135,488.143557096,39.9858785435,352.949778253,103.857380076,-138.794192286,-65.8109142812
44.9,514.056077386,375.144035299,56.3862099246,269.068616809,487.599581079,39.9858785435,352.497833789,103.345096926,-138.794192286,-65.8109142812
45.9,512.967194238,371.047076169,51.5206483037,265.943510517,483.644008629,39.9858785435,351.716847797,103.030881148,-138.794192286,-65.8109142812
46.9,510.95784627,366.799368621,48.9825131849,264.259945246,483.412760475,39.9858785435,350.530697965,103.030881137,-138.794192286,-65.8109142812
47.9,506.491475412,360.544252088,45.8650796403,259.52085371,476.905202523,39.9182540472,345.864306124,103.030881137,-138.794192286,-65.8109142812
48.9,502.602133816,348.675766208,44.0311789652,257.405442798,473.389734783,39.9182540353,343.073882322,103.030881137,-138.794192286,-66.6935363536
49.9,498.506248843,342.895960609,42.0144750321,256.977917145,471.911098908,39.8985493994,340.982003129,103.030881137,-138.794192286,-66.6943518607
50.9,493.761773318,337.456107326,41.3578728309,255.408595042,468.636904461,38.0888928353,336.483352872,103.030881137,-138.794192286,-66.6943518607
51.9,490.441319807,329.484777513,37.6450488745,253.215550019,465.552489879,37.9455199302,333.259248589,103.030881137,-138.794192286,-66.6943518607
52.9,488.639971166,319.76364243,32.7116013206,250.678889066,461.488443428,37.9455199302,332.951070038,103.030881137,-138.794192286,-66.6943518607
53.9,484.480887648,312.311973774,28.3822252194,248.855593785,458.431030188,37.9455199302,328.819268048,102.890421309,-138.794192286,-66.6943518607
54.9,482.974588931,310.902788311,26.3193082663,246.722260512,456.309768192,37.9455199302,327.468902492,102.82862756,-138.794192286,-66.6943518607
55.9,481.262282804,307.293989796,22.3995124549,243.512793711,452.992681333,37.9455199302,324.394077829,102.73123183,-138.794192286,-66.6943518607
56.9,480.595460286,305.704706056,20.8523058021,241.960585685,450.665079767,37.9455199302,322.568517867,102.498503915,-138.794192286,-66.6943518607
57.9,475.347562067,295.952720709,17.3903652251,238.42126206,446.885502378,37.6165646651,316.594385495,102.426981979,-138.794192286,-66.6943518607
58.9,468.52479703,291.006771055,15.792291484,233.922819816,441.95295576,36.1622825581,315.775854808,102.426981979,-138.794192286,-66.6943518607
59.9,462.625150086,282.233354184,12.1074260793,229.010352503,437.827440372,30.510589729,310.759692601,102.426981979,-138.794192286,-66.6943518607
60.9,451.277564431,266.367967091,11.3322504426,225.74595013,432.248024184,27.7680658503,305.309642769,102.426981979,-138.794192286,-66.9375380657
61.9,437.445997054,245.944626191,8.1116977454,222.609029534,428.739529524,27.4956862628,301.284298089,102.426981979,-138.794192286,-67.0919408074
62.9,430.34720375,237.646639147,7.26264688183,222.052227346,427.263548566,25.1694655553,297.006797198,102.426981979,-138.794192286,-67.0919408076
63.9,428.494476459,235.330755655,5.66506773857,220.624492639,425.047920724,24.1842385934,293.94919476,102.363495005,-138.794192286,-67.0919408076
64.92,426.079407585,230.324448136,1.84233845234,220.1194938,423.603806548,24.1842382801,292.607279176,102.170295862,-138.794192286,-67.0919408076
65.94,425.94273517,229.227191891,0.42132495949,219.777662509,423.239314016,24.1842382801,292.607279119,102.017082017,-138.794192286,-67.0919408076
66.96,425.16770797,228.643390008,0.0923060920973,219.484658767,422.680987247,24.1653015814,292.535803865,101.689361421,-138.794192286,-67.0919408076
67.98,424.951737559,228.437928763,-0.124282000625,219.287300012,422.459484706,24.1408242993,292.523713924,101.544597337,-138.794192286,-67.0919408076
69.0,424.934605149,228.410290105,-0.189363613025,219.245709313,422.390430505,24.1408242877,292.522739226,101.519329063,-138.79397008,-67.0919408076
70.02,424.718369489,228.075024966,-0.671602980569,219.093312087,422.228135182,24.1408242877,292.494450278,101.22029582,-138.793968683,-67.0919408076
71.04,423.786991945,226.878253949,-1.90691114139,218.203905302,420.88719363,24.1408242877,292.481231727,101.12944442,-138.793968683,-67.0919408076
72.06,423.184554784,225.565777287,-3.72782751705,217.60722739,420.473154534,24.1408242877,292.266171526,100.627634045,-138.793968683,-67.0919408076
73.08,421.956164654,224.290106957,-4.89752054941,217.128493559,419.322908073,24.1408242877,291.929909952,99.754542424,-138.793968683,-67.0919408076
74.1,421.531730479,222.927865499,-6.64678008724,216.898505117,418.843997549,24.1408242877,291.901354775,99.4131121409,-138.793968683,-67.0919408076
75.12,421.010435789,222.095972973,-7.71651740219,216.73710972,418.692350039,24.1408242877,291.864656533,99.0876569572,-138.793968683,-67.0919408076
76.14,420.863265793,221.958467197,-7.81523069555,216.764430587,418.659913311,24.1408242877,291.835155378,98.9545929857,-138.793603758,-67.0919408076
77.16,422.028564317,222.918642051,-5.81892005268,217.755009392,419.022384346,24.1408242877,291.835158112,99.4273673464,-138.764711279,-67.0919408076
78.18,422.334640313,223.842178303,-2.78406168405,221.335112298,419.914073276,24.1408242877,291.835158112,99.6177467795,-138.193059648,-67.0919408076
79.2,425.350555645,226.091548323,-0.910885229445,223.95689195,421.69871349,24.1408242877,291.835158112,100.118241576,-137.245818344,-67.0919408076
80.22,426.48951182,226.745945693,-0.0129749635253,226.746156426,422.919241189,24.3643909471,291.835158112,100.351028717,-136.927460733,-67.0919408076
81.24,426.83494955,226.852385036,1.43296355059,229.4256731,424.48673978,24.3643928968,291.835158112,100.834310406,-135.862649774,-67.0919408076
82.26,428.152791399,227.455269638,2.66555757163,231.389304796,425.561450562,24.3643928968,291.835158112,101.433199002,-133.925486278,-67.0919408076
83.28,429.234293465,228.150487045,5.03829078983,235.026818248,426.912458471,24.3643928968,291.835158112,102.099148669,-132.979099567,-67.0919408076
84.3,429.990011193,228.559328283,6.24781648362,236.379676263,427.220552318,24.3643928968,291.835158112,102.191242094,-132.97909834,-67.0919408076
85.32,431.331346574,229.540303136,8.05561911292,238.559624436,428.830400328,24.3643928968,291.835158112,103.124135835,-132.493984486,-67.0919408076
86.34,431.998045373,230.53223064,9.34862207563,239.185999978,429.494601968,24.3643928968,291.835158112,103.584728169,-132.329843862,-67.0919408076
87.36,433.961406269,232.188383623,11.9872199887,241.054498473,430.155506032,24.3643928968,291.835158112,104.387207618,-131.604229097,-67.0919408076
88.38,435.17441649,232.851203106,12.9478043895,242.277653084,430.682898069,24.3643928968,291.835158112,105.134958236,-130.866008447,-67.0919408076
89.4,438.632854751,235.608018207,16.4509699979,247.606539436,433.786704598,24.3643928968,291.835158112,105.266316928,-128.509252548,-67.0919408076
90.42,440.728408601,238.319064906,18.9793974164,256.392572668,444.966826709,24.3643928968,291.835158112,105.266316928,-124.384022817,-64.2878330769
91.44,446.978702697,244.132771721,21.8241609867,262.502805459,452.977611696,24.3643928968,291.835158112,105.266316928,-119.22131204,-57.9190240887
92.46,449.78757897,246.23677528,22.3535139561,272.645598694,466.583812752,25.198342218,291.835158112,105.266316928,-115.622395108,-56.1670795696
93.48,451.939223498,247.388888591,23.2297654089,282.365596709,478.835825919,25.2173660715,291.835158112,105.266316928,-112.927332425,-54.8429623996
94.5,454.674583557,248.35149028,23.6297321096,288.753995366,488.421351503,25.2173660715,291.835158112,105.266316928,-107.696974591,-43.1220550527
95.52,457.757228255,250.179846496,25.3129900643,296.04679625,496.222115481,25.2173660715,291.835158112,105.266316928,-101.297441656,-36.5172850142
96.54,462.647678173,252.68115404,26.308326054,308.210849277,508.706187823,25.2173660715,291.835158112,105.266316928,-99.2056291572,-35.8054464848
97.56,465.434143822,254.710430779,30.0655349358,326.246075798,518.315757589,25.2173660715,291.835158112,105.266316928,-90.3229531822,-33.7237665641
98.58,469.613387788,258.443242553,31.4983203066,328.600976265,521.919446947,25.2173660715,291.835158112,105.266316928,-86.768736901,-30.5318600082
99.6,474.023482235,263.351778062,34.5286723664,333.043284604,526.086759332,25.2173660715,291.835158112,105.266316928,-84.2386955243,-26.6394378169
100.62,477.287814327,265.970976443,35.3625194568,335.178149812,529.170603041,25.2173660715,291.835158112,105.266316928,-81.2086099269,-24.1705793569
101.64,480.870983511,269.040239941,38.3742433336,342.847064366,541.22173306,25.2173660715,291.835158112,105.266316928,-79.272931758,-17.8893640046
102.66,486.952010205,274.067667974,39.9002019285,348.44779359,546.718622564,25.2173660715,291.835158112,105.266316928,-78.7648654182,-15.7247691892
103.68,486.952010205,274.067668038,39.9002019862,348.447793995,546.718622945,25.2173660715,291.835158112,105.266316928,-78.764865315,-15.7247689675
104.7,486.883416953,273.498797554,39.1158286814,348.120255833,546.595271161,25.2173660715,291.669162172,105.232214038,-78.764865315,-15.7247689675
105.72,484.742128264,270.436367216,36.5665178291,345.908174761,543.438410203,25.2173660715,290.239448339,104.51381915,-78.764865315,-15.7247689675
106.74,483.237012227,265.659444715,34.0772029412,345.084706183,541.909550794,25.2173660715,289.760159856,104.300649038,-78.764865315,-15.8668270552
107.76,481.242303392,262.05937042,31.2837703869,344.508931035,541.34617708,25.2173660715,289.068376142,103.973676863,-78.764865315,-15.8668356004
108.78,479.769361738,260.172492858,30.1361688537,343.833681341,539.977141285,25.2173660715,287.51785596,103.746150194,-78.764865315,-15.8668356004
109.8,477.973724598,257.391963441,27.2447012378,342.897704531,538.298417049,25.2173660715,286.9747439,103.336515597,-78.764865315,-15.8668356004
110.82,477.403858938,254.597491427,24.563676524,341.977995592,536.739368339,25.2173660715,286.970144552,103.325866405,-78.764865315,-15.8668356004
111.84,475.117510505,252.194420854,22.3289614774,340.734660429,535.031187497,25.2173660715,286.238442705,102.957022859,-78.764865315,-15.8668356004
112.86,474.153807821,251.166151009,20.4540934546,339.388150075,534.217017114,25.2173660715,285.739260744,102.823764656,-78.764865315,-15.8668356004
113.88,473.128605217,248.151561048,16.4439883357,336.434992929,531.06006229,25.2173660715,283.529152583,102.512149112,-78.764865315,-15.8668356004
114.9,472.184559145,246.179796621,14.7220024485,335.122818884,528.824325334,25.2173660715,280.720047707,102.298386691,-78.764865315,-15.8668356004
115.92,466.949947558,235.453057974,10.3377557413,330.408379415,522.777141406,25.2173660715,276.158643928,102.252637848,-78.764865315,-15.8668356004
116.94,460.433131912,229.231207525,8.15178734816,326.890462581,520.122813852,23.7513489714,275.494382638,102.252637848,-78.764865315,-15.8668356004
117.96,453.203198528,219.737908121,4.36669594736,319.489874307,512.453542356,16.625123442,271.079546377,102.252637848,-78.764865315,-15.8668356004
118.98,440.295579495,205.557551958,3.47973225026,316.694351215,507.946386628,14.2483843643,267.930489104,102.252637848,-78.764865315,-16.9339980843
120.0,430.322740156,195.08865244,2.58324013159,315.094444164,504.642692142,13.8288196839,267.002414228,102.252637848,-78.764865315,-17.0016061028
121.02,422.513075353,187.889968849,2.00493386844,314.220274722,501.612119425,6.80267682565,262.464916157,102.252637848,-78.764865315,-17.0016061028
122.04,418.933092976,181.959462818,-0.238013871269,312.342316151,498.403992305,6.12087108952,259.469914983,102.252637848,-78.764865315,-17.0016061028
123.06,416.666084246,173.465394662,-3.99497725265,311.01848546,495.379462989,6.12086882123,258.778799637,102.252637848,-78.764865315,-17.0016061028
124.08,414.855930962,169.437347774,-7.49488692778,310.286803354,494.337035997,6.12086882123,257.660684059,101.696812602,-78.764865315,-17.0016061028
125.1,413.467311785,168.3162267,-8.08096953343,309.351365721,492.950789643,6.05036565201,256.48397905,101.169022304,-78.764865315,-17.0016061028
126.12,412.970682236,167.647513198,-8.81651414283,308.586823225,491.930454661,6.02194645437,256.199184107,100.882581594,-78.764865315,-17.0016061028
127.14,412.704855611,167.224458168,-9.32113705294,308.247424953,491.376920902,6.02194645437,256.028616125,100.514929518,-78.764865315,-17.0016061028
128.16,411.68800533,165.556842549,-11.2273805938,307.491347093,490.262241335,6.02194645437,255.694339402,100.015835478,-78.764865315,-17.0016061028
129.16,409.705688201,162.801756524,-13.1418834052,306.069785879,488.206426971,6.02194645437,255.425570024,99.9955199741,-78.764865315,-17.0016061028
130.16,408.829785339,160.932709227,-15.6113155066,304.688903373,486.82944844,6.02194645437,254.081854821,99.2125831635,-78.764865315,-17.0016061028
131.16,406.907506173,158.014413451,-17.4959558379,304.28420858,485.441893504,6.02194645437,253.21690306,98.4884416791,-78.764865315,-17.0016061028
132.16,405.566231886,154.315136457,-20.9448069272,303.46727316,484.465956771,6.02194645437,252.947108809,97.9508956763,-78.764865315,-17.0016061028
133.16,404.730004631,153.083267102,-22.0684794603,303.335653715,484.347468182,6.02194645437,252.541668212,97.6479304162,-78.764865315,-17.0016061028
134.16,404.495521963,152.79640355,-22.3459458318,303.226220152,484.08939939,6.02194645437,252.323892962,97.365606867,-78.764865315,-17.0016061028
135.16,404.950641217,153.197088076,-21.6748290751,303.447707325,484.29703008,6.02194645437,252.323893028,97.4747134148,-78.764865315,-17.0016061028
136.16,405.492792924,154.107620133,-18.5585506691,305.962194726,485.018471476,6.02194645437,252.323893028,97.9773587038,-78.4870944133,-17.0016061028
137.16,407.117963278,155.145603424,-17.7851438068,307.297320383,486.237059361,6.04254474879,252.323893028,98.3743616474,-78.3191858629,-17.0016061028
138.16,407.756337811,155.559367166,-17.1685960162,308.681635726,486.97273428,6.15194852079,252.323893028,98.6782183151,-78.3138675308,-17.0016061028
139.16,407.873050664,155.580122271,-16.5784835739,309.546498716,487.54271688,6.15194886952,252.323893028,99.0910033943,-78.1744410279,-17.0016061028
140.16,408.311011874,155.798287501,-16.1221752742,310.053914947,487.915342176,6.15194886952,252.323893028,99.4931611637,-78.0029254289,-17.0016061028
141.16,408.020965143,155.522126385,-16.9072014172,309.621871145,487.373990655,6.15194886952,252.323893028,99.4187343926,-78.0028919863,-17.0016061028
142.16,407.562711302,154.866132273,-17.6272621924,309.37793116,487.22456407,6.15194886952,252.317345412,99.3083615562,-78.0028919863,-17.0016061028
143.16,407.327082515,154.579364921,-18.2065313053,309.115299469,486.852787584,6.15194886952,252.299638515,98.9746367018,-78.0028919863,-17.0016061028
144.16,407.23796582,154.487168414,-18.3133215003,309.118854607,486.799214369,6.15194886952,252.299638513,98.8857579592,-78.0028919863,-17.0016061028
145.16,407.493672022,154.721162395,-17.8352440632,309.316051426,486.8938494,6.15194886952,252.299638513,99.0615074404,-78.0028919863,-17.0016061028
146.16,407.678244936,154.812952769,-17.6318282296,309.452949911,487.041248777,6.15194886952,252.299638513,99.2335071221,-77.9699381264,-17.0016061028
147.16,408.69255142,155.650430818,-16.084814874,310.650676463,487.624780852,6.15194886952,252.299638513,99.8103377781,-77.8824181551,-17.0016061028
148.16,409.402896611,156.641194739,-13.6238526598,313.274114876,488.953063734,6.15194886952,252.299638513,99.8595880808,-77.7635815574,-17.0016061028
149.16,411.38007729,158.589702549,-11.1608778264,315.922726406,490.121537751,6.15194886952,252.299638513,100.643517875,-76.6642260724,-17.0016061028
150.16,412.690495322,159.161729961,-10.1766085501,318.88871583,491.430399533,6.21368456841,252.299638513,101.012787056,-76.1627341102,-17.0016061028
151.16,413.382706812,159.72179123,-8.80469181923,321.522216287,492.806176178,6.2167461671,252.299638513,101.557730852,-76.0332193416,-17.0016061028
152.16,413.542043202,159.765455739,-8.0039908533,322.685633859,493.617976195,6.2167461671,252.299638513,102.116360585,-75.6955670349,-17.0016061028
153.16,413.545386962,159.616926832,-8.38546933828,322.553287397,493.4610028,6.2167461671,252.289830416,101.996546306,-75.6741152536,-17.0016061028
154.16,412.911876263,158.957944962,-9.82919943023,321.822450464,492.641566728,6.2167461671,252.289642178,101.937575965,-75.6741152561,-17.0016061028
155.16,412.538777172,157.666766454,-11.971021338,321.059962259,492.094792571,6.2167461671,252.080761333,101.299254923,-75.6741152561,-17.0016061028
156.16,411.711637872,156.872851748,-12.3259670163,320.699525996,491.400232542,6.2167461671,252.052757065,101.077259198,-75.6741152561,-17.0064401182
157.16,411.73881495,156.835854572,-12.3827187778,320.694588921,491.382154212,6.2167461671,252.05247067,101.07394313,-75.6741152561,-17.0079130384
158.16,411.714650749,156.809406886,-12.4161412518,320.691180053,491.377681356,6.2167461671,252.05247067,101.050781071,-75.6741152561,-17.0079130384
159.16,411.839601871,156.921742213,-12.0425113701,320.962732837,491.582399412,6.2167461671,252.054158241,101.308270899,-75.6644378505,-17.0079130384
160.16,413.00717833,157.790418393,-10.773331572,321.813838177,492.382117926,6.2167461671,252.054158241,101.507782414,-75.664386374,-17.0079130384
161.16,413.449579324,158.659377045,-7.9140134497,324.209720661,493.198128784,6.2167461671,252.054158241,102.148852527,-75.5112526997,-17.0079130384
162.16,414.296184874,159.131908899,-7.18576099389,325.174216292,494.064704743,6.2167461671,252.054158241,102.594152066,-75.4381840069,-17.0079130384
163.16,414.277876123,159.076681928,-7.1964244787,325.166396571,493.969683739,6.2167461671,252.054158241,102.585383913,-75.4380851772,-17.0079130384
164.16,414.26599584,159.019701368,-7.36843862238,325.069126927,493.834763184,6.2167461671,252.054158241,102.514811527,-75.4380851772,-17.0079130384
165.16,413.792639182,158.498419541,-7.95215495872,324.811099164,493.423957172,6.2167461671,251.717471702,102.120852675,-75.4380851772,-17.0079130384
166.16,412.745182968,155.773683274,-11.8086876163,322.668356585,490.725905306,6.2167461671,251.051142301,101.598777933,-75.4380851772,-17.0079130384
167.16,411.686330372,153.09215094,-14.1131169571,321.841720765,490.425777278,6.2167461671,250.658746195,101.421675642,-75.4380851772,-17.0079130384
168.16,410.329977778,150.899888705,-16.4677646031,320.177687292,488.273228749,6.2167461671,249.508933913,100.489938036,-75.4380851772,-17.0079130384
169.16,409.698552565,149.534567951,-17.4836591175,319.887536939,487.702041529,6.2167461671,249.311162732,100.181067285,-75.4380851772,-17.0225615989
170.16,409.543838074,149.345102102,-17.6936562504,319.84435791,487.622496381,6.2167461671,249.311162731,100.082955397,-75.4380851772,-17.0225616924
171.16,409.610318692,149.378727282,-17.6209983435,319.89772545,487.695164556,6.2167461671,249.311687413,100.149090852,-75.4325204012,-17.0225616924
172.16,410.37258964,150.061247861,-16.1975567687,320.834635732,488.217386189,6.2167461671,249.311687422,100.643611929,-75.4129124329,-17.0225616924
173.16,411.112774436,150.889929582,-13.9086302091,323.126170128,489.392851115,6.2167461671,249.311687422,100.698919002,-75.3736027917,-17.0225616924
174.16,412.57322644,152.416808037,-11.8869010268,325.156060272,490.308648967,6.2167461671,249.311687422,101.547809226,-74.8804344554,-17.0225616924
175.16,413.459559288,152.775512209,-10.9641599755,326.883100006,491.198889711,6.248542693,249.311687422,101.913885343,-74.7248680562,-17.0225616924
176.16,413.694853262,152.924413414,-10.3792751118,327.483691316,491.533639348,6.24930837833,249.311687422,102.203942792,-74.7248609937,-17.0225616924
177.16,413.633230431,152.866420505,-10.4776746559,327.419442446,491.38523087,6.24930837833,249.289148613,102.127166097,-74.7248609937,-17.0225616924
178.16,412.962858776,151.542283877,-12.3686686358,326.62810475,490.509816845,6.24930837833,248.797928354,101.373003474,-74.7248609937,-17.0225616924
179.16,412.031369642,150.204935302,-14.2265876729,325.198374475,488.817232256,6.24930837833,248.752990051,101.335803202,-74.7248609937,-17.0225616924
180.16,411.538558395,148.126266264,-17.2522435054,323.895552916,487.788519584,6.24930837833,247.933635886,100.49310298,-74.7248609937,-17.0225616924
181.16,410.203454988,146.725693284,-17.9894738268,323.327052925,486.628771205,6.24930837833,247.674090444,100.134787749,-74.7248609937,-17.0263754941
182.16,410.057076124,146.294920681,-18.5284615403,323.205447554,486.356189588,6.24930837833,247.672792981,100.011266786,-74.7248609937,-17.030186462
183.16,410.027343715,146.260060398,-18.5734224238,323.201014688,486.354681085,6.24930837833,247.672792981,99.9895112113,-74.7248609937,-17.030186462
184.16,410.163064614,146.414382671,-18.1495435141,323.57617177,486.634332476,6.24930837833,247.672792981,100.262858636,-74.7157511792,-17.030186462
185.16,411.480764041,147.490719621,-16.6468405179,324.420637498,487.393279161,6.24930837833,247.672792981,100.599790116,-74.7157398591,-17.030186462
186.16,412.081922863,148.633200485,-13.49012871,327.455594763,488.363435901,6.24930837833,247.672792981,101.265514321,-74.2420092434,-17.030186462
187.16,413.839459662,149.751085218,-12.5971258846,329.343141973,489.886768171,6.25322681918,247.672792981,101.69032423,-73.8831228125,-17.030186462
188.16,414.372696204,150.152061816,-11.0806586738,331.223537816,490.512268164,6.30661557736,247.672792981,102.331148725,-73.8496787058,-17.030186462
189.16,414.386651069,150.176755659,-10.86421987,331.425548255,490.673882299,6.30661558621,247.672792981,102.417352644,-73.8494633576,-17.030186462
190.16,414.112907379,149.803479177,-11.2555491616,331.313764197,490.48707429,6.30661558621,247.52480463,102.057365745,-73.8494633576,-17.030186462
191.16,413.319804219,148.095517145,-14.2983609116,329.892341919,488.738261348,6.30661558621,247.300724414,101.446212144,-73.8494633576,-17.030186462
192.16,412.32289266,145.973794807,-16.2310259948,329.273680758,488.512111652,6.30661558621,247.148356046,101.266459742,-73.8494633576,-17.030186462
193.16,411.553318842,144.788098115,-17.766449522,328.287114006,487.16370909,6.30661558621,246.75560733,100.458521067,-73.8494633576,-17.030186462
194.16,411.231433013,144.249747645,-18.2369763326,328.197350177,486.928651882,6.30661558621,246.728309546,100.220002061,-73.8494633576,-17.0365245723
195.16,411.297537555,144.310672535,-18.1450342155,328.238644087,486.946995996,6.30661558621,246.728309546,100.269532681,-73.8494633576,-17.0365244911
196.16,411.411574607,144.383523558,-17.9955807882,328.349177807,487.062316208,6.30661558621,246.728309546,100.381601008,-73.8413770382,-17.0365244911
197.16,412.287205514,145.147440799,-16.5126201857,329.446445189,487.646316458,6.30661558621,246.728309546,100.952682664,-73.7685003071,-17.0365244911
198.16,412.992065931,146.064499016,-14.2767476113,331.930784097,488.963110146,6.30661558621,246.728309546,101.029428031,-73.7159515102,-17.0365244911
199.16,414.796486202,147.979295516,-12.1149910028,334.402616094,489.977173068,6.30661558621,246.728309546,101.991149965,-73.0912247911,-17.0365244911
200.16,415.68825619,148.408923868,-11.0965444095,336.589470155,491.033284916,6.35035976232,246.728309546,102.382571671,-72.8957876539,-17.0365244911
201.16,416.070948909,148.755270134,-9.79486055197,337.875790927,491.782999407,6.35301167985,246.728309546,102.979995325,-72.866286401,-17.0365244911
202.16,416.021940126,148.706741987,-9.78721538483,337.871400552,491.717425736,6.35301167985,246.705789065,102.955813331,-72.8662863942,-17.0365244911
203.16,415.469396717,147.511852169,-11.5770900235,337.242687093,490.939295883,6.35301167985,246.242203864,102.222396001,-72.8662863942,-17.0365244911
204.16,414.359635721,145.989513575,-13.5677769429,335.887455861,489.407206506,6.35301167985,246.187877941,102.189785375,-72.8662863942,-17.0365244911
205.16,413.659600029,143.247583617,-17.3264680306,334.703944556,488.439401416,6.35301167985,245.276655804,101.213022712,-72.8662863942,-17.0365244911
206.16,412.311639906,141.904367537,-18.0812630782,334.147325901,487.212452351,6.35301167985,245.042752963,100.889279201,-72.8662863942,-17.040275108
207.16,412.292721014,141.722047939,-18.3245817824,334.10306806,487.120768647,6.35301167985,245.042512073,100.849112613,-72.8662863942,-17.0511676732
208.16,412.297490384,141.722652632,-18.3284365276,334.104675859,487.122796206,6.35301167985,245.042512073,100.850956336,-72.8662863942,-17.0511676732
209.16,412.475376941,141.877155723,-17.8071423233,334.583132174,487.496756243,6.35301167985,245.042512073,101.171825106,-72.8302263309,-17.0511676732
210.16,413.735758126,142.957777876,-16.2978046405,335.490348418,488.210108979,6.35301167985,245.042512073,101.45172161,-72.8076647477,-17.0511676732
211.16,414.394521458,144.129908787,-12.3186771327,339.763771132,489.505199879,6.35301167985,245.042512073,102.275337773,-72.2977645728,-17.0511676732
212.16,415.963873472,144.971706362,-11.444330694,341.490076742,490.949012833,6.35301167985,245.042512073,102.713533634,-72.0169754851,-17.0511676732
213.16,416.153532083,145.106396295,-10.7328617038,342.23165061,491.062064975,6.36355460438,245.042512073,102.966979975,-72.0162750201,-17.0511676732
214.16,416.152724912,145.117015754,-10.705806018,342.250955816,491.074461294,6.3635546044,245.042512073,102.976104812,-72.0162750201,-17.0511676732
215.16,415.792579431,144.643124116,-11.2384868291,342.076682735,490.785157495,6.3635546044,244.787330796,102.538792993,-72.0162750201,-17.0511676732
216.16,414.9852762,142.89111376,-14.4036524803,340.43106118,488.616845927,6.3635546044,244.398125853,101.93031796,-72.0162750201,-17.0511676732
217.16,414.070682006,141.00474517,-16.163619461,339.737743013,488.328711226,6.3635546044,244.204917064,101.798601291,-72.0162750201,-17.0511676732
218.16,413.219290258,139.62194323,-17.8573328541,338.739542632,486.803989125,6.3635546044,243.672161173,101.036588468,-72.0162750201,-17.0511676732
219.16,412.862666908,139.072043144,-18.3131512193,338.658690161,486.517102269,6.3635546044,243.583534693,100.836311332,-72.0162750201,-17.0523919519
220.16,412.952591863,139.15660087,-18.1864973849,338.700897792,486.537100407,6.3635546044,243.583534693,100.885643395,-72.0162750201,-17.0523919518
221.16,413.087677039,139.239508154,-18.0081216266,338.8419351,486.660735633,6.3635546044,243.583534693,101.051284731,-71.9965801128,-17.0523919518
222.16,414.161999481,140.241146146,-16.2690249604,340.308900674,487.284288856,6.3635546044,243.583534693,101.644576798,-71.9307711768,-17.0523919518
223.16,414.880722653,141.113123245,-13.7573881959,343.182138229,488.610117718,6.3635546044,243.583534693,101.729242159,-71.7920031939,-17.0523919518
224.16,416.710838887,142.881252234,-11.5775530082,345.190066628,489.531091994,6.3635546044,243.583534693,102.417618012,-71.2043864152,-17.0523919518
225.16,417.821587912,143.485322582,-10.2841055602,347.59560081,490.72232863,6.40374341282,243.583534693,102.801487158,-70.882101876,-17.0523919518
226.16,418.244706339,143.853822404,-8.91183184583,349.08869304,491.448779356,6.40739759606,243.583534693,103.459834708,-70.8459492228,-17.0523919518
227.16,418.207570079,143.816990964,-8.82580869591,349.186100702,491.499982826,6.40739759606,243.572219742,103.475514099,-70.845949216,-17.0523919518
228.16,417.763003676,142.765132069,-10.3106723355,348.576945466,490.752200738,6.40739759606,243.340973701,102.706467063,-70.845949216,-17.0523919518
229.16,416.773858338,141.179587649,-12.4798907545,347.277422771,489.251812786,6.40739759606,243.276211467,102.660754508,-70.845949216,-17.0523919518
230.16,416.304253483,139.022080593,-15.462082215,346.236158377,488.363133197,6.40739759606,242.767482611,101.777176488,-70.845949216,-17.0523919518
231.16,415.187655427,137.805712019,-16.1228647416,345.748075624,487.372055365,6.40739759606,242.583158016,101.42217187,-70.845949216,-17.0523919518
232.16,415.234663368,137.751947745,-16.1751512685,345.747882121,487.340261873,6.40739759606,242.582963235,101.438325468,-70.845949216,-17.0543409413
233.16,415.280684538,137.793449044,-16.1215366651,345.757988282,487.350109287,6.40739759606,242.582963235,101.48406606,-70.845949216,-17.0543409413
234.16,415.467422559,137.957778325,-15.5505160396,346.330069485,487.764692503,6.40739759606,242.582963235,101.853741471,-70.7945012731,-17.0543409413
235.16,417.013965553,139.230014072,-13.4526023329,347.789949517,488.654920171,6.40739759606,242.582963235,102.240937128,-70.7641952301,-17.0543409413
236.16,417.57051224,140.370091181,-10.2211896993,350.889632015,489.54956585,6.40739759606,242.582963235,102.840139392,-70.4019748504,-17.0543409413
237.16,419.046514946,141.121792901,-9.38152290455,352.300755678,490.80607687,6.40739759606,242.582963235,103.181893843,-70.2319210884,-17.0543409413
238.16,419.126645798,141.162279598,-8.89909044693,352.66931097,490.809599134,6.41841743617,242.582963235,103.361494566,-70.22613641,-17.0543409413
239.16,419.118902213,141.125146133,-8.99818334424,352.607507029,490.733686145,6.41841743608,242.582963235,103.311270548,-70.22613641,-17.0543409413
240.16,418.768820511,140.726528416,-9.40569848699,352.458012706,490.489606911,6.41841743608,242.427809949,103.014153894,-70.22613641,-17.0543409413
241.16,418.038194081,139.064533881,-12.3460679898,350.844373995,488.660854902,6.41841743608,242.089708376,102.597863937,-70.22613641,-17.0543409413
242.16,416.898596059,136.663612282,-14.7034498946,349.904950645,488.343982126,6.41841743608,241.643612363,102.272428831,-70.22613641,-17.0543409413
243.16,415.777543987,134.723577374,-16.6512389965,348.622099691,486.544471614,6.41841743608,240.739417792,101.398824184,-70.22613641,-17.0543409413
244.16,415.345595537,133.867731035,-17.3862527573,348.506780917,486.159201732,6.41841743608,240.636694393,101.153609349,-70.22613641,-17.0543409413
245.16,415.280608217,133.788347497,-17.5092114469,348.480006723,486.130360188,6.41841743608,240.636694393,101.1090707,-70.22613641,-17.0543409413
246.16,415.370668938,133.829256721,-17.4348559776,348.550171651,486.224976486,6.41841743608,240.636694393,101.18812312,-70.2130651462,-17.0543409413
247.16,416.346262477,134.70206252,-15.7722541887,349.84698831,486.819863233,6.41841743608,240.636694393,101.823239516,-70.1047629957,-17.0543409413
248.16,417.139617918,135.506247207,-13.3491473116,352.063879007,487.907778514,6.41841743608,240.636694393,101.8755162,-70.0147155364,-17.0543409413
249.16,419.024795429,137.335606326,-10.8280384543,354.295999715,488.82638784,6.41841743608,240.636694393,102.771723033,-69.2991406799,-17.0543409413
250.16,420.046152121,137.842070732,-9.94486589378,356.362057586,489.840958259,6.4825621776,240.636694393,103.105400474,-68.9821248065,-17.0543409413
251.16,420.45919672,138.21022688,-8.82231131124,357.90732335,490.648500115,6.4887286288,240.636694393,103.60196045,-68.9565314964,-17.0543409413
252.16,420.432391144,138.205875898,-8.65487161293,358.078248985,490.752722284,6.4887286288,240.625139284,103.677329122,-68.9532055723,-17.0543409413
253.16,419.953589911,137.309570485,-10.1204426023,357.530279111,490.096657377,6.4887286288,240.33602894,102.974382252,-68.9532055723,-17.0543409413
254.16,418.992231898,135.931394513,-11.9507824647,356.370362465,488.814777915,6.4887286288,240.318562528,102.940070748,-68.9532055723,-17.0543409413
255.16,418.460714848,133.799127452,-14.9201576166,355.212174894,487.929191714,6.4887286288,239.751887985,101.999364702,-68.9532055723,-17.0543409413
256.16,417.171080885,132.393923494,-15.7225334735,354.69683814,486.736957838,6.4887286288,239.461487712,101.659720069,-68.9532055723,-17.0571402951
257.18,417.192697902,132.28451615,-15.8722322066,354.679854646,486.670386594,6.4887286288,239.460831942,101.650567322,-68.9532055723,-17.057552984
258.2,417.253846739,132.337748459,-15.8021836768,354.698009284,486.678378739,6.4887286288,239.460831942,101.716193166,-68.9516556751,-17.057552984
259.22,417.48865169,132.583218724,-15.0992732944,355.331287049,487.070044947,6.4887286288,239.460831942,102.157152159,-68.9134432181,-17.057552984
260.24,418.798057984,133.698761182,-13.1828550106,356.46458604,487.836867817,6.4887286288,239.460831942,102.42552427,-68.9027281373,-17.057552984
261.26,419.561369051,135.124559097,-9.27008999761,359.877834711,488.685326992,6.4887286288,239.460831942,103.27027104,-68.5119765312,-17.057552984
262.28,420.767388979,135.81058615,-8.42819821032,361.277524633,489.962906474,6.50478692637,239.460831942,103.607772643,-68.3442869449,-17.057552984
263.3,420.849189582,135.851628144,-8.05963565984,361.530744257,489.950724492,6.51131476964,239.460831942,103.728298055,-68.3398761272,-17.057552984
264.32,420.838786182,135.836521889,-8.10621302698,361.498878967,489.905733114,6.51131476963,239.459933456,103.69778146,-68.3398761272,-17.057552984
265.34,420.184615081,135.078370459,-8.95982116244,361.249109228,489.54103439,6.51131476963,239.141410722,103.215161332,-68.3398761272,-17.057552984
266.36,419.381258608,133.465924308,-11.8675870609,359.523017487,487.445735937,6.51131476963,238.85038764,102.964998327,-68.3398761272,-17.057552984
267.38,418.578709571,130.945263772,-14.3602727341,358.728027169,487.01962793,6.51131476963,238.445382631,102.46109213,-68.3398761272,-17.057552984
268.4,417.307035367,129.490660324,-15.5423538588,357.859652723,485.595871662,6.51131476963,237.907411642,101.779769539,-68.3398761272,-17.057552984
269.42,417.277268008,129.168891562,-15.8861763406,357.824958655,485.518455909,6.51131476963,237.897341997,101.698169949,-68.3398761272,-17.0596936768
270.44,417.289983563,129.184795316,-15.8721371619,357.842463479,485.526651544,6.51131476963,237.89737457,101.696580431,-68.3398761272,-17.0596936768
271.46,417.38610237,129.246969081,-15.6178372258,358.097319617,485.747631543,6.51131476963,237.900107483,101.863300713,-68.3087453549,-17.0596936768
272.48,418.812581398,130.432231646,-13.5558474519,359.413229952,486.387096939,6.51131476963,237.900107483,102.419145241,-68.2606737438,-17.0596936768
273.5,419.139280456,131.327191875,-10.6309445797,362.079761795,487.24346897,6.51131476963,237.900107483,102.776455287,-68.0331027448,-17.0596936768
274.52,420.831310522,132.421180287,-9.35801253347,363.838553985,488.412236654,6.51131476963,237.900107483,103.378671152,-67.7410649461,-17.0596936768
275.54,420.939164877,132.487812583,-8.72502923658,364.454121477,488.549108781,6.5261511711,237.900107483,103.615952652,-67.7134749838,-17.0596936768
276.56,420.931611195,132.466993924,-8.77297564344,364.428466874,488.516784811,6.52615117024,237.900107483,103.595544164,-67.7134749838,-17.0596936768
277.58,420.632041815,132.096680465,-9.17295312177,364.289476039,488.299718433,6.52615117024,237.715711401,103.259119389,-67.7134749838,-17.0596936768
278.6,419.783926999,130.805050479,-11.6699217479,363.001423952,486.516354631,6.52615117024,237.471262889,102.80008232,-67.7134749838,-17.0596936768
279.62,418.789284157,128.940055251,-13.5743382276,362.309905115,486.20085548,6.52615117024,237.232007161,102.702843145,-67.7134749838,-17.0596936768
280.64,417.850749894,127.427261356,-15.2920691426,361.151612796,484.731823855,6.52615117024,236.518576106,101.84574952,-67.7134749838,-17.0596936768
281.66,417.409678966,126.62960609,-16.002706009,361.028533331,484.353946752,6.52615117024,236.406928473,101.584295195,-67.7134749838,-17.0596936768
282.68,417.395203851,126.613541695,-16.0373943759,361.027329894,484.349889334,6.52615117024,236.406928473,101.571254318,-67.7134749838,-17.0596936768
283.7,417.508250171,126.696271321,-15.8512169504,361.145985642,484.466436277,6.52615117024,236.40771151,101.747645754,-67.6747000202,-17.0596936768
284.72,418.717612859,127.757964995,-13.7955207617,362.807548775,485.119311852,6.52615117024,236.40771151,102.438556375,-67.5331209069,-17.0596936768
285.74,419.295376925,128.690745349,-10.716290998,366.066260947,486.277861751,6.52615117024,236.40771151,102.574398924,-67.4084285122,-17.0596936768
286.76,421.123576867,130.268652868,-8.60952764226,368.221777025,487.194410432,6.52615117024,236.40771151,103.378552753,-66.7949999796,-17.0596936768
287.78,421.826580604,130.603718351,-7.09364717618,370.10455158,487.946958477,6.57935436912,236.40771151,103.934197315,-66.6448526603,-17.0596936768
288.8,421.941905591,130.685103103,-6.71435849678,370.397037241,488.160642315,6.57938079495,236.40771151,104.085114888,-66.6448520097,-17.0596936768
289.82,421.816597963,130.555528387,-6.87128924525,370.308915731,487.956248574,6.57938079495,236.370915902,103.979500395,-66.6448520097,-17.0596936768
290.84,421.173695369,129.068978544,-9.21371325093,369.299611812,486.852826996,6.57938079495,235.990454575,103.329910803,-66.6448520097,-17.0596936768
291.86,420.178130567,127.505963,-10.9567936129,368.441119161,485.922952575,6.57938079495,235.90082817,103.280830391,-66.6448520097,-17.0596936768
292.88,419.65224316,125.973138363,-13.3759292488,367.283650836,484.821781797,6.57938079495,235.434424032,102.526911656,-66.6448520097,-17.0596936768
293.9,418.914366356,125.05284413,-13.9568629933,367.082032277,484.257603772,6.57938079495,235.309342211,102.223738884,-66.6448520097,-17.0596936768
294.92,419.019123676,125.144237706,-13.7819826965,367.158343486,484.281388915,6.57938079495,235.309342201,102.307431678,-66.6448520097,-17.0596936768
295.94,419.148293273,125.248875502,-13.610651173,367.226396317,484.334116656,6.57938079495,235.311894236,102.467141535,-66.6170997504,-17.0596936768
296.96,419.792576928,125.925906977,-12.178562721,368.629611264,484.968360097,6.57938079495,235.311906942,103.077663474,-66.4723092396,-17.0596936768
297.98,421.246194369,127.396170646,-9.21885925306,371.652481955,486.239546273,6.57938079495,235.311906942,103.206562747,-66.397522732,-17.0596936768
299.0,422.681330048,129.026972229,-6.35793993033,374.569699779,486.820388946,6.57938079495,235.311906942,104.076284505,-65.6278873282,-17.0596936768
300.02,424.088494883,129.735965325,-5.28710023351,376.79597512,488.130787471,6.6160244273,235.311906942,104.39007661,-65.3736432677,-17.0596936768
301.04,424.429761359,129.945056359,-4.53763575045,377.576798171,488.514197606,6.63783599003,235.311906942,104.675209849,-65.3726627133,-17.0596936768
302.06,424.403705239,129.900852277,-4.57175396054,377.552426753,488.445543637,6.63783599003,235.280891717,104.613045842,-65.3726627133,-17.0596936768
303.08,423.85149995,128.812790561,-6.00839368856,377.123241747,487.813423835,6.63783599003,235.001656925,104.06823807,-65.3726627133,-17.0596936768
304.1,422.94154945,127.346182009,-8.19501633971,375.778521618,486.335185618,6.63783599003,234.965491467,104.017880649,-65.3726627133,-17.0596936768
305.12,422.24613974,125.02516643,-11.3462908212,374.709220952,485.512296518,6.63783599003,234.387675147,103.305985504,-65.3726627133,-17.0596936768
306.14,420.934900466,123.571288344,-12.1226451534,374.201606925,484.315909383,6.63783599003,234.135812573,102.951662546,-65.3726627133,-17.0666151498
307.16,420.917815775,123.403545588,-12.3652990039,374.160578511,484.212463576,6.63783599003,234.135721573,102.916673516,-65.3726627133,-17.0667217627
308.18,420.967662128,123.439134954,-12.3234706736,374.167111301,484.219173201,6.63783599003,234.135721573,102.950783544,-65.3726627133,-17.0667217627
309.2,421.191986986,123.663932997,-11.6264373926,374.94803816,484.646483778,6.63783599003,234.135721573,103.346392879,-65.26600511,-17.0667217627
310.22,422.651067074,124.910893037,-9.44965981972,376.452015169,485.36127817,6.63783599003,234.135721573,103.664199509,-65.2356626875,-17.0667217627
311.24,423.429216621,126.15864745,-6.12164435912,379.434928472,486.163990184,6.63783599003,234.135721573,104.342698293,-64.9220846704,-17.0667217627
312.26,424.51006689,126.74088063,-5.38105451055,380.80678054,487.230948387,6.63783599003,234.135721573,104.632570096,-64.831512049,-17.0667217627
313.28,424.456756258,126.6751995,-5.36000922806,380.768648658,487.089154979,6.64130881217,234.135721573,104.638605769,-64.8314905228,-17.0667217627
314.3,424.44461003,126.620756026,-5.49531600365,380.701454422,486.985123767,6.64130881217,234.134131411,104.571785051,-64.8314905228,-17.0667217627
315.32,424.02320821,125.9342199,-6.2860700284,380.502938581,486.71837278,6.64130881217,233.924189978,104.036176819,-64.8314905228,-17.0667217627
316.34,423.227720443,124.68657932,-8.71963863678,378.946625766,484.900881404,6.64130881217,233.826068327,103.821660571,-64.8314905228,-17.0667217627
317.36,422.494178921,122.400341483,-11.3063725572,378.333369673,484.59321026,6.64130881217,233.497068869,103.432881976,-64.8314905228,-17.0667217627
318.38,421.354379971,121.059652523,-12.4176150341,377.587064002,483.246834873,6.64130881217,233.116606,102.867094359,-64.8314905228,-17.0667217627
319.4,421.384011563,120.946649054,-12.4760207027,377.619239054,483.252281425,6.64130881217,233.106917448,102.868562205,-64.8314905228,-17.0667217627
320.42,421.48511915,121.034420704,-12.3152541817,377.687919863,483.266848004,6.64130881217,233.106917448,102.942012293,-64.8314905228,-17.0667217627
321.44,421.635201186,121.143723226,-11.9027700444,378.016817624,483.549860732,6.64130881217,233.106917448,103.220910349,-64.757627001,-17.0667217627
322.46,423.249827913,122.508774337,-9.74095404099,379.485474604,484.259215238,6.64130881217,233.106917448,103.831695341,-64.6421627348,-17.0667217627
323.48,423.599476065,123.478887923,-6.04353956273,383.332163981,485.100621692,6.64130881217,233.106917448,104.114784922,-64.3281448287,-17.0667217627
324.5,425.544220131,124.860585169,-4.74323527414,385.326843021,486.341118816,6.64130881217,233.106917448,104.605182918,-63.9234528734,-17.0667217627
325.52,425.842491963,125.073020873,-3.59725331206,386.634001949,486.704717043,6.67849804886,233.106917448,104.976398877,-63.8315017219,-17.0667217627
326.54,425.855926381,125.12152585,-3.38102404323,386.753303604,486.809273989,6.67849808406,233.106917448,105.080162582,-63.8315017219,-17.0667217627
327.56,425.611090529,124.833560056,-3.71188515824,386.66819544,486.603514295,6.67849808406,232.993942813,104.826813109,-63.8315017219,-17.0667217627
328.58,424.991722191,123.311341506,-6.46114816721,385.447429398,485.13242438,6.67849808406,232.84337069,104.41362022,-63.8315017219,-17.0667217627
329.6,424.018887679,121.395921516,-8.19033697981,384.860281329,484.745338651,6.67849808406,232.719602884,104.290600224,-63.8315017219,-17.0667217627
330.62,423.213772556,119.84004744,-9.91516780702,383.746995852,483.340410083,6.67849808406,232.26658404,103.562861823,-63.8315017219,-17.0667217627
331.64,422.867060546,119.282510024,-10.2880752063,383.689332114,483.120110371,6.67849808406,232.209535638,103.377208331,-63.8315017219,-17.0667217627
332.66,423.082372633,119.467456622,-9.9275745756,383.833966212,483.184115001,6.67849808406,232.209535638,103.500055776,-63.8315017219,-17.0667217627
333.68,423.246336227,119.560719586,-9.75724184336,383.962997219,483.31005693,6.67849808406,232.209535638,103.644340368,-63.7987814097,-17.0667217627
334.7,424.260302599,120.501290409,-7.85325821889,385.327976041,483.845835528,6.67849808406,232.209535638,104.298913099,-63.6710330419,-17.0667217627
335.72,424.943804056,121.261851347,-5.23705927945,387.98220408,484.836190842,6.67849808406,232.209535638,104.365749275,-63.6077173307,-17.0667217627
336.74,426.355921137,122.543903059,-3.33300418121,389.789152491,485.473134483,6.67849808406,232.209535638,105.08588831,-63.3230490139,-17.0667217627
337.76,426.771564824,122.720952125,-2.72813066867,390.594571864,486.042947824,6.67959165114,232.209535638,105.349501447,-63.277640387,-17.0667217627
338.78,426.697372372,122.586550589,-2.99018037838,390.432334819,485.864514017,6.67959117676,232.209535638,105.259716256,-63.2776403916,-17.0667217627
339.8,426.546947003,122.361461513,-3.25871424799,390.286109037,485.60470107,6.67959117676,232.143367818,105.09859695,-63.2776403916,-17.0667217627
340.82,425.938335574,121.137592924,-5.34638622677,389.498464667,484.717371202,6.67959117676,231.916054616,104.596153932,-63.2776403916,-17.0667217627
341.84,424.889361626,119.425446439,-7.33503983162,388.557822484,483.75589158,6.67959117676,231.876454527,104.583607555,-63.2776403916,-17.0667217627
342.86,424.275098735,117.924153163,-9.74963048442,387.489221939,482.789567093,6.67959117676,231.4485221,103.842818238,-63.2776403916,-17.0667217627
343.88,423.516165005,117.028131447,-10.3490854664,387.308086076,482.310602656,6.67959117676,231.304868464,103.561185662,-63.2776403916,-17.0667217627
344.9,423.691520749,117.2052197,-9.98156057351,387.429528431,482.379955311,6.67959117676,231.304868458,103.702203628,-63.2776403916,-17.0667217627
345.92,423.788589044,117.264630107,-9.89925310882,387.46240471,482.417494915,6.67959117676,231.304868458,103.786923796,-63.275787915,-17.0667217627
346.94,424.278463049,117.614699274,-8.75902616379,388.267812425,482.839722789,6.67959117676,231.304868458,104.33624711,-63.2137107305,-17.0667217627
347.96,425.196811355,118.570801915,-6.24852183375,390.441848881,483.901180794,6.67959117676,231.304868458,104.47504318,-63.1822319759,-17.0667217627
348.98,425.882349555,119.303517089,-4.62354207589,391.561796645,484.182940078,6.67959117676,231.304868458,105.038513666,-63.0727433605,-17.0667217627
350.0,426.171828058,119.392823796,-4.52394756261,391.869736054,484.549078958,6.67959117676,231.304868458,105.094375793,-63.0724625401,-17.0667217627
351.02,426.100532236,119.25153263,-4.80526905666,391.697304056,484.361125707,6.67959117676,231.304868458,104.99853158,-63.0724625401,-17.0667217627
352.04,426.054453634,119.212421084,-4.90388429824,391.623435729,484.216757546,6.67959117676,231.27007944,104.90555387,-63.0724625401,-17.0667217627
353.06,425.420071076,118.054561048,-6.42339894496,391.184065156,483.670069604,6.67959117676,230.897074458,104.26943194,-63.0724625401,-17.0667217627
354.08,424.497106101,116.904912131,-8.25147489568,389.791094233,482.247883945,6.67959117676,230.850017931,104.195702961,-63.0724625401,-17.0667217627
355.1,423.983954818,114.884158794,-10.8963772082,388.921627795,481.579226164,6.67959117676,230.451820998,103.41090445,-63.0724625401,-17.0667217627
356.12,422.982633917,113.876232961,-11.5470839636,388.523833185,480.762829504,6.67959117676,230.324025133,103.080640359,-63.0724625401,-17.0667217627
357.14,423.149365673,114.032259988,-11.2350046584,388.638123295,480.838881811,6.67959117676,230.323996239,103.177396726,-63.0724625401,-17.0667217627
358.16,423.250820402,114.132941023,-11.0776122408,388.685933911,480.851992805,6.67959117676,230.323996239,103.284743738,-63.0712888299,-17.0667217627
359.18,423.480861782,114.343019791,-10.3260092154,389.3187063,481.2548374,6.67959117676,230.323996239,103.775621455,-62.9967216078,-17.0667217627
360.2,424.786273246,115.481337369,-8.27788605924,390.600192348,481.854051781,6.67959117676,230.323996239,104.031355488,-62.9813416441,-17.0667217627
361.22,425.402538714,116.494338085,-5.08846516395,393.462477688,482.474822381,6.67959117676,230.323996239,104.651058869,-62.7664971078,-17.0667217627
362.24,426.29225683,116.99048035,-4.41512688877,394.43472242,483.336043083,6.67959117676,230.323996239,104.909064393,-62.6915013667,-17.0667217627
363.26,426.223548714,116.867191315,-4.62146337522,394.295885531,483.160869824,6.67959117676,230.323996239,104.843353577,-62.6914864934,-17.0667217627
364.28,426.218008277,116.833012509,-4.7107681377,394.249137839,483.106552891,6.67959117676,230.323996239,104.801273107,-62.6914864934,-17.0667217627
365.3,425.777240044,116.273521999,-5.38862728361,394.087733695,482.837010136,6.67959117676,230.154738113,104.391091854,-62.6914864934,-17.0667217627
366.32,425.084231424,115.067406418,-7.89717118792,392.795383368,481.286192487,6.67959117676,230.046900851,104.197318384,-62.6914864934,-17.0667217627
367.34,424.436554405,113.221800638,-9.89884338885,392.284837208,481.021518672,6.67959117676,229.885779957,103.800927151,-62.6914864934,-17.0667217627
368.36,423.60605503,112.32475949,-10.7394015934,391.812130186,480.122679944,6.67959117676,229.696506537,103.309897708,-62.6914864934,-17.0667217627
369.38,423.675964103,112.343707097,-10.5189024652,391.923491923,480.177328762,6.67959117676,229.693735691,103.357367423,-62.6914864934,-17.0667217627
370.4,423.803212354,112.465927163,-10.3461431064,392.019740798,480.200471935,6.67959117676,229.693735691,103.439633057,-62.6914864934,-17.0667217627
371.42,423.980536166,112.550018987,-10.0342207171,392.315673309,480.459970766,6.67959117676,229.693735691,103.650752141,-62.6428417076,-17.0667217627
372.44,425.400946276,113.732441123,-7.81340442551,393.786902046,481.015558945,6.67959117676,229.693735691,104.30205628,-62.558256526,-17.0667217627
373.46,425.742741394,114.778118047,-4.10664280861,397.308600918,482.035006861,6.67959117676,229.693735691,104.585673064,-62.4133475968,-17.0667217627
374.48,427.184293033,115.639108579,-2.81437683929,398.901176647,482.791850912,6.67959117676,229.693735691,105.170141095,-62.1986545747,-17.0667217627
375.5,427.256067913,115.654979655,-2.52754966264,399.188275995,482.87183801,6.68302975218,229.693735691,105.335244293,-62.1905732455,-17.0667217627
376.52,427.241644749,115.584379277,-2.65365252669,399.117705668,482.786839838,6.68302956508,229.693735691,105.298598158,-62.1905732455,-17.0667217627
377.54,426.98805486,115.329182723,-3.01260374407,398.987025402,482.555493299,6.68302956508,229.563237506,105.026463174,-62.1905732455,-17.0667217627
378.56,426.32170218,113.828379994,-5.49703817959,397.793526656,481.325236789,6.68302956508,229.352888951,104.386767487,-62.1905732455,-17.0667217627
379.58,425.436361619,112.077711222,-7.40165027614,397.083174358,480.900010466,6.68302956508,229.271709863,104.286040863,-62.1905732455,-17.0667217627
380.6,424.843759671,110.827662553,-9.05821522785,396.211318436,479.82152794,6.68302956508,228.893146115,103.578694782,-62.1905732455,-17.0667217627
381.62,424.529245665,110.435703554,-9.3374065818,396.179853928,479.680569972,6.68302956508,228.875543283,103.428098652,-62.1905732455,-17.0667217627
382.64,424.825983359,110.711662488,-8.75604409318,396.432243883,479.787192221,6.68302956508,228.875543283,103.602666796,-62.1905732455,-17.0667217627
383.66,424.988343521,110.807579977,-8.53520955928,396.580445613,479.917676583,6.68302956508,228.875543283,103.76019215,-62.1533452687,-17.0667217627
384.68,425.85960535,111.626108559,-6.5553238681,397.932945823,480.377654036,6.68302956508,228.875543283,104.459005694,-62.0184596006,-17.0667217627
385.7,426.482991644,112.559128024,-4.04265301639,400.491846387,481.42169773,6.68302956508,228.875543283,104.540503719,-61.9845219635,-17.0667217627
386.72,427.82864847,113.830751792,-2.09165459229,402.256470048,482.003902181,6.68302956508,228.875543283,105.171272276,-61.7124345,-17.0667217627
387.74,428.245360012,113.991768017,-1.42781095928,403.125334931,482.526580086,6.68621321364,228.875543283,105.443770927,-61.6717657261,-17.0667217627
388.76,428.182552864,113.875131051,-1.65694112323,403.000229278,482.363671583,6.68620152235,228.875543283,105.380743253,-61.6717657261,-17.0667217627
389.78,428.081065759,113.754493849,-1.83877444537,402.930394293,482.237397792,6.68620152235,228.809761913,105.268050239,-61.6717657261,-17.0667217627
390.8,427.634762101,112.821704407,-3.57518505521,402.26825007,481.542180254,6.68620152235,228.695775569,104.736048044,-61.6717657261,-17.0667217627
391.82,426.701009465,111.523737457,-4.96415569982,401.491102926,480.863918757,6.68620152235,228.665716272,104.713455733,-61.6717657261,-17.0667217627
392.84,426.210497059,110.076123523,-7.08817803538,400.588534214,480.110992886,6.68620152235,228.342328221,104.021104613,-61.6717657261,-17.0667217627
393.86,425.583542368,109.378028629,-7.50978683835,400.419794764,479.670616066,6.68620152235,228.251117186,103.808504129,-61.6717657261,-17.0667217627
394.88,425.776752279,109.559003538,-7.15870004271,400.553590968,479.758200355,6.68620152235,228.251117143,103.926165273,-61.6717657261,-17.0667217627
395.9,425.892659696,109.65061972,-7.04229635686,400.602555142,479.787754878,6.68620152235,228.251117143,104.027042146,-61.6685451506,-17.0667217627
396.92,426.46821604,110.204878012,-5.71186649727,401.771664941,480.321758571,6.68620152235,228.251117143,104.664755771,-61.494945775,-17.0667217627
397.94,427.765729245,111.432886748,-2.37896516892,404.601390941,481.446562808,6.68620152235,228.251117143,104.823968372,-61.3895301796,-17.0667217627
398.96,428.732856149,112.672934205,0.310834662624,407.03318968,481.95954132,6.68620152235,228.251117143,105.497984428,-61.1238658217,-17.0667217627
399.98,429.540192398,113.13042315,1.07806164177,408.274422246,482.799703863,6.69193270565,228.251117143,105.865922003,-61.0375858163,-17.0667217627
401.0,429.470587933,113.001076951,0.824350228075,408.129983237,482.629657773,6.69212392646,228.251117143,105.781457271,-61.0375857758,-17.0667217627
402.02,429.449463495,112.931789219,0.667154525202,408.037358436,482.499739363,6.69212392646,228.235505802,105.689718874,-61.0375857758,-17.0667217627
403.04,428.760072256,111.853030821,-0.699091096796,407.576582981,482.008233501,6.69212392646,227.976376431,105.110636764,-61.0375857758,-17.0667217627
404.06,427.972812723,110.362644128,-2.91822009092,406.421611316,480.542652904,6.69212392646,227.937810375,105.039788493,-61.0375857758,-17.0667217627
405.08,427.466216113,108.731669966,-5.32527279063,405.686825657,479.908224817,6.69212392646,227.70411786,104.373538538,-61.0375857758,-17.0667217627
406.1,426.602086957,107.844310625,-5.80548780057,405.363949653,479.208196902,6.69212392646,227.591812279,104.083673363,-61.0375857758,-17.0667217627
407.12,426.774266196,108.018042612,-5.49755111809,405.495212035,479.299634943,6.69212392646,227.591809506,104.170082219,-61.0375857758,-17.0667217627
408.14,426.885383579,108.126159122,-5.33325797249,405.550523826,479.305659195,6.69212392646,227.591809506,104.290778293,-61.03304797,-17.0667217627
409.16,427.137294465,108.352101775,-4.56969613116,406.24582263,479.719665249,6.69212392646,227.591809506,104.70137584,-60.9268221916,-17.0667217627
410.18,428.743895459,109.68744009,-2.19526345355,407.772128877,480.349530977,6.69212392646,227.591809506,105.070446775,-60.8660821568,-17.0667217627
411.2,429.468376514,110.942056126,1.36440784379,411.019554082,481.090041619,6.69212392646,227.591809506,105.685147797,-60.5282115741,-17.0667217627
412.22,430.670557974,111.656004577,2.19764128998,412.392964687,482.318551631,6.70001137813,227.591809506,106.02977682,-60.3514852527,-17.0667217627
413.24,430.688538401,111.644127405,2.44209545447,412.559791257,482.238055391,6.70816667995,227.591809506,106.123993987,-60.3428232199,-17.0667217627
414.26,430.67989789,111.637785988,2.41582241026,412.549978177,482.207791388,6.70816667994,227.591809506,106.108402531,-60.3428232199,-17.0667217627
415.28,430.319332079,111.105266499,1.80269340509,412.366457129,482.003469626,6.70816667994,227.407659903,105.671471621,-60.3428232199,-17.0667217627
416.3,429.560318151,110.056630575,-0.742273802502,410.92823043,480.365109779,6.70816667994,227.348081205,105.378247341,-60.3428232199,-17.0667217627
417.32,428.825696459,108.008917462,-2.99485882231,410.281879042,480.110499159,6.70816667994,227.12808194,105.054830574,-60.3428232199,-17.0667217627
418.34,427.913001176,106.863448626,-4.13255349521,409.593856281,479.053244983,6.70816667994,226.846227013,104.497578858,-60.3428232199,-17.0667217627
419.36,427.989091147,106.852310175,-3.99189000914,409.659478793,479.085942344,6.70816667994,226.84410353,104.539584887,-60.3428232199,-17.0667217627
420.38,428.145719253,106.996637263,-3.77665211854,409.76999314,479.107465834,6.70816667994,226.84410353,104.65327907,-60.3428232199,-17.0667217627
421.4,428.287748862,107.110906554,-3.46499790425,410.028621393,479.318840355,6.70816667994,226.84410353,104.877320546,-60.3116292802,-17.0667217627
422.42,429.56372665,108.167009886,-1.21905537972,411.291030977,479.855123205,6.70816667994,226.84410353,105.433866969,-60.2506011987,-17.0667217627
423.44,429.867752073,109.025790714,1.70563269673,413.799035484,480.825152891,6.70816667994,226.84410353,105.688915439,-60.1631567212,-17.0667217627
424.46,430.959773486,109.755629988,2.76169688939,414.826548424,481.471316397,6.70816667994,226.84410353,106.153045474,-59.9982266171,-17.0667217627
425.48,430.994571238,109.736776933,2.8608842371,414.940635166,481.530728443,6.70816667994,226.84410353,106.226469326,-59.9981083697,-17.0667217627
426.5,430.966263629,109.601170451,2.61894413047,414.809807407,481.367180968,6.70816667994,226.84410353,106.146170072,-59.9981083697,-17.0667217627
427.52,430.738767934,109.3044882,2.30488237801,414.681156118,481.141234526,6.70816667994,226.730060911,105.920670368,-59.9981083697,-17.0667217627
428.54,430.091035561,107.949715654,-0.130050132852,413.467194788,479.838828338,6.70816667994,226.598223819,105.451382529,-59.9981083697,-17.0667217627
429.56,429.107736978,106.094264631,-2.02768521038,412.886530316,479.420830761,6.70816667994,226.491988042,105.342338275,-59.9981083697,-17.0667217627
430.58,428.500135393,104.945065044,-3.51082215249,411.971726793,478.447772922,6.70816667994,226.218035765,104.676379052,-59.9981083697,-17.0667217627
431.6,428.16978449,104.60072999,-3.76733470095,411.952183709,478.272227016,6.70816667994,226.190399055,104.507032336,-59.9981083697,-17.0667217627
432.62,428.43715583,104.858803655,-3.08637065207,412.196757215,478.385979341,6.70816667994,226.190399055,104.706182701,-59.9981083697,-17.0667217627
433.64,428.578454646,104.95721671,-2.88822073706,412.300471303,478.47809858,6.70816667994,226.190399055,104.882049412,-59.9747928709,-17.0667217627
434.66,429.461764991,105.77796403,-0.930815948067,413.629382214,479.053375334,6.70816667994,226.190399055,105.54855247,-59.8306389414,-17.0667217627
435.68,430.157938076,106.662969659,1.84467953179,416.228434539,480.186050589,6.70816667994,226.190399055,105.599006325,-59.81131145,-17.0667217627
436.7,431.439538988,107.987055233,4.09365767316,418.147074965,480.882164495,6.70816667994,226.190399055,106.292068574,-59.5260360893,-17.0667217627
437.72,431.888796195,108.16673688,4.74498716655,418.936575054,481.428359433,6.71550747339,226.190399055,106.542903415,-59.4875896052,-17.0667217627
438.74,431.863583035,108.113523356,4.6557151795,418.887389747,481.361618443,6.71551944695,226.190399055,106.51474103,-59.4875896052,-17.0667217627
439.76,431.741458466,107.98302305,4.48701018339,418.798324705,481.204769408,6.71551944695,226.136273788,106.376101158,-59.4875896052,-17.0667217627
440.78,431.269008621,106.979298246,2.69604864799,418.106874741,480.540288842,6.71551944695,225.98355173,105.754371376,-59.4875896052,-17.0667217627
441.8,430.238976524,105.494489905,0.976436992162,417.189699145,479.569105888,6.71551944695,225.980954734,105.724598047,-59.4875896052,-17.0667217627
442.82,429.842155276,104.095985011,-1.08428323564,416.395711412,478.895744794,6.71551944695,225.762495563,105.015358716,-59.4875896052,-17.0667217627
443.84,429.29657717,103.535605879,-1.4083033815,416.252329552,478.487502888,6.71551944695,225.739871934,104.824437795,-59.4875896052,-17.0667217627
444.86,429.526778245,103.766927988,-0.873976628659,416.41819693,478.57968477,6.71551944695,225.739871934,104.977899291,-59.4875896052,-17.0667217627
445.88,429.610112158,103.830005393,-0.790737231546,416.440397786,478.598799636,6.71551944695,225.739871934,105.052613358,-59.484954147,-17.0667217627
446.9,429.979931799,104.208600635,0.388022108388,417.210053251,478.949459807,6.71551944695,225.739871934,105.6274041,-59.398513825,-17.0667217627
447.92,430.914424926,105.101004684,2.52931377646,418.769058404,479.778185127,6.71551944695,225.739871934,105.781308959,-59.3884388011,-17.0667217627
448.94,431.408349669,105.790458058,4.44281514725,420.021161004,480.043766178,6.71551944695,225.739871934,106.313066191,-59.3640929249,-17.0667217627
449.96,431.610435214,105.871279908,4.49758178659,420.208533039,480.284621391,6.71418445661,225.739871934,106.34437805,-59.3623607826,-17.0667217627
450.98,431.515933719,105.69226275,4.18345060008,420.004706907,480.06397126,6.71372832055,225.738290029,106.256070328,-59.3623607826,-17.0667217627
452.0,431.496754228,105.684284204,4.19310993643,420.000071935,480.022212336,6.71372832055,225.73411975,106.247166117,-59.3623607826,-17.0667217627
453.02,431.007235591,104.884938847,3.09647740974,419.700638248,479.679207741,6.71372832055,225.560343037,105.753427015,-59.3623607826,-17.0667217627
454.04,430.27732384,103.7389687,1.20282250943,418.643741902,478.505035302,6.71372832055,225.557224902,105.650236694,-59.3623607826,-17.0667217627
455.06,429.883829435,102.428782378,-0.704057575406,418.092458945,478.131411366,6.71372832055,225.433585557,105.128329658,-59.3623607826,-17.0667217627
456.08,429.277283129,101.805649415,-1.09952502122,417.854974142,477.618950523,6.71372832055,225.40466702,104.890929541,-59.3623607826,-17.0667217627
457.1,429.567615708,102.124740505,-0.419278612009,418.129487189,477.761793098,6.71372832055,225.40466702,105.05823996,-59.3623607826,-17.0667217627
458.12,429.655083495,102.209433272,-0.299462234234,418.159718294,477.770268287,6.71372832055,225.40466702,105.13995441,-59.3623607826,-17.0667217627
459.14,429.88519038,102.408024477,0.396250267749,418.768408494,478.163884583,6.71372832055,225.40466702,105.580714847,-59.2564581949,-17.0667217627
460.16,431.300658719,103.567421566,2.55524584342,419.924837729,478.710184166,6.71372832055,225.40466702,105.924581549,-59.2185668467,-17.0667217627
461.18,431.773792254,104.567994663,5.89785037827,422.859405981,479.491321406,6.71372832055,225.40466702,106.476286997,-59.0691834594,-17.0667217627
462.2,432.602181564,105.033095466,6.52516684185,423.690779145,480.281283476,6.71372832055,225.40466702,106.771342096,-59.008174701,-17.0667217627
463.22,432.537001464,104.935522455,6.33126463735,423.579825865,480.165922643,6.7138211616,225.40466702,106.715871488,-59.008095025,-17.0667217627
464.24,432.532457836,104.911510886,6.30734475938,423.5673604,480.139078666,6.71382116158,225.40466702,106.708941037,-59.008095025,-17.0667217627
465.26,432.172184899,104.494433353,5.79897184085,423.421050734,479.911433855,6.71382116158,225.301866083,106.372458714,-59.008095025,-17.0667217627
466.28,431.507978275,103.441800489,3.37176958213,422.158595683,478.453010429,6.71382116158,225.197421135,106.075623074,-59.008095025,-17.0667217627
467.3,430.840962471,101.771514781,1.39049678213,421.631578337,478.288941613,6.71382116158,225.114808938,105.781363651,-59.008095025,-17.0667217627
468.32,430.225920025,100.941049685,0.465046495623,421.043755005,477.377328919,6.71382116158,224.926822834,105.220597999,-59.008095025,-17.0667217627
469.34,430.276645291,100.959667376,0.614906997764,421.127240942,477.446090105,6.71382116158,224.926103767,105.236661657,-59.008095025,-17.0667217627
470.36,430.431947101,101.097295871,0.827509112481,421.249179921,477.470315975,6.71382116158,224.926103767,105.329764833,-59.008095025,-17.0667217627
471.38,430.560225626,101.180008288,1.09230363955,421.444102299,477.643001185,6.71382116158,224.926103767,105.532635541,-58.963543475,-17.0667217627
472.4,431.598154613,102.067486832,3.20270767935,422.578578309,478.155153328,6.71382116158,224.926103767,106.110806176,-58.9164055528,-17.0667217627
473.42,431.86775128,102.733071075,5.4114571482,424.447853558,478.929725173,6.71382116158,224.926103767,106.273389779,-58.9086259641,-17.0667217627
474.44,432.570474142,103.274945238,6.24373007171,425.042965185,479.292800301,6.71382116158,224.926103767,106.665958914,-58.8520250654,-17.0667217627
475.46,432.563587799,103.267255916,6.23997533184,425.058061844,479.304422239,6.71382116158,224.926103767,106.675268352,-58.8504437494,-17.0667217627
476.48,432.540300459,103.185929097,6.10988873716,424.978090558,479.215413025,6.71382116158,224.926103767,106.637802871,-58.8504437494,-17.0667217627
477.5,432.37394723,102.970986089,5.87528145519,424.893970676,479.066912053,6.71382116158,224.83909244,106.475555472,-58.8504437494,-17.0667217627
478.52,431.755870095,101.923805266,3.72838607642,423.90045901,478.004695015,6.71382116158,224.751197861,105.979989954,-58.8504437494,-17.0667217627
479.54,430.847925631,100.247990466,1.97323267858,423.356101138,477.628185163,6.71382116158,224.701380214,105.856439621,-58.8504437494,-17.0667217627
480.56,430.414706539,99.3935590755,0.693020828874,422.682049363,476.930132027,6.71382116158,224.570600162,105.309945487,-58.8504437494,-17.0667217627
481.58,430.177182659,99.2005355705,0.587823014174,422.681334946,476.814153617,6.71382116158,224.566743169,105.234219372,-58.8504437494,-17.0667217627
482.6,430.463771475,99.4667083299,1.12268704256,422.911154274,476.948326265,6.71382116158,224.566743169,105.404814106,-58.8504437494,-17.0667217627
483.62,430.570817697,99.5351870715,1.27085696577,422.995372567,477.031020983,6.71382116158,224.566743169,105.51655238,-58.8313341921,-17.0667217627
484.64,431.320580014,100.191051206,2.97464196931,424.089367724,477.428686294,6.71382116158,224.566743169,106.105732535,-58.7768705378,-17.0667217627
485.66,431.899239482,100.928956028,5.25341195614,425.996459523,478.537466614,6.71382116158,224.566743169,106.188013319,-58.7768702556,-17.0667217627
486.68,432.547499687,101.660273198,6.83849804949,426.915364884,478.864688243,6.71382116158,224.566743169,106.724168702,-58.7058965507,-17.0667217627
487.7,432.653961467,101.691431557,6.90297902113,427.049615325,478.9990865,6.71353114617,224.566743169,106.751448184,-58.7058951463,-17.0667217627
488.72,432.615792652,101.600018119,6.73460160019,426.959214909,478.882215919,6.7135339786,224.566743169,106.70460014,-58.7058951463,-17.0667217627
489.74,432.535646614,101.528471906,6.63853156448,426.917135005,478.786825778,6.7135339786,224.539838064,106.647097488,-58.7058951463,-17.0667217627
490.76,432.182857127,100.819534598,5.36291325062,426.419858263,478.195694433,6.7135339786,224.477622245,106.202968566,-58.7058951463,-17.0667217627
491.78,431.250670011,99.5849168579,3.89781220555,425.66302617,477.324286438,6.7135339786,224.477228726,106.189244475,-58.7058951463,-17.0667217627
492.8,430.856159337,98.3750987046,1.9357603918,424.93975658,476.731065376,6.7135339786,224.31773767,105.525642557,-58.7058951463,-17.0667217627
493.82,430.39203311,97.9573072149,1.68074665379,424.820327849,476.418463211,6.7135339786,224.30593917,105.366902033,-58.7058951463,-17.0667217627
494.84,430.567227224,98.1307596683,2.0626769568,424.967148698,476.49930559,6.7135339786,224.30593917,105.514866855,-58.7058951463,-17.0667217627
495.86,430.634258514,98.1800175797,2.12092701932,424.979016535,476.515375816,6.7135339786,224.30593917,105.576492486,-58.7036491305,-17.0667217627
496.88,430.985490824,98.4722416247,3.0338100784,425.58393789,476.801245674,6.7135339786,224.30593917,106.049723251,-58.6590439775,-17.0667217627
497.9,431.936182374,99.4533124775,5.11242010917,426.908321364,477.626809178,6.7135339786,224.30593917,106.18440026,-58.659042838,-17.0667217627
498.92,432.497068166,100.22543171,7.20667056037,428.304456573,477.985272577,6.7135339786,224.30593917,106.75133741,-58.581758762,-17.0667217627
499.94,432.784435862,100.38281322,7.37570259712,428.605240415,478.315889754,6.71394214108,224.30593917,106.839227496,-58.5787467972,-17.0667217627
500.96,432.713141943,100.258865021,7.12492467039,428.457542482,478.178322658,6.71394151651,224.30593917,106.770409161,-58.5787467973,-17.0667217627
501.98,432.701350966,100.251440825,7.10104173186,428.445573264,478.138522951,6.71394151651,224.299055913,106.745939984,-58.5787467973,-17.0667217627
503.0,432.32772029,99.6050067235,6.24379549002,428.219283206,477.876302189,6.71394151651,224.221595691,106.33069476,-58.5787467973,-17.0667217627
504.02,431.607754612,98.5306152407,4.4049855081,427.173866742,476.580243916,6.71394151651,224.210172153,106.234362854,-58.5787467973,-17.0667217627
505.04,431.142674128,97.213634405,2.53015721276,426.639815034,476.202419773,6.71394151651,224.123003355,105.732637686,-58.5787467973,-17.0667217627
506.06,430.726105545,96.8188426819,2.25649160377,426.437258246,475.874471745,6.71394151651,224.106149065,105.562632129,-58.5787467973,-17.0667217627
507.08,430.950984314,97.1006506061,2.85824173347,426.678045744,476.027181835,6.71394151651,224.106149106,105.718609194,-58.5787467973,-17.0667217627
508.1,431.023672872,97.1705922218,2.97889645165,426.722485446,476.036464911,6.71394151651,224.106149106,105.777642067,-58.5787467973,-17.0667217627
509.12,431.184009635,97.3017038158,3.56397126931,427.130305169,476.333141025,6.71394151651,224.106149106,106.165417174,-58.5270280834,-17.0667217627
510.14,432.245081665,98.2743789435,5.3010441731,428.023608341,476.889923531,6.71394151651,224.106149106,106.462835241,-58.5137618261,-17.0667217627
511.16,432.610554972,99.0509160336,7.9642681899,430.273858655,477.563417044,6.71394151651,224.106149106,106.885218892,-58.4634737416,-17.0667217627
512.18,433.128775297,99.331328153,8.34921599062,430.666690916,477.95247677,6.71394151651,224.106149106,107.070648965,-58.440070198,-17.0667217627
513.2,433.059152175,99.2248316316,8.08393225466,430.563938819,477.844539342,6.71269184165,224.10251838,106.986277753,-58.440070198,-17.0667217627
514.22,433.053007178,99.2142531119,8.10328921139,430.569153005,477.841761787,6.71269184164,224.102247688,107.007110848,-58.440070198,-17.0667217627
515.24,432.81255773,98.8844414764,7.6719985985,430.463729316,477.733426385,6.71269184164,224.02914143,106.704628459,-58.440070198,-17.0667217627
516.26,432.127208676,97.8145741163,5.5660594778,429.367169357,476.406185494,6.71269184164,224.002817147,106.359117763,-58.440070198,-17.0667217627
517.28,431.485335025,96.4024488002,4.00580157737,429.051376565,476.278857483,6.71269184164,223.985353297,106.130367208,-58.440070198,-17.0667217627
518.3,431.178546159,95.9614042063,3.43452187552,428.728040455,475.828164009,6.71269184164,223.956935148,105.813352358,-58.440070198,-17.0667217627
519.32,431.285705399,96.093183338,3.76439329106,428.838263673,475.90715489,6.71269184164,223.956934913,105.902079759,-58.440070198,-17.0667217627
520.34,431.388911203,96.1887115966,3.9411535273,428.930488123,475.930875452,6.71269184164,223.956934913,105.97415534,-58.440070198,-17.0667217627
521.36,431.478033102,96.2502979922,4.11157992256,429.061916878,476.079622955,6.71269184164,223.956934913,106.083092757,-58.4308361848,-17.0667217627
522.38,432.574902521,97.1919605819,6.0381747948,430.040693696,476.541077319,6.71269184164,223.956934913,106.618579878,-58.4124399671,-17.0667217627
523.4,432.85589508,97.8825246082,8.43259672107,432.105807472,477.43457966,6.71269184164,223.956934913,106.784857341,-58.4011370486,-17.0667217627
524.42,433.480976441,98.3942587632,9.31682068467,432.68113946,477.761587663,6.71269184164,223.956934913,107.159689013,-58.3379374892,-17.0667217627
525.44,433.472203427,98.354179764,9.22416735315,432.667302002,477.78239277,6.71269184164,223.956934913,107.131819988,-58.337890919,-17.0667217627
526.46,433.450892894,98.2696442375,9.09468204465,432.607342655,477.698630133,6.71269184164,223.956934913,107.123456314,-58.337890919,-17.0667217627
527.48,433.285571683,98.1030942062,8.87850566771,432.529259402,477.574731044,6.71269184164,223.914057334,106.977127302,-58.337890919,-17.0667217627
528.5,432.733210336,97.060754148,6.94128281604,431.655477897,476.614261032,6.71269184164,223.82363998,106.536206245,-58.337890919,-17.0667217627
529.52,431.976158735,95.7051776145,5.44471788924,431.18280746,476.249052554,6.71269184164,223.82218202,106.439700306,-58.337890919,-17.0667217627
530.54,431.692390756,95.163585859,4.40943985305,430.701870373,475.754909246,6.71269184164,223.768924579,106.025974685,-58.337890919,-17.0667217627
531.56,431.590425999,95.0881701335,4.40955516838,430.716504633,475.701085393,6.71269184164,223.768778912,106.000069489,-58.337890919,-17.0667217627
532.58,431.843483648,95.3451110474,4.91763002064,430.929617864,475.803336824,6.71269184164,223.768778912,106.141984018,-58.337890919,-17.0667217627
533.6,431.894615954,95.3800628883,4.97960369733,430.965144228,475.850262084,6.71269184164,223.769253688,106.17984096,-58.3335888394,-17.0667217627
534.62,432.418908681,95.8969315191,6.39707389073,431.722458052,476.174005556,6.71269184164,223.769253688,106.732348884,-58.2840980169,-17.0667217627
535.64,432.926343053,96.5589431795,8.47628295393,433.478948784,477.126564117,6.71269184164,223.769253688,106.802339223,-58.2840977323,-17.0667217627
536.66,433.358887841,97.1139133623,9.67899411304,434.085528456,477.320210019,6.71269184164,223.769253688,107.195049663,-58.2671600173,-17.0667217627
537.68,433.420688943,97.1163559329,9.64484189811,434.138223003,477.389821041,6.71171855298,223.769253688,107.18093898,-58.2671589449,-17.0667217627
538.7,433.354756119,97.0102185115,9.43361068107,434.01835374,477.260554103,6.7116516961,223.769253688,107.125489019,-58.2671589449,-17.0667217627
539.72,433.280214723,96.9249210739,9.33192733753,433.964166173,477.157813264,6.7116516961,223.731828712,107.024486018,-58.2671589449,-17.0667217627
540.74,432.909414473,96.2046479452,8.03072306042,433.474322495,476.613370862,6.7116516961,223.672316549,106.610264609,-58.2671589449,-17.0667217627
541.76,432.012549394,95.0737129541,6.37394591863,432.730903717,475.722338892,6.7116516961,223.672315618,106.597320144,-58.2671589449,-17.0667217627
542.78,431.7492924,94.277087632,4.76039872689,432.154091411,475.222768107,6.7116516961,223.603890171,106.078212164,-58.2671589449,-17.0667217627
543.8,431.449977701,94.0100453581,4.63910924186,432.070594877,474.982246513,6.7116516961,223.598253324,105.989322199,-58.2671589449,-17.0667217627
544.82,431.710140991,94.2856923598,5.16486042912,432.282667515,475.124504965,6.7116516961,223.598253324,106.165555593,-58.2671589449,-17.0667217627
545.84,431.773950055,94.3418829909,5.24758192578,432.295742956,475.138037488,6.7116516961,223.598253324,106.23005339,-58.2661569114,-17.0667217627
546.86,432.018951634,94.5703701149,6.18043877011,432.892303769,475.44044118,6.7116516961,223.598253324,106.662456091,-58.2065260009,-17.0667217627
547.88,432.929585621,95.4149257012,8.43693735499,434.546280783,476.267038347,6.7116516961,223.598253324,106.780472687,-58.194182418,-17.0667217627
548.9,433.366374294,96.070249643,10.3553200145,435.757829479,476.604789788,6.7116516961,223.598253324,107.205252878,-58.1502788697,-17.0667217627
549.92,433.585305116,96.1771593299,10.4575159964,435.927749676,476.838758711,6.71148342326,223.598253324,107.241571357,-58.147307902,-17.0667217627
550.94,433.516755761,96.0399360765,10.2099709831,435.782810224,476.673013346,6.71148234077,223.598253324,107.164888054,-58.147307902,-17.0667217627
551.96,433.509289227,96.0307025863,10.1949989557,435.76001002,476.625348072,6.71148234077,223.596220457,107.142307958,-58.147307902,-17.0667217627
552.98,433.128022839,95.4544636765,9.40689399084,435.528612079,476.361361259,6.71148234077,223.516563103,106.7253083,-58.147307902,-17.0667217627
554.0,432.437995029,94.3180440446,7.38499540386,434.4253902,475.051496402,6.71148234077,223.514092681,106.599939979,-58.147307902,-17.0667217627
555.02,432.065021428,93.3455242701,6.06389730806,434.142937126,474.841006675,6.71148234077,223.501572265,106.299525201,-58.147307902,-17.0667217627
556.04,431.925682229,93.2280671549,5.97075463055,434.062393246,474.693606216,6.71148234077,223.497247188,106.233794644,-58.147307902,-17.0667217627
557.06,432.149591475,93.4949910948,6.48705585925,434.281995166,474.837454863,6.71148234077,223.497247188,106.35855431,-58.147307902,-17.0667217627
558.08,432.178584338,93.5251484674,6.5266320072,434.296340389,474.841667337,6.71148234077,223.497247188,106.382543635,-58.147307902,-17.0667217627
559.1,432.263473471,93.633578171,6.9319635854,434.560192861,475.040600407,6.71148234077,223.497247188,106.611648791,-58.1349163614,-17.0667217627
560.12,433.285360781,94.4708260395,8.57204675461,435.391240438,475.555258556,6.71148234077,223.497247188,106.926810142,-58.1348819882,-17.0667217627
561.14,433.520899318,95.0454325828,10.8119573885,437.128278664,476.208795877,6.71148234077,223.497247188,107.190514125,-58.1176106995,-17.0667217627
562.16,433.794570925,95.2438160141,11.0560973566,437.347598978,476.392175981,6.71148234077,223.497247188,107.336452453,-58.1121386343,-17.0667217627
563.18,433.729001129,95.1264604671,10.8057155662,437.216474919,476.285523151,6.71148234077,223.497247188,107.238977687,-58.1121386343,-17.0667217627
564.2,433.723912607,95.0962119351,10.774867714,437.192893344,476.244848201,6.71148234077,223.497247188,107.232630131,-58.1121386343,-17.0667217627
565.22,433.531481083,94.8356371165,10.42465641,437.091829116,476.107240185,6.71148234077,223.442720894,106.99015243,-58.1121386343,-17.0667217627
566.24,432.886345834,93.8961350717,8.27646217347,435.886563695,474.716574395,6.71148234077,223.400990178,106.70631812,-58.1121386343,-17.0667217627
567.26,432.273985768,92.5654127897,6.83527548509,435.498039526,474.583321502,6.71148234077,223.390184186,106.499492657,-58.1121386343,-17.0667217627
568.28,432.007085251,92.2242452331,6.33779840166,435.204934803,474.154872748,6.71148234077,223.362063622,106.213912997,-58.1121386343,-17.0667217627
569.3,432.097104617,92.3483965488,6.57832768959,435.29969428,474.238235255,6.71148234077,223.362063417,106.283973776,-58.1121386343,-17.0667217627
570.32,432.211958246,92.4600647177,6.76325279217,435.402694041,474.258883436,6.71148234077,223.362063417,106.34843183,-58.1121386343,-17.0667217627
571.34,432.286251273,92.5108123445,6.93916318197,435.521923096,474.370027777,6.71148234077,223.362063417,106.496417721,-58.088155428,-17.0667217627
572.36,433.245025348,93.3054437999,8.60209788545,436.298478363,474.783004656,6.71148234077,223.362063417,106.957706301,-58.073904676,-17.0667217627
573.38,433.523514207,93.9577507448,10.9851700458,438.348726719,475.541490802,6.71148234077,223.362063417,107.053738781,-58.0739046747,-17.0667217627
574.4,434.035980135,94.3836614616,11.7343901992,438.809054278,475.724328852,6.71148234077,223.362063417,107.377884436,-58.0543555761,-17.0667217627
575.42,434.016418688,94.3456991345,11.6501233748,438.774913557,475.71491953,6.71116017162,223.362063417,107.34941865,-58.054355576,-17.0667217627
576.44,433.993609023,94.2669540444,11.547266235,438.71929064,475.630701107,6.7111601716,223.362063417,107.334150604,-58.054355576,-17.0667217627
577.46,433.847758667,94.1329874193,11.3662238511,438.653208533,475.510808395,6.7111601716,223.297784046,107.204121316,-58.054355576,-17.0667217627
578.48,433.29924434,93.1862519712,9.33181156597,437.68913413,474.361318413,6.7111601716,223.222950196,106.742696876,-58.054355576,-17.0667217627
579.5,432.353438714,91.9010916536,7.9362899281,437.104788275,473.903032657,6.7111601716,223.221260763,106.68157411,-58.054355576,-17.0667217627
580.52,432.067688744,91.2178555338,6.78120065752,436.572688768,473.36524694,6.7111601716,223.184847981,106.225385522,-58.054355576,-17.0667217627
581.54,431.931762221,91.0891114786,6.71563576123,436.558935845,473.26592928,6.7111601716,223.18484649,106.170324768,-58.054355576,-17.0667217627
582.56,432.066450317,91.2230883199,6.94085477795,436.662501469,473.324607943,6.7111601716,223.18484649,106.249011935,-58.054355576,-17.0667217627
583.58,432.12629232,91.2592547413,7.00636171008,436.708641709,473.382523907,6.7111601716,223.185308234,106.295738478,-58.048147802,-17.0667217627
584.6,432.691429099,91.7781019848,8.49100697894,437.515174372,473.748630096,6.7111601716,223.185308274,106.859304168,-58.0211312859,-17.0667217627
585.62,433.298303006,92.5655647151,11.0205681583,439.692203765,474.864654278,6.7111601716,223.185308274,106.933730099,-58.0211312558,-17.0667217627
586.64,433.905617642,93.2946423825,12.6656133116,440.665478327,475.109383313,6.7111601716,223.185308274,107.442673982,-57.9726528363,-17.0667217627
587.66,434.01967016,93.3341886873,12.69507095,440.775328483,475.247268326,6.7111601716,223.185308274,107.466341491,-57.9705321577,-17.0667217627
588.68,433.956684419,93.2092233507,12.4442062921,440.626452565,475.063322104,6.7111601716,223.182664973,107.404326002,-57.9705321577,-17.0667217627
589.7,433.901457427,93.1482690806,12.4098737772,440.610476471,474.999121794,6.7111601716,223.153655919,107.340244552,-57.9705321577,-17.0667217627
590.72,433.525738271,92.520319511,11.214134305,440.1746072,474.47267452,6.7111601716,223.098364063,106.915080973,-57.9705321577,-17.0667217627
591.74,432.642429818,91.3850614723,9.61310932124,439.380806389,473.482804064,6.7111601716,223.098355054,106.88581399,-57.9705321577,-17.0667217627
592.76,432.377171993,90.6987084857,8.30042236943,438.973962575,473.178039499,6.7111601716,223.07704185,106.545359055,-57.9705321577,-17.0667217627
593.78,432.229240033,90.6059902017,8.29875328005,438.944251152,473.06479375,6.7111601716,223.076291392,106.534375047,-57.9705321577,-17.0667217627
594.8,432.557511738,90.9090482261,8.9212910904,439.195959251,473.222419315,6.7111601716,223.076291392,106.724300023,-57.9705321577,-17.0667217627
595.82,432.570720544,90.9202651333,8.93630689291,439.196310668,473.226865887,6.7111601716,223.077224392,106.741163234,-57.9705321577,-17.0667217627
596.84,432.754870216,91.1099975877,9.59477086681,439.59053171,473.472247484,6.7111601716,223.077385174,107.059509087,-57.9497953354,-17.0667217627
597.86,433.602081129,91.8447620298,11.4418845798,440.737935626,474.154051319,6.7111601716,223.077385174,107.243851601,-57.9497835107,-17.0667217627
598.88,433.950169807,92.3944312756,13.1524524473,441.857007595,474.528010363,6.7111601716,223.077385174,107.596740459,-57.9189592195,-17.0667217627
599.9,434.109885666,92.4878109417,13.1531985993,441.975950944,474.688523664,6.7111601716,223.077385174,107.614171668,-57.9162467453,-17.0667217627
600.92,434.047695488,92.3605562001,12.9221054301,441.817748858,474.51943388,6.71119324701,223.077385174,107.545907934,-57.9162467453,-17.0667217627
601.94,434.034226194,92.347453612,12.8902456477,441.800396131,474.4777195,6.711193247,223.076475254,107.514558381,-57.9162467453,-17.0667217627
602.96,433.693105071,91.8501009149,12.1904138876,441.59049257,474.285752682,6.711193247,223.014505979,107.165482037,-57.9162467453,-17.0667217627
603.98,432.883549094,90.7729616131,10.0803835758,440.346249445,472.861230634,6.711193247,223.008193734,107.008918314,-57.9162467453,-17.0667217627
605.0,432.356887341,89.558728927,8.49763752588,439.969401903,472.631071016,6.711193247,222.983488289,106.671930861,-57.9162467453,-17.0667217627
606.02,432.156519669,89.3847849737,8.3410008646,439.848013115,472.423451993,6.711193247,222.972757535,106.564363716,-57.9162467453,-17.0667217627
607.04,432.449041787,89.7104901884,8.91980628727,440.144262867,472.589199855,6.711193247,222.972757535,106.729680517,-57.9162467453,-17.0667217627
608.06,432.471611044,89.7352297245,8.95642046098,440.1663275,472.593456569,6.711193247,222.972757535,106.744149728,-57.9162467453,-17.0667217627
609.08,432.560905072,89.8338454542,9.30775899519,440.38549052,472.770321855,6.711193247,222.974700206,106.995043073,-57.9010379361,-17.0667217627
610.1,433.428355656,90.5083843777,10.8563841755,441.00595991,473.154931815,6.711193247,222.974700206,107.233784586,-57.8970050633,-17.0667217627
611.12,433.62890793,91.0337640124,12.653424846,442.421980679,473.781155814,6.711193247,222.974700206,107.476934811,-57.8926192539,-17.0667217627
612.14,433.766968238,91.1573155101,12.8209270086,442.526527211,473.847148572,6.711193247,222.974700206,107.574277025,-57.8881887234,-17.0667217627
613.16,433.731593736,91.0929792349,12.6654740924,442.447287152,473.773600693,6.71183558836,222.974700206,107.526576009,-57.8881887234,-17.0667217627
614.18,433.72753851,91.0739694508,12.6723539439,442.443263265,473.75452609,6.71183558684,222.974700206,107.532500994,-57.8881887234,-17.0667217627
615.2,433.501645797,90.7776405989,12.3369812288,442.351004274,473.633239249,6.71183558684,222.909127135,107.305958287,-57.8881887234,-17.0667217627
616.22,432.838502597,89.7728690061,10.1066249802,441.132082228,472.039613447,6.71183558684,222.890787432,107.014015402,-57.8881887234,-17.0667217627
617.24,432.113936811,88.4578457232,8.6639273548,440.776188996,471.932247627,6.71183558684,222.886732434,106.854859584,-57.8881887234,-17.0667217627
618.26,431.928892073,88.2172823867,8.23093275283,440.548302741,471.639189939,6.71183558684,222.875478112,106.627399773,-57.8881887234,-17.0667217627
619.28,431.99274756,88.3222260477,8.47208419296,440.628396212,471.700678759,6.71183558684,222.875478112,106.707909542,-57.8881887234,-17.0667217627
620.3,432.073990735,88.3885327236,8.60572082681,440.718638005,471.716418096,6.71183558684,222.875478112,106.737003084,-57.8881887234,-17.0667217627
621.32,432.132054529,88.4225463436,8.77262770303,440.866150692,471.856015992,6.71183558684,222.875691655,106.866116524,-57.8640502758,-17.0667217627
622.34,433.052252608,89.2602210524,10.5866505535,441.719470948,472.369673255,6.71183558684,222.875691655,107.496579004,-57.8408206141,-17.0667217627
623.36,433.340992371,89.9989858696,13.1478914087,444.257613439,473.705200925,6.71183558684,222.875691655,107.63134046,-57.8404075437,-17.0667217627
624.38,434.118370287,90.6162550465,14.2439346224,445.010070641,474.066947527,6.71183558684,222.875691655,108.110019321,-57.7884160133,-17.0667217627
625.4,434.152041082,90.6269617878,14.2889939109,445.075131104,474.120237212,6.71183558684,222.875691655,108.138109272,-57.7884160116,-17.0667217627
626.42,434.117647912,90.5355690996,14.142816045,444.995290197,474.016174312,6.71183558684,222.875691655,108.099084242,-57.7884160116,-17.0667217627
627.44,433.968210143,90.3723369641,13.9250391639,444.904481447,473.867474682,6.71183558684,222.811146426,107.936498693,-57.7884160116,-17.0667217627
628.46,433.447145279,89.1614092152,11.8179689711,443.904843833,472.723949702,6.71183558684,222.722575924,107.412463044,-57.7884160116,-17.0667217627
629.48,432.602729882,87.9536862563,10.5784393068,443.376989071,472.250136208,6.71183558684,222.722575184,107.364157879,-57.7884160116,-17.0667217627
630.5,432.472825913,87.5984403017,9.82263118892,443.079771089,472.021034946,6.71183558684,222.711215519,107.112635156,-57.7884160116,-17.0667217627
631.52,432.432917088,87.6149407008,9.93263232828,443.115977266,472.021530102,6.71183558684,222.711215517,107.143950227,-57.7884160116,-17.0667217627
632.54,432.672353616,87.8592379788,10.270759982,443.292791372,472.128811547,6.71183558684,222.711215517,107.244872881,-57.785478946,-17.0667217627
633.56,432.728591112,87.9010364481,10.3513186679,443.341125013,472.177209753,6.71183558684,222.711215517,107.306068848,-57.7730447368,-17.0667217627
634.58,433.229431205,88.3430368774,11.6274468423,444.062863915,472.538482076,6.71183558684,222.711215517,107.837909049,-57.7310578126,-17.0667217627
635.6,433.814972453,89.1109521919,13.9333664351,446.106615385,474.041957993,6.71183558684,222.711215517,107.911872644,-57.7310562739,-17.0667217627
636.62,434.366786593,89.8119690994,15.5548104399,447.00798657,474.337016425,6.71183558684,222.711215517,108.403635206,-57.6998759825,-17.0667217627
637.64,434.477789116,89.859388842,15.604209082,447.115804969,474.456290449,6.71220819392,222.711215517,108.436698417,-57.6981726991,-17.0667217627
638.66,434.442915697,89.793506723,15.4696126988,447.040239042,474.365370096,6.71233040423,222.711215517,108.403157857,-57.6981726991,-17.0667217627
639.68,434.392927303,89.7338781113,15.3972097076,447.000292112,474.263003652,6.71233040423,222.688557648,108.347686653,-57.6981726991,-17.0667217627
640.7,434.011079063,88.9853231044,14.1654006897,446.492324018,473.757373011,6.71233040423,222.631022928,107.90367959,-57.6981726991,-17.0667217627
641.72,433.067591654,87.8362356731,12.4960974351,445.515180309,472.800550409,6.71233040423,222.630944917,107.863873156,-57.6981726991,-17.0667217627
642.74,432.847614924,87.2432096168,11.2950621805,445.139102859,472.570661225,6.71233040423,222.6205649,107.540760276,-57.6981726991,-17.0667217627
643.76,432.738708591,87.181206851,11.2938996373,445.107600708,472.475887463,6.71233040423,222.620563941,107.517823564,-57.6981726991,-17.0667217627
644.78,432.9460307,87.3715957005,11.6260022625,445.252256513,472.581200835,6.71233040423,222.620563941,107.617666811,-57.6981726991,-17.0667217627
645.8,432.909555794,87.3374702349,11.5772678086,445.246965204,472.577080502,6.71233040423,222.620368093,107.584342822,-57.6981726991,-17.0667217627
646.82,433.082748278,87.5136575086,12.0634609126,445.502462851,472.75310438,6.71233040423,222.621192133,107.820425661,-57.697403593,-17.0667217627
647.84,433.897665026,88.3527443754,13.7962561077,446.573592545,473.708407808,6.71233040423,222.621192133,107.929034758,-57.697403593,-17.0667217627
648.86,434.2444289,88.9621299071,15.8096233837,448.031651374,474.369650499,6.71233040423,222.621192133,108.262243787,-57.6774028542,-17.0667217627
649.88,434.343709877,89.0176875651,15.7875072624,448.090452837,474.466943147,6.71233040423,222.621192133,108.261125903,-57.6741162554,-17.0667217627
650.9,434.284803049,88.9056209187,15.5367312081,447.954306735,474.33043433,6.71198572471,222.621192133,108.191967309,-57.6741162555,-17.0667217627
651.92,434.274478484,88.8851644005,15.4451107015,447.895488042,474.239104169,6.71198572471,222.616154612,108.123864634,-57.6741162555,-17.0667217627
652.94,433.919549618,88.3006346629,14.7009914776,447.672146221,473.989184144,6.71198572471,222.539527421,107.718694079,-57.6741162555,-17.0667217627
653.96,433.07049429,87.1886666106,12.4929319658,446.39668,472.368932425,6.71198572471,222.519164195,107.566072615,-57.6741162555,-17.0667217627
654.98,432.59496739,86.1868447267,11.1651632945,446.098368443,472.189270749,6.71198572471,222.515940273,107.322134637,-57.6741162555,-17.0667217627
656.0,432.499343154,86.0983242634,11.0618079667,446.020016688,472.071761858,6.71198572471,222.514833763,107.250481283,-57.6741162555,-17.0667217627
657.02,432.7451709,86.3696817895,11.5108781757,446.211968764,472.237383224,6.71198572471,222.514833763,107.386868881,-57.6741162555,-17.0667217627
658.04,432.811719342,86.4343005158,11.609276924,446.254062684,472.241599236,6.71198572471,222.514833763,107.425747373,-57.6741162555,-17.0667217627
659.06,432.930576906,86.5483816287,11.9726020848,446.522373972,472.499643264,6.71198572471,222.518252531,107.676724142,-57.6468867101,-17.0667217627
660.08,434.09077628,87.5775552254,13.7362296643,447.313209992,473.246284448,6.71198572471,222.518252572,107.970794042,-57.6401254982,-17.0667217627
661.1,434.351579191,88.4948283194,17.0267926373,450.450488099,474.934892092,6.71198572471,222.518252572,108.364857334,-57.6101463396,-17.0667217627
662.12,435.104044505,88.933553992,17.7228240956,451.080661568,475.512131544,6.71198572471,222.518252572,108.718288982,-57.5447092676,-17.0667217627
663.14,435.064591435,88.8904959401,17.6434955846,451.044331815,475.456539457,6.71198572471,222.518252572,108.708165373,-57.5447081041,-17.0667217627
664.16,435.060516501,88.8812833529,17.6754621563,451.06840522,475.461860194,6.71198572471,222.518252572,108.72169286,-57.5447081041,-17.0667217627
665.18,434.780583719,88.5543118183,17.3165012125,450.945275663,475.282762156,6.71198572471,222.442508944,108.479168881,-57.5447081041,-17.0667217627
666.2,433.990244739,87.1738379755,14.4199987878,449.188587616,473.0211657,6.71198572471,222.391329125,108.038883926,-57.5447081041,-17.0667217627
667.22,433.179986136,85.7305211891,12.8901541214,448.813604925,472.934701667,6.71198572471,222.391329125,107.863151992,-57.5447081041,-17.0667217627
668.24,433.090289139,85.5578925696,12.5104717946,448.602627748,472.703205646,6.71198572471,222.381037935,107.670341836,-57.5447081041,-17.0667217627
669.26,433.175390556,85.6835950774,12.7667063263,448.699786933,472.844478896,6.71198572471,222.381037935,107.734094555,-57.5447081041,-17.0667217627
670.28,433.254517359,85.7407945781,12.8816174836,448.770562717,472.869604745,6.71198572471,222.381037935,107.765960963,-57.5447081041,-17.0667217627
671.3,433.282956833,85.7720049882,12.9657459195,448.859083572,472.978886594,6.71198572471,222.382275324,107.817983992,-57.5447081041,-17.0667217627
672.32,434.173820457,86.5877869514,14.590630215,449.601066303,473.546945099,6.71198572471,222.382275331,108.270850964,-57.5447081041,-17.0667217627
673.34,434.570728854,87.401339358,17.8081147038,452.482756161,475.365205672,6.71198572471,222.382275331,108.427521703,-57.5447081041,-17.0667217627
674.36,435.198069399,87.9561716873,18.8746366226,453.123099488,475.65512115,6.71198572471,222.382275331,108.855858239,-57.5050194709,-17.0667217627
675.38,435.180506735,87.9262908685,18.8046781235,453.097953289,475.680695527,6.71198572471,222.382275331,108.841005865,-57.5050194662,-17.0667217627
676.4,435.093785021,87.7638999023,18.5148370574,452.935616483,475.502764064,6.71198572471,222.378860485,108.777542101,-57.5050194662,-17.0667217627
677.42,434.965382068,87.5796463265,18.2975832961,452.845344032,475.355562862,6.71198572471,222.322376165,108.613483375,-57.5050194662,-17.0667217627
678.44,434.251398987,86.3363056988,15.628184514,451.069467169,473.132780266,6.71198572471,222.237359698,108.120186169,-57.5050194662,-17.0667217627
679.46,433.062750603,84.5205620594,13.7087861902,450.391597526,472.540706667,6.71198572471,222.237293698,108.09230008,-57.5050194662,-17.0667217627
680.48,432.817309328,83.8474214076,12.3494182887,449.747437721,472.059244652,6.71198572471,222.213143771,107.654766245,-57.5050194662,-17.0667217627
681.5,432.711297594,83.7969072155,12.3703565633,449.750937622,471.982604962,6.71198572471,222.213096254,107.645759074,-57.5050194662,-17.0667217627
682.52,432.976250307,84.0409403396,12.7501191588,449.991604474,472.181240821,6.71198572471,222.213096254,107.755407553,-57.5050194662,-17.0667217627
683.54,432.977874058,84.0364272203,12.7388659409,450.005706423,472.203624729,6.71198572471,222.213096254,107.752259049,-57.5028812932,-17.0667217627
684.56,433.587239095,84.5689445356,14.1638562337,450.96318507,472.773130254,6.71198572471,222.213096254,108.269810152,-57.4718620461,-17.0667217627
685.58,434.396950878,85.5734625543,16.8826976192,453.519753839,474.773182215,6.71198572471,222.213096254,108.362952578,-57.4718604849,-17.0667217627
686.6,434.981827877,86.3402171563,18.8725184216,454.856160664,475.267468065,6.71198572471,222.213096254,108.943302396,-57.419853703,-17.0667217627
687.62,435.079477274,86.3666984016,18.821899206,454.947741758,475.390019304,6.71198572471,222.213096254,108.95358416,-57.4197160936,-17.0667217627
688.64,434.902680771,86.0785020893,18.2012717733,454.643908241,475.053175184,6.71198572471,222.208235019,108.795531251,-57.4197160936,-17.0667217627
689.66,434.837082469,86.0196523134,18.0885356733,454.586653574,474.927206,6.71198572471,222.18180506,108.710329521,-57.4197160936,-17.0667217627
690.68,434.306299935,84.9728901461,16.0475422306,453.323130394,473.560384576,6.71198572471,222.049591122,107.997151787,-57.4197160936,-17.0667217627
691.7,432.85806851,83.1720241927,13.5409757219,451.756689009,471.675983753,6.71198572471,222.037705678,107.931010714,-57.4197160936,-17.0667217627
692.72,432.298292657,81.466246934,11.038990043,450.798869705,471.031924077,6.71198572471,221.94198923,107.314718865,-57.4197160936,-17.0667217627
