time,0,1,2,3,4,5,6,7,8,9,10,11,12,13,14,15,16,17,18,19,20,21,22,23,24,25,26,27,28,29,30,31,32,33,34,35,36,37,38,39,Simulation_reset
0.0,413.314065058,116.644731909,461.724185199,264.376538061,-32.3789275251,197.447889484,402.785358671,439.990646206,176.130098756,-31.2868082896,-146.526440885,-193.147649989
1.0,413.314065058,116.644731909,461.724185199,264.376538061,-32.3789275251,197.447889484,402.785358671,439.990646206,176.130098756,-31.2868082896,-146.526440885,-193.147649989
2.0,413.314065058,116.644731909,461.724185199,264.376538061,-32.3789275251,197.447889484,402.785358671,439.990646206,176.130098756,-31.2868082896,-146.526440885,-193.147649989
3.0,394.268121047,104.563173128,459.055649006,259.700143703,-46.2376703269,190.119964147,396.51138148,439.990646206,173.642140881,-32.6554640255,-146.526440885,-193.147649989
4.0,369.802512676,85.2029665075,451.980127063,251.829820903,-52.6171139857,182.713742982,388.309832212,438.254718607,164.778256512,-33.0063643815,-147.353269339,-197.583643238
5.02,349.11556646,67.7751361605,436.879829023,242.905985212,-56.2109377946,175.266975625,379.961783187,426.095074536,160.22500056,-33.0065565337,-147.627321258,-199.606969749
6.04,349.822674878,68.4924856538,437.108427277,243.114782493,-56.1338887404,175.53025702,380.358119249,426.640453738,160.350203884,-33.0065565347,-147.627322988,-199.606994054
7.06,343.239427253,59.5373279649,434.581366334,237.944882279,-58.9940149817,173.985997582,378.408368061,425.729910423,158.852844786,-33.0065565347,-147.627322988,-199.606994055
8.08,331.89789099,43.2791847046,430.880381724,231.07021523,-72.7238425837,167.546715053,372.546275767,425.728067989,158.700847153,-33.5837214361,-147.818641537,-199.606994055
9.1,325.183188117,31.5661583011,428.263062176,228.055792599,-77.6882761687,159.141732058,367.871025134,425.728067912,158.700840685,-34.0315756636,-154.016166901,-205.222746427
10.12,322.28010761,27.8792990647,425.835473407,226.223522485,-78.5607044691,158.517699415,366.562438139,425.728067912,158.700840685,-34.0316059084,-154.298690863,-206.91484761
11.14,322.280076502,27.8792620367,425.835443492,226.223503871,-78.5607103767,158.517697231,366.562422243,425.728067912,158.700840685,-34.0316059084,-154.298691097,-206.914866817
12.16,320.462050296,25.7718286127,425.29825341,225.304331076,-80.2393572617,157.360636017,366.253768487,425.728067912,158.700840685,-34.4087711875,-154.341461937,-206.914866868
13.18,326.987914854,35.0465380941,428.818971802,228.217785162,-76.9998423106,162.935151018,369.735146078,426.429826989,158.700840685,-32.3524080197,-152.785360809,-206.914866868
14.2,338.260872998,46.4317409023,432.786875494,231.439046352,-74.4359455484,177.42986078,385.547105585,428.026634939,158.700840685,-32.3486107194,-147.536690618,-205.030007742
15.22,343.030691337,50.3423060298,433.838563932,231.68597176,-71.3748608914,182.1443972,388.124826145,428.027591945,158.700840685,-30.566631651,-145.430612003,-204.985717131
16.24,362.46204433,69.0671259618,439.256583343,241.832568611,-58.4072272906,185.33167312,392.094892285,428.027591999,159.95562344,-23.6365433689,-145.382523742,-204.98571461
17.26,405.75029611,107.514430481,445.968398001,271.660270994,-33.7554221709,202.488315223,411.912774057,428.027591999,161.010026708,-22.559076302,-145.382520552,-204.98571461
18.28,480.52014107,199.399786441,459.442832328,339.621673321,4.60536732973,219.875901577,422.954585759,428.027591999,188.406323389,-19.3015964385,-145.382520552,-204.98571461
19.3,543.620288981,286.168002018,485.734113672,380.69282852,51.6456387923,241.551495313,444.571268752,428.027591999,202.161060857,-4.96818420747,-145.382520552,-204.98571461
20.32,582.550321121,325.034539332,495.188755486,394.436845657,96.2069141327,276.922666978,453.534788266,428.027591999,202.162522156,-1.5885035327,-142.862926139,-204.98571461
21.34,593.613172671,336.075666713,500.145010128,398.434295086,103.693485883,285.282360788,454.580324964,428.027591999,202.162522181,-1.40458787386,-139.59879454,-204.98571461
22.36,592.103503535,335.477976785,500.481301295,398.669220326,102.731093938,283.185243963,453.359182926,428.027591999,202.162522181,-2.00071993328,-141.564046976,-205.020501275
23.38,558.99712081,313.52476286,490.304279948,389.097922767,74.0370809025,258.988485559,447.10218475,428.027591999,202.162522181,-3.56207285833,-145.204665791,-205.021704219
24.4,507.043958456,272.411647093,484.260878385,356.224935638,30.3819321336,246.938366393,433.080799899,428.027591999,200.930387863,-6.82980046108,-145.208377313,-205.021704321
25.42,474.259521116,240.476638578,470.564765291,340.561636111,14.1341513403,236.385914596,418.195297587,428.027591999,195.71659736,-11.3104040689,-145.208377474,-205.021704321
26.44,448.252821727,213.88350379,466.255356922,324.056944244,-5.81489614576,229.216294763,414.904721385,428.027591999,188.505838263,-12.8688563968,-145.208377474,-205.021704321
27.46,415.203980189,173.718092938,464.502230504,304.91021933,-32.2980392759,219.323224004,401.580997134,428.027591999,179.666738839,-23.2227678594,-145.208377474,-205.021704321
28.48,399.358023143,153.565424773,459.617604634,301.050070834,-45.1616735402,211.748857404,395.105097552,428.027591999,179.445597441,-34.9268937736,-146.798882171,-205.021704321
29.5,389.09586711,143.787595697,457.244115011,298.020126629,-56.3153499009,206.891848793,391.257702535,428.027591999,179.445592904,-38.4301884083,-147.005183608,-205.021704321
30.52,391.389557401,146.486852281,457.816621524,299.582794466,-53.8064539646,207.345876283,391.289572128,428.027591999,179.479380981,-38.2248529046,-147.005184526,-205.021704321
31.54,396.642126528,153.249710444,459.972244389,301.922434824,-49.3767047446,209.728181784,394.078149827,428.027591999,179.745526888,-36.0964827975,-146.774360298,-205.021704321
32.54,404.356069156,161.725949263,461.881065254,305.409702245,-42.468105436,213.976110226,396.246502519,428.027591999,179.745664991,-34.2922277235,-146.247688245,-205.021704321
33.54,416.07152965,174.506083525,467.77963165,310.319744268,-31.7347462571,219.470874757,397.674989238,428.027591999,179.745665,-30.7541044055,-145.850432201,-205.021704321
34.54,429.524352197,192.146468208,474.598010967,314.515821481,-22.536640405,225.454511788,400.134286261,428.027591999,179.745665,-21.1187463053,-141.643089094,-205.021704321
35.54,439.012160959,199.859464623,477.222844612,316.923840468,-16.0383114077,233.155115243,403.092011869,428.027591999,179.745665,-19.1090581194,-137.926689356,-205.021704321
36.54,437.176363343,198.311174465,477.197211592,315.815177678,-17.8483884134,232.619344313,402.379931251,428.027591999,179.745665,-19.2580701324,-137.922767206,-205.021704321
37.54,438.048438592,199.579120827,477.994566398,316.077708554,-17.9064367544,233.209594062,403.064627634,428.027591999,179.761978937,-18.3981287886,-137.886510267,-205.021704321
38.54,439.1923332,200.61061243,478.389881387,316.367312169,-17.0630514609,233.812565047,403.53828203,428.027591999,179.773015137,-17.8509555764,-137.872144898,-205.021704321
39.54,440.577542331,202.012224724,478.640816564,317.090875599,-16.0864284387,234.300721606,404.107001802,428.027591999,179.957017723,-17.6348858562,-137.872144597,-205.021704321
40.54,442.457370737,204.930931654,479.24635502,318.110077804,-15.0601190666,234.649402248,404.823826824,428.027591999,180.736616858,-16.3524560352,-137.872144597,-205.021704321
41.54,455.271712032,218.500692792,482.97795602,322.612699497,-4.14475276445,239.705279637,409.235417933,428.027591999,181.048461734,-10.7324922028,-137.658748109,-205.021704321
42.54,480.288290115,245.412319699,491.475556288,339.167063763,18.9437040237,245.37213373,416.404509289,428.027591999,181.048501237,-8.77395292454,-137.658500097,-205.021704321
43.54,497.052939621,263.281090759,495.186709881,344.769490027,36.5561052728,253.115138344,420.295294984,428.027591999,181.048501239,-0.81222690626,-137.17594899,-205.021704321
44.54,499.944554687,267.31147246,497.659816698,346.519493715,37.5899451364,254.225510553,421.313137401,428.027591999,181.048501239,0.0587951855331,-136.974595861,-205.021704321
45.54,493.700071204,261.694191067,495.854722153,343.98913413,31.8686251789,251.634630383,419.707532389,428.027591999,181.048501239,-1.70700842044,-137.056062522,-205.021704321
46.54,489.152784195,256.402355057,493.90478176,342.351449344,28.5174358027,250.352322453,419.514526301,428.027591999,181.048501239,-4.30413887421,-137.463626205,-205.021704321
47.54,468.70005055,240.301535587,489.683693948,339.072219496,15.6917485447,236.364664362,413.580495643,428.027591999,181.048501239,-14.259466119,-145.246756193,-205.021704321
48.54,414.192516919,200.29174014,472.280552226,319.933927836,-33.8704591684,211.782936641,399.470201752,428.027591999,181.048501239,-21.010187017,-146.370359017,-205.021704321
49.54,365.021167827,151.403417485,462.661252542,287.367409508,-77.0756730617,201.986532141,387.589949323,428.027591999,180.178435801,-33.1632200819,-146.370477359,-205.021704321
50.54,329.629412817,117.193973111,453.681225404,272.272827994,-101.217877591,189.244620853,371.815219182,428.027591999,176.358082494,-44.1601973975,-146.370477364,-205.021704321
51.54,311.547806483,96.9081098138,450.691551588,259.661130785,-118.063721602,184.349735219,367.983084399,428.027591999,172.686728224,-45.729953874,-146.370477364,-205.021704321
52.54,308.339052865,92.7264111865,450.226410255,257.237528806,-120.629076363,183.311274254,366.610106237,428.027591999,171.697774758,-46.00096264,-146.370477364,-205.021704321
53.54,313.4924226,99.6445772494,452.357002927,258.854824336,-116.630136164,185.623360522,367.933731132,428.027591999,171.871230261,-42.2535033306,-145.537012715,-205.021704321
54.54,334.047423754,119.001140901,457.014949561,263.931678912,-96.145013571,196.972929956,377.452321767,428.027591999,171.871279018,-37.7001929909,-145.092882784,-205.021704321
55.54,362.160277611,152.395192031,465.510060758,279.022243567,-65.5956530698,205.30586311,380.495238297,428.027591999,171.871279021,-34.0653896655,-145.092791394,-205.021704321
56.54,396.443900484,194.530769878,481.413541829,293.457214247,-39.1211214511,221.094182764,395.524775274,428.027591999,171.997791633,-19.8920200124,-143.369753564,-205.021704321
57.54,428.531266779,224.383593537,486.42194857,303.833432502,-9.98501151154,239.349063451,402.774940395,428.027591999,171.99780341,-12.5688696515,-141.255080579,-205.021704321
58.54,451.455516957,248.243806914,496.549518209,312.450730006,7.77760532393,249.174972073,405.400047081,428.027591999,171.997803411,-7.59698177859,-141.175604973,-205.021704321
59.54,476.112819959,278.558016071,507.424372565,318.92459997,25.1930797314,258.215889515,407.25206473,428.027591999,171.997803411,12.5295858439,-133.802668214,-205.021704321
60.54,487.369903719,287.032438938,509.296325717,321.008619444,31.3235414789,267.314910946,410.195681102,428.027591999,171.997803411,16.8387709451,-128.8726925,-205.021704321
61.54,460.84652388,271.215536944,507.317050784,313.328483075,4.26970447344,251.60032575,402.021176237,428.027591999,171.997803411,15.4887706451,-128.914154772,-205.021704321
62.54,430.404742023,240.093664586,495.577091977,298.096752316,-15.3232043248,243.831597801,393.341211551,428.027591999,171.997803411,4.19237934734,-128.914167459,-205.021704321
63.54,406.229248912,217.890964136,489.773093726,288.50865733,-35.0672841734,236.694505737,387.689797537,428.027591999,169.471812029,-4.22632590674,-128.914167459,-205.021704321
64.56,385.860466196,197.520583013,486.329859613,278.629747522,-48.1495466649,229.428783835,379.857076076,428.027591999,166.645129428,-6.25300429987,-128.914167459,-205.021704321
65.58,364.837279764,171.65425172,484.095045239,270.392661318,-64.0035228013,223.934295548,371.136601256,428.027591999,162.258686824,-19.348731349,-128.914167459,-205.021704321
66.6,355.189430978,160.539876876,481.544996743,266.042247306,-71.0468214477,220.664854766,368.760146096,428.027591999,161.981205692,-24.1369659553,-128.964859742,-205.021704321
67.62,359.622853902,166.360402,483.312674606,270.290152254,-67.1677383427,221.34474961,369.239198941,428.027591999,162.021660461,-24.0361601278,-128.964859899,-205.021704321
68.64,370.73124339,179.597867593,485.584030409,275.635440232,-55.6654510942,225.209173396,372.517493192,428.027591999,162.464224798,-19.6496004041,-128.935978687,-205.021704321
69.66,379.830307077,189.7642997,489.222013101,279.453126164,-49.9299587637,229.359236065,375.385363558,428.027591999,162.469782999,-17.6452875231,-128.288242744,-205.021704321
70.68,395.081331955,205.912524642,495.010920435,286.132726155,-35.7508645427,236.328798195,379.031099949,428.027591999,162.469783296,-11.8991101781,-128.141241442,-205.021704321
71.7,409.083693654,223.425938108,502.01239294,290.914878638,-26.1119613402,240.009665184,380.072584961,428.027591999,162.469783296,-2.68423580739,-126.425101778,-205.021704321
72.72,418.968560758,231.824707089,504.443440232,292.983436408,-20.2452409636,245.98464641,383.215811305,428.027591999,162.469783296,2.01405972563,-123.897254589,-205.021704321
73.74,411.608905764,226.213493074,503.42375772,289.933905581,-27.2508675836,241.751379774,380.565785445,428.027591999,162.469783296,1.68810507884,-123.894505506,-205.021704321
74.76,402.445705859,216.283302252,501.345594056,285.07994554,-35.6722456581,239.725992833,378.650604814,428.027591999,162.458756347,-1.55534507085,-123.905118475,-205.021704321
75.78,396.798855729,211.042070672,499.478837667,283.168850552,-39.8102693964,237.72443626,376.537060831,428.027591999,162.167399269,-3.38900513083,-123.909861427,-205.021704321
76.8,392.285552167,206.162889303,498.55835604,280.931642957,-44.2036701006,236.1513892,375.417627257,428.027591999,161.635059801,-4.30195849517,-123.909861703,-205.021704321
77.82,389.772861605,203.330707699,498.460486588,280.098856164,-46.4542356844,235.200042947,374.283679495,428.027591999,161.543301553,-5.8047004304,-123.909861703,-205.021704321
78.84,396.900861244,211.281608115,500.383704293,282.526163352,-40.7093954074,238.084993741,376.001748761,428.027591999,161.582183484,-1.8878808149,-123.772933826,-205.021704321
79.86,419.804328305,236.009088195,507.279769537,295.005455154,-19.1995662299,244.904864447,384.162320642,428.027591999,161.582198474,0.467568207645,-123.769163836,-205.021704321
80.88,443.807133949,261.93509087,513.038620292,304.768605137,6.93610708402,253.709616845,388.230514944,428.027591999,161.582198475,8.23309610154,-123.555629871,-205.021704321
81.9,455.444904409,275.06706188,518.779204697,309.935963201,13.4094358555,258.671120684,392.261842726,428.027591999,161.582198475,11.451803093,-122.749939567,-205.021704321
82.92,452.529843415,271.970942143,517.219132161,308.563801113,11.0347443041,257.491087251,391.788127459,428.027591999,161.582198475,10.5833567197,-122.763065058,-205.021704321
83.94,446.979451993,266.171792557,514.782962936,306.811889985,7.29578653589,255.777217386,391.581947065,428.027591999,161.582198475,8.31544151499,-123.091548884,-205.021704321
84.96,425.907900379,248.852625728,510.776056664,303.667300876,-7.06648548546,245.014560677,385.206467572,428.027591999,161.582198475,-5.15808679632,-127.306651197,-205.021704321
85.98,380.090824228,210.715848309,493.647001259,289.066616998,-44.3789386832,227.228768573,371.701064666,428.027591999,161.582198475,-12.5422831991,-127.343822212,-205.021704321
87.0,333.794249981,163.564892822,485.350131181,265.33857786,-85.7684089301,213.437403516,359.193054214,428.027591999,161.582198475,-25.833391096,-127.482016685,-205.021704321
88.02,298.440467135,128.861765252,474.845147399,252.460224902,-109.000076839,200.412095072,345.038334091,428.027591999,159.52033883,-39.4220163803,-127.48527962,-205.021704321
89.04,282.114111947,109.889836132,471.379363349,240.226707911,-128.732253238,195.980265926,341.986707383,428.027591999,157.513636512,-42.9525726467,-127.4852797,-205.021704321
90.06,281.331100277,108.942293174,471.185471705,239.63770816,-129.428048857,195.687970012,341.602939876,428.027591999,157.422188502,-42.8735831944,-127.485209913,-205.021704321
91.08,287.342713607,116.259666763,473.532292921,241.679371278,-125.409292301,197.968628279,342.896428721,428.027591999,157.539971275,-39.7588802004,-127.116644728,-205.021704321
92.1,310.243802039,140.981795758,478.906513388,251.390734139,-103.880998634,207.677178038,353.371726683,428.027591999,157.540150012,-34.7374373686,-127.070254178,-205.021704321
93.12,339.352966222,174.898298029,485.93456022,264.283449845,-71.9867779183,217.658417297,356.723087643,428.027591999,157.540150023,-29.1684888586,-127.070251384,-205.021704321
94.14,372.299988207,212.087535556,500.636935477,276.002428229,-50.3605767405,232.250757643,369.950364049,428.027591999,157.540150023,-17.2119669102,-125.874478004,-205.021704321
95.16,404.865517042,243.889415829,506.541946846,286.712980747,-18.8911187875,247.335744417,377.353335371,428.027591999,157.540150023,-10.2232780927,-124.582184923,-205.021704321
96.18,431.893367909,273.74220465,518.480083446,297.201280008,1.16783100575,256.660898239,379.923743065,428.027591999,157.540150023,-2.39226194108,-124.43114982,-205.021704321
97.2,457.890631855,300.0516717,529.030455129,303.423508577,15.1308695239,266.861620605,384.092531172,428.027591999,157.540150023,12.6920543672,-118.066260757,-205.021704321
98.22,469.952663849,310.270647676,532.556127568,306.499360026,22.667090219,273.862498916,386.405276756,428.027591999,157.540150023,16.9342696498,-116.521089517,-205.021704321
99.24,445.877507521,292.737852745,530.856990529,300.024765242,-1.97816654067,261.183736552,380.483605537,428.027591999,157.540150023,13.9507634406,-116.521959788,-205.021704321
100.26,420.546744764,268.623002705,519.345066973,290.091937377,-15.5806379946,253.113844794,372.003153232,428.027591999,157.28618686,5.99217692808,-116.612764696,-205.021704321
101.28,398.720115978,247.546400565,513.567739894,280.588549534,-35.0600444347,245.68139063,368.004129409,428.027591999,153.685082828,-0.204498046413,-116.612773638,-205.021704321
102.3,375.12929756,218.486953035,511.857573558,268.757495562,-54.7494950872,238.158794189,358.600005448,428.027591999,148.312793225,-8.9692179196,-116.612773638,-205.021704321
103.32,360.168674181,201.182271591,507.826883094,263.136572112,-63.6505990853,233.132632952,352.448213954,428.027591999,147.170507496,-16.4138518527,-116.727235181,-205.021704321
104.34,350.323079457,190.262930036,505.105155273,259.023557974,-71.6606466011,229.525629171,349.449233086,428.027591999,147.154092432,-21.0418924941,-116.739693634,-205.021704321
105.36,351.909142628,192.062387059,505.61236659,259.805584787,-69.7344919699,229.932565169,349.311759277,428.027591999,147.154092374,-20.7884596194,-116.739693678,-205.021704321
106.38,355.766993126,196.132837989,506.548777678,261.150625936,-66.0924542644,231.473044644,350.906715548,428.027591999,147.154092374,-18.9351094421,-116.734351081,-205.021704321
107.4,360.594281258,201.357501777,507.590609029,263.104617044,-62.3105158863,233.287746031,352.23692391,428.027591999,147.154092374,-17.5206276078,-116.646769679,-205.021704321
108.42,368.710446217,209.794571325,511.148289962,266.360865448,-55.4312003565,236.204214202,353.467899579,428.027591999,147.154092374,-14.5623690151,-116.600923437,-205.021704321
109.44,378.448274285,220.129930405,515.041469935,269.10203672,-49.6257960311,239.511612731,355.065386548,428.027591999,147.154092374,-7.82317330754,-115.16667528,-205.021704321
110.46,379.304875541,220.747749046,514.701561523,268.908588536,-48.9881473982,240.268122522,355.460382187,428.027591999,147.154092374,-6.13501831391,-114.833567106,-205.021704321
111.48,368.806116288,211.325552432,512.910444084,264.365889253,-58.7441364506,236.0646565,351.593841411,428.027591999,147.154092374,-6.744849126,-114.833591332,-205.021704321
112.5,363.87411897,205.730343907,511.458909242,261.917512973,-62.9568287522,234.988461448,350.66250903,428.027591999,147.116066578,-8.89535617978,-114.833591333,-205.021704321
113.52,363.729453058,205.69927667,511.360527053,261.955989177,-62.9814535346,234.867569482,350.365755694,428.027591999,147.088538654,-9.07155125883,-114.833591333,-205.021704321
114.54,369.492438308,212.276210615,512.291832639,264.60297286,-57.9838438495,236.939312831,352.494263173,428.027591999,147.591342657,-7.58235534614,-114.833591333,-205.021704321
115.56,377.22971554,222.174970459,513.692118316,267.441218954,-52.449836099,239.124784175,355.742291733,428.027591999,148.421894456,-3.24432936455,-114.833591333,-205.021704321
116.58,406.388275135,253.345051038,522.526997795,277.95458655,-29.8838847262,249.92086,364.144531377,428.027591999,148.541143459,7.6344920459,-114.4531041,-205.021704321
117.6,453.14437617,306.940045333,540.391662929,304.404836197,13.6581548336,264.594903936,374.877602412,428.027591999,148.541150283,12.9173326718,-114.45291875,-205.021704321
118.62,488.792092016,339.812882174,547.036811848,313.413223241,45.5979318079,282.127747701,386.09299614,428.027591999,148.541150284,25.9075632133,-114.35851412,-205.021704321
119.64,506.253621406,358.171895133,554.856032975,320.919850324,55.9252161597,289.622054408,390.513158526,428.027591999,148.541150284,30.0881101538,-113.751610203,-205.021704321
120.66,508.927283178,360.840498941,555.401126971,322.023504157,58.7213692562,290.40784447,391.31890548,428.027591999,148.541150284,30.5570359292,-113.749962646,-205.021704321
121.68,509.446334504,361.514035079,555.52598655,322.290341303,59.4247183388,290.469429551,391.335630686,428.027591999,148.541150284,30.5881704124,-113.951431501,-205.021704321
122.7,491.018513451,344.742401698,551.130109505,316.735857134,45.0590044234,282.731385987,385.898569913,428.027591999,148.169665176,22.2539765422,-115.275103109,-205.021704321
123.72,447.745460503,306.672129069,539.063163457,298.675455587,7.06714277613,265.13327202,371.374580696,428.027591999,148.167881169,18.6384420857,-115.276051337,-205.021704321
124.74,399.578233704,259.004147136,525.816457138,278.559268762,-34.404509736,250.464749043,361.899019025,428.027591999,147.979438063,3.96149449269,-115.276051394,-205.021704321
125.76,361.773855625,223.504562047,513.220730755,265.540895571,-60.9032576213,236.961530706,347.506313877,428.027591999,144.726352237,-8.69616729614,-115.276051394,-205.021704321
126.78,329.669141009,187.908747605,507.227403208,249.564452901,-90.0204679964,225.549720523,337.853269274,428.027591999,142.83052722,-15.4301462051,-115.276051394,-205.021704321
127.8,313.42490856,170.849127333,506.770428545,244.584613716,-102.89230674,219.292060416,330.629484729,428.027591999,142.474431392,-22.7158367999,-115.276051394,-205.021704321
128.8,305.142389634,159.431619341,503.83776739,240.612366436,-107.815736033,217.321934531,327.986122563,428.027591999,141.081914265,-26.696564058,-115.380765629,-205.021704321
129.8,314.622863027,170.563285666,505.902145033,247.222831383,-98.5087342346,220.433330281,331.039804666,428.027591999,141.081958351,-26.1713462513,-115.380726186,-205.021704321
130.8,343.042512937,208.433404584,511.166057036,264.781611863,-63.1168498545,228.26217431,335.841409769,428.027591999,142.050842814,-16.3015559945,-115.380726162,-205.021704321
131.8,367.102983383,235.765372212,523.822423629,274.374125579,-50.8577657887,238.847255126,345.958307995,428.027591999,142.112848488,-9.54836966646,-114.392616072,-205.021704321
132.8,388.071127107,257.358551798,528.445194533,281.742426784,-33.3512077666,248.999415804,351.343340923,428.027591999,142.112851256,-5.77794947367,-112.594834689,-205.021704321
133.8,407.382676683,276.775611551,536.209621492,287.887248177,-22.0633800491,256.491842794,352.939273565,428.027591999,142.112851256,-0.647233232953,-111.28008623,-205.021704321
134.8,425.312553469,293.142037862,541.401256152,291.684314381,-12.3712082253,264.949344557,356.292426438,428.027591999,142.112851256,11.1661398061,-104.640658237,-205.021704321
135.8,421.689845382,289.708824605,539.249485864,290.061693565,-14.7151075789,263.784366117,355.668881549,428.027591999,142.112851256,11.6976723916,-104.432391665,-205.021704321
136.8,395.305517166,268.52078859,536.224361601,282.576330697,-39.1754056083,250.606329912,348.657293516,428.027591999,142.112851256,7.64278819208,-104.432444741,-205.021704321
137.8,370.012859987,244.24865373,525.397047051,273.327476095,-53.0089294171,242.546005125,339.565973237,428.027591999,141.804813801,-2.63885287337,-104.50874269,-205.021704321
138.8,348.594013332,223.018642546,521.692951965,265.221792484,-72.7418690506,235.357178176,335.899072589,428.027591999,140.366383978,-7.64521428919,-104.50876697,-205.021704321
139.8,332.179506551,204.171822475,520.248882241,258.058028411,-86.0592048503,229.134301955,328.378463587,428.027591999,138.751653115,-12.6650260231,-104.508766971,-205.021704321
140.8,324.726840819,195.218337642,518.788155004,255.470036233,-91.106048615,227.054292976,325.222946346,428.027591999,138.120842424,-16.6350061568,-104.561231125,-205.021704321
141.8,332.187310236,202.817389537,519.883311816,258.245517116,-84.0190329774,230.028086062,328.607700332,428.027591999,138.11955748,-14.4410002344,-104.564302294,-205.021704321
142.8,355.670491003,232.628644892,527.207157737,275.111401442,-55.5180766238,234.747963768,331.156130001,428.027591999,138.119557979,-12.664778677,-104.564296428,-205.021704321
143.8,377.537384819,255.861917721,532.748427225,281.635699931,-37.017778238,243.462772429,339.454339927,428.027591999,138.119557979,-3.41065448127,-104.239908707,-205.021704321
144.8,393.912823337,273.259143787,537.814233422,287.791617927,-26.4539727049,250.820763851,343.903161948,428.027591999,138.119557979,0.446368501704,-103.524283368,-205.021704321
145.8,409.377747623,288.530163974,543.582455876,294.215515961,-12.0648224993,258.083851699,347.180201752,428.027591999,138.119557979,5.69909225254,-102.52756759,-205.021704321
146.8,413.06032517,292.746600014,545.058526269,295.453384112,-9.41729849911,258.831202963,347.284219848,428.027591999,138.119557979,7.69990971948,-102.42245825,-205.021704321
147.8,396.907962007,277.89635452,540.685091585,290.898305001,-20.9392919236,252.619840943,343.541348795,428.027591999,138.119557979,0.779683202454,-103.027934892,-205.021704321
148.8,351.186052703,241.893587867,530.583285666,276.896171877,-56.0896793776,229.432860542,326.629121399,428.027591999,138.119557979,-2.32529527429,-103.029389233,-205.021704321
149.8,310.230140044,198.713973574,517.499899414,258.550443478,-85.2628303658,218.989469876,316.16306028,428.027591999,137.847410101,-16.8016975494,-103.029389338,-205.021704321
150.8,280.121812511,169.505353432,510.690314816,248.733364879,-108.549139684,208.475559957,305.615686154,428.027591999,134.993929822,-27.3785134043,-103.029389338,-205.021704321
151.8,266.639687668,154.031788643,508.119990638,241.792680783,-124.188050845,203.34230271,301.210565826,428.027591999,133.936737004,-30.2591364556,-103.029389338,-205.021704321
152.8,266.59389094,153.965061314,508.114655559,241.510694022,-124.530022178,203.337069867,301.257696312,428.027591999,133.975214165,-29.6939960517,-103.029389338,-205.021704321
153.8,277.807542957,166.943859119,512.023215616,245.540519331,-117.476113687,207.16388866,303.900103839,428.027591999,134.208900527,-24.0781076589,-102.864094447,-205.021704321
154.8,303.454889887,196.013878444,519.018951779,257.359400106,-93.3511778984,215.939989306,314.427192697,428.027591999,134.208992137,-20.8361365132,-102.863525995,-205.021704321
155.8,342.664120574,241.347201747,527.427241179,273.330844896,-52.3073791749,230.328918794,322.2179906,428.027591999,134.208992144,-9.31231022219,-102.863525956,-205.021704321
156.8,378.144440911,281.667863214,544.1995598,289.139197379,-35.4493604006,244.45136967,335.301102305,428.027591999,134.337529433,0.140029904321,-102.133629977,-205.021704321
157.8,411.008447631,313.435253774,551.467621954,300.03198592,-7.40236959541,259.884232224,341.163849476,428.027591999,134.337544298,6.22053416774,-100.812821742,-205.021704321
158.8,430.258775614,332.513018726,558.656802115,305.912159635,4.9469852741,266.324442163,343.169330514,428.027591999,134.337544299,12.5634882155,-99.9512180495,-205.021704321
159.8,438.297677692,339.734252678,561.309430738,307.669806628,8.90431798229,269.002526666,344.336954486,428.027591999,134.337544299,17.2084322677,-98.0672893411,-205.021704321
160.8,415.560423836,319.107104307,551.839262673,299.857877376,-6.36235292775,260.552549852,339.818622815,428.027591999,134.337544299,13.4158918693,-98.1442327099,-205.021704321
161.8,370.129319136,281.621976428,547.395163374,287.343016854,-48.8087797411,238.213150843,326.524810297,428.027591999,134.337544299,6.39618679946,-98.1442469409,-205.021704321
162.8,330.507125845,244.169710606,531.107744555,272.344632246,-69.9011999337,225.648975228,310.685254935,428.027591999,133.234321713,-6.9475455728,-98.1442469418,-205.021704321
163.8,301.975645728,214.250591169,526.043618275,259.851232238,-95.9753798914,216.649083835,306.575640668,428.027591999,130.300544971,-13.1746036123,-98.1442469418,-205.021704321
164.8,282.794256709,190.918740082,524.258495616,250.851144506,-112.412362757,210.220134544,298.493172666,428.027591999,127.986585876,-19.300485016,-98.1442469418,-205.021704321
165.8,276.421307568,183.561379735,523.517929703,248.857695924,-116.602732314,208.061024482,295.461135887,428.027591999,127.204189317,-22.0747128988,-98.1442469418,-205.021704321
166.8,288.154058547,196.236717833,525.688943222,253.555442865,-105.903116246,212.625921051,300.725702943,428.027591999,127.24449967,-19.3916307984,-98.1442469418,-205.021704321
167.8,321.257229461,240.999427583,535.443010975,277.487643302,-67.1697087366,219.990459855,304.278624266,428.027591999,127.244529788,-16.2682281563,-98.1442469418,-205.021704321
168.8,357.055235561,278.206203583,544.100653304,287.825280552,-38.9594399423,236.04529103,318.76501133,428.027591999,127.24452979,-1.35449923975,-97.9382716655,-205.021704321
169.8,384.096994719,306.959617193,551.935114421,297.428583361,-21.3736349847,247.723923932,325.944343479,428.027591999,127.24452979,4.27227651117,-96.2877984349,-205.021704321
170.8,408.32898472,330.358532895,561.231538702,306.341359324,-2.90084860049,258.155688508,331.37188588,428.027591999,127.24452979,9.74768830491,-95.1515740567,-205.021704321
171.8,418.571585984,341.204692025,565.268816801,309.292752618,3.4476736329,260.458124038,331.882240415,428.027591999,127.24452979,14.8981730562,-94.1782378065,-205.021704321
172.8,404.037293533,328.547682781,560.920437982,305.362832568,-5.30078809034,253.751117168,329.073186974,428.027591999,127.24452979,9.91127666985,-94.7679560371,-205.021704321
173.8,357.381191384,291.137613374,551.359029543,290.849279558,-41.6126549089,228.046734806,311.72354775,428.027591999,127.24452979,7.27013529435,-94.7747118674,-205.021704321
174.8,307.791484707,242.67099549,536.284765768,273.002435336,-76.3583880384,212.630322929,300.619060209,428.027591999,127.029255652,-9.75597258236,-94.9378810207,-205.021704321
175.8,272.059647315,208.562172722,528.303899003,261.167734515,-102.568812154,200.583558198,287.829316587,428.027591999,124.941816269,-22.9365249967,-94.9382060807,-205.021704321
176.8,250.02250308,184.051674032,523.728941352,250.515408157,-121.707706301,193.046496858,281.994015888,428.027591999,123.725204303,-27.6874703818,-94.9382060923,-205.021704321
177.8,243.724950289,176.193634395,523.526015141,247.759107623,-127.081259578,191.099966915,279.289631173,428.027591999,123.171211988,-30.2471397463,-94.9382060923,-205.021704321
178.8,256.532793703,193.518643144,528.023085822,254.665587639,-118.980112125,194.260129553,282.426446507,428.027591999,124.940503761,-25.2623898268,-94.9382060923,-205.021704321
179.8,282.426115708,222.696864195,534.874758153,266.785200966,-96.0044614412,202.528823785,292.852668706,428.027591999,124.946029425,-21.9030371542,-94.9382060923,-205.021704321
180.8,319.523127521,263.693384636,541.099153237,280.561268653,-60.6258099653,216.698491381,299.621964379,428.027591999,124.9460298,-10.991349308,-94.9382060923,-205.021704321
181.8,353.900507898,300.375787229,558.63132869,295.0880996,-46.1523327599,228.444294686,313.124909813,428.027591999,124.9460298,-2.86781740919,-94.7603179793,-205.021704321
182.8,387.902252541,334.664241025,566.476724119,307.640857814,-18.6324113549,243.495127434,320.40020113,428.027591999,124.9460298,4.93616409083,-94.3835960522,-205.021704321
183.8,406.422896733,352.79962195,573.58611237,313.112419875,-7.72084586482,249.49898936,322.187713575,428.027591999,124.9460298,11.2466296936,-94.0442666701,-205.021704321
184.8,413.474975704,359.103032105,576.03070546,314.468978116,-4.70498613787,251.538786167,323.1033692,428.027591999,124.9460298,15.8285680051,-92.4271389118,-205.021704321
185.8,388.421610679,336.927144973,565.935549453,306.299203594,-20.7648705307,241.498266343,318.238734508,428.027591999,124.9460298,12.0282778811,-92.4853873829,-205.021704321
186.8,338.174302583,295.397269227,561.748785856,293.051771518,-65.3373793144,214.546506363,303.633817698,428.027591999,124.9460298,4.09639770433,-92.486438219,-205.021704321
187.8,294.449365356,254.708655493,545.250733588,277.551497454,-87.2867807445,200.779242138,288.218602158,428.027591999,124.095065975,-11.9947527651,-92.6245743734,-205.021704321
188.8,266.472080418,225.005757685,541.015659404,266.426742388,-114.177698074,191.973189463,283.981401766,428.027591999,121.820715688,-18.8325908555,-92.6245807137,-205.021704321
189.8,251.642977732,208.14267438,539.349989172,260.48249407,-125.019077158,186.709035947,277.574234398,428.027591999,120.868996385,-23.0933836629,-92.6245807139,-205.021704321
190.8,248.112912536,204.426654461,539.37208288,259.585319321,-127.229489559,185.361727594,275.785856887,428.027591999,120.372064141,-24.903297008,-92.6245807139,-205.021704321
191.8,264.28918588,222.27203908,541.714420335,265.66274842,-112.327524455,190.632580947,282.187579228,428.027591999,120.670226852,-20.2423485877,-92.6245807139,-205.021704321
192.8,298.46870306,266.2687376,551.661039463,287.801606388,-74.2579445225,198.330704561,285.741897532,428.027591999,120.670370372,-17.5752389883,-92.6245807139,-205.021704321
193.8,334.094816151,302.599322132,560.717252902,298.127354156,-49.5327213212,212.810224612,300.996446302,428.027591999,120.670370382,-5.94298057289,-92.5050412585,-205.021704321
194.8,363.820411171,333.272124256,569.211482743,307.978629753,-30.8920573986,225.027014012,309.405664414,428.027591999,120.670370382,0.721068541675,-91.9911809087,-205.021704321
195.8,389.089657385,357.503177816,577.904764939,316.473188545,-11.7490761212,235.109558699,314.235314085,428.027591999,120.670370382,6.02195372959,-91.8394445461,-205.021704321
196.8,398.941490101,367.427880464,581.848775007,319.11022765,-6.12123042939,237.434663261,314.662047553,428.027591999,120.670370382,10.4423444865,-91.4006418164,-205.021704321
197.8,383.689541976,353.514773202,576.956050792,314.697451532,-15.7786333747,230.845776374,311.150405439,428.027591999,120.670370382,4.57203863926,-91.6588414647,-205.021704321
198.8,334.542838486,312.545454416,567.51693624,298.334770524,-55.6523572688,204.717042962,295.807830832,428.027591999,120.670370382,1.10213619493,-91.663568541,-205.021704321
199.8,285.648245051,264.811859703,554.040123527,280.121312469,-90.2482910802,188.191405302,285.418938375,428.027591999,119.996172086,-15.0320505447,-92.2096233396,-205.021704321
200.8,251.333483669,231.363028678,546.122281045,269.245385517,-112.400360712,176.029317173,273.625468742,428.027591999,117.894154765,-25.5195052477,-92.2314457936,-205.021704321
201.8,231.044483468,208.739670685,542.143178985,260.669443459,-130.614482778,169.040738161,268.201377954,428.027591999,117.617665801,-30.2525787892,-92.2314465821,-205.021704321
202.8,225.606874841,202.332316277,542.050205837,258.770342411,-134.795889396,167.227061424,265.844616073,428.027591999,117.297968604,-33.0804185969,-92.2314465822,-205.021704321
203.8,237.685757027,217.595752526,545.710692887,264.422569123,-127.405011418,170.626156322,268.838143742,428.027591999,118.023413077,-27.6360315739,-92.2314465822,-205.021704321
204.8,268.410019081,252.176436291,553.751674436,278.716203629,-100.995765079,180.847644256,280.382690765,428.027591999,118.026809868,-23.5663139379,-92.2314465822,-205.021704321
205.8,306.239029926,294.761791875,559.897062063,292.171676687,-65.4956709584,193.535933845,287.473161913,428.027591999,118.026810094,-12.0062983851,-92.2314465822,-205.021704321
206.8,341.256773295,332.143556129,576.407172018,306.851186131,-51.1669428834,205.725065355,301.845159518,428.027591999,118.026810094,-3.11318911958,-92.1907919241,-205.021704321
207.8,373.955273792,363.653601538,582.780613218,316.220730625,-24.3965504982,219.66342367,309.860551673,428.027591999,118.026810094,5.04864788692,-91.9608099711,-205.021704321
208.8,392.977548891,382.021872107,589.314807183,321.797091078,-13.2649522783,226.042691583,311.296607516,428.027591999,118.026810094,11.5221384036,-91.386778542,-205.021704321
209.8,396.955842269,385.733477719,591.041417721,322.680504412,-11.5772804496,226.880143537,311.512178642,428.027591999,118.026810094,14.1487455335,-90.3374554114,-205.021704321
210.8,366.03221204,358.69764908,580.416696087,313.029373116,-32.031483175,213.701929293,304.224735892,428.027591999,118.026810094,9.42154143015,-90.3736674673,-205.021704321
211.8,315.724225397,315.241034613,576.029086997,298.354897521,-77.8360922888,189.305844582,289.617499429,428.027591999,118.026810094,2.382294919,-90.5109422062,-205.021704321
212.8,271.848121065,275.190242029,559.150194586,283.426553352,-100.634286608,175.634990657,272.917578775,428.027591999,115.889069061,-12.0815013977,-90.6383836362,-205.021704321
213.8,243.455842474,242.463398595,554.403229913,271.650277496,-125.508221558,167.686572136,269.152963823,428.027591999,112.978996987,-18.4540762644,-90.6383889932,-205.021704321
214.8,228.297370885,224.968112869,553.140584374,265.392725632,-137.381332997,162.178756895,262.806669714,428.027591999,112.199894396,-23.7078401645,-90.6383889934,-205.021704321
215.8,226.188954014,222.740069867,553.3661874,265.067965532,-138.77173052,161.284225866,261.450758234,428.027591999,111.955861126,-24.5526344286,-90.6383889934,-205.021704321
216.8,244.590473095,242.427645829,556.510661687,271.013039353,-123.575859238,167.833493728,269.283215678,428.027591999,112.086498788,-19.0272996708,-90.6383889934,-205.021704321
217.8,279.849124328,287.121183237,567.042881845,292.921660524,-92.2028907359,177.739595223,274.552039143,428.027591999,112.086531609,-16.1680325817,-90.6383889934,-205.021704321
218.8,319.356786891,327.738696802,576.008778452,305.936558322,-63.8372265181,193.930499111,290.728550981,428.027591999,112.362535165,-0.244882169539,-90.5376483574,-205.021704321
219.8,349.661260156,358.321262905,584.252450708,315.657061461,-45.7388934976,206.203007666,299.361502937,428.027591999,112.362616921,7.87008694857,-89.6000920294,-205.021704321
220.8,377.31843243,385.674449438,592.697348062,325.516863919,-23.3928256825,217.592266689,305.272723075,428.027591999,112.362616924,16.7714592284,-89.2746978128,-205.021704321
221.8,387.32294603,396.122496217,596.572751323,328.356205703,-17.656742612,219.455428525,305.894363612,428.027591999,112.362616924,21.5630268785,-88.790332036,-205.021704321
222.8,370.487785162,381.329731229,592.032200571,324.098925732,-28.3379932255,212.474509505,301.901510571,428.027591999,112.362616924,15.1926599209,-89.1440960753,-205.021704321
223.8,325.486707837,344.106236267,582.789017808,310.501249969,-64.0562557555,190.602319717,285.706204645,428.027591999,112.362616924,12.6989277944,-89.1445431855,-205.021704321
224.8,276.0440318,296.243565411,569.462200398,292.575444761,-94.6842184506,174.529495797,274.814839655,428.027591999,112.362616924,-2.55288686987,-89.2911153304,-205.021704321
225.8,234.424405737,256.445706412,559.734522824,278.628509155,-124.970294609,160.118541043,261.45516111,428.027591999,109.442007251,-16.3899652395,-89.292671159,-205.021704321
226.8,207.471222243,224.99801981,554.727289755,265.334530964,-150.003734803,151.240939754,254.622701469,428.027591999,108.53496422,-21.921851106,-89.2926712186,-205.021704321
227.8,201.102083867,217.848947981,554.572788432,263.402299185,-154.681970668,148.933855323,251.73324046,428.027591999,108.32316589,-23.9479856559,-89.2926712186,-205.021704321
228.8,213.328966437,234.170768214,558.258517101,269.511375093,-147.365755623,152.059788219,255.051529608,428.027591999,109.711599117,-18.3441755501,-89.2926712186,-205.021704321
229.8,241.121607244,264.789067954,565.290460235,281.500736615,-125.703188525,162.007040985,265.634645502,428.027591999,109.715360022,-14.781572369,-89.2926712186,-205.021704321
230.8,280.846107564,309.506943035,571.872420144,296.501329589,-85.2316704848,176.060733476,272.991760581,428.027591999,109.715360283,-3.83640782296,-89.2926712186,-205.021704321
231.8,317.098113347,348.73991483,587.147110384,311.130531944,-68.9518766772,188.2070742,287.037681597,428.027591999,109.82054304,6.60084301722,-89.176818785,-205.021704321
232.8,349.706311338,379.334236532,594.121091489,320.768580008,-45.4403857697,203.15989502,293.414360988,428.027591999,109.820550143,13.5896630691,-88.3958045922,-205.021704321
233.8,369.463745291,398.281474377,601.363635737,326.552080911,-34.8553016203,209.289819073,294.906847597,428.027591999,109.820550144,20.4131129141,-88.0675831239,-205.021704321
234.8,375.823818989,404.107327968,603.521377176,327.910883401,-32.1772427983,210.842908317,295.573715864,428.027591999,109.820550144,24.7958947887,-86.9502774859,-205.021704321
235.8,346.218889307,378.766361255,592.441846849,319.539825897,-51.8446337209,198.872544967,289.213157576,428.027591999,109.820550144,20.5590337375,-86.9550040635,-205.021704321
236.8,295.847851013,333.408489746,588.067426515,304.247474002,-97.9092405962,175.274807587,274.900434344,428.027591999,109.820550144,12.8980945232,-86.9702890026,-205.021704321
237.8,250.673568321,291.711692679,571.332217539,288.534487904,-119.984827363,160.356711443,259.200920694,428.027591999,108.472703366,-3.44840526108,-87.0647752774,-205.021704321
238.8,221.451248068,259.543237925,566.117873005,276.662531426,-148.518595353,151.923404041,255.352071371,428.027591999,106.192497454,-11.6335845576,-87.064779279,-205.021704321
239.8,209.166892042,245.207830868,564.753337915,271.431838957,-157.712800027,147.754201385,250.478495499,428.027591999,105.775431575,-15.5079866179,-87.0647792791,-205.021704321
240.8,207.738559911,243.696934768,565.179374166,271.322028073,-158.89369695,147.09980123,249.455937843,428.027591999,105.517699948,-16.5811380485,-87.0647792791,-205.021704321
241.8,230.059765849,267.725169178,569.419629235,279.224588618,-140.899454254,154.841892842,257.65008544,428.027591999,105.631562745,-9.74445261032,-87.0647792791,-205.021704321
242.8,266.992538552,313.530825953,579.853511931,299.210748666,-106.901864805,164.963557168,261.957051813,428.027591999,105.631694406,-6.85273528446,-87.0647792791,-205.021704321
243.8,306.416689985,353.702727817,590.789183209,311.727002357,-84.6382453708,180.034823237,277.570072364,428.027591999,105.631694414,6.26337250836,-87.0063296116,-205.021704321
244.8,337.213953303,385.666059677,599.878145744,321.845248887,-66.6235372177,190.785784989,285.528383543,428.027591999,105.631694414,13.8137747977,-86.6880382135,-205.021704321
245.8,365.488913284,412.688075564,609.425079207,331.871929265,-47.2216880753,201.943225501,291.526899725,428.027591999,105.631694414,20.0048370556,-86.2739529182,-205.021704321
246.8,376.649668943,423.874207967,613.330341948,334.94375458,-41.2186065705,204.495328663,292.076461005,428.027591999,105.631694414,25.2939821747,-85.6159378462,-205.021704321
247.8,361.132714987,409.627180778,608.936808427,330.947794145,-51.2459081928,198.956972361,288.16308215,428.027591999,105.631694414,18.9164330069,-85.7489741049,-205.021704321
248.8,314.130306908,370.232661003,599.112003041,317.526434255,-86.3532936992,175.265330102,271.855789782,428.027591999,105.631694414,15.3161154223,-85.7499916158,-205.021704321
249.8,264.945397862,322.384994588,586.171315379,300.954823932,-119.476448467,160.072962392,261.349892715,428.027591999,105.518113623,-0.92210746774,-86.0240953174,-205.021704321
250.8,227.720360953,287.419293012,577.832154542,289.857303872,-143.543353171,147.827565431,248.333161894,428.027591999,104.094990161,-13.4885007117,-86.0253115102,-205.021704321
251.8,204.10346951,261.312841006,573.390276377,280.136481666,-164.514331511,140.080853824,242.267511058,428.027591999,103.614584914,-18.0539805205,-86.0253115549,-205.021704321
252.8,196.303886945,252.31110967,573.04958432,277.440645841,-170.891376732,137.410278678,239.013948839,428.027591999,103.22393196,-21.7836883086,-86.0253115549,-205.021704321
253.8,206.610016016,265.913643594,576.314540586,282.615708069,-164.424095956,139.571128205,241.231922658,428.027591999,104.189416488,-17.3318684932,-86.0253115549,-205.021704321
254.8,235.726537455,299.773809828,582.907898451,296.927878994,-140.410654611,149.260153093,251.802838533,428.027591999,104.27556841,-14.1234468181,-86.0253115549,-205.021704321
255.8,275.007640697,345.692331721,590.30182087,313.139696408,-103.440528721,161.573449861,258.469849574,428.027591999,104.275574392,-3.28690717137,-86.0253115549,-205.021704321
256.82,312.843345875,385.803781487,605.552185676,327.737730767,-87.5508535876,174.642381773,272.66150461,428.027591999,104.275574392,7.78924005389,-85.2943672542,-205.021704321
257.84,346.216974245,417.879810528,612.218673798,337.290016531,-62.5982522821,189.59181306,279.313873916,428.027591999,104.275574392,17.0104409207,-84.4636041555,-205.021704321
258.86,363.991262446,434.553577688,617.506128782,341.828840046,-52.7586599861,195.409554757,280.51345514,428.027591999,104.275574392,23.2471719487,-84.010856514,-205.021704321
259.88,363.04527737,433.860577466,617.909214664,341.805946621,-53.7763792571,194.624057368,279.567298564,428.027591999,104.275574392,23.114403613,-83.6785311296,-205.021704321
260.9,327.930437823,403.062932918,606.086360751,331.596249563,-75.1563881143,180.621394325,269.696288295,428.027591999,104.275574392,17.8862274333,-83.7229523523,-205.021704321
261.92,271.778872677,353.537284903,599.656494427,316.592267873,-123.069512305,154.974339958,254.904297726,428.027591999,104.275574392,6.48660923854,-83.9322572266,-205.021704321
262.94,226.255123065,309.568947865,583.397058812,300.992935913,-146.029310278,142.465575507,236.920476273,428.027591999,102.357538671,-9.39593689919,-83.9751639896,-205.021704321
263.96,198.562440265,278.645602877,579.208529546,289.9866924,-172.596076817,134.540788459,232.486210191,428.027591999,101.751088549,-15.9090939896,-83.9751653477,-205.021704321
264.98,185.775542495,264.337891556,578.285299814,284.993416302,-182.924706429,129.957807399,227.348020612,428.027591999,101.560689106,-20.6500126918,-83.9751653477,-205.021704321
266.0,190.465790081,271.494641089,580.46860546,287.963974328,-180.4968711,130.531809149,228.003985991,428.027591999,102.599550901,-18.8850689523,-83.9751653477,-205.021704321
267.02,216.327760892,299.667693566,585.404145352,297.338419849,-160.863979669,139.885412983,239.98045101,428.027591999,102.888788356,-14.0259223314,-83.9751653477,-205.021704321
268.04,256.989379883,349.891129183,595.793799011,318.950012046,-123.24054346,151.24213134,243.827840954,428.027591999,102.888860854,-8.08721391144,-83.9751653477,-205.021704321
269.06,296.875683088,390.879587373,609.830117504,331.972216856,-102.767972433,164.985882414,262.685286477,428.027591999,102.888860857,5.08639924669,-83.8710177745,-205.021704321
270.08,332.011716236,426.840948791,615.793994444,342.996817788,-76.2868347385,180.199792157,271.172796672,428.027591999,102.888860857,14.0970942276,-82.9222917931,-205.021704321
271.1,356.325125812,448.335632455,624.403716949,350.285906346,-62.6409100627,189.876269038,274.59854637,428.027591999,102.888860857,18.9949657527,-82.1189264618,-205.021704321
272.12,361.254885936,453.274251701,626.381531192,351.573008358,-60.3268967704,190.67480506,274.689164293,428.027591999,102.888860857,21.6267037488,-81.8248171628,-205.021704321
273.14,334.455891128,427.334144884,616.552755802,342.509418985,-75.8404396183,182.241175404,267.670697441,428.027591999,102.888860857,14.8660696606,-81.8573622234,-205.021704321
274.16,282.684735388,383.496092361,611.969226666,330.432020775,-122.334922002,157.498790543,251.784138554,428.027591999,102.888860857,9.13379330804,-81.9048224782,-205.021704321
275.18,230.711994023,335.31603605,593.610563066,312.760619394,-148.721341657,141.503673725,236.671351932,428.027591999,102.230360034,-7.9193396288,-82.4292769237,-205.021704321
276.2,198.531147112,300.341912567,588.67276511,300.853259209,-180.524055586,132.308466368,231.907336016,428.027591999,98.5332685639,-18.3338244738,-82.4294442616,-205.021704321
277.22,182.547894874,282.599569639,587.073000468,295.025902045,-192.193862384,126.420071087,225.57317736,428.027591999,97.8184508476,-22.2552161646,-82.4294442658,-205.021704321
278.24,181.03624248,281.44812905,587.706584567,294.997750679,-193.272656949,125.427232868,224.496010142,428.027591999,97.8869412165,-22.9784102955,-82.4294442658,-205.021704321
279.26,202.405007215,305.104842177,591.908248003,302.729941561,-176.812163948,132.162281812,233.105090449,428.027591999,98.1364985258,-16.6314595654,-82.4294442658,-205.021704321
280.28,242.663686383,355.482173927,605.549297269,326.869348618,-143.220657531,141.872808531,238.492563361,428.027591999,98.1365290576,-13.6836070347,-82.4294442658,-205.021704321
281.3,286.457178899,400.060792682,616.208796713,339.375437753,-115.712732171,158.476339824,254.771854971,428.027591999,98.1365290592,1.14838097505,-82.4108003156,-205.021704321
282.32,321.531045422,436.054568252,626.28505425,350.265722628,-95.1391615837,170.745842092,264.465517668,428.027591999,98.1365290592,9.95183318677,-82.2265165584,-205.021704321
283.34,351.179550433,465.243054617,635.447907322,360.400051878,-74.9546649532,182.25502387,270.73598185,428.027591999,98.1365290592,18.2951480504,-82.0501985001,-205.021704321
284.36,361.880749983,476.160618713,639.35256249,363.281050217,-69.4933312004,184.539364237,271.338267439,428.027591999,98.1365290592,23.7696852027,-81.4687600428,-205.021704321
285.38,340.432667988,456.019692719,632.67837486,357.175619866,-83.3893557881,176.757486629,265.97243426,428.027591999,98.1365290592,15.0242554098,-81.8637605981,-205.021704321
286.4,291.25086669,414.381928875,624.512492813,343.266703338,-116.223711473,151.170825436,247.271834416,428.027591999,98.1365290592,11.7243961934,-81.8641275033,-205.021704321
287.42,236.894844049,362.713886381,607.498585985,325.161303194,-145.875149625,134.288438702,235.878854589,428.027591999,98.0150422672,-4.00902090849,-82.377102399,-205.021704321
288.44,197.350226045,321.247170819,599.63006645,311.135013249,-179.243659001,123.304144089,226.046262737,428.027591999,95.1029781232,-17.5410461085,-82.3811603271,-205.021704321
289.46,175.637618777,297.412974264,596.31634001,303.381737329,-196.458583888,115.933187558,219.757710168,428.027591999,95.0667885525,-23.4829445425,-82.3811604469,-205.021704321
290.48,170.081334315,291.695122201,596.165091581,302.070710947,-200.174500736,113.858733191,217.271113379,428.027591999,94.8322878421,-25.7925415756,-82.3811604469,-205.021704321
291.5,185.435578194,310.465785184,599.838601315,308.4346447,-190.032081387,118.092229896,221.956601719,428.027591999,96.3562499107,-19.9409977061,-82.3811604469,-205.021704321
292.52,218.93349212,352.451525295,609.756242164,328.22497309,-159.73150872,126.744549319,230.182144684,428.027591999,96.3844406744,-18.4691377563,-82.3811604469,-205.021704321
293.54,262.70807908,400.685442199,617.192420561,341.082642907,-119.770245886,141.322672663,241.599290266,428.027591999,96.3844422187,-3.13818031378,-82.2693926268,-205.021704321
294.56,297.65084409,437.622357248,629.945872854,353.86042764,-105.710819327,154.081019355,254.240125803,428.027591999,96.3844422188,5.49635613528,-81.6432670123,-205.021704321
295.58,328.93085387,466.313956462,636.995195247,362.122521418,-83.943915204,168.22306238,260.796330744,428.027591999,96.3844422188,11.5968439685,-80.8520592885,-205.021704321
296.6,344.495810444,481.916368267,642.337206666,366.631218325,-76.2149923023,172.225835076,261.679672801,428.027591999,96.3844422188,18.2076182296,-80.2835372626,-205.021704321
297.62,335.856937997,473.946170419,640.791297141,364.594414946,-81.5774534182,168.715760266,259.297940931,428.027591999,96.3659477762,14.6848634534,-80.2526906604,-205.021704321
298.64,287.575225718,433.829763319,627.876928576,351.89353112,-112.076435691,144.933273144,244.107016055,428.027591999,96.3657841554,10.1032389553,-80.2529253909,-205.021704321
299.66,235.669601583,383.42781884,618.940738531,336.105786992,-149.291509304,126.217300005,234.09172305,428.027591999,96.3657841447,-4.29164882678,-80.3927735162,-205.021704321
300.68,192.355091857,342.461513148,607.353350423,323.213155106,-174.138536885,111.481687121,219.803424735,428.027591999,93.3341561546,-18.2586565656,-80.3978032043,-205.021704321
301.7,168.804625684,316.181971003,603.35904216,314.45066676,-193.608871777,104.301156383,214.67784044,428.027591999,93.0046204807,-23.7271552867,-80.3978033541,-205.021704321
302.72,159.733443507,305.749470375,603.190938079,311.630420612,-200.242242018,101.183699068,211.233480197,428.027591999,92.7472833148,-27.2771112592,-80.3978033541,-205.021704321
303.74,170.58844985,320.009768661,606.467643237,316.684712786,-193.527423243,103.184837572,213.474297601,428.027591999,93.7623874035,-21.9327479002,-80.3978033541,-205.021704321
304.76,201.50657068,355.442890984,613.392781962,329.820213816,-171.416622897,113.567288667,225.524700482,428.027591999,93.8576719231,-18.359658128,-80.3978033541,-205.021704321
305.78,248.165040018,408.504127086,621.860446706,347.06394709,-128.167626473,128.92148976,232.936907601,428.027591999,93.8576810938,-5.40974159215,-80.3978033541,-205.021704321
306.8,288.533039745,449.595654735,638.470540759,361.604066675,-113.463094095,142.858510773,249.519516479,428.027591999,93.8576810942,5.5775504062,-80.1155866925,-205.021704321
307.82,322.721498356,482.543504838,645.284391018,370.871046483,-88.9572500666,157.427804268,257.841744711,428.027591999,93.8576810942,14.2694354597,-79.7041425233,-205.021704321
308.84,342.764421693,501.272429481,651.906864528,376.330390564,-78.735213707,163.443271055,259.520897132,428.027591999,93.8576810942,20.782257426,-79.5383331974,-205.021704321
309.86,341.99687464,500.68703241,652.351162691,376.217615927,-79.3899025692,162.584950125,258.557269977,428.027591999,93.8298008562,20.872304158,-79.194258636,-205.021704321
310.88,306.289429247,468.690126882,640.626513201,366.275557134,-99.8014172538,148.773268274,249.124506228,428.027591999,93.8274618243,14.7154279062,-79.2507357766,-205.021704321
311.9,249.911789367,417.541940446,635.113035626,350.116419956,-143.637551627,122.193025487,232.52482051,428.027591999,93.8274616394,3.16442190061,-79.4565393434,-205.021704321
312.92,201.062351662,372.174887982,619.144856304,335.148218912,-167.315465031,106.904077972,215.332770982,428.027591999,92.4200513507,-13.7559829709,-79.662510083,-205.021704321
313.94,171.084907901,338.554893923,613.777918803,323.087565614,-194.245016858,98.4045177842,210.700641048,428.027591999,90.5415146699,-21.6073772584,-79.6625168314,-205.021704321
314.96,155.153647433,319.888820108,612.60797999,316.889102914,-205.702638275,92.879264345,204.03216454,428.027591999,89.3757081012,-26.9459161844,-79.6625168315,-205.021704321
315.98,156.649632537,322.033450854,613.676003721,317.947660355,-205.008026537,92.8751886394,203.739416037,428.027591999,89.4046042211,-26.0595735481,-79.6625168315,-205.021704321
317.0,184.323730717,353.016204893,618.59572319,328.654862626,-184.711422882,103.170706056,216.052552151,428.027591999,89.4930039516,-19.7255271845,-79.6625168315,-205.021704321
318.02,226.566192845,403.899896731,628.442041145,347.812072434,-147.038641415,115.89795988,220.211077349,428.027591999,89.4932667802,-14.685644611,-79.6625168315,-205.021704321
319.04,269.969449243,446.399714784,641.973508389,360.069228368,-127.56261735,132.034020762,238.762505134,428.027591999,89.493266792,1.07175299339,-79.0825584369,-205.021704321
320.06,306.530393319,483.69431238,648.268517824,370.923158012,-102.914844035,146.809784559,247.603915255,428.027591999,89.493266792,11.0003619394,-78.6973945686,-205.021704321
321.08,330.095828152,506.688395216,656.94102419,378.994998955,-88.6624713068,154.314691889,250.98300234,428.027591999,89.493266792,18.0568515964,-78.3999342296,-205.021704321
322.1,335.230825271,512.212683566,659.22414806,380.607698942,-86.3815384787,154.901714473,251.001782773,428.027591999,89.493266792,20.7750785709,-78.092475119,-205.021704321
323.12,307.448287583,486.069785848,649.574008889,372.607804626,-102.663365438,146.097107808,243.830038695,428.027591999,89.493266792,14.0704027042,-78.1917695722,-205.021704321
324.14,251.992278627,439.021587235,644.554915925,360.892960886,-147.099831115,118.092348141,225.657421926,428.027591999,89.493266792,8.29725817757,-78.1917986138,-205.021704321
325.16,196.50185139,388.400162701,625.381510023,343.847141741,-174.068864577,100.981187713,208.627722074,428.027591999,88.0331579308,-10.6227186071,-78.1917986153,-205.021704321
326.18,163.005658241,349.601176371,620.199191693,331.617517197,-203.294426777,92.016848174,203.614409526,428.027591999,85.4751347822,-19.4416100796,-78.1917986153,-205.021704321
327.2,146.891584017,331.788841066,618.563704816,326.340648165,-214.269558575,86.3850144033,197.456261442,428.027591999,85.4171759463,-24.4006253767,-78.1917986153,-205.021704321
328.22,146.178221903,331.903160919,619.232183322,326.741917994,-214.821562664,85.6333971039,196.675495307,428.027591999,85.8184286411,-24.350890416,-78.1917986153,-205.021704321
329.24,168.637677936,356.62501564,623.425600259,333.868052806,-199.359943553,93.1314458031,205.791199712,428.027591999,86.2820938681,-17.6588706354,-78.1917986153,-205.021704321
330.26,210.913524214,408.163339332,635.047865204,355.446190559,-163.034921346,104.805356625,212.466469244,428.027591999,86.2822606903,-14.8013142445,-78.1917986153,-205.021704321
331.28,254.442340574,451.700698825,644.435787196,367.163619409,-138.813926735,121.405849899,229.83880685,428.027591999,86.2822606987,-0.60514182143,-78.1917986153,-205.021704321
332.3,292.297632569,490.971218705,653.297720936,379.738941291,-118.697271486,136.732429668,240.320298645,428.027591999,86.2822606987,7.61901184205,-77.6425672075,-205.021704321
333.32,321.257312884,518.825483665,661.475508998,388.621038276,-100.297184897,147.175722326,246.763195651,428.027591999,86.2822606987,14.350960318,-77.2298759434,-205.021704321
334.34,333.365612809,530.971037054,665.488792968,392.146430985,-95.0598040795,149.962607156,247.421505619,428.027591999,86.2822606987,19.9727230004,-76.8083604606,-205.021704321
335.36,314.050769861,513.146247434,659.676754308,386.859823999,-105.578059752,143.296620181,242.999707422,428.027591999,86.2822606987,13.7651265462,-76.8655165512,-205.021704321
336.38,263.253612342,469.801695292,651.396519686,374.518687171,-144.184097098,117.598085939,224.735715571,428.027591999,86.2822606987,10.4900971604,-76.8655405677,-205.021704321
337.4,205.767715349,415.363944623,636.556632605,356.841567732,-177.331142883,98.2006613182,208.796757409,428.027591999,85.7876295674,-6.26647762703,-77.1621847734,-205.021704321
338.42,166.185718529,374.099686,629.796067144,343.981949796,-208.298368982,86.3097977811,197.776870206,428.027591999,80.991831977,-20.0620308904,-77.1627488549,-205.021704321
339.44,145.415738919,350.373059058,626.931588923,336.437106951,-225.422110058,79.2752628081,192.121575949,428.027591999,80.5840934646,-24.4255811676,-77.1627488705,-205.021704321
340.46,140.810639678,345.484092483,627.01252332,335.443099833,-228.502150188,77.5960855135,190.059269697,428.027591999,80.5536352035,-26.1996343832,-77.1627488705,-205.021704321
341.48,160.107019957,368.811341207,631.282631247,343.122854025,-216.712195379,82.8928488231,196.17544768,428.027591999,81.4983600557,-17.7252437092,-77.1627488705,-205.021704321
342.5,197.38162098,413.717255737,642.501241502,362.627620416,-189.971088377,93.585048443,206.821114788,428.027591999,81.5085895298,-14.8656543915,-77.1627488705,-205.021704321
343.52,246.557930281,467.495678652,650.947581516,379.305950071,-153.812856524,111.984349624,219.266580239,428.027591999,81.7711291388,0.784847204648,-77.1627488705,-205.021704321
344.54,287.496903527,511.308753956,664.563704189,394.314727648,-136.898488173,125.736033463,233.593930423,428.027591999,81.7753032796,10.7919472226,-76.7687623383,-205.021704321
345.56,319.533798751,541.44274555,671.396599311,403.305681518,-115.890102352,139.209181623,241.1957514,428.027591999,81.7753034029,17.6393262888,-76.0892631971,-205.021704321
346.58,335.627424328,556.66086645,676.620064846,407.516430975,-108.412681381,143.611722942,242.630069325,428.027591999,81.7753034029,22.9144270531,-75.4248656523,-205.021704321
347.6,321.666476572,544.759969059,674.184344661,404.933985527,-115.695426535,138.194567714,239.110763396,428.027591999,81.7753034029,16.610632951,-75.8632086442,-205.021704321
348.62,279.720917226,507.019785994,661.436874312,393.141183193,-138.698003272,121.850324252,225.578019558,428.027591999,81.7753034029,11.830019358,-75.8641039905,-205.021704321
349.64,219.048649301,451.898772715,651.600484763,377.688692903,-179.127858754,98.4401928458,210.528847265,428.027591999,81.7753034029,-3.61129591464,-76.5490403707,-205.021704321
350.66,174.694966193,411.251079562,641.800292376,365.928775879,-201.864684511,84.1916694437,194.30649457,428.027591999,80.4568045163,-18.4825857677,-76.5731443755,-205.021704321
351.68,144.760355252,376.093278104,636.368105893,352.712394039,-227.170028435,76.2932910689,188.15992605,428.027591999,79.3731146923,-25.4339082792,-76.5731451087,-205.021704321
352.7,133.06359644,363.171514597,636.142699653,349.446896717,-235.216164865,72.4648467942,183.679765385,428.027591999,79.0904150304,-29.8456359766,-76.5731451087,-205.021704321
353.72,140.133894117,371.806571926,638.06088197,352.519656288,-231.395394594,74.1333024567,185.420080088,428.027591999,79.6840768327,-26.4721609976,-76.5731451087,-205.021704321
354.74,169.326883906,402.804382079,643.202849895,362.701828744,-211.73185965,84.9562487183,196.765807257,428.027591999,79.7765362373,-23.3653475469,-76.5731451087,-205.021704321
355.76,220.272961719,466.168986737,653.323005221,387.135858292,-161.887167893,98.650300622,203.382270693,428.027591999,80.0040110097,-9.66326652926,-76.5731451087,-205.021704321
356.78,263.53087406,509.584973175,670.278690005,400.845655504,-145.56820443,112.851129315,223.215161004,428.027591999,80.0318633377,3.00313549049,-76.4501636578,-205.021704321
357.8,301.185394636,547.42153943,678.374137409,412.61102393,-120.925186049,128.777739888,233.046824738,428.027591999,80.0318641783,12.2751184001,-76.0232847008,-205.021704321
358.82,319.957981686,565.300962162,684.188778229,417.741555931,-112.16804711,134.392202948,234.468583,428.027591999,80.0318641783,18.1562734592,-75.5908378544,-205.021704321
359.84,318.751668399,564.443333433,684.685622834,417.815356119,-113.101463759,133.35761289,233.399285081,428.027591999,80.0318641783,17.3644486837,-75.4630198282,-205.021704321
360.86,281.087236265,529.554148134,672.427759179,406.835566894,-133.383228804,119.861607705,223.94733812,428.027591999,80.0318641783,11.5580400713,-75.4870726965,-205.021704321
361.88,221.459944912,477.306441193,667.104795046,394.056621373,-176.621687925,90.1686949645,207.287591957,428.027591999,80.0318641783,1.6507042106,-75.8338509862,-205.021704321
362.9,169.20203542,430.17437144,651.568591564,380.251158834,-200.411710306,73.9689948919,187.74265241,428.027591999,79.2238860906,-15.6849121488,-76.5163029668,-205.021704321
363.92,136.422244271,393.055515322,645.764787175,367.085783348,-227.736551599,64.4356899799,184.104385529,428.027591999,77.9656743161,-25.2101688433,-76.5163881678,-205.021704321
364.94,121.358172157,375.805084612,644.943683458,361.906597949,-237.861522577,59.5370093208,177.904200991,428.027591999,77.6688837441,-30.8772771736,-76.5163881701,-205.021704321
365.96,123.179738312,378.616066711,646.21210206,363.177996147,-237.031678401,59.5309030294,177.55509011,428.027591999,78.2188021413,-30.3402130415,-76.5163881701,-205.021704321
366.98,151.731978212,409.851133518,650.450579419,373.142301987,-218.220419159,70.6344753432,190.118378727,428.027591999,79.0254797294,-25.2125414269,-76.5163881701,-205.021704321
368.0,201.34704887,474.274371611,662.720086232,400.268560902,-169.025814283,82.6304676533,193.299871858,428.027591999,79.0257589459,-17.9147058805,-76.5163881701,-205.021704321
369.02,249.404865103,523.882421528,676.248430023,414.404874354,-144.964917128,100.289775837,212.741792931,428.027591999,79.1542985775,-0.126582193621,-76.5163881701,-205.021704321
370.04,284.585879598,560.148382516,682.289272398,424.48700663,-122.886058971,115.212785851,221.855678383,428.027591999,79.1544232375,8.33430004074,-75.8473589275,-205.021704321
371.06,308.401811736,582.886269898,690.599110628,431.738547696,-110.444318481,123.793222057,224.511078265,428.027591999,79.1544232407,13.7259515292,-75.4288795563,-205.021704321
372.08,311.809386099,586.607064749,692.348769825,432.972899514,-109.341986339,124.164092615,224.299783078,428.027591999,79.1394607812,14.8171607323,-75.6293607367,-205.021704321
373.1,278.661980887,554.987561341,681.579881193,423.550676468,-126.71550994,112.548580486,216.279456462,428.027591999,79.1319954272,6.45580150391,-75.7491755756,-205.021704321
374.12,223.282437319,506.169406626,676.892075475,412.236163987,-168.011631739,83.9462210114,197.567562882,428.027591999,79.1319946424,1.11728194361,-75.7882883385,-205.021704321
375.14,164.49390493,451.828478512,657.573684209,394.610799965,-196.437016678,65.5876413611,180.848634188,428.027591999,78.115847196,-17.2564259895,-76.7527618192,-205.021704321
376.16,129.263317021,413.002746085,651.758247404,382.927935959,-224.263477144,55.0961191641,174.976557011,428.027591999,75.327164888,-26.8620912846,-76.7530579584,-205.021704321
377.18,111.47897156,392.621873381,649.943710104,376.922445834,-236.095310058,49.027385152,168.046259467,428.027591999,74.9986815663,-32.0733965536,-76.7530579664,-205.021704321
378.2,110.575355303,392.582583537,650.601460929,377.316657351,-236.86064404,48.1903871376,167.173921849,428.027591999,75.4731779812,-32.2807994447,-76.7530579664,-205.021704321
379.22,135.757693928,420.673106218,655.099839404,384.691442152,-219.998939648,56.3241576989,177.12839008,428.027591999,76.2005036416,-24.0444752274,-76.7530579664,-205.021704321
380.24,180.679387606,476.675160817,667.243241081,407.98377251,-177.86277221,67.7661553469,183.676063205,428.027591999,76.203007423,-20.3149877368,-76.7530579664,-205.021704321
381.26,230.175437826,527.216189664,677.097184737,420.450179929,-149.206408973,87.0192827483,202.155460134,428.027591999,76.2030075511,-4.12365863744,-76.6250140949,-205.021704321
382.28,268.697920594,567.868379073,686.304752878,432.326549166,-131.155279768,101.625287193,214.523925697,428.027591999,76.2030075511,4.53330340327,-75.9218916397,-205.021704321
383.3,303.25504699,600.781367103,696.149075027,442.797323117,-109.059085373,115.700159109,221.880206673,428.027591999,76.2030075511,12.7055582569,-75.3350301086,-205.021704321
384.32,315.050944551,612.627994516,700.387001546,445.967516253,-103.88048296,118.077986495,222.457850863,428.027591999,76.2030075511,17.476269776,-75.0273076338,-205.021704321
385.34,291.093069873,590.98764314,694.107279952,440.411949331,-117.020621854,109.013025154,216.910016397,428.027591999,76.2030075511,8.95512865805,-75.4734628313,-205.021704321
386.36,240.244107805,547.205858171,684.928857503,429.173805923,-150.446275047,83.7180584881,199.018350387,428.027591999,76.2030075511,6.4278585753,-75.4738832008,-205.021704321
387.38,183.471931962,492.003181246,668.876180923,411.614110428,-180.330494913,66.3943531437,187.323044439,428.027591999,76.2030075511,-9.40677534175,-75.623848162,-205.021704321
388.4,137.415848214,444.351482174,657.502128741,394.581193781,-215.511935097,54.0639576311,175.988765174,428.027591999,73.5052767405,-25.8224777687,-75.6245938718,-205.021704321
389.42,110.164380032,413.996734495,653.009188769,384.779853375,-235.383931107,45.4238131821,168.873768434,428.027591999,73.2441901697,-33.1667663338,-75.6245938956,-205.021704321
390.44,102.100537827,405.249779857,652.840785048,382.851996626,-239.784337216,42.5668030041,165.60871276,428.027591999,72.9346702548,-36.4152566546,-75.6245938956,-205.021704321
391.46,115.551731934,420.789488338,655.554819336,387.765599288,-231.40456363,46.3624673816,169.822934997,428.027591999,73.4801723344,-30.6294580242,-75.6245938956,-205.021704321
392.48,154.228567811,468.882339602,665.99299768,408.697259503,-202.362247852,57.4447726641,180.38921586,428.027591999,73.5417437161,-27.9556211562,-75.6245938956,-205.021704321
393.5,202.085133463,518.5179315,673.163702309,420.811030371,-168.985285159,74.8608911033,191.290820682,428.027591999,73.541746946,-14.5281398067,-75.6245938956,-205.021704321
394.52,243.928174832,562.748590393,687.390681444,435.830446869,-153.777794083,88.4656153563,205.828362614,428.027591999,73.5417469461,-5.10957755657,-75.4076074557,-205.021704321
395.54,274.415080935,592.606238441,692.673233655,443.924374962,-134.264802073,100.637353001,212.236958022,428.027591999,73.5417469461,0.697157727842,-74.8906877414,-205.021704321
396.56,294.506249427,611.771934495,698.969985976,449.28348539,-125.392162449,105.792872365,213.867779274,428.027591999,73.5417469461,8.11520485542,-74.5626138055,-205.021704321
397.58,290.646748365,608.114943865,698.260190364,448.294448086,-127.367938154,104.17565879,212.867081411,428.027591999,73.5829971506,7.09220341116,-74.3923665839,-205.021704321
398.6,244.095692668,568.518138274,686.779705533,437.223042611,-153.939124781,82.3881298561,199.23968875,428.027591999,73.5827357056,3.41484021481,-74.3930469045,-205.021704321
399.62,185.012655603,513.670348917,677.86180615,422.137713181,-193.14598981,59.3167333159,185.660542625,428.027591999,73.5504197121,-9.40548743794,-75.0323022565,-205.021704321
400.64,138.025835802,469.992777164,665.645413357,409.119554813,-217.670562714,44.1160422246,170.773875049,428.027591999,69.2418392955,-23.358109598,-75.0629882164,-205.021704321
401.66,109.197285765,436.916077501,659.973438944,397.628730769,-239.403057612,36.1368559836,165.76043863,428.027591999,67.7501982793,-29.5587556126,-75.0629891567,-205.021704321
402.68,95.7988030183,420.682778261,659.506570384,392.687056502,-249.502516752,32.0598113895,160.568366686,428.027591999,66.4109212003,-35.6938324723,-75.0629891568,-205.021704321
403.7,103.326690039,429.674957092,661.747111987,395.619507229,-245.446168937,33.5350239576,162.094156812,428.027591999,66.503443215,-31.6525832383,-75.0629891568,-205.021704321
404.72,140.298123083,471.105318564,668.848437081,410.038259069,-220.440910277,46.7810102187,175.857346733,428.027591999,66.5059733165,-26.5949129618,-75.0629891568,-205.021704321
405.74,201.800403984,545.232052005,682.874167541,437.574310061,-162.334526716,64.3914585552,183.74006812,428.027591999,66.5059734739,-11.0044087299,-75.0629891568,-205.021704321
406.76,250.873769016,595.163140942,700.659490517,453.179544232,-144.61388238,80.5042738358,203.255111421,428.027591999,66.5059734739,2.56310557192,-74.6176491818,-205.021704321
407.78,287.697610714,631.692197618,706.633577656,463.336371839,-120.496130177,96.8314570838,210.735685595,428.027591999,66.5059734739,10.6504015877,-73.6480880397,-205.021704321
408.8,303.846192963,646.209060559,711.360703353,467.535418482,-113.953509615,102.20193325,212.091024901,428.027591999,66.5059734739,14.0495633196,-73.1655200186,-205.021704321
409.82,293.691048493,638.343765118,710.461226973,466.329723331,-118.631760902,97.976446865,208.765826149,428.027591999,66.5059734739,8.38214789044,-74.5359667678,-205.021704321
410.84,249.581453209,596.609137205,695.071468418,453.79485955,-140.029970185,84.5261360316,195.275682988,428.027591999,66.5059734739,0.595242687767,-74.5846597449,-205.021704321
411.86,183.097891876,537.671593556,688.906762668,439.687900486,-183.896640641,53.0093407036,175.949116399,428.027591999,66.5059734739,-11.7263968007,-75.2871552168,-205.021704321
412.88,124.793197431,485.161548803,670.966416255,423.205328071,-208.832359151,34.487249982,155.137184815,428.027591999,64.8516713886,-28.8893255196,-75.994006963,-205.021704321
413.9,86.93402415,439.866498868,664.10768349,407.02394254,-244.946044123,25.1000394416,150.860548546,428.027591999,61.0113006491,-39.000811637,-75.9940306987,-205.021704321
414.92,71.6515425963,422.178402024,662.839212982,401.932365851,-256.521834729,20.2352248963,144.831991057,428.027591999,60.8196324096,-44.6501187566,-75.9940306993,-205.021704321
415.94,78.0416840346,431.108177695,665.109838555,404.789150685,-253.679301374,21.0367641017,145.911348771,428.027591999,61.8123846589,-41.1347593262,-75.9940306993,-205.021704321
416.96,108.076647817,462.492479447,670.532252645,412.584340318,-235.342252746,31.5262210808,158.648815281,428.027591999,61.9143541659,-33.7651296979,-75.9940306993,-205.021704321
417.98,157.514764178,523.521533843,683.878972502,436.099271577,-191.438970715,43.353247488,162.429273434,428.027591999,61.9143602168,-26.7127650152,-75.9940306993,-205.021704321
419.0,208.966226713,575.474746268,698.290988176,450.802562516,-169.408729994,61.3825805118,183.692427375,428.027591999,62.0342915579,-10.9071759934,-75.8964194913,-205.021704321
420.02,249.567737475,619.010603641,704.03691798,463.180787799,-144.325428858,77.518489209,195.477446699,428.027591999,62.0344509024,-1.8466765931,-75.1425719483,-205.021704321
421.04,278.832675146,645.636753194,712.940566868,471.464163188,-130.55034969,87.5881011117,198.764145118,428.027591999,62.0344509068,2.6116474987,-73.8830492995,-205.021704321
422.06,291.95555896,657.296745304,716.451498655,474.255623325,-125.807023494,90.9628428357,200.046962769,428.027591999,62.0362412635,8.45623957041,-72.5177568496,-205.021704321
423.08,268.245683272,635.338354718,709.222975938,467.479574086,-137.664739263,82.7503213544,194.787756221,428.027591999,62.0316514494,2.86407965304,-72.5660612551,-205.021704321
424.1,211.90432151,586.72481083,703.893462049,456.325384456,-179.882917197,55.0888541719,176.626088963,428.027591999,62.0316495991,-2.00616574532,-72.5660848525,-205.021704321
425.12,158.449412782,536.83853105,686.990545542,439.60524892,-202.828000438,39.2849514868,161.492389068,428.027591999,61.5749210111,-16.4421389629,-72.9699115903,-205.021704321
426.14,116.823318472,491.295247912,678.803869435,424.133207416,-236.674323778,28.3542132943,155.467676965,428.027591999,56.613862586,-29.5220870201,-72.9699867692,-205.021704321
427.16,95.7457426155,467.297242955,676.203273335,416.904142804,-250.213785299,21.7382790854,147.811182215,428.027591999,56.0742214366,-34.8951126284,-72.9699867714,-205.021704321
428.18,89.1536456648,459.699588459,676.060670497,415.17692845,-253.785171867,19.5446646456,144.578398532,428.027591999,55.4505676522,-37.6474475539,-72.9699867714,-205.021704321
429.2,108.853118581,481.272871628,679.478881916,421.194194649,-241.086594739,25.8729613683,151.950282349,428.027591999,55.6858624911,-31.3394289164,-72.9699867714,-205.021704321
430.22,159.207288515,543.063423005,695.37759151,447.7242636,-197.263853297,38.3519423799,159.81428031,428.027591999,55.8285545771,-27.9362599171,-72.9699867714,-205.021704321
431.24,218.498202245,609.126742485,707.825653018,465.879896042,-156.623021262,58.7393852486,179.683976076,428.027591999,56.2756663451,-5.36924285486,-72.9699867714,-205.021704321
432.26,261.329130987,653.953652347,718.528216302,479.573220242,-137.088475905,75.9625648234,191.392730974,428.027591999,56.2793536184,2.28667562883,-71.0621409609,-205.021704321
433.28,287.348776807,678.9901436,725.290865318,487.025436999,-122.929734585,86.0992598463,197.027906315,428.027591999,56.2793537136,7.10559912118,-69.9471557057,-205.021704321
434.3,291.120117481,682.947223721,726.723325591,488.271235827,-121.293776165,87.0434649362,196.89212101,428.027591999,56.2793537136,7.78028315576,-70.307716533,-205.021704321
435.32,258.162600454,653.933619872,719.623327351,481.922691621,-139.564178319,75.3515474817,188.597429298,428.027591999,56.2793537136,-6.66091204838,-71.8050061783,-205.021704321
436.34,200.810878125,602.373914071,708.729664226,467.22343646,-174.880386497,49.7475953896,166.847107484,428.027591999,56.2793537136,-10.7761935776,-71.8056238975,-205.021704321
437.36,133.85409131,536.820398618,693.764132701,448.301427881,-214.082728054,29.4610843885,153.739260362,428.027591999,56.2793537136,-29.0420261967,-72.5570578104,-205.021704321
438.38,88.287079457,491.007806199,684.983590031,435.645500397,-241.639154982,15.7200971558,142.155124602,428.027591999,54.563047568,-43.0842606782,-72.565466452,-205.021704321
439.4,62.7303487022,462.878832663,680.43638173,426.876851382,-260.820109297,7.85420814523,136.153907022,428.027591999,54.21873393,-48.754726719,-72.5654666914,-205.021704321
440.42,56.6608777544,455.872974042,680.311880431,425.026277146,-264.867972367,5.87543420727,133.916189431,428.027591999,54.1137111132,-51.2630489886,-72.5654666914,-205.021704321
441.44,79.571071701,483.444281954,685.874157924,433.319477805,-253.011593007,11.9679494805,139.85023561,428.027591999,56.4183443743,-43.1332146901,-72.5654666914,-205.021704321
442.46,120.238539727,528.646494682,695.820379398,450.632849403,-224.315777689,24.5117605701,150.645675835,428.027591999,56.4529455824,-40.7838823152,-72.5654666914,-205.021704321
443.48,179.161338261,598.618937565,706.425544009,473.49204444,-176.630728744,43.2142273139,162.797499996,428.027591999,56.7899933567,-22.214638947,-72.5654666914,-205.021704321
444.5,225.238595587,647.699117755,722.161494816,489.483438244,-160.318499661,58.3576065239,178.33358146,428.027591999,56.8358719224,-13.6363355006,-72.0168453795,-205.021704321
445.52,261.462404341,682.081695658,730.10325114,498.844499538,-139.793018765,73.4272768326,186.661127345,428.027591999,56.8358732535,-6.76658155343,-71.3093177703,-205.021704321
446.54,283.081066816,703.299899917,736.596592271,504.497204604,-130.580712895,78.974403529,188.561254037,428.027591999,56.8358732535,0.762439875269,-70.8844567974,-205.021704321
447.56,278.337943684,698.73409844,735.898083184,503.305711096,-133.017693171,76.8404276157,187.04225474,428.027591999,56.8358732535,-0.660109162197,-70.6821809717,-205.021704321
448.58,233.774296669,657.567757711,724.241156699,491.571354999,-155.119093136,57.9938851261,173.831989487,428.027591999,56.8358732535,-4.46437541407,-70.6826619568,-205.021704321
449.6,166.676167476,598.3035672,713.829644829,476.920071923,-195.02995981,27.614242988,158.565100728,428.027591999,56.8358732535,-17.7955204056,-71.00176156,-205.021704321
450.62,118.21503467,553.079632816,701.426276141,463.267329938,-217.658634806,12.8362622857,142.03672531,428.027591999,54.9894254749,-32.354589632,-71.0749284849,-205.021704321
451.64,86.1851109095,515.905931745,695.647550376,451.644329795,-243.375731092,4.58621589649,136.54637023,428.027591999,54.0221298187,-40.0446339639,-71.074930777,-205.021704321
452.66,71.8373114514,499.19570637,695.315979451,447.645411828,-253.020017804,0.356951466913,131.559038282,428.027591999,53.7706634739,-46.2257280746,-71.074930777,-205.021704321
453.68,76.851373616,505.312320216,696.972492088,449.881223873,-250.5767957,1.29542418208,132.283337764,428.027591999,53.8238919638,-43.9542465191,-71.074930777,-205.021704321
454.7,114.907752035,545.545399471,703.446022667,462.005982918,-224.796954242,15.5198790552,146.602818417,428.027591999,53.9830361431,-39.7719987283,-71.074930777,-205.021704321
455.72,174.921342358,621.79181463,717.745798637,494.74719684,-177.589630735,32.14999952,153.92248652,428.027591999,54.1324795245,-24.7120956958,-71.074930777,-205.021704321
456.74,222.783621941,670.360387654,735.442468661,509.934854911,-161.853102207,47.3668238486,171.897647634,428.027591999,54.1324894687,-13.7901260352,-71.0123436638,-205.021704321
457.76,257.53053984,704.826768622,740.84804291,518.916051946,-140.107821443,62.3690527453,180.533195864,428.027591999,54.132489469,-7.61796911739,-69.0236236206,-205.021704321
458.78,274.916684146,720.543626578,745.782276698,522.83851024,-132.272061386,67.6264471539,182.482639317,428.027591999,54.132489469,-3.74194339066,-68.5546817077,-205.021704321
459.8,271.026546998,717.21518701,745.797080079,522.367767842,-134.169193995,65.8950611085,180.818996698,428.027591999,54.0556864676,-5.84774961876,-68.6840800736,-205.021704321
460.82,225.600835203,673.891971137,729.848895274,509.345733276,-156.120849864,51.3106761324,168.238802422,428.027591999,54.0498724891,-12.5059648155,-68.6872458015,-205.021704321
461.84,159.348862517,615.195344318,724.607097586,496.905858315,-200.357654388,17.9472823839,148.604007647,428.027591999,54.0498720388,-23.7646832031,-68.9068937663,-205.021704321
462.86,100.456030877,559.719336612,706.507205382,478.803303294,-227.025866182,0.34513267826,127.259837253,428.027591999,51.6210333306,-42.7809283324,-69.1667101201,-205.021704321
463.88,62.4975980062,516.062839851,698.945787606,465.410868171,-258.453287228,-9.91335876588,122.562541015,428.027591999,49.7173340668,-53.4710808099,-69.1667182189,-205.021704321
464.9,46.2677628381,497.773002277,697.711913401,460.250236397,-268.111025205,-15.6068914761,115.577694122,428.027591999,49.6675264249,-58.3087241601,-69.1667182191,-205.021704321
465.92,51.3622272056,505.187116632,699.956929394,463.178000734,-266.115834158,-14.9801015523,116.234594838,428.027591999,50.4638090668,-56.4813569656,-69.1667182191,-205.021704321
466.94,86.541429041,542.579083514,706.474293248,473.437719031,-246.058308533,-2.7407834755,131.14503071,428.027591999,50.9579756096,-48.1606121754,-69.1667182191,-205.021704321
467.96,147.017605666,618.999813596,724.022342529,507.407594087,-199.043048499,13.43802951,135.749123834,428.027591999,50.9580299953,-39.4876710538,-69.1667182191,-205.021704321
468.98,202.963690721,675.799202919,738.836406855,523.443500796,-175.903012629,32.9253165031,158.989611713,428.027591999,51.0870229087,-22.67984433,-69.1667182191,-205.021704321
470.0,244.144646108,720.695827338,745.251196912,536.89942359,-152.936172137,49.0794989976,170.28688158,428.027591999,51.0872808792,-14.2753644016,-67.6820538606,-205.021704321
471.02,273.301728003,747.497290932,753.113033033,545.135590801,-138.215672451,60.012309183,174.623734036,428.027591999,51.0872808856,-7.47276558558,-66.601426993,-205.021704321
472.04,283.43340909,757.190990952,756.712259896,547.504138888,-134.658649445,61.8581906791,175.569932671,428.027591999,51.0895803622,-2.9607268391,-66.2018961715,-205.021704321
473.06,252.975534932,728.979011025,746.736256375,538.876759833,-148.654379829,50.6566528176,169.348672433,428.027591999,51.0702223213,-9.22212190824,-66.2205846039,-205.021704321
474.08,190.267014877,674.790858619,740.779592386,527.566393149,-191.127927728,18.6226248079,149.023493741,428.027591999,51.0702169478,-13.8100670511,-66.2205897595,-205.021704321
475.1,130.920042932,618.663369845,722.008771651,509.455739997,-216.445987947,1.83352150546,134.207551663,428.027591999,50.9111866784,-27.8434241613,-66.4941151678,-205.021704321
476.12,89.1840622957,574.867637995,714.41313639,494.469127336,-241.841985949,-11.1084222172,127.007003507,428.027591999,48.9141407719,-43.3583670207,-66.494235392,-205.021704321
477.14,60.2728497031,543.477745723,710.317431188,484.353304568,-260.451665796,-20.9454113722,117.308840884,428.027591999,47.9038427074,-53.9518511575,-66.4942353957,-205.021704321
478.16,52.2314770476,534.476199476,710.122399362,482.434947949,-264.345379019,-23.5416184962,113.777444833,428.027591999,47.2385101829,-56.7741812058,-66.4942353957,-205.021704321
479.18,71.8942967715,556.138174208,713.709601837,488.492088007,-251.519756535,-17.0262365908,121.122919483,428.027591999,47.9615405508,-51.9185745764,-66.4942353957,-205.021704321
480.2,126.218125293,623.458839311,732.353953597,520.697249625,-214.070337427,-3.35098355038,129.383358139,428.027591999,48.1005175412,-47.1516903759,-66.4942353957,-205.021704321
481.22,181.51221616,681.560067102,743.088979086,536.222584372,-183.042438125,16.1384274478,145.557544309,428.027591999,48.3240736127,-30.1336370319,-66.4942353957,-205.021704321
482.24,220.880481081,722.887478564,753.697347764,547.581882368,-167.678048264,28.7072206118,157.906069305,428.027591999,48.3373068363,-20.8097119459,-66.0966966869,-205.021704321
483.26,251.193846029,752.377563135,761.308770271,555.805009874,-152.093865981,39.7471697972,165.901327238,428.027591999,48.3373072261,-14.8996141273,-65.4498054129,-205.021704321
484.28,267.137973581,766.846192576,766.516173446,559.351246712,-146.386119302,43.6389443452,167.134453516,428.027591999,48.3373072261,-9.82389302675,-64.6213770275,-205.021704321
485.3,252.131918172,752.768759871,761.852025715,555.47434587,-152.943608167,38.7668860993,163.557097791,428.027591999,48.3444813028,-14.1588107602,-64.604908222,-205.021704321
486.32,192.975453442,702.716401828,749.820520224,543.780308887,-185.90512213,9.09927723306,143.370336455,428.027591999,48.3444637845,-17.660390579,-64.6050459321,-205.021704321
487.34,130.793905341,641.214561755,735.145824421,526.220536628,-221.151122154,-9.30452797496,129.032943706,428.027591999,48.1497204975,-35.4027409071,-64.8451172024,-205.021704321
488.36,84.2840333069,593.789126651,724.993580226,510.420454994,-252.493621638,-22.9249138891,116.914314361,428.027591999,43.3408165668,-51.8283174602,-64.851523464,-205.021704321
489.38,55.4824423488,561.93346934,719.729470043,500.359671695,-271.13398528,-32.3129205262,109.972515535,428.027591999,42.9684788066,-60.3877643681,-64.8515236623,-205.021704321
490.4,45.16556239,550.466214158,719.419261465,497.823349218,-276.788117512,-35.6402745027,106.15487342,428.027591999,42.4768419152,-64.5634029576,-64.8515236623,-205.021704321
491.42,61.6853526291,569.854961367,723.341385875,503.760781222,-268.215572087,-31.3706275376,110.901886033,428.027591999,42.9114590502,-57.7116952774,-64.8515236623,-205.021704321
492.44,118.325959031,638.116159182,739.417501167,530.899370386,-224.510121468,-15.2755058395,125.511193431,428.027591999,43.058306554,-53.3426806832,-64.8515236623,-205.021704321
493.46,183.521423332,707.43290734,749.954834976,548.426788592,-179.36567091,8.26437488491,139.616965759,428.027591999,43.0583149015,-36.8569893048,-64.8515236623,-205.021704321
494.48,233.994086851,760.256369469,766.067164371,565.544662862,-162.715092031,24.7314634008,157.930954077,428.027591999,43.0583149018,-27.6560360328,-64.4029407953,-205.021704321
495.5,268.982614255,793.411867139,771.102382064,574.593579391,-142.094759653,40.7847765471,165.752345011,428.027591999,43.0583149018,-22.1867418478,-61.9916573661,-205.021704321
496.52,287.620050354,809.881990342,776.904588368,578.344030157,-134.385563661,45.8750636547,166.991660648,428.027591999,43.0583149018,-16.8478338463,-61.511030578,-205.021704321
497.54,273.583275558,797.573562167,774.797900753,575.923216119,-140.567633136,40.7014234419,162.78107454,428.027591999,43.0583149018,-22.3730745184,-61.857696519,-205.021704321
498.56,214.190884432,744.42604191,755.760385408,560.517917274,-170.345393784,18.8535585576,146.878513746,428.027591999,43.0583149018,-29.5708831101,-61.8612578429,-205.021704321
499.58,142.525582955,676.755286796,745.664854249,542.414507626,-212.828907855,-9.2217221539,132.0496588,428.027591999,43.0583149018,-44.5961124098,-62.4114824153,-205.021704321
500.6,87.3369618491,625.82575628,732.683791805,528.686646939,-237.365331179,-26.6849884292,113.885592785,428.027591999,39.5945797756,-61.2787646608,-62.4603985636,-205.021704321
501.62,50.3580298198,582.143707121,725.880717911,515.168282172,-265.684791577,-35.9983169073,108.390887803,428.027591999,38.4297768229,-70.5436266596,-62.4604000737,-205.021704321
502.64,34.534211044,564.974272043,725.233649775,510.678371696,-274.866911741,-41.2399000473,103.139129515,428.027591999,37.9528213225,-76.1437438516,-62.4604000738,-205.021704321
503.66,44.1466416505,578.576471795,728.42310707,515.440709553,-270.100338645,-39.561313339,104.803840195,428.027591999,40.5140224884,-72.9838405286,-62.4604000738,-205.021704321
504.68,86.6960353578,623.907249672,735.447495284,528.316816611,-245.461104481,-23.1092705893,120.75999364,428.027591999,41.7385158997,-67.710490444,-62.4604000738,-205.021704321
505.7,151.47580887,706.250708519,750.830752147,560.207446937,-187.837894452,-7.06434202872,128.42396664,428.027591999,41.8444411166,-54.6874543457,-62.4604000738,-205.021704321
506.72,203.796927812,758.143694923,768.317415723,574.851023118,-171.799414284,9.27812731946,150.215219365,428.027591999,41.88206088,-40.6981530982,-62.4604000738,-205.021704321
507.74,244.27796536,800.137338859,775.150792528,585.357048409,-148.421243788,25.7982528849,160.029541333,428.027591999,41.8820619229,-30.5821913506,-62.0310116164,-205.021704321
508.76,270.849318415,826.666509542,783.391572932,592.6406109,-136.950329576,32.9827494943,162.333531768,428.027591999,41.8820619229,-21.9409983553,-61.6799418029,-205.021704321
509.78,277.173586525,832.508869869,785.307991934,593.809006119,-134.820256547,34.2520261375,163.010346084,428.027591999,41.8955012201,-18.9536107862,-60.9363032085,-205.021704321
510.8,237.340800242,793.685581809,768.797243529,581.394159447,-151.606855138,22.3437525106,153.233544828,428.027591999,41.89171541,-24.1430243651,-60.9376596283,-205.021704321
511.82,169.19909926,734.650751268,763.880469018,570.126153807,-194.557015259,-14.75070628,131.386770669,428.027591999,41.891714882,-32.9849195976,-61.2535089715,-205.021704321
512.84,107.357062587,679.020630312,744.132216811,553.464054539,-219.081598388,-33.5943086189,110.893346486,428.027591999,40.7930573955,-49.5018428934,-61.9152899901,-205.021704321
513.86,66.9779663201,632.005150795,736.240422014,537.452887638,-247.834987292,-44.6956039473,106.11236668,428.027591999,36.6680075896,-63.1684894203,-61.9153500038,-205.021704321
514.88,46.5663540175,610.063751842,734.874012653,532.469379084,-258.701073974,-51.117029484,98.1638082746,428.027591999,36.552672633,-68.6564738897,-61.9153500057,-205.021704321
515.9,39.2356864093,601.200221575,734.07215965,530.533070387,-261.612736511,-53.1148126751,95.3518233753,428.027591999,35.638839513,-71.675348471,-61.9153500057,-205.021704321
516.92,64.6933975543,628.227313536,737.875287971,538.509563538,-244.102589823,-43.4804130951,106.324689919,428.027591999,36.0527396733,-66.7166204071,-61.9153500057,-205.021704321
517.94,121.90291916,701.206168616,755.389043162,570.78640167,-190.910376259,-30.0241663624,110.248868961,428.027591999,36.0561595756,-60.2405436153,-61.9153500057,-205.021704321
518.96,170.300582025,750.236999835,767.930376079,583.706263434,-171.104816648,-13.4576335846,130.949950257,428.027591999,36.1630094057,-46.3356453133,-61.9153500057,-205.021704321
519.98,204.259003623,786.997368561,773.853275398,593.449131685,-153.638486404,-0.868582287886,140.267226955,428.027591999,36.1659007505,-38.6195855678,-60.7994161853,-205.021704321
521.0,230.497996907,811.249640515,781.687390853,600.043286311,-141.291788582,8.51952278684,144.774790135,428.027591999,36.1659008235,-33.6712105375,-59.5842141842,-205.021704321
522.02,242.736803505,823.286041594,785.472299854,602.844979392,-136.581006638,11.2878674795,146.179894319,428.027591999,36.1785000083,-28.0356620402,-58.8989675416,-205.021704321
523.04,220.378590634,802.210283378,776.970929836,596.702652284,-146.367341357,4.20641218428,140.563506531,428.027591999,36.1746994175,-31.5985746655,-58.9020093058,-205.021704321
524.06,167.732290142,756.068288839,770.959632603,587.564899691,-179.008771696,-22.6444460238,122.190552656,428.027591999,36.1746966404,-34.9056226371,-58.90201158,-205.021704321
525.08,114.703016596,703.907054369,754.39335199,570.727438614,-202.127178495,-38.1386632359,107.680518427,428.027591999,36.0867027084,-50.0203908778,-59.0039193542,-205.021704321
526.1,80.0250937174,667.307894186,748.71271204,560.156783037,-226.250702162,-48.6215572911,101.551056317,428.027591999,34.6645877833,-62.6497124078,-59.0039577346,-205.021704321
527.12,55.3230769967,641.326135123,745.666984433,552.250084623,-239.692919716,-58.3424313362,93.2175936481,428.027591999,34.6024464002,-71.892007068,-59.0039577357,-205.021704321
528.14,49.1814720675,634.930747945,745.621175304,551.18176484,-242.716636714,-60.324337544,90.6744421148,428.027591999,34.5026097461,-74.6166932273,-59.0039577357,-205.021704321
529.16,70.794109208,658.145144674,749.628498381,557.712927403,-230.044749331,-53.4959937261,98.2086408047,428.027591999,34.5991197887,-67.6507609938,-58.902939507,-205.021704321
530.18,129.66682429,725.833194651,771.08372723,585.748419142,-187.078781525,-38.860782083,107.221327737,428.027591999,34.5991530093,-64.2512353034,-58.9028493737,-205.021704321
531.2,183.833624915,782.921682024,781.122611627,600.512690971,-154.803257383,-20.3324291308,123.212208999,428.027591999,34.717373488,-48.6372739509,-58.9028493695,-205.021704321
532.22,220.446189639,822.049599083,790.863748718,611.497029695,-139.509798781,-8.56537465226,134.457418264,428.027591999,34.8120000374,-40.8847796189,-58.560341885,-205.021704321
533.24,246.483452284,847.771602243,797.611944246,619.175998708,-125.207319802,1.16753102584,141.257420932,428.027591999,34.8120028008,-33.7366807902,-58.3036988117,-205.021704321
534.26,249.423468836,850.89830834,798.877366234,620.287462988,-124.036425948,1.8508824285,141.065906048,428.027591999,34.8120028009,-33.6577606763,-58.5912868674,-205.021704321
535.28,213.991283615,818.749214089,789.361817969,612.698206323,-139.232088982,-10.1481920468,130.615508001,428.027591999,34.8120028009,-45.7873691469,-59.2880524028,-205.021704321
536.3,145.683456911,756.902495727,773.52843632,597.054345587,-178.375804033,-41.8499572711,104.740810817,428.027591999,34.8120028009,-50.6814711252,-59.2882456713,-205.021704321
537.32,77.6234442529,688.799427558,757.164163299,576.792035066,-215.17436494,-62.9184478509,91.247397209,428.027591999,34.4939606269,-67.9831269713,-59.4175381381,-205.021704321
538.34,33.4826422439,642.877118983,747.733278087,563.759695778,-239.713559717,-76.1775671982,79.5211969274,428.027591999,30.6989312788,-81.3367355663,-59.4179204664,-205.021704321
539.36,8.76768802564,615.772518456,742.949020017,555.796089476,-254.635174566,-84.2240827956,73.9148091133,428.027591999,30.2615038415,-87.1727796909,-59.4179204769,-205.021704321
540.38,4.29244561555,610.258819041,742.746428203,554.027500292,-258.349835165,-85.532759282,72.3536346706,428.027591999,30.080588151,-89.3585148073,-59.4179204769,-205.021704321
541.4,37.3522093348,650.96959428,752.630694823,567.444628011,-244.090503741,-77.0895032736,82.3421472447,428.027591999,33.5719806939,-79.3539497287,-59.4179204769,-205.021704321
542.42,103.764505464,726.39497198,777.085736417,598.098876854,-205.443629554,-57.6502046573,101.640457227,428.027591999,33.73222527,-75.8974255426,-59.4179204769,-205.021704321
543.44,180.341129864,811.823562488,795.468708475,625.381412373,-145.879173604,-33.2154660978,116.58629326,428.027591999,33.880752772,-56.2805116554,-59.4179204769,-205.021704321
544.46,238.874602028,874.577908599,815.22956291,645.218279819,-125.631056416,-15.4013367756,136.926467303,428.027591999,34.0384121368,-43.8765205162,-59.3003811479,-205.021704321
545.48,277.608479593,911.105519066,821.396472611,653.852486266,-103.427150427,1.23168422495,145.999506496,428.027591999,34.0384388572,-37.5192043686,-57.5939311976,-205.021704321
546.5,298.025297038,930.091398916,827.62115226,658.38839597,-95.6312100369,6.85900121005,148.232877624,428.027591999,34.0384388578,-31.5068295181,-56.9157389057,-205.021704321
547.52,283.487087243,917.181199489,825.598410608,655.888864335,-101.709143745,1.42386922753,143.774099249,428.027591999,34.0160159783,-36.8079308864,-57.4575425183,-205.021704321
548.54,221.352253187,859.075851901,803.941265216,638.002770398,-129.808339692,-21.2082878126,124.21862781,428.027591999,34.0158965247,-43.1765531996,-57.4830384524,-205.021704321
549.56,139.044224208,781.564169549,792.517833741,617.383087382,-182.346431574,-59.947771425,104.593635131,428.027591999,34.0158965178,-58.0811765318,-58.3081441169,-205.021704321
550.58,78.8642148266,727.071715349,775.720853327,600.628708564,-207.255843389,-78.9117210244,85.3891288098,428.027591999,30.9923716994,-74.7151523124,-58.4454963962,-205.021704321
551.6,32.8916150796,675.8128353,764.410090186,583.668581532,-235.133779712,-92.3477419492,78.0511784675,428.027591999,28.9077703939,-86.9375555841,-58.4455008144,-205.021704321
552.62,8.0073651081,647.966642296,763.17156245,576.789013682,-248.282251412,-100.657058317,67.5197636799,428.027591999,28.1054302885,-94.8280941891,-58.4455008145,-205.021704321
553.64,6.50155207604,646.002225596,763.376561547,576.802739725,-248.680197192,-101.167201236,66.5181547354,428.027591999,27.4824296829,-94.9977959378,-58.4455008145,-205.021704321
554.66,42.118025912,683.724933633,769.911338456,587.794406789,-224.479726623,-88.3152727222,79.8734405621,428.027591999,27.6711245379,-91.5579853593,-58.4455008145,-205.021704321
555.68,112.29303289,770.82251793,794.650038513,629.173826868,-165.181458634,-70.496131687,85.6559948709,428.027591999,28.5273763103,-78.0578419423,-58.4455008145,-205.021704321
556.7,164.784805327,829.275341843,811.933124947,648.228772792,-146.254031311,-53.941618999,106.273395486,428.027591999,28.5345096043,-65.2850851925,-58.1856208487,-205.021704321
557.72,206.82606336,872.810056978,817.31858013,660.093232921,-120.678902952,-35.0898791231,116.772163716,428.027591999,28.5345097967,-57.5899299487,-55.6501413564,-205.021704321
558.74,237.026022609,900.924667906,826.526598927,667.266083149,-109.150602274,-26.0768504142,120.256773899,428.027591999,28.5345097967,-50.8208375825,-54.4567638391,-205.021704321
559.76,247.952391564,911.107321982,829.843631908,669.454688517,-104.965214814,-23.498835531,122.468168509,428.027591999,28.7698419123,-47.5169821521,-53.5657050939,-205.021704321
560.78,213.257805037,877.224976175,814.525689996,657.482544747,-120.553804367,-34.5153003097,113.453184928,428.027591999,28.7668646372,-51.212145123,-53.5956567366,-205.021704321
561.8,151.742545942,823.634800083,811.400340115,647.257125123,-161.020671588,-69.5800506203,88.4843983275,428.027591999,28.7668638335,-57.9001707389,-53.5956648971,-205.021704321
562.82,93.5749538631,770.238355101,788.797926137,629.500070258,-184.788773268,-86.3315223493,70.5905247247,428.027591999,28.1129139434,-74.800651157,-53.9193099308,-205.021704321
563.84,56.9526454884,730.339241497,780.575341605,617.306760692,-209.676034836,-96.0817709529,66.0119176931,428.027591999,25.8305541409,-84.4672169475,-53.9195355804,-205.021704321
564.86,37.3280285124,708.525440327,779.01264143,611.993261741,-220.256201808,-102.162716056,58.059783694,428.027591999,25.3365184218,-89.4886276469,-53.9195355869,-205.021704321
565.88,35.6463666964,707.325759866,779.661527259,612.303864029,-220.952924228,-102.980435941,56.8317770576,428.027591999,25.329651622,-89.8965289371,-53.9195355869,-205.021704321
566.9,69.1300443946,743.051107578,785.86536459,623.310139006,-199.668605826,-90.019314468,70.4067170415,428.027591999,26.0536463739,-84.9584228044,-53.9195355869,-205.021704321
567.92,133.516957643,822.333023712,813.464160123,662.213793928,-141.292791433,-75.3591502061,75.3722521746,428.027591999,26.0553477322,-77.5672063029,-53.9195355869,-205.021704321
568.94,175.229146863,862.784840435,825.868114445,673.002777637,-123.031561295,-60.6881625447,91.5395058104,428.027591999,26.1604572118,-65.3578818091,-53.9195355869,-205.021704321
569.96,200.790674916,891.418766124,830.795846351,681.85819414,-109.193948525,-51.261635699,99.3682333262,428.027591999,26.16047577,-60.6214131443,-53.6481937606,-205.021704321
